3380 100
the 0.00549009 0.13581999 -0.05848235 -0.019394627 0.09902758 -0.20753327 0.027662069 0.45497036 -0.080189824 -0.010351266 0.10762423 -0.21412554 -0.18115215 0.32040995 -0.18027577 -0.09234322 0.22459891 0.046264708 -0.48124105 -0.06569331 -0.26168755 -0.20794638 0.06986506 0.13874649 0.044093568 -0.4326226 -0.33589473 -0.41572168 -0.03112945 0.30779198 -0.17515561 0.14203772 0.3480143 0.044103693 -0.022463972 -0.03062826 -0.20716597 -0.16512167 0.107378505 -0.22989419 0.45560607 -0.17567992 0.17290854 -0.056522835 0.06500115 -0.0940183 -0.1743705 -0.13279356 0.2353632 -0.0021356258 -0.039159615 -0.06614341 0.21020533 -0.28890556 -0.11898048 -0.11576867 -0.047352236 -0.03137032 0.014181648 -0.0035808939 -0.0828057 -0.28656074 0.116074875 -0.11174399 -0.3733979 0.3045149 0.045238137 0.09060333 -0.29342896 0.095276035 0.029393157 0.30235222 -0.017215269 -0.0029432985 -0.055660672 -0.36300036 0.4019943 0.28663403 -0.08034752 0.042382836 0.010800247 -0.32923266 -0.18159017 0.088773295 0.122264996 -0.49734932 0.46991017 -0.2088639 -0.1360339 -0.10183879 -0.017621087 -0.17407347 -0.013874808 -0.11269765 -0.45669296 -0.2522575 0.22706737 -0.2118157 0.015462859 0.29442382
and -0.03838998 0.18842421 -0.06700112 0.12873428 0.11759235 -0.022011278 -0.020890621 0.20369495 -0.1605134 0.20385757 -0.00080962904 -0.15435891 -0.111838564 0.35717788 -0.30044222 -0.22320898 0.23261058 -0.21738262 -0.19929215 -0.40008825 -0.14945316 -0.12392031 -0.076705046 -0.10781337 -0.03762099 -0.27302614 -0.375788 -0.05781126 0.025127223 0.23746109 -0.091823034 0.24213089 0.29725772 0.21587487 0.08531146 0.07948985 -0.03276156 -0.10786747 -0.0037323746 -0.13978575 0.40812036 -0.045203347 0.26764256 -0.066631965 -0.08863318 -0.06238922 -0.10037673 -0.4405364 0.015668197 0.087724395 0.12044478 0.04375669 -0.08538629 -0.06815217 -0.13622837 0.02031969 0.024297042 -0.15222801 -0.019900832 0.084601484 0.09673432 -0.23962942 0.11539034 0.0513336 -0.26431277 0.3954515 0.01631243 0.01837829 -0.09271807 0.08623265 -0.028963072 0.29850814 0.25573748 -0.059188664 -0.01450687 -0.29235753 0.38573626 0.13469437 -0.20032494 0.16601141 3.704003e-06 -0.3139964 -0.0465543 0.047871947 -0.017791433 -0.36392325 0.26026314 -0.09418882 0.00033489507 -0.0014250037 -0.037431877 0.011350562 0.17012365 0.1151105 -0.3679832 0.015298815 -0.06598212 -0.09051857 -0.011790631 0.13330004
to 0.018644568 0.112681784 -0.14339384 0.056897543 0.1468251 0.0065585915 -0.15029943 0.13522778 -0.25363585 0.2952481 -0.10435955 -0.19274895 0.16739365 0.16987813 -0.262356 -0.43244514 -0.1560766 -0.38435382 -0.08307153 -0.36944437 -0.1887995 -0.048492167 -0.25767532 -0.21974657 0.0047535375 -0.27636254 -0.16983299 -0.17411071 0.30552703 0.24866854 0.098712154 0.028019717 0.09478574 0.14947112 -0.022822918 0.16656117 -0.12640701 0.041856043 -0.16003431 -0.060146287 0.41244486 0.020041019 0.14944671 -0.16016257 -0.18534578 0.05556686 0.12495081 0.0335354 -0.04479312 0.104506634 -0.1863067 0.20491523 -0.44803917 -0.11811648 -0.21619755 0.0032004416 0.061497867 -0.32579884 -0.027471315 0.06688271 0.07147578 -0.47429663 0.42294994 -0.06024844 -0.05022948 0.33690706 0.17481178 0.023736635 -0.22822529 0.09398704 0.010700499 0.49099797 0.088345 -0.3415732 -0.3341544 -0.39110518 0.35267207 0.09080138 -0.36453813 0.27335978 -0.021837927 -0.16220154 0.17211646 0.1535803 -0.017236479 -0.48683435 0.092952 -0.15130365 0.0874158 -0.025503986 -0.21759842 0.1943456 0.07456519 0.045189723 -0.29142725 0.05410323 -0.034238685 -0.053183783 0.17251575 -0.051116075
of -0.059686095 0.17323576 -0.10797199 -0.1030697 0.050288178 0.0652441 -0.3059443 0.44704777 0.20087121 -0.16153203 0.09089844 -0.026834521 0.07685181 0.21139237 0.16067532 -0.26354295 0.227018 0.04102069 -0.08551348 -0.104381666 -0.004375754 -0.5299579 -0.05733547 0.34550446 0.05644679 -0.4003051 -0.41108435 0.11898373 -0.04242933 0.17982371 -0.08749308 0.23739608 -0.13524494 0.18463059 0.23123203 0.022325426 -0.061892457 -0.2802376 -0.15206864 -0.14911903 0.28224266 0.006634377 0.3466086 0.014290967 -0.23504347 0.036325477 0.056591533 -0.18921514 -0.08313521 -0.20262662 0.15396665 0.02117321 -0.032060184 -0.19441961 -0.18992978 -0.25705984 -0.14701438 -0.1305084 -0.11816511 -0.08535655 -0.09426606 -0.17578235 0.24655294 0.046343338 -0.2644109 0.46603632 -0.04325465 0.18610997 -0.18224788 0.1375278 0.27460814 0.2127973 0.20416278 -0.12674373 0.18967347 -0.37230223 -0.008738562 0.375067 -0.1958423 -0.099520266 -0.06125293 -0.094179 -0.2618448 0.084958434 0.018028887 -0.26198384 0.34866792 0.1539245 -0.25753978 0.010880556 -0.090293385 0.09397562 0.007753079 0.060180113 -0.34360355 -0.0091453325 -0.018979676 -0.22842047 0.015697908 0.13123494
a -0.07638905 0.07046832 -0.07913688 -0.15456316 -0.0017852981 -0.08248591 -0.03122463 0.124452144 0.07661151 0.12230863 -0.26417345 0.16937214 -0.070462376 0.17340367 -0.14162874 -0.15173864 -0.029879421 0.080857754 0.044614702 -0.12751478 -0.002675325 -0.16433534 0.11584902 0.2602669 -0.011514289 -0.13527986 -0.21897472 0.12931094 -0.10932036 0.06706316 0.19069777 0.1874311 0.16031173 0.08602742 0.21196173 -0.052139238 -0.11532659 -0.13010263 0.05888229 -0.103872545 0.20948882 -0.16647634 -0.07510388 0.020472782 -0.2055456 0.039410483 -0.019257292 -0.12500273 0.04640112 0.16376092 0.033319708 0.29735684 -0.0026265453 -0.010749532 -0.09714926 -0.060309574 -0.046135165 -0.12534358 -0.15006517 -0.12441902 -0.08692204 -0.31222853 0.09912416 0.12711307 -0.13937978 0.09000734 0.109595805 0.054125633 -0.1267147 0.13857165 -0.12998673 0.074125685 0.0468569 -0.081731915 -0.04017726 -0.14693446 0.102625266 0.19554827 -0.08687039 0.12572016 -0.10771938 -0.2880093 -0.101825126 0.18674906 -0.12833029 -0.44101077 0.35958907 -0.0414403 -0.28339425 0.012247334 -0.0944208 0.025616748 0.11462392 -0.08329734 -0.016898155 -0.115944184 0.028924938 0.092928916 0.012427187 0.10874996
that 0.034759615 -0.07692545 -0.13828826 0.063974984 0.062337175 -0.028566973 0.10486568 0.24637055 -0.2560261 0.15083031 0.053383518 -0.15917292 -0.100818604 0.33690223 -0.23479436 -0.24290681 0.28092524 -0.12741439 -0.23839422 -0.29862854 -0.2029522 -0.30690682 -0.10556828 0.05995551 -0.13841908 -0.23903571 -0.43129465 -0.06267173 0.06493351 0.4582387 -0.06886749 0.3167277 0.28732553 0.18731798 0.081655644 0.11274473 -0.15649365 -0.22529206 -0.24317835 -0.20598325 0.42976427 -0.17375842 0.22469904 0.05384692 -0.15167068 -0.08228904 -0.029964685 -0.115646 0.10249061 -0.13255955 0.13501917 -0.11443789 -0.095344946 -0.14555746 -0.22187585 0.14752914 0.07203007 -0.25484428 -0.066115834 0.016705168 -0.0798545 -0.25889155 0.21527721 0.12084845 -0.20669709 0.415481 -0.020972101 -0.044626325 -0.34441018 -0.044299975 -0.09130886 0.3294821 0.20237112 -0.11153438 -0.02105958 -0.33736396 0.30590838 0.30706975 -0.08300852 0.27489388 -0.06287733 -0.23146857 -0.23526365 0.1728907 0.032408107 -0.48141506 0.2758906 -0.10913594 0.08086986 0.12814473 0.14402631 0.1270075 0.29470292 -0.022997813 -0.43268654 -0.1379672 0.023514302 -0.09714351 -0.026618958 0.20592876
i 0.09029963 -0.1038655 -0.27794728 -0.06855717 0.041275803 0.017546117 0.36544538 -0.036874775 -0.11343912 0.32147405 0.041378677 -0.051215865 -0.22048722 0.06029302 -0.26116112 -0.16776878 0.1677031 0.14651689 -0.076093465 -0.13819301 -0.16225763 -0.3866608 0.15911762 0.049079467 -0.08788702 0.06749943 -0.31923085 -0.017816179 0.12871085 0.2930387 -0.004795918 0.26975065 0.08607108 0.07865532 -0.075110994 0.070998006 -0.28477463 -0.22432333 -0.076546766 0.0669721 0.38361794 -0.14006491 0.13531956 -0.18376823 0.015777048 0.22547165 0.055164643 -0.4738396 -0.17958798 -0.12190232 -0.21150908 0.056977037 -0.34547156 -0.048900623 -0.16063331 -0.15747894 0.2062994 -0.49334785 -0.13692461 -0.028160438 0.12572013 -0.14846036 0.32947835 -0.001920102 -0.31714392 0.39502788 0.07055608 0.021576397 -0.33178914 -0.17357236 0.036222205 0.012515399 -0.16643742 0.036214247 -0.12244063 -0.06729838 0.16121785 0.056614693 -0.080705784 0.3231375 0.08341069 0.019692143 0.04151164 0.23722814 -0.24248093 -0.24958184 0.13180299 -0.13143083 0.010732869 0.098980084 -0.25611624 0.25905886 -0.041529354 -0.15393801 -0.03260594 0.13189644 0.05363128 0.021718036 0.02375042 -0.114370316
in -0.040294945 0.31794733 0.10239267 -0.08438077 0.01462464 0.022435255 0.06747557 0.2790739 -0.03237974 -0.14305398 -0.00048556144 -0.1760149 0.09529522 0.22258002 0.003065139 -0.24888599 0.21140656 -0.16508418 -0.22452779 -0.34141064 -0.24438606 -0.02648823 -0.13611373 -0.10263616 0.12319869 -0.23922013 -0.38924873 0.076673135 0.014517609 0.11481236 -0.18618716 0.3041788 0.05311802 0.07407469 -0.04982544 0.1446128 -0.21778536 -0.10293229 -0.06320863 -0.2033467 0.307213 -0.24829407 0.25934848 -0.23035671 0.0028863698 0.067699015 -0.065857805 -0.25955206 -0.12578216 -0.10479542 0.102222845 0.0021226257 -0.011217385 -0.114543185 -0.19509351 0.07532823 0.0027178302 -0.17081921 -0.1461106 -0.14473598 -0.08198564 -0.33052665 0.055093825 0.010642536 -0.17811836 0.26769212 -0.006502334 0.21184418 -0.16617651 0.22303851 0.063903205 0.21562397 0.092030585 -0.26103556 -0.055455036 -0.17210206 0.24484912 0.17271473 -0.21095446 0.014050804 -0.009598918 -0.15054604 -0.21021765 0.24628428 0.13157055 -0.38414806 0.27587473 -0.013797104 -0.20011343 -0.13372788 -0.03145585 0.005117394 -0.031180393 0.113578066 -0.2685471 -0.108654246 0.065706134 -0.26495647 -0.18767044 0.15365453
we -0.25657743 0.2031171 -0.33813548 -0.052029748 0.44935122 0.014907313 0.4083378 0.058307227 -0.38364834 0.22867593 0.018136948 -0.36839682 -0.060053997 -0.07619965 -0.12238403 -0.43734664 0.017153136 -0.034281623 -0.19439408 -0.36935422 0.20180252 -0.10176437 0.18165302 -0.14650515 0.0137821995 0.15276909 -0.13601714 -0.14605121 0.17578529 0.2333854 0.057598718 0.37872443 0.34769267 0.17919815 -0.1593309 -0.027448645 -0.22565876 -0.22966155 -0.36331952 -0.31601018 0.660285 -0.24550837 0.26657888 -0.21716514 -0.36086076 -0.034869194 0.043374494 -0.19993816 -0.24807155 -0.18609655 -0.07361502 0.18416421 -0.09935328 -0.03954402 -0.058891352 0.022097878 -0.14907895 -0.1915228 -0.1808696 0.0068088556 0.11769421 -0.37996235 0.2797194 0.1515672 -0.21527244 0.34205386 -0.017842337 0.16365361 -0.3814905 -0.297266 0.01367649 0.26185712 0.21580234 0.05215829 -0.13569215 -0.3637023 0.24711697 0.15840179 0.08027613 0.3442092 -0.02080883 0.14800715 -0.024546593 0.36372355 0.05383842 -0.45272645 0.15778013 -0.15579201 0.14279076 -0.13405864 -0.07323773 0.24518846 0.17580086 -0.15751088 -0.28539145 -0.035248168 0.06374268 -0.17271926 0.29635423 -0.08679859
it -0.10543935 -0.09819621 -0.33574826 0.058813438 0.06452589 -0.09155387 0.2035558 0.23024476 -0.29597887 0.1913886 -0.1498228 -0.057587538 -0.09402852 0.21055077 -0.2722368 -0.11940132 0.18720874 -0.111220054 -0.025342662 -0.3115567 -0.1540505 -0.4151748 0.15335444 0.26406318 -0.22707123 -0.3226987 -0.42714235 -0.093865246 -0.0017494373 0.4420639 -0.09992828 0.16220757 0.2575943 0.16561021 0.06108863 -0.16959825 -0.17005497 -0.12642218 -0.22562058 0.07576743 0.38842046 -0.079591826 0.20486197 0.04596038 -0.02409111 -0.26038972 -0.04911243 -0.05361125 -0.0149094835 0.0012547448 0.0123199 0.15263355 0.02794041 -0.15086597 0.11253767 -0.06098313 0.10896018 -0.100077346 -0.09564754 0.005401291 -0.14228962 -0.22288385 0.3986956 -0.03532778 -0.15264408 0.32663864 0.14868325 -0.04621341 -0.41326424 -0.19464919 -0.20469135 0.16232431 0.13876462 -0.10744136 -0.017789464 -0.29364026 0.10736057 0.20669666 -0.056516983 0.25279218 -0.2940622 -0.20239288 -0.06415223 0.26918492 0.029237404 -0.60249436 0.2565918 -0.2926878 0.09796722 -0.011780148 0.021080429 0.02310653 0.2019415 -0.07226302 -0.20149104 -0.064925425 0.0067530833 0.119729355 -0.045118995 0.19560412
you 0.36722532 0.067341544 -0.10819423 -0.0072707073 0.3803298 0.06568889 -0.073043294 -0.3010532 -0.3819565 0.64071286 0.07923399 -0.061568465 -0.23160051 -0.14218362 0.00884766 -0.382081 0.28238267 0.22025533 -0.25749165 -0.5981967 0.18773971 -0.14739648 0.245888 0.18632789 -0.0017019202 0.10989336 -0.46413425 -0.05470779 0.025313033 0.50949997 -0.14121547 0.60771286 0.325809 0.1673506 0.19428363 0.181066 -0.35377422 -0.22913456 -0.24965152 -0.04348775 0.5331229 -0.38352242 0.15125056 -0.4913334 -0.28697777 -0.25573716 0.2681965 -0.47558618 -0.051702317 -0.10722637 -0.043045253 0.5353847 -0.42752126 -0.0042555844 0.05095889 -0.08786456 -0.014684702 -0.53745884 -0.24140663 0.22534426 -0.03743329 -0.67747754 0.14933427 0.2922855 -0.25927585 0.69907415 0.11778233 -0.18053181 -0.17956102 -0.3417323 0.014954435 0.22967766 -0.1736947 -0.30253246 -0.25470203 -0.26059473 0.453575 0.08240296 0.31202823 0.7804249 -0.04658318 0.015041083 -0.28063986 0.08716945 -0.19424543 -0.3978667 0.25510138 0.13875838 0.12009031 -0.019706098 0.024711665 0.006120839 -0.06215018 -0.1092592 -0.21189453 -0.17676257 0.16988425 -0.14787997 0.4980495 -0.1531591
is -0.032331046 0.224311 0.19998886 0.14400344 0.17436959 -0.055718563 0.012620445 0.3955774 0.13744909 -0.21457528 -0.30548063 -0.21826369 -0.22981645 -0.07106805 -0.022955991 -0.2371735 0.20161292 0.2553339 -0.11536281 -0.2925529 -0.39670348 -0.22406149 0.2955064 0.23154372 0.16050942 -0.10277096 -0.67157996 0.020238977 0.03200219 0.21646166 0.08211209 0.27106962 -0.0683143 0.34858793 0.1290051 -0.07225342 -0.49385068 -0.32587767 -0.08114087 -0.22636735 0.29115385 0.023501068 0.32700828 -0.11919205 0.0034727687 -0.15021396 -0.11038067 -0.26896033 -0.267366 0.061030492 0.11638494 0.015557304 -0.0064289384 0.18279344 -0.08412674 0.1360983 -0.08395318 -0.28511244 0.076749645 0.05509027 -0.24136302 -0.26334625 0.38990253 -0.087558396 -0.46190843 0.3823888 0.18523075 -0.040822558 -0.2372023 -0.07601506 0.1762795 0.3368137 0.09925636 0.015425965 -0.24195197 -0.22488624 0.12116822 0.2037352 -0.3079634 0.1201701 -0.1877231 -0.16805999 -0.034435946 0.1786255 0.1797239 -0.38894522 0.1299968 -0.038047794 -0.24814048 -0.21832739 0.12871899 -0.13998052 0.20446865 -0.087115265 -0.19009936 -0.013381356 0.18588743 0.12543401 -0.073201954 0.22755799
s -0.14860803 -0.0028258238 0.10189015 -0.005639808 0.08813056 -0.029555224 -0.0033001273 0.116057575 0.07102404 0.06424393 -0.1712459 -0.21955198 -0.25018266 0.018030759 -0.09374732 -0.09712957 0.19093335 -0.0405575 0.028967422 -0.20560333 -0.03902829 -0.022127472 0.078482814 0.2619837 0.06182004 -0.013572443 -0.3983063 0.10251804 -0.06981907 0.27188927 -0.12740368 0.094838835 0.05521076 0.2071733 0.09358654 -0.15650804 -0.309788 -0.0148585895 -0.05364671 -0.004684254 0.18047175 0.05439017 0.1524099 -0.010063305 -0.052136835 -0.14195044 -0.0107435025 -0.2280075 -0.1387037 0.031128503 0.00292311 0.0162936 0.040237416 -0.017324135 0.07334112 -0.06445978 -0.076158464 -0.1830783 -0.038363922 0.12859558 -0.18024752 -0.15643527 0.08622999 -0.08672599 -0.29284626 0.07878782 0.29535836 -0.17264965 -0.27311945 -0.035284117 0.034467913 0.09959671 0.11042841 -0.14074612 -0.068901956 -0.4219877 0.18820733 0.08788167 -0.21278666 0.13852924 -0.22842619 -0.04627107 -0.06794462 0.18760824 0.024740988 -0.29372042 0.060033917 -0.114444874 -0.14237426 -0.13319683 0.22545005 -0.07082547 0.3135376 0.020497277 -0.0015430909 0.007582459 0.24995181 0.07562287 -0.009774456 0.22531657
this 0.039916765 0.2306662 -0.14380209 -0.061206315 0.18550037 -0.090384215 0.07014727 0.4077771 -0.0071657915 0.2575192 0.022125952 -0.10282174 -0.2971051 0.31105337 -0.332643 -0.16402003 0.27017006 0.24896713 -0.20928149 -0.32915407 -0.24944243 -0.42769006 0.10697625 0.344218 -0.15205108 -0.2705834 -0.52172893 -0.21564507 -0.11718674 0.4927867 0.12584329 0.49330473 0.20609413 0.19320177 0.17889018 -0.07576885 -0.304271 -0.21378817 -0.06392276 -0.1824976 0.51964974 -0.20435587 0.08469563 0.03397199 -0.061161734 -0.01667531 -0.102758095 -0.29928234 0.16148764 0.08849624 -0.07661437 0.03432105 -0.0619642 0.0039537996 -0.08220485 0.001323681 -0.02712307 -0.23568153 0.0782166 -0.07806783 -0.19113253 -0.2567801 0.15050115 0.11316571 -0.4413148 0.3859588 0.114865854 -0.07026423 -0.38606298 -0.039584067 -0.039853033 0.24831265 -0.051687654 -0.04762812 -0.23654346 -0.277693 0.25621188 0.21842764 0.021166246 0.279169 -0.10370664 -0.17016746 0.023308368 0.17757474 -0.1065332 -0.49543294 0.44812506 -0.26820004 -0.0023318366 0.06813624 0.037851516 -0.050568543 0.1141928 -0.32308805 -0.3896391 -0.12668954 0.24778773 0.03114172 0.040818743 0.08247611
so 0.04013833 -0.036126986 -0.10355717 -0.03678272 0.2118252 -0.07461685 0.060988322 0.03716167 -0.03898009 0.2847269 -0.05971751 -0.2912671 -0.2591872 0.23535351 -0.2693068 -0.28136054 0.1340121 -0.031583525 0.013550155 -0.35804906 -0.06217668 -0.22322664 -0.025000002 0.110693514 -0.17098302 -0.037587017 -0.30252767 -0.014324202 -0.016150493 0.32361266 0.094353124 0.201658 0.16765322 0.19792084 0.19772981 -0.050471555 -0.22305137 -0.14655812 -0.20243806 -0.12252322 0.37967145 -0.079998225 0.029408466 -0.049538337 -0.29316866 -0.043308824 0.077299684 -0.40539098 -0.07422063 -0.05051611 -0.041260924 0.08100952 -0.13209692 0.012651679 -0.053833418 0.12502313 -0.036897376 -0.31883425 -0.14502068 0.13484181 -0.18655708 -0.28229547 0.21928212 0.14601143 -0.23056367 0.43579027 0.1636599 -0.14581624 -0.18114549 -0.10355912 -0.039678186 0.26006946 0.14326186 -0.08963552 -0.11548165 -0.39308423 0.28901085 0.16041175 0.082088836 0.39211684 -0.121469885 -0.17872968 -0.09165272 0.07375698 -0.101547204 -0.36717564 0.21356362 -0.2127805 0.033326924 0.13322455 0.17231627 0.13255638 0.23333146 0.010070553 -0.31008902 0.08254035 -0.02982228 0.04240086 0.0748354 -0.07446028
for -0.024030488 0.08909977 -0.027014902 0.0010171235 0.113476165 0.21225621 -0.30438057 0.20282568 -0.030505883 0.039799232 -0.07665725 -0.10685002 0.056802742 0.19088638 -0.04272105 -0.33124828 0.18942681 -0.061899506 -0.023710517 -0.44706377 -0.35460535 -0.25488982 -0.1876298 0.06402512 -0.10908431 -0.2373177 -0.349785 -0.036768682 0.13860008 0.27675393 -0.16084173 0.14109884 0.032063186 0.44877166 0.044552773 -0.083169386 -0.26285246 -0.20314403 -0.1573111 0.084017456 0.22244085 -0.11365674 0.14744803 -0.075445645 -0.12311084 0.0779922 0.1419938 -0.16592002 -0.17374445 -0.05797514 0.1323894 0.18611148 -0.34548345 0.08515949 -0.08802246 0.1262761 -0.04514714 -0.24286366 -0.08109154 -0.029701794 -0.21289949 -0.2559986 0.11153435 0.08960175 -0.2718697 0.39212254 -0.08895067 0.11047157 -0.18478453 0.099195115 0.1275923 0.34388375 0.1558747 -0.40287754 0.0893215 -0.4651336 0.10667186 0.27485391 -0.09819339 0.25214416 -0.06285621 -0.47119448 -0.2361316 0.08475467 -0.03465567 -0.22832778 0.31170636 -0.112716354 -0.065467045 0.13109934 -0.09275719 0.18313769 0.15438989 0.029017651 -0.26754877 -0.02832282 0.23019712 -0.0075001675 0.17392385 0.23457359
they -0.25335613 -0.14830528 -0.49719203 0.103681974 0.49609926 0.14010383 0.3071782 0.010979343 -0.4726303 0.39995518 0.15580162 -0.32510567 -0.21397328 0.020250045 0.00779732 -0.4321679 0.08061835 -0.36863235 -0.26526302 -0.3459472 0.15861592 -0.13247214 0.16460823 -0.22982854 0.093184 -0.048216317 -0.2388147 -0.4314722 0.15681669 0.3613241 -0.34295914 0.26109937 0.57324815 0.072068304 -0.21175836 0.19245563 -0.13311768 -0.041634046 -0.2728424 -0.23568092 0.61171883 -0.27877793 0.24988656 -0.2510889 -0.20067309 -0.18376411 0.106775954 -0.1839871 0.1132503 -0.2742191 -0.08510519 0.34575692 -0.10357826 -0.44014254 -0.09751914 -0.18522833 -0.12871964 -0.28000233 -0.31463617 0.17016055 0.18242632 -0.44036415 0.19422089 0.017951638 -0.29896048 0.4168416 -0.08205235 -0.07297038 -0.39730817 -0.101063535 -0.03324283 0.28305534 0.04914637 -0.15654948 0.0036219356 -0.60289216 0.33363926 0.39405736 0.11534858 0.28287098 0.09898507 -0.045127418 -0.3452992 0.2017141 0.1447771 -0.5247495 0.013069174 0.0665893 0.06134387 -0.13967551 -0.012155447 0.12481232 0.15254194 0.106906295 -0.36622503 -0.04398172 0.07998378 -0.37757435 0.26978847 0.112618566
was 0.01782812 0.08911149 0.18518312 0.03146919 0.23681758 -0.027629962 0.18907043 0.35387966 0.23918442 0.18759784 0.0036852998 -0.031090286 -0.56283903 0.20133425 -0.20713578 -0.16272484 0.33930227 -0.010487406 -0.11672864 -0.34177595 -0.2378078 -0.21166268 0.2548655 0.28754142 -0.009773789 -0.1082515 -0.7026073 -0.0036473423 -0.15315858 0.31465107 -0.14192277 0.33536354 0.22632167 0.35278487 0.07647952 0.06948954 -0.41661257 -0.12019641 0.042490143 0.12750067 0.08911852 -0.11202403 0.26604554 -0.01166144 0.083512925 -0.15872206 -0.2596347 -0.6013914 -0.22417715 0.1357179 0.048120175 0.06487441 -0.061953124 -0.08198102 -0.11249905 -0.31571373 0.14954965 -0.4844064 0.011305456 -0.041990466 -0.09011859 -0.19493352 0.047438182 -0.00014954593 -0.58669406 0.26745957 0.41166776 -0.13540627 -0.3135004 0.10849518 0.10051944 0.0847084 -0.015946934 -0.21501353 -0.19291139 -0.53914446 0.38397214 0.07117522 -0.45537838 0.32587576 -0.19701795 -0.34447035 0.12054683 0.19007778 0.021891564 -0.42169365 0.10312034 -0.09169117 -0.3316566 -0.056278903 0.07791824 0.06200265 0.19184439 0.18825789 0.11648558 0.001431959 0.24989793 0.058905404 -0.073151655 0.16032358
are -0.15470406 -0.16533165 0.096970245 0.104889706 -0.009741871 -0.11668807 0.2159851 0.36609173 0.2481262 -0.30723318 -0.29845133 -0.5565213 -0.4887423 0.13017832 0.14529549 -0.4345212 -0.26231575 -0.097389005 -0.037952602 -0.019752877 0.023281822 -0.36014166 0.22667646 0.24853897 0.39172122 0.048369825 -0.6293766 0.13535428 0.14601733 0.017075002 -0.19054998 0.103200234 0.101056 0.13404009 -0.14668594 -0.017112924 -0.080987334 -0.18141565 -0.11373816 -0.33804306 0.6156041 0.13083959 0.3572683 -0.092197046 -0.26774195 -0.13281263 0.027831929 -0.3681131 0.002264635 -0.14341196 -0.12770982 -0.07148569 0.06296428 0.06430784 -0.19386828 -0.0437272 -0.2998944 -0.30354652 -0.19554612 0.38163415 0.034139566 -0.19091369 0.2632577 -0.40955952 -0.32153067 0.508819 0.3679731 -0.17447162 0.029986415 -0.13261917 0.43385777 0.5626921 0.1875441 -0.19432834 0.03913059 -0.40829474 0.16787829 0.37364712 -0.35594898 -0.17746799 -0.09215878 0.120472535 -0.46465698 0.10136656 0.23446615 -0.5682439 0.21286008 -0.01892622 -0.34037942 -0.47752476 0.21007214 0.03636813 -0.014755534 0.27468857 -0.58626616 0.28157923 0.18158177 -0.4168068 -0.1738411 0.33398628
but -0.09331097 -0.13849065 -0.16800115 0.054414134 0.08398255 0.056018017 0.16341226 0.12922314 -0.11236522 0.2961398 -0.10827989 -0.16664441 -0.29151174 0.32863727 -0.27908412 -0.20816112 0.2318903 -0.13351397 -0.13116764 -0.28214929 -0.10638593 -0.26027596 0.13598746 0.10736825 -0.1141265 -0.044217855 -0.38372877 0.019309862 -0.04017687 0.3087659 -0.1958754 0.2684645 0.2577153 0.24703448 0.04965834 0.06531526 -0.27651003 -0.175017 -0.29184696 -0.22855291 0.39608902 -0.071453795 0.2110953 0.01694752 -0.046584826 -0.12317122 -0.17827034 -0.38840213 -0.10241981 -0.19625458 0.1111308 -0.020114793 -0.08094002 -0.010078807 -0.040069457 0.11086394 0.054587673 -0.28511086 -0.21161373 0.023725497 -0.04155155 -0.24073502 0.19527213 0.029046835 -0.26428074 0.47707745 0.18324499 -0.18115617 -0.33094817 -0.23373993 0.047383685 0.27325922 0.20991397 -0.1116773 -0.11825756 -0.34711573 0.27242455 0.34042478 -0.09196849 0.2349191 0.028707964 -0.26641086 -0.19061497 0.14550336 0.07000546 -0.4936131 0.18590328 -0.14505361 -0.08095748 -0.09326609 0.23966166 0.121906266 0.35635707 0.09224764 -0.3125588 0.025698941 0.0046537616 -0.1167898 -0.10639556 0.011039463
have -0.2890841 0.014044588 -0.10762778 0.11569717 -0.023216425 0.06259345 0.27293107 0.2118019 -0.30719602 -0.06957809 -0.16855897 -0.20783776 0.124420814 0.034297317 -0.06770543 -0.2664038 0.15892325 -0.18584782 -0.29557765 -0.23365726 -0.15343569 -0.3416139 0.07073366 0.0017005774 -0.1410492 -0.034916244 -0.34942892 0.1352196 0.029560225 0.32833818 -0.18242936 0.11063357 0.43033335 0.36641815 -0.21677184 -0.14563179 0.03668503 0.16689825 -0.48471633 0.045408968 0.62130076 -0.11143327 0.40443465 0.06785656 -0.16198559 -0.06572317 0.30115 -0.4487933 0.13906497 -0.17902851 0.02047606 0.117763944 -0.21963948 0.09929772 -0.29740354 0.2810405 0.061398502 -0.4797034 -0.21501249 0.11000948 0.21764682 -0.09031474 0.107353814 -0.14229079 -0.47708347 0.6004884 0.13014536 0.028589187 -0.19590545 -0.119080186 -0.02767707 0.39834335 0.38328516 -0.16566354 0.26178578 -0.2273698 0.086439006 0.32713923 0.012781972 -0.006538719 -0.20598875 -0.43784153 -0.72413266 0.16503464 -0.23342437 -0.46210212 0.119793266 0.18172078 -0.07975953 0.06576045 0.0666691 0.19786549 0.43401328 0.18872339 -0.27090377 -0.11206455 0.16457023 -0.101895764 0.027058579 0.32189178
with -0.0046913233 0.29903188 0.0069942717 -0.064082295 0.112587936 0.10939483 -0.120662734 0.21416144 -0.061417267 0.05594059 -0.17120698 -0.17979035 0.006533097 0.23897752 -0.02988753 -0.42482254 0.030734902 -0.29400674 -0.008151862 -0.4429303 -0.40104154 -0.10129011 -0.29943916 -0.18920079 0.10287549 -0.21924306 -0.43906423 0.022016788 0.18659958 0.22266339 -0.03841397 0.14276244 0.012826459 0.124754354 0.14237206 0.087562904 -0.14091164 -0.013739135 -0.047478415 -0.082976274 0.33567733 -0.13088673 0.31838524 -0.33651268 -0.18429536 0.10979986 0.069141775 -0.47260085 -0.1692966 0.050178517 0.081841856 0.21313767 -0.29354033 -0.015980523 -0.14363466 0.1277687 0.06623552 -0.28226092 -0.120324545 0.15992524 -0.06433073 -0.3691489 0.22439264 -0.064145796 -0.26266474 0.41424885 0.04304185 0.0834455 -0.17925893 0.17998554 0.07803095 0.3277753 0.20786528 -0.25851667 0.10529158 -0.4554428 0.2429308 0.09977488 -0.24842893 0.15800934 -0.09555283 -0.24822873 -0.12566784 0.059442792 -0.16925879 -0.25736636 0.21947895 0.032557163 -0.13292727 0.013793379 -0.06069778 0.094161466 0.13398413 0.066777594 -0.30636528 0.013733596 0.053692427 -0.115941614 -0.0138985 0.16133687
on 0.30287385 0.24431142 0.12342708 -0.061369315 0.14156339 0.20286961 -0.09801959 0.2917164 0.07504689 -0.09148134 -0.10426759 -0.10722798 -0.09394023 0.2982704 0.056632817 -0.31072113 -0.055599716 -0.15613735 -0.024196997 -0.33743966 -0.32156172 -0.22480732 -0.06528431 -0.031487733 0.0670563 -0.14822347 -0.3495869 -0.1138273 0.11754258 0.10586181 -0.044671353 0.23227805 -0.09368077 0.23236194 0.05269607 0.119852275 -0.1257467 -0.23909824 -0.10561128 -0.13923907 0.27847087 -0.11745797 0.24615718 -0.27970123 -0.12581265 0.09679133 -0.051504064 -0.18312344 -0.088383734 0.040225424 0.22314477 -0.076034665 -0.21390338 0.10831652 -0.10349801 0.046564817 0.00070643984 -0.2658251 0.07638971 -0.05218155 -0.1158794 -0.29019046 0.13047215 -0.11258202 -0.08971313 0.41444123 0.05898151 0.11023949 -0.16885924 0.11615964 0.11550534 0.3158053 0.074753076 -0.37125993 -0.098951206 -0.29382473 0.24355942 0.10963206 -0.34178674 0.03745745 0.009234071 -0.2181665 -0.0817357 0.01531738 0.020267168 -0.26409057 0.3225689 -0.047474146 -0.10283915 -0.1070169 -0.10419411 0.16805604 0.088384286 0.11432639 -0.3872885 0.019934885 0.0952134 -0.17913081 -0.12986417 -0.013524093
what -0.00282524 -0.14934048 -0.3081312 0.06896455 0.04941174 0.0059529617 0.31553122 0.20708273 -0.2547855 0.42774925 -0.060593728 -0.24136153 -0.22544622 0.5005809 -0.32120487 -0.30025032 0.08090138 -0.078919366 -0.08557635 -0.40711066 -0.18425527 -0.47291785 0.02872854 0.19724983 -0.15409108 -0.2671368 -0.45378006 -0.13022143 -0.0015282537 0.7023884 0.020827783 0.51948935 0.21687213 -0.032372918 0.24869396 0.23234406 -0.22873598 -0.052593414 -0.28018722 -0.2829313 0.6642356 -0.3205969 0.14797874 0.01775565 -0.20372671 -0.14871874 -0.055084668 -0.18733606 0.23760699 -0.17198005 -0.19800125 0.0040806946 -0.13103575 -0.124980874 -0.06485962 0.3386943 0.14847535 -0.24955077 -0.05563282 0.13999385 -0.14751667 -0.40231553 0.25011346 0.09162521 -0.23034163 0.4990177 0.15793763 -0.3121718 -0.44219694 -0.15621509 -0.23212466 0.2893923 0.097916126 -0.07241527 -0.28308547 -0.29044867 0.34768468 0.32345435 0.19710493 0.42690694 -0.0568225 -0.08703822 -0.15986462 0.051565643 -0.05341451 -0.66122836 0.2926456 -0.27302015 0.24514933 0.25326425 0.32933316 0.05381038 0.4012182 -0.25996685 -0.55794865 -0.08463048 0.1515772 -0.03697987 -0.009843917 -0.019538242
our -0.25902602 0.42881402 -0.13450155 0.11719758 0.12595019 -0.026962562 -0.15992609 0.3462908 -0.13039453 0.043311007 -0.16100943 -0.031905513 0.016655507 0.07628759 -0.14105745 -0.21158972 -0.23068383 -0.044717852 -0.032633793 -0.31458643 -0.08450098 -0.19269262 -0.03419062 0.08608363 0.10191226 -0.22539367 -0.45221117 -0.24616794 0.21532725 0.19495882 0.21053274 0.3849342 0.25900966 0.3214365 -0.06740957 -0.050336618 0.035153855 -0.24541463 -0.099987306 -0.28107092 0.6616602 -0.15314308 0.22186872 -0.039998733 -0.18089624 -0.1748171 -0.027686656 -0.0069038025 0.11175208 0.067527436 0.0024012923 0.3228831 -0.016355436 0.009715308 0.14846088 0.06910284 -0.28517744 0.091637775 0.076558545 0.041885726 0.09313123 -0.35908175 0.12940149 0.03563642 -0.11862037 0.3540109 -0.2052443 0.041805584 -0.1272692 0.07260436 0.062577836 0.4650657 0.09280852 -0.060395513 0.12987383 -0.3171769 0.1369014 0.28564766 -0.122918375 0.09112566 -0.019579897 -0.13587092 -0.0728159 0.2555956 0.12095159 -0.5038138 0.47049022 -0.17495298 -0.039106425 -0.15939829 -0.20764099 -0.014300617 0.02666892 -0.19561526 -0.5842996 -0.14609608 0.11628749 -0.18950878 0.367994 0.32261807
not -0.028933326 -0.15621231 -0.20504798 0.031073174 0.02538388 0.10610919 0.124450944 0.15652408 -0.18270895 0.18993478 -0.039035507 -0.028452182 -0.21554704 0.23384254 -0.2254559 -0.22250691 0.17772244 -0.15340737 0.038583755 -0.24692558 -0.180461 -0.35309368 -0.016695473 0.18361413 -0.042999666 -0.23626292 -0.5887229 0.05441832 -0.19875576 0.47287637 -0.22210778 0.39683527 0.18764465 -0.049018543 0.124799475 0.19229317 -0.41432688 -0.07755977 -0.39421374 -0.3280968 0.46676263 -0.04308643 0.17302278 -0.13908017 -0.05082863 -0.23730649 -0.005884855 -0.31915665 0.0031336162 -0.26519412 0.032590214 0.0064434493 -0.110760264 -0.06291495 0.021032857 0.06650038 -0.0315119 -0.339084 -0.25111184 0.12173716 -0.31610838 -0.35735935 0.256246 0.0026683316 -0.2716642 0.36057952 0.17218871 -0.2869807 -0.3051271 -0.12377892 0.030378014 0.30731645 0.0815324 -0.18450788 -0.07511956 -0.36792898 0.07895381 0.34517053 -0.20362498 0.19495142 -0.031215537 0.08921989 -0.32419392 0.30608895 0.05578045 -0.5343963 0.14811847 -0.054351706 -0.0048341635 -0.04760278 0.30922452 -0.07332853 0.35647312 -0.08493875 -0.21077037 0.04264262 0.036037665 -0.01832751 -0.26656932 0.08329845
t -0.36289212 0.120178185 -0.36830938 0.31800014 -0.09324358 0.054501712 0.05011256 0.13567509 -0.25752836 0.348153 0.11093748 0.22193067 0.13095163 0.026122091 -0.45642906 -0.13548766 0.21657883 -0.1725191 0.21277964 -0.42396444 0.07207272 -0.25442293 0.16090529 0.10830327 -0.07350496 -0.35355252 -0.34620896 0.35253575 -0.009879929 0.32235587 -0.2438305 0.4970461 0.0122960415 0.0933722 -0.06562414 0.2532933 -0.021320887 0.3711443 -0.3685941 0.1313505 0.42601267 0.15991955 0.20372865 0.1674412 0.19509718 -0.27471048 0.07196691 -0.40836662 -0.01890659 -0.18759538 -0.01661986 0.13194622 -0.20117432 -0.111496314 0.05880018 -0.064714506 -0.10030602 -0.084986895 -0.24372429 -0.05587026 0.10931572 -0.20519024 -0.033725366 -0.0123746265 -0.4599133 0.43621904 0.32767883 -0.18353 -0.13920662 -0.15897982 0.14444053 0.29253942 -0.045870215 -0.1730187 -0.21546249 -0.26521477 -0.06772356 0.31046873 -0.017232854 0.10579896 0.0024779928 0.14091058 -0.21066886 0.33166963 -0.09799698 -0.42002684 -0.14568353 -0.02739267 0.08431 0.104774036 0.048865646 -0.0010257484 0.012467055 0.072498165 -0.37511805 -0.085958175 -0.005598016 -0.17599782 0.023838887 0.07329002
my 0.16111474 0.3269481 -0.15594524 -0.010713092 0.31049764 -0.030407801 0.11606391 0.31400555 0.09070068 0.43996203 0.12561408 0.08063401 -0.42708895 0.11897634 -0.36084038 -0.10218334 0.15794665 0.033775717 -0.09085916 -0.28450748 -0.1740953 -0.29947686 0.042340722 0.09863443 -0.0588477 -0.18902309 -0.62700886 -0.213628 -0.047844283 0.39272237 0.37448803 0.3909651 0.26325452 0.17671587 -0.011784642 0.15517882 -0.037092023 -0.21840316 0.18042737 -0.11304037 0.41737264 -0.28915262 -0.020696511 0.009006086 0.06338482 0.105630934 -0.066500574 -0.520872 0.2365832 0.22283529 -0.102716364 0.1978468 -0.3229146 0.016938813 -0.120434225 -0.2442595 0.009190433 -0.48904857 0.1788131 -0.13988654 0.06596893 -0.22653669 0.045976646 0.059318714 -0.4333254 0.3544964 -0.05218868 0.045967013 -0.258412 0.2686343 -0.11902362 0.107016735 -0.24769099 -0.024533564 -0.07564813 -0.24526398 0.29671055 -0.01878179 -0.21967222 0.29019752 0.112761155 -0.20483415 0.16675547 0.24726288 -0.14761633 -0.3555511 0.25145242 -0.15889198 -0.11701287 0.057933453 -0.23690225 0.011978834 -0.061644576 -0.2345132 -0.24390918 -0.01996093 0.16327107 0.09398698 0.12979956 -0.050938804
can -0.138514 0.2897632 -0.05681481 0.056265328 -0.2809167 -0.29593804 -0.07745956 0.13723333 -0.005190004 0.19344987 -0.34884855 -0.17032006 0.1881568 0.1347374 -0.07265564 -0.30122057 -0.14284982 -0.1592532 -0.39063802 -0.35158953 -0.1133422 -0.17315307 0.1611904 0.017376598 0.046622712 -0.26967826 -0.39783055 0.10369488 0.23718543 0.15527809 0.19182096 0.27079377 0.17949891 0.2828187 0.063384764 0.19522198 -0.43759745 0.074937716 -0.13747606 -0.038531978 0.38349777 -0.12247031 0.5363583 -0.15322857 -0.35781908 -0.41684332 0.014495507 -0.18857917 -0.13078903 0.07951958 -0.19014254 0.29826012 0.0003074067 -0.06762226 0.09021207 0.20235133 0.07577236 -0.06753566 -0.23779364 0.3994231 0.12737153 -0.60562193 0.4202826 0.17922464 -0.12388421 0.6468419 0.30267444 -0.19748612 0.1158726 0.047086775 -0.014856785 0.51832545 0.13636123 -0.18838951 -0.2363597 -0.18565805 0.2714701 0.10526975 -0.069877334 0.32428026 -0.24123335 -0.34036765 -0.13384154 0.027716994 0.18555118 -0.58419114 0.28586355 -0.043790154 -0.25442216 -0.013210526 -0.1378443 -0.040034663 -0.13105807 -0.00969515 -0.4417151 -0.16793689 0.010242014 -0.1357639 0.38595673 0.23819184
all -0.08774831 0.03011048 -0.06917335 0.0037058273 0.028943822 -0.01653876 -0.04978872 0.14470263 -0.2439544 0.119734384 0.05495501 -0.36017323 -0.013014689 0.42920542 -0.27136192 -0.24405429 0.098395996 -0.16679488 -0.078370884 -0.23032372 -0.1463747 -0.24405715 -0.13050242 -0.08471514 -0.05613178 -0.27809763 -0.25064045 -0.13567805 0.08684795 0.19362237 -0.19549115 0.3323049 0.093436494 0.13115793 0.18610145 0.08085014 0.016102748 -0.05796421 -0.15175144 -0.3142313 0.48195425 -0.096855745 0.14627644 -0.060559016 -0.09351992 0.0047164685 -0.086110875 -0.22537568 -0.076345615 -0.18288223 0.019800808 -0.017509775 0.041834794 -0.20618837 -0.045113992 0.03852794 -0.08677401 0.014381344 -0.0847866 0.10258295 0.042371314 -0.40436068 0.19757049 -0.0843637 -0.31467757 0.42466474 0.17122488 0.009576129 -0.32203197 -0.13397141 0.15262473 0.43965623 0.2468025 -0.046939008 -0.11896539 -0.3474318 0.358965 0.24611498 0.003926275 0.22841911 -0.0072218818 -0.19341303 -0.13410434 -0.04963937 -0.04964142 -0.36890516 0.50632256 -0.2661883 0.022092681 0.005913151 0.02556433 0.2028997 0.1544246 0.011756684 -0.42820588 -0.070818014 0.0882138 -0.43351558 0.15979628 0.020982416
be 0.15421396 -0.33319047 0.104909986 0.194777 0.14637287 0.01360354 0.18125768 -0.006778443 -0.30253336 -0.12779321 0.15799305 0.17776422 0.0031156298 -0.18444099 -0.21549791 -0.34660056 0.104518585 -0.3656193 -0.19143993 -0.12084004 -0.040794205 -0.31868216 -0.05599673 0.10823892 -0.19673331 -0.0052375114 -0.643385 0.17105867 0.050683804 0.45081064 -0.1013412 0.28561953 0.5697183 0.056561008 -0.029694129 -0.03369863 -0.12219864 -0.14211512 -0.375391 -0.32184193 0.4056838 0.0027407706 0.12833534 -0.0705389 -0.2720961 -0.2936129 0.1185282 -0.27934664 0.12094813 -0.14211491 0.008772322 -0.0023600608 -0.1934506 0.009845581 -0.2947046 0.08546588 0.057197355 -0.43927053 -0.1946879 0.17615086 0.023574507 -0.35229737 0.3413837 0.18619773 -0.28468475 0.357346 0.22981623 0.032144584 -0.15605636 -0.17152089 0.07059659 0.25105566 0.4157387 -0.0041387025 0.055260837 -0.31385127 0.30140328 0.045722783 -0.6270719 0.30991596 -0.1053981 -0.05770981 -0.40477753 0.38543147 -0.22959462 -0.405462 0.04020175 0.22215661 0.01407858 0.042001218 0.037041698 0.008931311 0.40499848 0.14884332 0.2156661 -0.0942336 -0.09987478 -0.06997293 -0.23308967 0.26712328
at -0.094017684 0.19396442 0.048228502 -0.21168843 0.13368008 -0.0054162624 0.088935636 0.1780467 0.122787684 0.13076006 0.004221469 -0.19807398 -0.09224408 0.451697 0.058212534 -0.4136245 0.24974933 0.06926423 -0.16863167 -0.22158374 -0.08993833 -0.14197093 -0.12094465 0.2053586 0.19652623 -0.21502514 -0.09322336 0.09563639 -0.1139065 0.2355042 -0.48179245 0.404144 0.007861182 0.21133119 0.09792675 0.077466436 -0.40858346 -0.16850077 -0.12175166 -0.02801489 0.15746507 -0.49880356 0.2693419 -0.25833967 -0.13071263 0.10464105 -0.015088076 -0.26148376 -0.3420485 -0.32775545 0.10678467 0.08400371 0.011294669 -0.14848624 -0.10274437 0.260642 0.06858519 0.20898136 -0.13764353 -0.15118533 -0.0794031 -0.26012123 -0.2574278 0.057399385 -0.23409653 0.26507232 0.06052717 0.082601205 -0.19594724 0.11081441 0.04375452 0.104541294 0.020772684 -0.38617793 -0.15877609 -0.5174486 0.38098043 0.1775381 0.059704244 0.3296396 0.04448839 -0.42168826 -0.093627736 0.053392276 -0.06307443 -0.37440753 0.42568928 -0.32046887 -0.008465383 0.086805716 0.18629715 0.105328076 0.05826974 -0.061798826 -0.44733518 -0.14771453 0.42194554 -0.35736308 -0.15793318 -0.0281271
as -0.03669714 0.08682178 -0.04393831 -0.14569725 0.15266137 -0.0028634137 0.10454724 0.23084919 0.09410295 -0.053386204 0.0006218329 -0.2884995 -0.06349096 0.14458963 -0.01954475 -0.40266532 0.28233117 -0.14725818 -0.22261047 -0.40640354 -0.18751188 -0.1373237 -0.0040407255 0.0135002285 -0.12677704 -0.117923915 -0.29388195 0.09787156 0.030999333 0.20588657 0.20699762 0.14077576 0.18503582 0.060614318 -0.048439264 -0.18100964 -0.37733686 -0.07093555 0.20405859 -0.20843253 0.38039747 -0.105467655 -0.046000473 -0.019572228 -0.22632253 -0.119462915 0.067114875 -0.43846273 -0.07110598 -0.009250939 -0.1224923 0.09287266 0.056684367 0.073243484 0.051700097 0.08983534 0.019778825 -0.27708972 -0.30819172 0.15149437 -0.27216947 -0.35352552 0.12547344 0.24895912 -0.23683801 0.4219059 0.09552188 0.1497952 -0.15481642 0.081558436 -0.023074925 0.14323446 0.22914527 -0.24330834 -0.04134943 -0.3654884 0.29043907 -0.13946751 0.0477919 0.4125475 0.02765005 -0.3086805 -0.24282813 0.24353178 0.2043846 -0.2077046 0.24750905 -0.11452623 -0.25798577 0.22450297 -0.10599757 -0.12927572 0.08446194 0.11505623 -0.2567805 -0.06232732 0.040383093 0.02846533 0.09916325 0.03398218
about -0.02980641 0.039749995 -0.252209 0.005927498 0.20892219 0.16116098 0.0605743 0.24961029 0.08518681 0.25789535 -0.17057244 -0.14458697 -0.28659678 0.25531253 -0.06106086 -0.3109143 0.014579052 -0.11321573 0.0072094565 -0.49542174 -0.27350223 -0.33468696 0.1522763 0.024118625 0.047395848 0.02236599 -0.35353914 -0.19212836 0.29413584 0.2942294 -0.07113927 0.21792626 -0.13874273 0.4114567 -0.028341336 0.08975914 -0.2458918 -0.35619435 -0.4235309 -0.048591074 0.4125768 -0.0033281264 0.42762423 -0.23980375 -0.2995343 0.13388713 -0.03993132 -0.31567776 -0.2704145 0.0070771114 0.15205544 0.07881891 -0.43987522 0.1241878 -0.09582691 0.102018 0.030930242 -0.41371903 -0.20113212 0.073851906 0.0028901736 -0.17426586 0.35144526 -0.031371865 -0.26038507 0.7202005 0.03859349 -0.27334443 -0.3476448 -0.097727574 0.29080048 0.42735475 0.049932495 -0.20682462 -0.10797096 -0.48481548 0.13028476 0.44534695 -0.12244932 0.11826511 0.038059685 -0.07853885 -0.11747212 0.08909273 0.075814515 -0.492124 -0.037001498 0.0043394757 -0.109250784 -0.046509054 -0.08813839 0.36028096 0.160223 0.025393851 -0.5077136 0.27863392 -0.008399335 -0.12689988 -0.02583018 0.00442362
there 0.08670887 -0.16522898 -0.3632446 -0.19844453 0.011048931 -0.030043157 0.3344865 0.25007302 -0.22721277 0.18526357 -0.04304498 -0.5181327 -0.44515646 0.60102427 -0.14242035 -0.30355123 0.39209312 -0.2229071 -0.16626474 -0.251359 -0.26015332 -0.27233583 -0.08497522 0.08222783 -0.022753447 -0.24002479 -0.47604302 -0.12216903 -0.21230575 0.35848683 -0.2938503 0.037375566 0.34277144 -0.13518237 0.11022448 0.12729694 -0.3405243 -0.18773717 -0.26033837 -0.12843926 0.32820347 -0.13452314 0.15152566 -0.12887245 -0.018746475 -0.13569511 0.10546856 -0.31098574 0.081908755 -0.32163033 0.11381065 -0.13981774 0.13173415 -0.35521302 -0.15481852 -0.19771518 0.07128275 -0.54782605 -0.42899743 0.12573259 -0.37918508 -0.25846145 0.44294542 -0.1869292 -0.061618585 0.24812913 0.0021797896 -0.15323672 -0.394929 -0.020534169 -0.17287238 0.26427725 0.055704214 -0.22275363 0.13779484 -0.4146153 0.15744641 0.49235556 0.09747505 0.18036366 -0.24135427 -0.042386867 -0.41125047 0.20533125 0.32709482 -0.6051538 0.30786654 -0.17556815 -0.06823761 -0.11060264 0.38359722 0.094562404 0.202804 0.12630711 -0.39697972 0.10203185 -0.11660203 -0.03628559 -0.28629398 0.18074992
from -0.034079846 0.38841972 0.05907838 -0.095083565 0.20290093 0.07774664 -0.05756339 0.34701782 0.013360799 -0.113675684 0.04618421 -0.24238275 0.0044476716 0.3406935 0.040537048 -0.40070638 0.10956039 -0.29495943 -0.14266215 -0.42000076 -0.24779738 -0.09818757 -0.2225019 -0.13409302 0.1390079 -0.38663876 -0.35624602 -0.06258173 0.10329625 0.10990756 -0.21219593 0.2672969 0.09069348 0.14433426 0.07158477 0.030399067 -0.05526985 -0.080014855 0.01893997 -0.120679356 0.39226866 -0.15776873 0.26981136 -0.30455247 -0.17157012 0.06823679 0.0035318984 -0.37655813 -0.12839536 0.10482781 0.035608184 0.12009264 -0.116526395 -0.07012507 -0.100457676 0.019791137 -0.059685517 -0.034314383 -0.05149572 0.074431315 -0.03280348 -0.3306675 -0.041943356 0.010420996 -0.36172315 0.3075175 -0.021468181 0.229138 -0.108940236 0.24692243 0.19186124 0.35287705 0.26090378 -0.27865753 0.008449443 -0.48241875 0.40076485 -0.029785609 -0.11886711 0.14816171 0.030494936 -0.23176807 -0.123071715 0.030642325 -0.11003289 -0.33794415 0.41592142 -0.1258615 -0.07296748 0.016694948 -0.18766013 -0.017623512 -0.06006917 0.09204769 -0.40016696 -0.023037106 0.13454254 -0.34394038 -0.01995319 0.059666887
like -0.08216853 0.0328519 -0.17525047 0.0717633 0.051502828 0.13245875 0.0039785844 0.07200172 -0.1440566 0.22867131 -0.16301045 -0.05495986 -0.10150938 0.24726139 0.00021965396 -0.34872195 0.1360093 -0.2305792 -0.056128334 -0.42982933 -0.2572967 -0.24000788 -0.07748103 0.11925225 0.0900551 -0.20777108 -0.40335715 0.06874376 0.034709875 0.37021187 -0.34156126 0.1915939 0.20531343 0.08159878 0.11199071 0.13020779 -0.28847834 -0.07721689 -0.4099047 -0.015086635 0.31629276 -0.19995171 0.26372102 -0.2618254 -0.14742368 -0.34991282 0.06853847 -0.23274879 -0.1280012 -0.17932872 0.23009463 0.31184873 -0.13808705 -0.10599274 -0.08944723 0.2376125 0.11104176 -0.2783319 -0.22422196 0.095232725 -0.17738856 -0.33302963 0.28867805 0.109635636 -0.11143606 0.42746666 -0.042400863 -0.030466108 -0.2309722 0.0150208315 -0.07770044 0.32004425 0.14464732 -0.29009554 0.090772144 -0.38066074 0.13543357 0.3699535 -0.091790386 0.1929007 -0.080830686 -0.21977852 -0.2598335 0.15264389 0.051148284 -0.5589852 0.19079867 0.108594745 -0.028416961 0.08404329 0.112218134 -0.0033900521 0.20255728 0.014324361 -0.25418606 -0.07951064 0.042430643 -0.049080882 -0.03243612 0.15532127
one 0.210864 -0.0029154122 -0.11384813 -0.16678794 -0.07823372 -0.0037712487 0.16368927 0.1543977 -0.079652086 0.088224456 -0.030481698 0.04013947 -0.26174662 0.3118299 -0.2510665 -0.078393586 0.09631986 0.085999094 -0.11585094 0.014730632 -0.44356412 -0.29298377 -0.0041095368 0.059923496 -0.1084404 -0.022187999 -0.4627483 -0.04476405 -0.17716166 0.14705978 -0.08475517 0.40739992 0.3291056 0.17362872 0.10479873 0.0849915 -0.20414741 -0.090516455 -0.18244907 -0.25267822 0.3028548 -0.18733427 0.31756562 -0.15826094 0.041586645 0.03205685 -0.060843922 -0.21576495 -0.014925435 -0.1501386 0.18861224 -0.01853764 -0.045162678 -0.1866695 -0.13623592 -0.15884916 -0.047050025 -0.38147545 -0.18648529 -0.022636836 -0.028729482 -0.27798936 0.2062695 0.009166577 -0.29231018 0.37825114 0.16812563 -0.034707744 -0.2692621 -0.119000085 0.048164017 0.3421884 0.07983192 -0.23623917 0.12600408 -0.18086615 0.20282555 0.22380032 -0.25741506 0.18534079 -0.11191576 -0.27690786 -0.32953125 0.097540505 -0.24809758 -0.36651182 0.49012336 -0.19576263 -0.090642706 -0.116866805 -0.0004431861 0.25307545 0.15559502 -0.0048883087 -0.1553296 -0.15253493 0.037185557 -0.18529879 0.020232162 0.018674701
re -0.09406088 -0.21167898 -0.070140064 0.03241448 0.10984537 0.058110036 0.4182114 0.30910033 0.10431606 -0.18862003 -0.36794865 -0.36977965 -0.2833229 0.19673398 0.21031247 -0.47506946 -0.39961898 -0.20577507 -0.018306352 -0.18696804 0.06117779 -0.37457028 0.41998163 0.41505277 0.3092056 -0.17061132 -0.45299956 0.056621462 0.05268828 0.22642441 -0.20026895 0.12575763 0.119937584 -0.042329542 -0.15963456 -0.04951016 -0.3148649 -0.031107947 -0.10307069 -0.16996962 0.6328035 -0.0876432 0.31720436 -0.26709875 -0.2942754 -0.2738684 0.064726405 -0.2855634 0.07890246 -0.06688331 -0.35123208 0.113593675 0.0363746 0.16583079 0.019535296 0.13516329 -0.012142634 -0.19839957 -0.2246387 0.21322466 -0.093020365 -0.33835694 0.13090232 -0.41604513 -0.2445193 0.46171072 0.45134124 -0.31109214 0.10800216 -0.11620794 0.20774667 0.27153724 0.18411797 -0.25205153 -0.17660037 -0.33885142 0.19634783 0.24958558 -0.123178825 -0.035654977 -0.079105236 0.104088835 -0.35771686 0.091705956 0.26465455 -0.6639043 0.07747963 -0.08432966 -0.18664289 -0.30439585 0.18647856 -0.1530938 -0.0150708705 0.15115413 -0.49554724 0.32602876 0.31337315 -0.16262963 -0.36300367 0.07096004
people -0.117761284 -0.17406507 -0.272634 -0.0042279237 0.14937645 0.06288394 0.1305015 0.12823479 -0.10893261 0.22627467 0.012895142 -0.33643034 -0.3247384 0.16802637 0.0008283728 -0.34832996 -0.0019366647 -0.13100575 -0.07708811 -0.061677556 -0.024362508 -0.35878822 0.08228289 -0.06325832 0.120765425 0.00064452697 -0.40839422 -0.046212435 0.0005812112 -0.00903959 -0.22464399 0.20930313 0.48334613 0.2721391 0.01924997 0.19200934 0.21865292 -0.0249284 -0.35145587 -0.17846006 0.44048032 -0.1501137 0.23544028 -0.1029894 -0.16961922 -0.060031 0.12867303 -0.2308704 0.05739308 -0.18226117 0.01918896 0.30546397 -0.12513492 -0.23791406 -0.18999882 -0.2693204 -0.3057248 -0.48254815 -0.34043017 0.25857097 0.1919851 -0.222917 0.26868874 -0.01735617 -0.2556424 0.4333592 0.06790831 -0.13035214 -0.20363273 -0.06594568 0.17554091 0.5599386 0.18026444 -0.29232085 0.1829155 -0.37645316 0.16443451 0.37791216 -0.08261022 0.14089651 -0.061921533 -0.1872121 -0.4292419 0.007506327 -0.06150307 -0.48196974 0.38565084 -0.08955425 -0.10958756 -0.10801854 -0.045935225 0.24234965 0.022070909 0.223134 -0.43483213 0.03837963 -0.077043675 -0.47047123 0.30066937 -0.032458782
or -0.10474356 0.08265594 -0.079818904 -0.054681785 -0.067723006 0.13358845 -0.15121023 -0.040593058 -0.10568679 0.15278263 -0.26231652 0.39753363 -0.11420659 0.14165968 0.09774115 -0.19705994 -0.08862419 -0.30214632 0.08039513 -0.2876029 -0.08095169 -0.14126797 0.061372176 0.12556878 0.10719431 -0.13574187 -0.40019166 0.2682046 -0.057513006 0.10128128 -0.20396833 0.25951132 0.30621344 0.16264094 -0.10775213 0.1594367 -0.22950444 0.07698049 -0.19177467 0.098551944 0.2623639 -0.117488325 0.34226954 -0.2289219 -0.115736835 -0.41255885 -0.049426276 -0.20167083 -0.0663991 0.11837076 0.1781226 0.56505346 -0.10825884 0.085059 0.13139014 0.054296363 0.14343272 -0.24364232 -0.38355407 -0.023500456 -0.051634513 -0.3448792 -0.011258751 0.083155766 -0.013512969 0.3449524 -0.05415975 -0.07277516 0.05046974 0.044140246 0.025165468 0.23754834 0.1252909 -0.5210574 0.26331347 -0.34420955 0.006795883 0.24425277 -0.3482824 0.16013011 0.03972295 -0.2532605 -0.30011255 0.35967034 0.060663015 -0.5225842 0.24454974 0.24159834 -0.19773777 -0.048137043 -0.07793668 -0.041565478 -0.006307967 -0.034821935 -0.15831053 -0.077496454 0.06340108 -0.05252648 0.06146211 0.17969257
if 0.10317732 -0.17300485 -0.21966709 0.025091926 0.10303162 -0.0488659 0.12971991 -0.21573126 -0.2708009 0.34037176 -0.016213376 -0.019060045 0.038533367 0.2921303 -0.1415129 -0.28154954 0.20086442 -0.17356046 -0.0095142815 -0.4823556 -0.03938546 -0.32141668 0.08233298 0.037063323 -0.13116233 -0.20873982 -0.23347081 0.12260091 0.096008696 0.33002585 -0.2770723 0.3535691 0.13925795 0.07549893 0.12601313 0.16816218 -0.26547626 -0.036324143 -0.3045722 -0.021919928 0.445058 -0.19434756 0.16505393 -0.23160817 -0.3277754 -0.12273834 0.14903772 -0.36455417 -0.14053099 -0.23521313 0.10468538 0.16768727 -0.109320045 -0.18963517 -0.058834165 0.11410138 0.11637455 -0.16754037 -0.40197027 0.13557471 0.057588004 -0.42642066 0.23458141 0.15006243 -0.23444489 0.46361881 0.14333147 -0.13757698 -0.35135478 -0.2521868 0.014662936 0.22058062 0.14619349 -0.11175768 -0.20739895 -0.33356795 0.34136197 0.26216272 0.074353874 0.3381029 0.032219607 -0.073306665 -0.32101348 0.14598873 -0.14811234 -0.44056097 0.09267096 0.07192933 0.16147994 0.25130853 -0.023023989 0.20521444 0.12959462 -0.034260355 -0.35000807 -0.07445031 -0.04233146 -0.24571057 0.009798303 -0.013155291
do -0.10484548 -0.011192862 -0.21002837 0.05674835 0.23725851 -0.070051946 0.18212202 0.16077378 -0.052734233 0.18315001 -0.14477909 -0.31296545 -0.035821304 0.12693037 -0.23710807 -0.33675283 0.019885648 -0.23557578 -0.19555914 -0.33998293 -0.17230916 -0.27258307 0.102862805 -0.102707386 -0.16411664 0.04362277 -0.30016586 -0.06945036 0.08523436 0.4150052 -0.0021965578 0.11126694 0.20763975 0.2558795 0.087940276 -0.07750931 -0.28213096 -0.11231409 -0.47090584 -0.2503067 0.41677243 -0.0713512 0.35894352 -0.113130026 -0.3607294 -0.15239753 0.0883665 -0.18446738 -0.07988537 -0.20123127 0.07293998 0.0980159 -0.14321448 0.018260188 -0.033049274 0.33110562 -0.0716396 -0.27884007 -0.18758644 0.30188635 0.022042025 -0.37284595 0.4192947 0.10674101 -0.27535948 0.6715022 0.32839867 -0.21805358 -0.23929341 -0.28869691 0.05654949 0.46650892 0.3652202 0.03452453 -0.11456926 -0.33503363 0.27818102 0.22226126 -0.022393655 0.23032776 -0.2771586 -0.1092139 -0.27026147 -0.02291272 0.0104697505 -0.34396076 -0.08235389 -0.052864425 0.029545262 0.031890005 0.20527175 0.20078963 0.3391997 0.070676714 -0.18305348 0.022142425 0.021044243 -0.03081343 0.20087962 0.023857329
just -0.08180115 -0.030807586 -0.2558864 0.06952358 0.08373126 0.2256383 0.15166603 0.1018949 -0.09886461 0.30314916 -0.1756606 -0.03966798 -0.23141208 0.30847248 -0.21383888 -0.16006045 0.112646796 -0.16165833 0.00045918336 -0.43056706 -0.21641359 -0.3329415 0.16618085 0.13841176 -0.052122865 -0.14601909 -0.4809721 -0.025605677 0.009992567 0.292402 -0.25681558 0.35421884 0.2800381 0.23429546 0.053702127 0.115756705 -0.25672263 -0.09157116 -0.29741147 -0.044266727 0.43282765 -0.20397429 0.18850493 -0.047064543 0.036512643 -0.20447072 -0.11028237 -0.28709966 -0.046041343 -0.1010597 0.07336404 0.165309 -0.119519584 -0.050837006 0.05786543 0.03323165 0.04728139 -0.42388698 -0.07820715 -0.07690568 -0.06914387 -0.26065013 0.12635063 0.010977647 -0.28344288 0.4409315 0.03489587 -0.101812296 -0.36374 -0.17748006 -0.03129595 0.20078464 0.157058 -0.2633405 -0.10516261 -0.32353505 0.18546833 0.30476424 -0.11216028 0.19943358 0.055239055 -0.27598056 -0.11018441 0.19872497 0.012276127 -0.55138427 0.23200355 -0.08765656 -0.026789611 -0.024019837 0.059148993 0.13615637 0.264288 0.03556685 -0.17188786 0.0720808 0.06675643 -0.062196005 -0.011381743 -0.06367931
more -0.29135266 -0.085658915 -0.3800523 0.124139994 -0.1866139 0.07213768 0.21648435 0.21633688 -0.009478753 -0.08487842 -0.082623914 -0.1937933 -0.18805805 0.08694601 -0.13704048 -0.32464698 0.04544672 -0.040965356 -0.20861664 -0.27599007 -0.45086116 -0.12999687 -0.035891145 0.18414131 0.18414207 0.035179947 -0.45717046 -0.013626638 0.08200647 0.19699873 -0.17910172 0.018211244 0.58701646 -0.012954066 -0.14053224 -0.06297181 -0.55271274 -0.0569806 -0.3809393 -0.063872576 0.54330045 0.17714725 0.26249024 -0.017416192 -0.17773822 -0.36042058 0.44390285 -0.014909348 0.14258458 -0.12183623 -0.05049298 -0.05345427 -0.030089559 -0.29644153 -0.24072824 0.042340413 -0.23170981 -0.78631914 -0.239721 0.29924032 -0.41694343 0.018457348 0.32373503 0.21944393 -0.24089338 0.45904177 -0.07697892 -0.24240333 0.10720944 0.13157724 -0.09520371 0.59981495 0.24439053 -0.51931095 0.11874571 -0.4207063 0.022423118 0.49901056 -0.24930252 0.05516471 -0.07953357 -0.11571121 -0.55366844 0.44244167 0.18808518 -0.5480325 0.05632277 0.035024874 -0.16625352 0.13107808 -0.00021490996 0.034752302 0.17782192 0.3687084 -0.16267371 0.31474733 -0.20868707 0.14238386 0.056749962 0.16283344
when 0.045358278 -0.0019421652 -0.22131652 -0.12792617 0.04477003 0.07340808 0.24992843 0.0745778 -0.17977166 0.40888843 0.061093 -0.1608607 -0.10893984 0.7358585 -0.20924443 -0.24748208 0.04648683 -0.34550017 0.004679783 -0.55524755 -0.08035799 -0.3288227 -0.07423083 2.798709e-06 -0.121395014 -0.46503973 -0.22312754 -0.13107795 0.0010869299 0.3673045 -0.23132442 0.44703877 0.14120758 0.06474066 0.15974845 0.37985915 -0.24915914 0.019265817 -0.17831202 -0.0007348819 0.45640275 -0.36620453 0.22723937 -0.2134164 -0.27738345 0.08642656 -0.07229967 -0.4184459 -0.02504241 -0.066509016 -0.15327682 -0.003315281 -0.12692179 -0.25123072 -0.08696104 0.063141294 0.23314801 -0.13905789 -0.23677514 -0.11562527 -0.050074507 -0.4373009 -0.0074049234 0.04933965 -0.24735422 0.3218203 0.11886514 -0.23744202 -0.29987153 0.15607229 -0.062848106 0.19097234 0.079741724 -0.19530663 -0.2692595 -0.37547258 0.4486332 0.31461734 0.08442786 0.2775199 0.09410758 -0.13620785 -0.06504262 0.08502355 0.0016196993 -0.60582125 0.30154213 -0.21692818 0.08790569 0.33754408 0.009572378 0.2947696 0.12725133 -0.053854432 -0.49275026 0.11385775 0.0519689 -0.24083601 -0.25398305 -0.16458379
me 0.14287503 -0.21284522 -0.23274238 0.21467277 0.26552573 -0.04922298 0.0032654814 0.2769179 0.007877961 0.48682934 0.010921903 -0.014712721 -0.21362653 0.19058333 -0.34200096 -0.10742698 0.20177624 0.0012523755 -0.025507398 -0.12124848 -0.28092736 -0.47924468 0.11998157 0.17154148 -0.1291975 -0.29843158 -0.55075747 -0.186235 0.018419314 0.5275668 0.003493145 0.17592666 0.24048813 0.30437768 0.29231608 0.0784246 -0.081441574 -0.11754854 0.039669283 0.12363855 0.25009143 -0.18010256 0.036747195 0.009459659 0.061934233 0.07270721 -0.032613326 -0.33533043 0.063419856 -0.037556704 -0.007874712 0.25500458 -0.29751566 -0.25663352 -0.050210126 -0.2787255 -0.021325758 -0.3604102 0.08955207 0.0064000264 0.14773533 -0.28242567 0.17967692 -0.015826683 -0.5132204 0.45240462 0.28063262 -0.19929573 -0.37102914 -0.04983207 0.0867502 0.20572181 -0.07183254 0.017916396 -0.14924285 -0.37574172 0.36950538 0.062765546 -0.10087758 0.3751092 -0.21190356 -0.41135138 -0.012883857 -0.11026009 -0.34177232 -0.2416365 0.15527989 -0.13363896 0.028866038 0.17067355 -0.07173306 0.05529973 0.042687453 0.020975992 -0.16108757 -0.04518826 0.23631796 0.007578701 0.3127241 -0.006748244
an 0.02361211 0.17114508 -0.07172631 -0.07874919 -0.068394534 -0.14639443 0.10661167 0.16707945 -0.0708283 0.10010268 -0.27854794 0.16830206 -0.12257453 0.07143437 -0.1993443 -0.09685917 0.13976547 0.09005124 -0.20676687 -0.21950895 -0.18842973 -0.1310241 0.09750739 0.16421154 0.11264361 -0.29556602 -0.5263225 0.10754148 -0.13331407 0.117945425 0.1816859 0.30737835 0.3282594 0.084368154 0.0386161 0.083949365 -0.2812959 -0.1538375 0.11605271 -0.18668565 0.379375 -0.121218964 0.23347944 -0.09110957 -0.047454976 -0.120871305 -0.06820486 -0.2903 0.06629257 0.32253283 -0.016988687 0.18128492 -0.08636466 0.091492996 -0.09564686 -0.032072738 0.033834904 -0.30992204 -0.08066128 0.026663357 -0.10014354 -0.340555 0.2089743 0.11142195 -0.16563918 0.25277585 0.011607565 -0.026532864 0.0052196644 0.1908049 -0.17904969 0.21705341 0.06303494 -0.12921749 -0.07346265 -0.01861766 0.22668976 0.03600692 -0.36620396 0.20900859 0.050562613 -0.22305305 -0.081664674 0.3226911 -0.005271213 -0.5937654 0.39935508 -0.08958551 -0.21585268 -0.033898927 -0.22558767 -0.17083833 0.016901761 -0.18050227 -0.17731172 -0.058559123 -0.048935033 0.20892838 -0.15452392 0.12176251
because -0.12094803 -0.14362562 -0.1931081 0.14484563 0.05838776 0.13960584 0.21287917 0.10150457 -0.15952946 0.20659702 -0.11133825 -0.2520629 -0.2240698 0.36930466 -0.30599216 -0.18387964 0.3567969 -0.21996772 -0.08571927 -0.459891 -0.22437821 -0.23271294 0.10723513 0.02527892 -0.08668348 -0.17134693 -0.4761659 0.05626084 -0.054644905 0.33607137 -0.24356197 0.27130866 0.27447316 0.25549412 0.08583757 0.17650725 -0.23139393 -0.084746644 -0.25622413 -0.21951431 0.3973382 -0.14674897 0.20374201 0.09369124 0.035957485 -0.12148691 -0.13023041 -0.4231841 0.017992439 -0.18340759 0.14341846 -0.111417346 -0.08491367 -0.12128187 -0.14941241 0.12902118 0.017248275 -0.4044157 -0.16187839 0.019139176 -0.122759484 -0.29088828 0.18025154 0.049480915 -0.37464467 0.5027353 0.10204495 -0.14225852 -0.36289042 -0.061905943 -0.089219235 0.27273998 0.29832774 -0.1657558 -0.15078987 -0.31516904 0.28037155 0.39510947 -0.06417598 0.1681428 0.071497425 -0.3822014 -0.3371949 0.17218238 0.15907602 -0.5680868 0.15495059 -0.12413375 -0.1310431 0.067504406 0.2270279 0.14281544 0.46629968 0.184478 -0.30086714 0.04639426 -0.05363829 0.015491667 -0.20899393 0.055944692
these -0.17088169 0.031428583 -0.18226263 0.0113569135 0.21899278 -0.099302456 -0.01424132 0.22156087 -0.19516554 0.10235747 0.12726945 -0.4912909 -0.29434034 0.21205851 -0.024754994 -0.36391562 0.00038173597 -0.17212775 -0.3652099 -0.11923001 0.019435009 -0.14520714 -0.07926737 -0.10747787 0.13317563 -0.09729924 -0.23012552 -0.4189099 0.12895565 0.14610904 -0.14601943 0.11961578 0.46431923 0.08420902 -0.11742592 0.06544975 0.026675098 -0.111769825 -0.14435135 -0.39996225 0.58630246 -0.07499514 0.1386136 -0.11976255 -0.24493486 -0.14688353 0.062082704 -0.23809591 0.25381938 -0.20988515 -0.06581573 0.08403907 0.10080848 -0.26211542 -0.14183544 -0.043611705 -0.2871937 -0.13350569 -0.20298529 0.34448525 0.033643745 -0.2993493 0.1553221 -0.05615789 -0.24046223 0.4444915 -0.06519788 -0.05774873 -0.19745569 -0.0037433505 0.16470581 0.54703957 0.09915867 -0.08886526 0.11362979 -0.55105937 0.3476401 0.39096373 0.110565975 0.09561275 0.07464809 -0.124863155 -0.37895533 -0.027166732 0.13055667 -0.49473867 0.46889126 -0.07038735 -0.1097825 -0.13547036 0.03991187 0.037001453 0.014544904 0.055304717 -0.6578022 -0.0692106 0.0717486 -0.4994473 0.3045395 0.22724842
had -0.2037673 0.17079851 -0.13946572 -0.19823244 0.09831786 -0.07746748 0.40575114 0.4172143 -0.1321371 0.021986067 -0.07330211 -0.19170569 -0.22695708 0.18580094 -0.21299873 -0.12672338 0.32513872 -0.09532254 -0.369298 -0.12412155 -0.23908146 -0.12056667 0.047473162 0.0029203135 -0.024370005 -0.12549461 -0.27261755 -0.06493436 -0.23621045 0.19563651 -0.092591144 0.048442375 0.46797365 0.364084 -0.12123966 -0.20564689 -0.06322605 0.23022816 -0.14059448 0.1754681 0.3376441 -0.14891578 0.4781961 0.09218119 -0.018311728 0.20941123 0.22992817 -0.527291 0.098810606 0.1587837 -0.0053294566 0.06509752 -0.2530379 -0.0436549 -0.39797017 -0.15160608 0.0195459 -0.4984498 -0.097065546 -0.0023736933 0.18969785 0.0052091307 -0.09186256 -0.20938213 -0.6605249 0.37602058 0.2872565 -0.061828066 -0.1662678 0.2172152 -0.14704792 0.20842014 0.2544973 -0.16779606 0.1798365 -0.43835482 0.2783348 0.14562358 -0.08363788 0.08572065 -0.25892872 -0.5819741 -0.47194797 0.081824765 -0.35558346 -0.35913903 0.16746454 -0.14574668 -0.17234652 0.10449581 -0.0015551922 0.28332597 0.39095965 0.20475517 -0.08361142 -0.0183265 0.26399252 0.084840454 -0.0716416 0.109733544
now 0.15648708 -0.022651542 -0.043397862 -0.014494346 0.16369739 0.07781463 0.04938075 0.0649471 -0.014183434 0.18131973 0.01681297 -0.25876144 -0.31438097 0.35081643 -0.13615093 -0.1515951 0.09826682 -0.029772997 -0.08202402 -0.35675353 -0.14387427 -0.3630869 0.026309729 0.14215274 -0.11395117 -0.16218138 -0.3945597 -0.17290427 -0.060011726 0.28915018 -0.21066979 0.3514833 0.19003381 0.10971736 0.16119146 0.101046674 -0.23527066 -0.2080542 -0.26102996 -0.24249884 0.5069461 -0.15836848 0.08333462 -0.16726644 -0.17219912 -0.025395194 0.010755698 -0.4769974 -0.016474528 -0.14200376 0.0057533043 -0.06945445 -0.100846775 0.0035113096 -0.019440535 0.014334397 -0.08528258 -0.31472972 -0.09034098 0.08860737 -0.15908505 -0.30388036 0.09436108 -0.001413537 -0.3324942 0.5030635 0.112246 -0.2096699 -0.2578519 -0.16917968 0.18485928 0.3516521 0.113619514 -0.0940315 -0.16577823 -0.34066406 0.30021724 0.27904287 0.027081551 0.17789933 0.030484255 -0.023063581 -0.21800277 0.038961727 -0.0038659892 -0.3236661 0.29634184 -0.08510327 -0.010026853 0.0064789974 0.16733721 0.15113847 0.18048225 -0.002401967 -0.39376035 0.17208128 0.06539895 -0.16892566 -0.11668045 -0.10176692
by 0.015255357 0.11839655 -0.042632002 -0.091220066 -0.034145188 0.18253128 0.013992 0.28568387 -0.026662145 -0.09328934 -0.031818066 -0.14866175 -0.026057301 0.2750492 0.14447126 -0.2719664 0.1821016 -0.14494932 -0.1325275 -0.32253557 -0.21889399 -0.14335676 -0.09028244 0.01091149 0.14075878 -0.2876483 -0.42638603 0.019655354 -0.0022558328 0.07928138 -0.22163822 0.30567282 0.03676407 0.11603512 0.094331324 0.18018106 -0.18151851 -0.09906918 -0.08625368 -0.15279849 0.24185495 -0.050523896 0.33921856 -0.22268707 -0.106198676 0.05408099 -0.016200285 -0.19168374 -0.0435973 0.007770052 0.09601309 -0.06849268 -0.050032772 -0.04642469 -0.094059005 -0.030111667 -0.047506947 -0.24016005 -0.1665003 0.046788037 -0.22325541 -0.2882028 0.024359938 0.016595 -0.2300185 0.23644665 -0.08531981 0.019297104 -0.08644527 0.203234 0.11526388 0.26478815 0.13399771 -0.353949 0.012993667 -0.27696383 0.11197105 0.20077142 -0.18505648 0.030305713 -0.0023168214 -0.07678559 -0.28260028 0.13747492 0.118644364 -0.38240492 0.30982292 -0.01474588 -0.18274647 -0.061115008 -0.049817905 -0.012821127 0.009297896 0.08049129 -0.25641933 0.047801733 0.04098896 -0.18100992 -0.21987894 0.1496289
us -0.21912453 -0.07146122 -0.19855125 0.20336834 0.20576909 -0.057208627 -0.18298012 0.3945156 -0.17898968 0.1495345 -0.05386392 -0.23664476 0.015685588 -0.034829557 -0.16269983 -0.2649786 0.024078794 -0.056378365 -0.14609966 -0.017462462 -0.118974015 -0.2577169 -0.033032726 0.17316885 -0.05157112 -0.21958253 -0.43137342 -0.2010259 0.13233443 0.32536545 0.0016169548 0.12364836 0.35016805 0.31113338 0.17943087 -0.11943082 -0.03711368 -0.07999231 -0.1569828 -0.14719945 0.36789322 0.040738568 0.14049292 -0.03786572 -0.12886122 -0.18288071 -0.022555256 0.06919426 0.056159362 -0.08545245 -0.002470605 0.24484062 -0.021841396 -0.1797672 0.08978295 -0.06007697 -0.28184032 -0.056165487 -0.004461646 0.30519938 0.01865317 -0.2662812 0.27219862 0.05285923 -0.27029407 0.2836463 0.10791809 -0.12216531 -0.21520112 -0.14056066 0.14915244 0.45573547 0.21920696 0.017097488 0.0961923 -0.47023284 0.18029083 0.1542484 -0.058465227 0.2481138 -0.32071674 -0.2510804 -0.0836934 0.002121441 -0.10271552 -0.32671705 0.35225147 -0.16104242 0.03763087 -0.09012088 0.014264692 -0.12588698 0.13082741 0.025130749 -0.31391835 -0.13503748 0.14263558 -0.085023746 0.5066968 0.24709687
them -0.1890666 0.030853407 -0.45871246 0.1387406 0.28369516 -0.08023519 0.05285449 0.21540402 -0.2440382 0.4133765 0.10592337 -0.14242698 -0.10464897 0.12864755 -0.26186135 -0.32910916 -0.13688213 -0.3399557 -0.3058565 -0.14554907 -0.006382948 -0.31874913 0.05252928 0.0048582065 -0.092324145 -0.25548795 -0.25836554 -0.38097668 0.15199254 0.38863432 -0.032842223 0.09760997 0.596862 0.04363909 -0.13226423 0.013680073 0.020944385 0.06646681 -0.15485767 -0.1787033 0.6428705 -0.13323021 0.1504205 -0.089202665 -0.15911418 -0.29861403 0.073248155 -0.31141376 0.29567266 -0.19081575 -0.22999813 0.35472587 -0.069447756 -0.33287358 -0.016663883 -0.10529893 -0.08432336 -0.2011921 -0.10716198 0.27442172 0.25470436 -0.3249463 0.25647724 -0.01979391 -0.28090447 0.6190983 0.13164888 -0.022971703 -0.18274756 -0.060024932 0.0030629502 0.38511696 0.06895204 -0.012761355 0.06515295 -0.5128798 0.38427737 0.20301242 -0.0051076207 0.21275164 -0.009278911 -0.26191285 -0.16955622 -0.018445317 -0.15441252 -0.49616715 0.2476161 -0.0571363 0.059640203 -0.0062242043 -0.14320494 -0.014392701 -0.002825726 0.08620427 -0.4737622 -0.11539392 0.03250387 -0.29775617 0.4614107 0.07402329
how -0.07174773 0.038848195 -0.19866487 0.2126187 0.14222181 0.037949074 -0.1709805 0.19170828 -0.0909925 0.29645148 -0.010807005 -0.2329421 -0.047605556 0.28227225 -0.19707915 -0.3530381 -0.0696236 -0.23554508 0.023785459 -0.5405715 -0.21335623 -0.39883795 -0.12025253 0.07461285 -0.26774767 -0.2176837 -0.33203778 -0.32410198 0.214408 0.5932583 0.23458076 0.28750348 0.11188744 0.19218591 0.1804616 0.018038517 -0.22607955 -0.05582467 -0.3087144 -0.16341074 0.61460733 0.108326174 0.104385294 -0.108624116 -0.4982777 -0.19564512 0.1823106 -0.18420847 0.20269361 -0.05840736 -0.19432934 0.1511317 -0.24033155 -0.09639259 -0.01285294 0.26215425 0.022149732 -0.2885986 -0.04603284 0.39623013 -0.19752748 -0.3093887 0.3830548 0.19596699 -0.12563114 0.5779103 0.0003152873 -0.30159062 -0.23631741 0.031592634 -0.056342985 0.47019383 0.13511011 -0.08036353 -0.06892202 -0.5091978 0.23848273 0.3066395 0.1244555 0.30911115 -0.14750466 -0.0826578 0.002598856 -0.04690404 -0.02866633 -0.43408552 0.2214714 -0.078119166 0.21608128 0.2974563 0.062149268 0.09872748 0.32129997 -0.09253869 -0.5508374 0.0595896 0.005425963 0.014959221 0.41750926 0.16344845
out -0.053631876 0.14652036 -0.12295798 0.032456074 0.23898315 0.049776264 -0.0702793 0.21457551 0.02153145 0.40636513 -0.04185458 -0.010142793 -0.33049753 0.40276384 -0.34317875 -0.17178927 0.022870127 -0.33877856 0.071256936 -0.3613504 -0.1751275 -0.057746563 -0.04690698 -0.13734041 -0.10704245 0.031512607 -0.23556112 -0.2977803 0.20921849 0.25369966 -0.10283948 0.14058998 0.06441567 0.40931097 -0.06436969 0.06261293 0.030778008 -0.07935751 -0.14249676 -0.011158609 0.31006336 0.052576434 0.23696835 -0.09710186 -0.108900346 0.1037785 -0.3007031 -0.3888068 -0.1403658 0.09269418 0.21896315 0.12239748 -0.2896349 -0.0751915 0.016791774 -0.14406414 0.053299207 -0.13091314 -0.13341646 0.049657073 0.16999254 -0.20759222 0.097954765 -0.058768727 -0.19603229 0.4378288 0.145746 -0.11075997 -0.36208636 -0.029006366 0.19280347 0.34566694 0.028013915 -0.21994291 0.03615109 -0.6724754 0.29943848 0.29382277 -0.2246847 0.14867535 0.04997972 -0.32100943 0.025711393 0.076681666 -0.068467334 -0.4762421 0.112283535 -0.09044875 -0.06539394 -0.20213768 -0.056497164 0.3017435 0.16364554 0.10748233 -0.39995044 0.0024243507 0.026678056 -0.2901874 0.11850161 0.17900458
world -0.09750731 0.3235235 -0.1283463 -0.05159085 0.06049162 0.029077113 -0.06712417 0.47060883 -0.049413107 -0.135914 0.031517487 -0.3783041 0.17371698 0.26420557 -0.16051576 -0.23179549 0.0411918 -0.17578286 -0.2689675 -0.20471267 -0.36179197 -0.164849 -0.21360649 -0.004329727 -0.067920715 -0.17550783 -0.49848115 -0.10497482 -0.045571737 0.15563962 -0.22549511 0.21796033 0.3819613 0.101898074 0.13911162 -0.0782423 -0.053455316 -0.07399092 -0.3373003 -0.29550034 0.3930791 -0.080016635 0.41823113 -0.26537514 -0.061770543 -0.022902526 -0.10169799 -0.036307026 -0.13196677 -0.028188169 -0.035477318 -0.023113443 0.10028185 -0.12428312 0.06675721 0.026199544 -0.12468358 -0.24751024 -0.13748199 0.07302702 -0.18138225 -0.28376976 0.32098383 0.13519302 -0.3342191 0.36553234 0.09741263 0.14618722 -0.11246716 -0.18239383 0.31184426 0.5804351 0.4686182 -0.24914585 0.07726757 -0.29803976 0.20597601 0.09528722 -0.28553674 0.011693744 -0.21271667 -0.1987827 -0.21041894 0.14321359 -0.010583613 -0.39539248 0.5158025 -0.25667414 0.03410159 -0.2922067 0.016128004 -0.024535853 0.030273946 0.08176641 -0.16221431 -0.026273252 -0.121344365 -0.2736089 0.07740695 -0.037217833
he 0.34823418 -0.00084758736 -0.21102154 0.059059452 0.2422256 -0.09717215 0.33391702 0.2594685 -0.25658205 0.37012303 -0.040994383 0.1140358 -0.2861942 0.4030805 -0.43826276 -0.015284643 0.34745526 -0.065948606 0.07161576 -0.32256675 -0.30053148 -0.32210657 0.08019604 0.19353253 -0.16793826 -0.38101178 -0.5682008 -0.1708619 0.107173465 0.5003233 -0.20768741 0.24891923 0.2803593 0.2643982 0.17220351 0.0626986 -0.0070074946 -0.29195222 0.20839629 0.3713087 0.21582016 -0.44047272 0.22207835 -0.0634029 0.17791617 0.03911545 -0.23739228 -0.22898526 -0.048036776 0.18867517 0.23049776 0.060175035 -0.16870138 -0.33009958 -0.048888914 -0.41572928 0.24069755 -0.22629182 0.2084527 -0.14155813 0.17954734 -0.25233594 0.14623787 -0.048293658 -0.3218149 0.17549625 0.06725127 0.17008768 -0.60596555 -0.0219279 -0.2534317 -0.1262149 -0.025613297 0.023846729 0.013338529 -0.40722084 0.39023602 0.0076299924 -0.19257757 0.36944568 -0.2850909 -0.45205688 0.1369196 0.22963281 -0.27804142 -0.4357467 0.4174102 -0.27071416 0.1987308 0.10411985 -0.13785303 0.16494672 0.12923715 -0.15076876 -0.11874104 -0.22100052 0.22998618 0.117720276 0.016240716 0.19741693
their -0.2554123 0.0075519085 -0.47012135 0.08707028 0.23236126 -0.0033881704 0.13253316 0.40863693 -0.23161077 0.22689624 0.075191624 -0.16523264 -0.14474149 0.2190168 -0.022218922 -0.31460753 -0.21045366 -0.41657627 -0.24348001 -0.034578033 0.055719875 -0.26775053 0.06533286 -0.17107639 0.20812578 -0.3750426 -0.32167786 -0.48328975 0.16152973 0.18560247 -0.08600053 0.16810814 0.56550413 0.07030639 -0.19997293 0.2153078 0.21311776 0.006801151 0.108435385 -0.28349194 0.6805827 -0.24316499 0.29675376 -0.07257648 -0.116623946 -0.037853863 0.0045889793 -0.06985966 0.43832064 -0.011184825 -0.2135865 0.3267622 -0.037500683 -0.46210206 -0.08779685 -0.30926558 -0.22893761 -0.075559385 -0.116060644 0.15036747 0.35663652 -0.39332968 0.062332638 -0.16627356 -0.29182875 0.43558973 -0.09936158 -0.031416785 -0.16074382 0.2590329 -0.006993815 0.4070797 0.02517037 -0.13870405 0.16718346 -0.5336723 0.33700004 0.348057 -0.09205417 0.011866438 0.16416675 -0.276563 -0.35298672 0.07677886 0.08443965 -0.54702514 0.33583814 -0.07820726 -0.083893396 -0.12781341 -0.24285246 0.01154357 -0.0687993 0.07865982 -0.6489338 -0.04530786 0.102099545 -0.49914762 0.2632756 0.16660053
were -0.08303468 -0.13608134 -0.051751412 -0.11428005 -0.013673051 -0.10325838 0.44414714 0.32486174 0.0962066 -0.10256576 -0.08686575 -0.46604958 -0.4359984 0.41400662 0.034111463 -0.41377494 -0.11768625 -0.28408468 -0.15734352 -0.11741171 0.021119265 -0.26888284 0.19290847 0.10370662 0.19828844 -0.04311418 -0.33901003 0.046356514 -0.0042722546 0.014573076 -0.31527874 0.051089883 0.3256679 0.095249705 -0.13825275 -0.046406947 -0.16093802 0.019456368 -0.09794476 0.032696355 0.4581045 -0.031175496 0.40376472 -0.11815781 -0.33015615 -0.04275546 0.10749945 -0.47426856 -0.10596648 -0.03473031 -0.15714514 -0.016059937 0.043494258 -0.11502256 -0.19550343 -0.26281002 -0.048567366 -0.27925906 -0.39125487 0.22493182 0.11971591 -0.18861309 0.055719778 -0.32769197 -0.38717985 0.3474753 0.41084158 -0.18031909 0.01013312 0.012220403 0.21415578 0.38233778 0.24378157 -0.28949496 0.09181158 -0.591593 0.29668215 0.27462643 -0.15306865 0.039738927 -0.17503616 -0.0783106 -0.47122642 0.118446566 0.11462125 -0.48964283 0.20044461 -0.114231735 -0.2075099 -0.16841449 0.10807547 0.2595638 -0.026109857 0.35193712 -0.37303096 0.25969028 0.17191595 -0.42525846 -0.20501103 0.14833006
who 0.13955554 -0.18458308 -0.22089967 0.012885122 -0.09141576 0.15392733 0.17925045 0.14392063 -0.18442069 0.178741 -0.16842769 -0.07407416 -0.2668101 0.36442098 -0.1835349 -0.24727705 0.106119655 -0.27852502 0.23481807 -0.28143227 -0.31314656 -0.2589327 -0.18549311 -0.17679559 0.14919864 -0.09873498 -0.6337351 0.13135402 0.11549531 0.20174523 -0.01742679 0.29567045 0.20002992 0.07073995 0.15289792 0.47492123 0.26049057 0.008536547 -0.015619625 -0.21663322 0.31603733 -0.19627476 0.16070382 0.0227138 0.027662864 0.13887367 -0.018313963 -0.14905262 0.29150462 -0.042763505 0.21599247 0.06247711 -0.34440985 -0.1723338 -0.27240026 -0.048263125 -0.055336904 -0.5564998 -0.21528913 0.18652396 0.033109147 -0.32296062 0.1521952 -0.04739804 -0.2154318 0.30038735 -0.0647855 -0.14470936 -0.45733076 0.041680194 -0.024173697 0.35064968 0.1223354 -0.23926985 0.13553728 -0.28354126 0.16077837 0.34452462 -0.13602816 0.10072392 0.03147433 -0.10303184 -0.49105978 0.12284406 -0.10173042 -0.51357186 0.33402735 0.11189888 -0.0083742635 0.13911825 0.12885474 0.24402627 0.18771164 -0.039993454 -0.42947537 -0.11996617 -0.015030754 -0.1870672 0.054031696 0.114313506
up 0.09082162 0.30870155 -0.03458585 -0.03622762 0.23744625 0.024536733 -0.03729242 0.15698898 -0.15548214 0.29888934 0.10920937 0.029396191 -0.05790928 0.18043886 -0.2617617 -0.27155125 -0.061566822 -0.31863433 -0.083592296 -0.30982116 -0.070935085 -0.09506667 -0.21262217 -0.040391427 0.024415907 -0.28614897 -0.39138538 -0.08731109 0.050494347 0.3051316 -0.06750059 0.36371848 0.3530081 0.1117563 0.07090794 0.0849839 0.15202942 0.035043705 -0.023194212 0.021026071 0.35594952 -0.27462375 0.11462706 -0.28736895 -0.0041021993 0.030008681 -0.011548415 -0.4249264 0.09244172 0.12598196 -0.12627143 0.313659 -0.27330205 -0.12603374 -0.1063592 -0.11593717 0.10372863 -0.17157544 0.044059683 -0.04596349 0.1224308 -0.3855274 -0.0246148 0.0196771 -0.21222445 0.24176982 0.056212608 0.13022473 -0.06556122 0.18927251 0.041409522 0.21457191 0.015458021 -0.19380723 -0.004232414 -0.28586036 0.3897481 -0.10858606 -0.27492285 0.2666301 -0.033110574 -0.12274283 0.11612472 0.18440455 -0.29012156 -0.35066086 0.389059 -0.15330815 -0.047494546 -0.047023945 -0.21937446 0.010509574 -0.04537254 0.012084335 -0.17494632 -0.086566016 0.03756446 -0.22873202 0.0038962872 -0.0108259255
time -0.028977485 -0.035348836 -0.028998911 -0.10071864 0.2015108 0.09827547 0.024982328 0.16389047 -0.04375735 0.17807001 0.17430244 -0.29084304 -0.20463696 0.5107531 -0.12617822 -0.14245711 0.1529033 0.081341505 -0.32333088 -0.14956127 -0.24451765 -0.47988385 0.11006904 0.18344106 -0.2340539 -0.2614767 -0.17239636 -0.2752938 -0.108787686 0.16166885 -0.42003784 0.18983585 0.42223427 0.36983234 0.18443877 -0.07341181 -0.26155594 -0.1612821 -0.22454871 0.05720638 0.2484734 -0.4375062 0.25167963 -0.07687066 -0.074169576 -0.15487279 -0.16334186 -0.31298694 -0.22656551 -0.19452868 -0.0037564756 0.098992705 0.2170199 -0.24156947 0.09125689 -0.13374667 0.018026423 -0.13337526 -0.11710258 -0.11640915 -0.041841343 -0.24372698 0.0180728 0.18110345 -0.48388872 0.45594406 0.26180926 -0.021044908 -0.2665795 -0.19746016 0.20033112 0.3556915 0.3398838 -0.2368905 0.009587575 -0.38489234 0.40882632 0.3010566 0.07631899 0.33122712 0.018233662 -0.6015439 -0.1612799 -0.121209115 -0.034270644 -0.28281677 0.57040054 -0.3638505 -0.06481242 0.26937732 -0.07281185 0.23381382 0.091364905 0.15109316 -0.24021147 -0.0207869 0.10775225 -0.33481425 0.22979707 -0.27676424
would -0.18529324 0.16025257 -0.18015637 -0.093344174 -0.32789305 -0.3298086 0.0633918 0.20875794 -0.2737026 0.35262138 -0.098227285 -0.16273005 0.29024258 0.14419298 -0.41532037 -0.25456917 0.16641752 -0.33251512 -0.42740217 -0.30091518 -0.2367923 -0.004595292 0.027182776 -0.3586229 0.028663848 -0.23053478 -0.38590914 0.086535975 0.1072363 0.19900443 -0.05567865 0.25992617 0.32096964 0.31880748 0.14771952 0.24987759 -0.40168956 0.43403503 -0.31167945 0.19404861 0.16138554 0.039395746 0.6807502 -0.07489185 -0.10444977 -0.003317012 0.1708058 -0.09963675 -0.14838308 0.235602 -0.11853127 0.25351718 -0.31971633 -0.3356201 -0.1411979 -0.09566022 0.06799135 -0.29273298 -0.48484752 0.23286203 0.17922184 -0.65695393 0.33414367 0.14615068 -0.4313094 0.5723345 0.48909676 -0.33256382 -0.054936636 0.040611688 0.031817723 0.6152798 0.09180679 -0.35637096 -0.37417158 -0.3819396 0.24726945 0.117901824 -0.20020944 0.4522943 -0.41637143 -0.31653106 -0.32198521 0.15324229 -0.14507252 -0.4775099 0.039412104 -0.13666098 -0.20494933 0.106992245 -0.10719248 0.2519961 0.033947866 0.100017674 -0.027171342 -0.16948308 0.006790665 -0.2198892 0.2448286 0.1661879
very -0.025604118 -0.13971394 -0.036457583 -0.039982233 0.23455192 0.11467255 -0.1280909 0.10903108 -0.22058655 0.014867687 -0.14157902 -0.3714569 -0.15942039 0.09618766 -0.10466814 -0.34399453 0.5018458 0.33626267 -0.13734698 -0.51514554 -0.23316306 -0.28381202 0.16377157 0.3945893 -0.1296947 -0.23626027 -0.4194562 -0.072884396 -0.17415081 0.34498003 0.04451414 0.24498853 0.21812107 0.37797776 0.26369068 -0.29660475 -0.44016236 -0.2851647 -0.004435447 -0.16653574 0.36731765 -0.035736497 -0.06306198 0.025767613 -0.18231544 -0.06689982 0.29230097 -0.25903237 0.13495098 -0.008695221 -0.007080387 0.16286139 -0.04709532 0.0044732164 -0.11028418 0.063052826 -0.17059405 -0.46865705 -0.15288396 0.12985942 -0.60952306 -0.3715001 0.22120537 0.214193 -0.41430846 0.4780529 0.095317125 -0.06400252 -0.16647288 0.014410504 -0.16497014 0.21576506 0.15949221 -0.27120906 -0.10497267 -0.25027525 0.2513061 0.34219173 0.38093063 0.457286 -0.17020838 -0.40242785 -0.40574086 0.05113425 0.06979506 -0.4478525 0.5347208 -0.22849755 -0.16102535 0.22960015 0.05385884 -0.04236957 0.34371015 0.07147582 -0.2777164 -0.03861711 0.11365757 0.27833584 0.20141435 0.12120649
know -0.012152233 -0.13456155 -0.17070979 0.23111224 0.04957236 0.032243382 0.19854207 0.001159798 0.060801007 0.42255017 -0.16865 -0.20372044 -0.29242232 0.28324232 -0.23634313 -0.20394808 0.10715005 -0.16835178 -0.10743721 -0.517776 -0.14896762 -0.55849034 0.36725223 0.16060816 -0.17528085 -0.088005066 -0.49859297 0.047910657 0.06279481 0.42537642 -0.2519078 0.3896797 0.22894889 0.34058616 0.13118586 0.24718958 -0.17219058 0.026540274 -0.55250484 -0.07857306 0.5254944 -0.19604065 0.240943 0.028264247 -0.18705097 -0.31969488 -0.031577315 -0.59910405 0.050338805 -0.2709215 0.07472062 0.09422491 -0.18571529 0.013622243 -0.03578082 0.24211164 -0.0015402538 -0.4251793 -0.21729322 0.23043598 0.12156225 -0.36586466 0.24748291 0.0440183 -0.46496227 0.89321464 0.3973713 -0.40518007 -0.35404435 -0.35086566 0.12582345 0.44226325 0.17310941 -0.12008247 -0.32439238 -0.26692653 0.25466672 0.42663413 0.10012915 0.19950637 -0.08761728 -0.25157607 -0.40993997 -0.07489415 -0.049635626 -0.57786834 -0.036823597 0.106729336 -0.14173776 0.09273741 0.22184612 0.24196273 0.23302251 0.11447966 -0.41072872 0.0629417 0.07794378 -0.17113529 0.050663713 -0.0052293497
see 0.091318734 -0.04332194 -0.0032375923 -0.022879692 -0.023671092 -0.03884956 0.120347634 -0.13306876 -0.056146916 0.12016008 0.04463622 -0.10338921 -0.070252545 0.3864081 -0.21285908 -0.28144425 -0.02244989 -0.22421335 -0.19040228 -0.37217754 -0.08155093 -0.4084608 0.06718903 0.21401806 -0.31632933 -0.0646729 -0.23499778 0.16466501 0.07398433 0.3002713 -0.38723564 0.2835123 0.38215676 0.11515604 0.09984935 -0.17098698 -0.3075475 -0.10539768 -0.3582396 -0.025773624 0.5058107 -0.18829104 0.23932277 -0.26372987 -0.4605332 -0.3551898 0.03198667 -0.6058852 -0.21778142 -0.2498704 0.08329208 0.066222616 0.10023664 -0.009828275 0.0575982 0.17499618 0.1151158 -0.03055002 -0.33073097 0.21571031 0.028102813 -0.3610992 0.13466899 0.16629396 -0.29437703 0.6175728 0.38280505 0.017118841 -0.047449835 -0.392383 0.15130948 0.29216406 0.46183226 -0.09237225 0.07220096 -0.39526755 0.4053169 0.14093311 -0.06259906 0.26994705 -0.14559862 -0.1858327 -0.3311489 0.07305099 -0.2458277 -0.31805006 0.28878567 -0.012836083 0.037998803 0.112463 0.037801336 0.22126046 0.07697549 0.17235912 -0.175186 -0.007113298 0.06336088 -0.29414144 0.04610137 0.0680698
ve -0.14019665 -0.004823141 0.015761882 -0.25498948 0.19985273 -0.12092629 0.38378298 0.19406146 -0.27284414 -0.1367405 -0.006005481 -0.5959415 -0.1025462 0.06694241 -0.046863973 -0.26991874 0.32210743 0.10906401 -0.448591 -0.20367186 -0.019406378 -0.2758959 0.031981345 0.1100874 -0.13910782 -0.104918234 -0.08113918 -0.026447603 -0.09425908 0.17187816 -0.018065535 -0.02560313 0.31223798 0.3505385 -0.22759442 -0.3583011 -0.0594282 0.002556529 -0.2237916 -0.036369517 0.5782328 -0.19233996 0.2122032 0.1025072 -0.28006825 0.32464117 0.44073522 -0.69433844 0.10290672 -0.08626303 -0.19238427 -0.19922192 -0.2287701 0.19458951 -0.46896082 0.1696548 -0.06931772 -0.44745994 -0.13011797 0.006531745 -0.006273143 0.0063965917 -0.067312896 -0.26550034 -0.63356286 0.5552533 0.24897781 0.06929456 -0.18638591 0.081380166 -0.059927654 0.22403286 0.31665936 -0.07324524 0.07470964 -0.26855335 0.297657 0.1561799 0.24563462 0.08850474 -0.08267783 -0.40973803 -0.6333353 0.054286413 -0.22750765 -0.3113912 0.24564022 -0.15960765 -0.21794945 0.18230581 0.0027741678 0.34423554 0.3841908 0.16025668 -0.38409275 0.08273963 0.2923278 -0.0006801188 -0.16529477 0.022690102
think -0.1291948 -0.02389469 -0.14356191 0.076034345 0.08795836 -0.07559441 0.12849262 0.11911767 -0.040607497 0.44759858 0.06023191 -0.30431816 -0.34787717 0.28726313 -0.40236205 -0.20644124 0.18361753 0.0015626966 -0.32829732 -0.4472435 -0.17637418 -0.49640796 0.18972774 0.28467116 -0.31372407 -0.08510594 -0.37918854 -0.11828246 -0.1292091 0.6061701 -0.014743248 0.446057 0.36395186 0.15779339 0.194148 0.05568953 -0.3443096 0.094476625 -0.60482585 -0.3033477 0.5812422 -0.10259906 0.12519126 0.16962937 -0.21601792 -0.39416543 -0.07672201 -0.47587812 0.18950847 -0.25043726 -0.10266109 -0.024488099 0.033081207 -0.01110178 -0.038561646 0.36484447 0.0052776863 -0.39601055 -0.15020765 0.14866118 -0.26132515 -0.27617782 0.27495143 0.18514891 -0.41616783 0.77050143 0.410019 -0.40104988 -0.40079373 -0.324256 -0.018115904 0.48105824 0.18172643 -0.18280438 -0.36198744 -0.3017319 0.2656897 0.39504817 0.10068809 0.3473801 -0.055488493 -0.1692912 -0.21726777 0.0080814045 -0.04365662 -0.60032696 0.12921955 -0.18098618 -0.07363867 0.17534603 0.33710334 0.12360365 0.39164114 -0.076117426 -0.3690687 -0.011551282 0.039810553 -0.028516734 0.10297486 -0.08150922
your 0.30416232 0.30539373 -0.09802296 0.057833508 0.14309698 0.019558625 -0.32151827 -0.10493552 -0.17387752 0.53600895 -0.15203409 0.36690333 -0.13098322 0.08400511 -0.02546243 -0.21237446 -0.09280896 0.06710207 -0.0356644 -0.5284612 -0.03347095 -0.2877809 0.1235519 0.3186247 0.00575527 -0.23024307 -0.5617776 -0.09240496 0.0773641 0.4132017 0.03177828 0.50250113 0.36367738 0.17236494 0.16862716 0.09439501 -0.13567072 -0.19477397 -0.013894767 0.103662916 0.6014208 -0.3823002 0.1263272 -0.39481097 -0.22234696 -0.35541403 0.16802086 -0.36376917 0.15031457 0.20500708 0.001460471 0.7557132 -0.31035852 0.0404427 0.2167281 -0.07494814 0.051723853 -0.2695962 -0.09170983 0.09977336 0.04984167 -0.59432197 0.07050118 0.193687 -0.11090667 0.5925845 -0.09921124 -0.11823522 0.0050288574 -0.028139917 -0.04717429 0.28635874 -0.16490345 -0.34885135 0.02867319 -0.22159076 0.32880604 0.10800311 0.016103424 0.5049403 -0.005036971 -0.23294128 -0.1656371 0.151484 -0.19881101 -0.4719319 0.4739873 0.11710007 0.034094304 0.04203961 -0.28070244 -0.13456796 -0.22062221 -0.21520704 -0.3710967 -0.17213282 0.13342899 -0.08582989 0.43569148 0.05308465
get -0.029737402 0.11546372 -0.16696055 0.11280718 0.17679381 0.053992756 0.050900795 0.12789106 -0.095181964 0.24416181 -0.022512391 -0.00023488062 -0.032069623 0.32170218 -0.23065336 -0.277593 -0.100522876 -0.4392147 -0.08891115 -0.4014027 -0.13421938 -0.37582237 0.008920304 0.07089521 -0.29987478 -0.19320872 -0.28894904 -0.09806458 0.07190472 0.45098433 -0.24545325 0.16952251 0.38017413 0.15223019 -0.02332228 -0.08424815 -0.15570916 -0.0013290942 -0.35443148 0.059084296 0.51012623 -0.06102248 0.25467697 -0.2433979 -0.26627254 -0.26213992 0.035273325 -0.48357806 -0.035110418 -0.118632115 -0.07898583 0.235297 -0.13989997 -0.039243434 0.026358524 0.08631448 0.17245032 -0.182215 -0.09464959 0.14627388 0.11600481 -0.24784482 0.19790943 -0.0283455 -0.27145246 0.5448961 0.24044275 -0.0065181428 -0.1160693 -0.17057265 0.07470924 0.2877683 0.27151737 -0.10688581 0.06098231 -0.44495195 0.33146933 0.13255036 -0.19428349 0.1997542 -0.16024719 -0.21754257 -0.06927904 0.0262042 -0.2345688 -0.40112972 0.14144443 -0.015207524 0.15244207 0.028550597 -0.04106443 0.118126564 0.15016167 0.14102665 -0.1665683 0.07822853 0.067456044 -0.15220295 0.093669854 0.059779692
could -0.20783834 0.16823581 -0.19392629 -0.20001392 -0.31565362 -0.30576995 0.19714849 0.22318493 -0.18374677 0.2337967 -0.16564748 -0.26574072 0.18058428 0.22481982 -0.3007739 -0.27230752 0.1512354 -0.22796874 -0.46166086 -0.28769502 -0.24320692 -0.05335641 0.09388318 -0.21845913 0.04887 -0.21620566 -0.31825835 0.09023129 0.060940027 0.13203074 -0.015350423 0.21838304 0.2599511 0.26379153 0.07629275 0.1575556 -0.5385614 0.30345026 -0.24848829 0.12507388 0.21341276 -0.05247255 0.6595968 -0.08391202 -0.12949385 -0.037284113 0.13196905 -0.15476659 -0.23211455 0.13781364 -0.1562205 0.17563058 -0.16218539 -0.2616682 -0.10826938 -0.059703875 0.09452411 -0.27468464 -0.4787721 0.15256974 0.054457154 -0.5874834 0.3387121 0.11359076 -0.35580534 0.5624459 0.4525882 -0.25388938 -0.052488975 0.051783476 -0.029096479 0.5078017 0.11533707 -0.36825427 -0.33091652 -0.3272981 0.23557547 0.14178175 -0.09064844 0.41884634 -0.3198305 -0.34379 -0.29253095 0.17868772 0.025915062 -0.5171187 0.15741618 -0.22642522 -0.25526616 0.077831514 -0.09748312 0.23495434 0.020268535 0.09529047 -0.11771504 -0.090330556 0.012361409 -0.16856766 0.132187 0.06421405
been -0.04072361 -0.13255249 -0.056316193 -0.36218283 0.20637299 -0.18483858 0.4090886 -0.0018259301 -0.318138 -0.16651453 0.0015195541 -0.29422876 -0.31983447 -0.007543542 -0.4201645 -0.092857726 0.26978377 0.10247109 -0.33087972 -0.06749243 -0.17134821 -0.119520165 -0.033471473 0.05667844 -0.011454647 0.091252804 -0.37349766 -0.024430506 -0.24494405 0.00020333311 0.06866162 0.13283797 0.7080351 0.3355479 0.06617322 -0.21276174 -0.07407833 -0.16239709 -0.22148648 -0.3526672 0.28787863 -0.33951026 0.4246209 0.17568675 -0.19179231 0.18754359 0.15292336 -0.26532066 -0.07998974 -0.04402502 0.20450269 -0.030328231 -0.19279514 -0.19009472 -0.5315165 -0.22148146 -0.18352586 -0.57928956 -0.17144166 -0.081778795 -0.06990435 -0.22299041 0.28273165 0.08791702 -0.4150526 0.51553935 0.27342087 0.09773364 -0.2925816 -0.06101425 -0.15402816 0.2592297 0.5909087 -0.03861321 0.16493993 -0.30258933 0.42376077 0.19426428 -0.283402 0.28977394 -0.15401393 -0.55320305 -0.47051153 0.23004647 -0.23345147 -0.43982315 0.49527228 -0.3098142 -0.15222956 0.14155568 -0.031443276 0.6637334 0.5458879 0.1848581 0.13589296 -0.037285067 -0.09566731 0.14788698 0.027808 -0.18755366
m 0.20429677 -0.028493172 0.050333846 -0.07556465 0.26077563 -0.0021159835 0.13809398 0.12074876 0.1291515 0.20647041 -0.064696446 -0.063913986 -0.4313807 -0.08177328 0.015162174 -0.19156966 -0.0057636397 0.03489401 -0.23738508 -0.13817213 -0.08447934 -0.283294 0.17937261 0.263655 0.16142373 -0.05956381 -0.45288593 -0.06841998 -0.043956794 0.23679934 0.041863978 0.15218066 0.15178958 0.034993183 -0.13644405 0.13588224 -0.28104448 -0.18401009 -0.1657345 -0.124271944 0.24780989 -0.13378759 0.09564706 -0.18532567 0.015138555 -0.1592233 -0.02571731 -0.47267878 0.06698607 0.046959344 -0.21993032 0.10097281 -0.3026189 0.2869696 -0.10460884 0.07052174 0.10009868 -0.53163636 0.025292 0.04476775 -0.12895744 -0.15638341 0.17794187 -0.1274636 -0.27488643 0.49715918 0.254036 -0.20535553 -0.08681089 -0.0052907006 0.1432108 0.113596275 -0.17895901 -0.2244561 -0.33315408 -0.13146865 0.22975776 -0.056926616 -0.3917055 0.20199262 0.17859423 0.005516868 0.05084784 0.086369164 -0.00032058544 -0.37821695 0.0044923406 -0.039904423 -0.25983495 -0.11614353 -0.04574316 -0.117626294 -0.059736565 -0.05277552 -0.10444649 0.21540906 0.15590777 0.097415306 -0.18442489 -0.24774727
has -0.30718628 0.22526813 0.15318276 -0.041681748 0.120219246 -0.05072077 0.025372846 0.5248308 -0.09198939 -0.28113928 -0.20084576 -0.31915396 -0.045602184 -0.08696674 -0.052203443 -0.1499648 0.5656618 0.10920315 -0.24626653 -0.21394536 -0.3734127 -0.032203037 -0.060682885 0.13800387 0.031926475 -0.14581308 -0.60286474 0.13328612 -0.22981973 0.19250111 -0.12183512 0.065195814 0.19716917 0.46944985 0.05809429 -0.37826 -0.19869193 0.04496207 -0.07660409 0.023882074 0.24110027 0.043809604 0.42719463 0.07830556 0.060210645 0.08321768 0.11944204 -0.3531273 -0.13326345 0.1534083 0.1776646 0.032118317 -0.06792848 0.034621898 -0.19771454 -0.08025413 -0.16308345 -0.43967316 -0.04869226 0.084820494 -0.17443445 -0.09441873 0.09819665 -0.11123955 -0.65003914 0.2250586 0.22261466 0.063715324 -0.27802518 0.15123579 0.030779673 0.3168533 0.34827968 -0.24237363 0.18449649 -0.45009246 0.12813517 0.112574 -0.23369196 0.08202772 -0.45154816 -0.5031447 -0.44787082 0.24186735 -0.10456281 -0.31555748 0.2759264 -0.09183096 -0.31900468 -0.13272296 0.1226729 -0.04488643 0.49002764 0.18537153 3.9168768e-07 -0.1729378 0.27363962 0.20008169 -0.04930708 0.46180987
into -0.10236993 0.4747983 0.041072465 -0.0032120415 0.17055665 0.05423807 -0.097788356 0.33785054 -0.028241502 -0.015520544 0.024147384 -0.1471063 0.16568023 0.3189851 0.05459759 -0.40639105 0.063591115 -0.4363637 -0.21000935 -0.45672014 -0.22354493 -0.042467892 -0.2798015 -0.18041705 0.056894135 -0.36605212 -0.34556025 -0.0143893715 0.15019904 0.1731694 -0.22556934 0.20350537 0.06045798 0.13133223 -0.04059147 0.10949922 -0.15358411 -0.0039529144 -0.05559541 -0.050080452 0.34688902 -0.12645131 0.4247282 -0.348577 -0.19683298 -0.067365535 -0.07539594 -0.35764492 -0.24387099 0.033134338 0.035552286 0.15995051 -0.10390096 -0.17287248 -0.084116176 0.016047355 0.08928637 -0.055617597 -0.083375916 0.03453446 0.08493749 -0.41983655 0.102158025 0.043940473 -0.2167488 0.363933 0.073620476 0.27369118 -0.096449904 0.27475166 0.12934113 0.3203371 0.23668666 -0.31389928 0.0020237835 -0.519041 0.38530537 0.021128504 -0.3401826 0.10126997 -0.06021345 -0.24411096 -0.01240195 0.126788 0.014246991 -0.37669265 0.2273071 0.02863 -0.10756688 -0.08421625 -0.18806905 -0.0017576028 -0.06641403 0.19912921 -0.31121048 -0.08193728 0.05980172 -0.35008895 -0.0017909415 0.1601128
going -0.006308303 -0.047502857 -0.4203127 -0.18781258 0.2663473 0.25053868 0.17198534 0.19157912 -0.17949468 0.5112719 -0.44543037 -0.48388496 -0.072135955 0.41851854 0.010171678 -0.27350035 -0.07114229 -0.5329873 -0.0955981 -0.5401324 -0.15708369 -0.23993775 0.08869431 -0.092079625 -0.047416873 -0.36998126 -0.48430392 -0.4762185 -0.035025764 0.55816686 -0.20689681 0.22314061 0.21871328 0.0013481915 0.3664451 0.16750067 -0.30505258 -0.037443448 -0.370041 -0.31862602 0.5932472 -0.24691406 0.06960836 -0.58223504 -0.10175656 0.14237732 0.08698011 -0.3163188 0.25101256 0.09566695 -0.37185997 0.34315977 -0.28430712 -0.044055633 0.14979437 0.18896571 -0.015455377 -0.53759176 -0.15519434 0.36196688 -0.27829564 -0.7303981 0.39277032 -0.1704215 -0.2724462 0.50872546 0.12294856 -0.49777415 -0.2621406 0.00035808882 -0.055562697 0.33695686 0.062486302 -0.107674055 -0.3919328 -0.17720799 0.29813394 0.22852261 0.28977987 0.28737128 -0.12007905 -0.034644224 -0.22415628 -0.14613171 0.019509383 -0.62222314 0.29929855 -0.20247889 -0.13272631 -0.15112804 0.16794711 -0.21895218 0.35813352 -0.058232773 -0.1453306 0.34596264 0.09827472 -0.017730653 -0.18786469 -0.20295142
where 0.0695805 0.08736704 -0.14614777 -0.113641426 -0.03170321 0.05181978 0.14060631 0.22538593 -0.12531702 0.09309983 0.012222322 -0.32708254 -0.08168231 0.68769383 -0.072009124 -0.42382526 -0.0016833763 -0.4312609 -0.056394458 -0.42786142 -0.14172207 -0.24793902 -0.23373738 -0.014222813 0.0025572102 -0.3497119 -0.3381515 0.008795764 -0.0035946805 0.2920372 -0.23488449 0.26479217 0.20694955 -0.16780315 0.111705825 0.23867545 -0.16901404 -0.061434697 -0.19843453 -0.17721096 0.5274204 -0.17492838 0.14910452 -0.28529352 -0.3063159 -0.08077845 0.07194703 -0.35516065 0.050756637 -0.15834737 -0.060157657 -0.054431684 0.029182468 -0.18421888 -0.10854856 0.072781414 0.110601306 -0.22502686 -0.33515418 0.11382962 -0.1596125 -0.40152115 0.15661176 -0.03824493 -0.0699114 0.24155833 0.039493565 -0.06317026 -0.12882592 0.10767717 0.027904486 0.36322135 0.21822466 -0.24295452 0.018821282 -0.3923797 0.32443026 0.29960576 -0.007645281 0.11304618 -0.05038189 0.063208096 -0.26563123 0.15517299 0.13433684 -0.53745466 0.3484107 -0.06504876 0.039275564 0.050011612 0.16170025 0.051830325 0.043266773 0.09283637 -0.53496283 0.09542287 -0.061844923 -0.32842624 -0.2479728 0.077391915
don -0.14717743 0.12599298 -0.374458 0.22398269 -0.111898944 0.12070178 0.26245287 0.10709764 -0.06566639 0.48331895 -0.28350264 -0.08571867 -0.050979584 0.3558118 -0.24254979 -0.25890046 -0.15086992 -0.318989 -0.137962 -0.58563 -0.032492094 -0.4127935 0.45427626 -0.07661567 -0.0042095375 -0.08342148 -0.3739592 -0.0175702 0.28859773 0.33957982 -0.04425053 0.42581135 0.21540226 0.42139456 -0.07753067 0.47246978 -0.17953083 0.0044703567 -0.48365507 0.031131284 0.55323315 -0.39871457 0.49100018 0.035235148 -0.14479299 -0.31717053 -0.04307913 -0.20854889 0.006514711 -0.24997234 0.045715112 0.24714217 -0.23407228 -0.14570734 -0.0105527565 0.16396923 0.114921786 -0.46326834 -0.117454186 0.0182673 0.3747776 -0.4277205 0.25424862 0.019699981 -0.1942546 0.90804523 0.25815025 -0.25694397 -0.29113832 -0.1411606 -0.09478382 0.40315077 0.07075282 -0.2041943 -0.25621724 -0.13052411 0.23500113 0.46916595 0.12864883 0.17863178 0.020464914 -0.4116786 -0.30434695 0.03491158 0.20980966 -0.68937165 0.044141054 0.063234985 -0.11563415 0.11215033 -0.03082693 0.44268808 0.18573868 0.16560014 -0.4978776 -0.023998793 0.017999304 -0.28811795 0.35504228 -0.057594065
really -0.21510436 -0.10810747 -0.37036636 0.17642152 0.12425054 0.09045108 0.28701892 0.24936616 -0.18372476 0.3466182 -0.23365359 -0.2979923 -0.20016499 0.3058197 -0.34509683 -0.25197345 0.28652748 -0.27043226 0.01826094 -0.5490355 -0.19313535 -0.37107655 0.18877411 0.09131685 -0.09751658 -0.2918795 -0.59920883 0.0009913837 -0.041435212 0.5552393 -0.127701 0.34532273 0.16953094 0.18104224 0.10901943 0.22451283 -0.2899725 -0.04355262 -0.3517866 -0.21759844 0.4947741 -0.124721326 0.17253344 0.0943861 0.046460725 -0.20536864 -0.09243058 -0.30633137 0.10857129 -0.22259389 0.024810886 0.028294858 -0.112103164 -0.14079428 -0.06479544 0.13801563 -0.003750562 -0.4574847 -0.12924363 0.043006122 -0.16289286 -0.4121798 0.3935814 -0.037370715 -0.3706776 0.5060815 0.23757741 -0.25654456 -0.5256905 -0.13875644 -0.13928397 0.2716941 0.13247319 -0.06117022 -0.3078153 -0.28297147 0.19178547 0.443913 0.01133771 0.21388556 -0.12847388 -0.12764752 -0.19856057 0.20722583 0.20085987 -0.705443 0.023121871 -0.118264176 -0.07839546 0.004729804 0.28778723 0.057535686 0.43505698 0.013933766 -0.30407038 0.033249706 0.05099657 0.109253734 -0.12489457 0.119475104
first 0.0770621 0.12665635 -0.15410441 -0.090942815 0.16845463 0.08148544 0.09865847 0.3804103 0.04029206 0.25153485 0.09701203 -0.20337278 -0.11474241 0.4767821 -0.28774112 -0.1929424 0.2896544 0.15508264 -0.21842356 -0.2843362 -0.2452428 -0.44565707 0.06514048 0.18802454 -0.19647746 -0.2827471 -0.3930664 -0.14533372 -0.09221535 0.29566634 -0.16758053 0.4296193 0.1648088 0.40804598 0.14288156 0.06451867 -0.3168423 -0.2644709 -0.084989615 -0.086418085 0.34036842 -0.29522175 0.2177088 -0.041924406 0.006574079 0.22606745 -0.15916876 -0.39978185 -0.18287188 -0.14486831 -0.018627975 -0.09655995 -0.11965888 -0.06547748 -0.047740262 -0.119233325 0.002365132 -0.231551 0.015534111 -0.33165377 -0.043781076 -0.27834436 0.03832113 0.0648143 -0.50182664 0.49306357 0.14972213 0.063742414 -0.36524555 -0.034675345 0.18686178 0.23530544 0.06575196 -0.18698992 -0.28124332 -0.2808636 0.35994288 0.16515632 -0.07680371 0.27342185 0.043071218 -0.47824737 0.032895092 0.055393696 -0.0557376 -0.37693208 0.45288378 -0.3590429 -0.03257575 0.030717948 -0.057672285 0.21992047 0.08364367 -0.012387115 -0.28786743 0.042658262 0.18794617 -0.17926763 -0.023453172 -0.23023127
then -0.07376962 0.06612762 -0.27959305 -0.10417754 0.23300882 -0.08227353 0.28168544 0.19357495 -0.24950153 0.2687086 0.15007126 -0.27695164 -0.13662286 0.3894578 -0.31315887 -0.22554637 0.1009825 -0.31886703 -0.26106584 -0.27606967 -0.1374404 -0.20278779 -0.064827904 -0.053312503 -0.13991685 -0.313052 -0.2482933 -0.3185916 -0.021409748 0.3452083 -0.19971976 0.16248387 0.43638805 0.06745662 0.049562987 0.032344088 -0.15108016 0.054166615 -0.120953806 -0.041921627 0.3792906 -0.2719804 0.27521446 -0.13212828 -0.116622016 -0.017706752 0.005270206 -0.36987913 0.038950786 -0.11117946 -0.1316919 0.07172998 -0.039511323 -0.43999472 -0.13954449 -0.1777143 0.0811617 -0.16515116 -0.15148444 0.051451195 0.07021007 -0.35347855 0.17522992 -0.027419258 -0.34589696 0.38433015 0.21752836 -0.030334257 -0.28948155 0.07561278 -0.08645347 0.19936943 0.15741415 -0.03535919 -0.0436779 -0.48940304 0.45722294 0.17591338 0.01090917 0.2574285 -0.15267657 -0.27622336 -0.11408524 0.021288527 -0.11571796 -0.44516936 0.25597346 -0.2344796 0.01822677 0.11392605 -0.025676126 0.2266137 0.14647067 0.12488814 -0.22489496 -0.029836327 0.045118965 -0.19311768 0.03728189 0.0068704267
no 0.1311756 -0.16697212 -0.068435185 -0.112178996 -0.068162866 -0.20907092 0.1921765 0.020554293 -0.23549728 0.21291313 -0.054977514 0.036067843 -0.51085573 0.18358828 -0.40127316 -0.13609879 0.32282084 -0.019652529 -0.089911014 -0.1587797 -0.2781916 -0.08872759 -0.16208817 0.06871191 -0.029706204 -0.067810476 -0.65690154 0.080694586 -0.22930738 0.3339029 -0.003679935 0.32385224 0.43729025 -0.029152472 0.075238116 0.18975754 -0.5851543 -0.19737613 -0.11209641 -0.2706777 0.19452372 0.0009900322 0.24613449 -0.053719033 -0.050475616 -0.12849815 0.015176773 -0.35343352 -0.012000035 -0.11939198 0.33223462 -0.07642489 -0.05792939 -0.13962182 -0.21911871 -0.13444886 0.085407436 -0.50127053 -0.35254288 0.0070483685 -0.32849425 -0.3208878 0.27654463 -0.012914036 -0.15709496 0.1819635 0.081658095 -0.29788685 -0.24431078 -0.04044932 -0.11070453 0.24592784 -0.069104075 -0.14517838 0.10060502 -0.37361464 0.1837572 0.31471598 -0.46789217 0.29312637 -0.20388538 0.014262769 -0.30297685 0.48198438 0.08400522 -0.3603486 0.09281856 0.016515134 -0.15137795 -0.13570537 0.33712876 0.22154309 0.29464057 -0.040577266 -0.07544861 -0.028742865 -0.057898786 0.26210105 -0.27721637 0.36070627
years -0.0048057754 0.37888995 0.07408379 -0.3481354 0.103041776 0.22171088 0.20672618 0.15608193 0.11903376 0.015900875 0.2516599 -0.018972155 -0.6815993 0.6380201 -0.2982611 -0.06843192 -0.0258568 0.056261495 -0.068495005 -0.3339211 -0.4374474 -0.38105246 -0.0040772953 0.11436954 -0.20336668 -0.0019184358 -0.22338052 -0.21064277 -0.20079045 -0.21046367 -0.153785 0.4237331 0.63552654 0.6514541 -0.13024047 -0.23220389 -0.028410263 -0.053242024 -0.2988254 0.35739508 0.34413084 -0.22569735 0.3513972 -0.106005326 -0.19941114 0.039587703 0.0045563835 -0.5630615 -0.16967407 0.26681912 0.18759996 0.13727713 -0.12086337 -0.019314464 -0.16491053 -0.40275827 0.036064457 -0.5238303 -0.18029064 -0.29245836 0.00876074 0.19394466 -0.35046595 0.109986335 -0.45407858 0.27271625 -0.088164456 -0.006085976 -0.10900993 0.20206186 0.18671244 0.37995803 0.37107092 -0.55324465 0.40775833 -0.6564425 0.25842866 0.24260107 -0.27252546 0.2026282 0.04244958 -0.581471 -0.04873841 0.25326034 -0.22426273 -0.42141476 0.68644434 -0.36316335 -0.08229016 0.2908735 -0.42882243 0.8394404 0.04038348 0.20263338 -0.17452571 0.26234755 0.101272725 -0.22803107 0.20848916 -0.1881982
