3380 100
the -0.38061547 0.24169607 0.52604836 0.36154896 -0.6759418 -1.1043657 0.6411868 1.124726 -0.8870773 -0.38327086 -0.03110121 -0.46476167 -0.21000062 0.010243896 0.49718744 -0.525617 0.16801868 -0.2116968 -0.24689856 -0.9402392 0.17015353 0.46407714 0.39696038 0.20175505 -0.10783253 0.37503225 -0.13260156 -0.23077463 -0.5155874 -0.42124835 0.04381341 -0.051285114 0.15135626 -0.32648137 0.36554557 0.16121459 0.571785 -0.33923146 -0.08175991 -0.34175307 -0.41552323 -0.5179316 -0.60169345 0.38431504 0.7196399 0.03702264 -0.34928927 0.46840784 0.15106754 0.09220394 -0.15059952 0.12423554 -0.079008356 0.021829952 0.0987093 0.084649526 0.09983392 0.044959392 -0.19401456 0.3253672 0.22181171 0.36815447 -0.35197476 -0.019666193 -0.3825594 0.12551613 -0.16264564 0.7964897 -0.20564549 0.6396678 -0.25544074 0.41076857 0.88347155 -0.62961096 0.21672054 -0.0519644 0.20755549 0.051389087 -0.21588084 -0.2454069 -0.13933025 -0.14719665 -0.16161513 0.4470265 -0.019982513 -0.14892477 0.2216974 0.4858787 0.7691753 -0.40336645 0.11189655 -0.12229197 -0.0028467004 0.45480868 0.920542 0.29010415 0.3952631 -0.5359515 -0.30308306 -0.16294822
and -0.091838956 0.2881635 0.22374673 0.15908644 -0.033628672 -0.76274925 0.551778 1.0552566 -0.69313043 -0.18150267 -0.19070573 -0.5257018 0.113256656 -0.002802428 0.36617544 -0.47105625 0.024569592 -0.21182849 -0.08602563 -0.9265253 0.20816672 0.16984208 0.25929153 -0.05782609 -0.33218545 0.35838366 -0.0076239053 -0.14045286 -0.23458284 -0.1718803 0.3531275 -0.11113103 0.10156578 -0.3915085 0.11498634 0.65136695 0.36522952 -0.2986106 -0.098538674 -0.5649357 -0.027677631 -0.33616096 -0.40684673 0.22283822 0.57683605 -0.09992822 -0.13920519 0.03127707 0.20247707 0.08730152 0.08410234 -0.2162005 -0.1105202 -0.22745773 -0.09922441 0.21828294 0.09053675 -0.08635403 -0.39516687 0.032208797 0.06516264 -0.11838003 -0.050442457 0.036072455 -0.48022032 0.5239879 -0.0019572196 0.69468755 -0.52264875 0.6027283 -0.30239338 0.120468594 0.6312827 -0.14953235 0.51610464 -0.07397837 0.04218603 0.00071660604 -0.28840896 -0.06352034 -0.23817861 -0.032234564 -0.49660432 0.58466613 -0.011647662 -0.16921827 0.32375014 0.4509762 0.8570892 -0.119692266 0.25123984 0.08384896 0.22058415 0.18785429 0.6745751 0.23851468 0.39370745 -0.3935236 0.23603448 -0.17734304
to -0.19596332 0.50395924 -0.06936755 0.28803995 0.23315962 -0.42759734 0.53300595 0.8969908 -0.89477295 0.11971653 -0.30240858 -0.54196566 0.56547934 -0.15909794 0.4482445 -0.23705669 -0.053985108 -0.19383366 -0.20571369 -1.1534634 0.19509739 0.019476345 0.5122878 -0.30746394 -0.3887774 0.25456792 0.36182913 -0.3416974 -0.122570686 -0.09939263 0.6323407 -0.10613369 0.17493278 -0.20574696 -0.040714726 0.8834631 0.22971763 -0.38250613 -0.092862755 -0.6449234 0.07956863 -0.2466487 -0.4468336 0.13312234 0.5250881 -0.08897125 -0.18199602 -0.12921579 0.20379709 0.022124624 -0.032704398 -0.30758747 -0.18698327 -0.21325631 -0.34246093 0.13564236 -0.025745025 -0.43634915 -0.58976763 -0.187469 0.3508229 -0.19242641 0.17263824 0.13096158 -0.67323923 0.68006396 -0.22328073 0.58802706 -0.62880206 0.70815194 -0.42903456 0.056987587 0.47769317 -0.08491912 0.4899538 -0.17548634 0.26764116 -0.09656763 -0.2263574 -0.058117725 -0.12167705 -0.10715395 -0.6859915 0.68742114 -0.13240127 -0.45889744 0.08521061 0.4424929 0.82358277 -0.10738227 0.28964373 0.085429564 0.39311892 0.04981163 0.6015345 0.3186677 0.42107737 -0.6593707 0.62039346 -0.34490755
of -0.37656233 0.16173089 0.7659564 0.3777414 -0.6302232 -1.1510636 0.75282574 1.4689705 -0.7522425 -0.66383296 -0.050761502 -0.50066733 -0.1790089 -0.05555533 0.6709405 -0.98208165 0.16518287 -0.1445678 -0.20389003 -0.62609714 0.16711953 0.37276193 0.1943983 0.2665316 -0.1927072 0.5161438 -0.24237463 0.1928784 -0.42019406 -0.30924854 -0.101134606 -0.22340707 -0.20657118 -0.443328 0.42884028 0.1725892 0.6717565 -0.36721638 -0.3079797 -0.24705268 -0.55352324 -0.5315144 -0.588489 0.47909594 0.8712423 -0.06925373 -0.1306076 0.3322203 0.0037945881 0.007007167 0.03468628 0.116469964 -0.11609059 -0.31073982 0.09618199 0.24527234 0.07407197 0.44450003 0.08952323 0.2514282 -0.00931266 0.426116 -0.5382923 0.098415 -0.45227048 0.28973606 -0.0027580454 1.0209787 -0.24794506 0.5943955 -0.10196818 0.33213654 1.0416776 -0.33649147 0.1818656 -0.14156424 -0.05760119 0.07795498 -0.46964058 -0.25175813 -0.3348629 -0.11095649 -0.1441921 0.30010295 0.18283027 -0.18498456 0.30228028 0.31190747 1.007397 -0.5780238 -0.0066706864 -0.3161681 -0.10459651 0.5194605 0.8562285 0.17524724 0.630084 -0.37532607 -0.45071688 -0.30143893
a -0.12910055 0.28327453 0.2865802 0.024799386 -0.23891805 -0.9431124 0.51508075 1.3028125 -0.6343912 -0.4228329 -0.28593606 -0.5338662 -0.30951768 -0.009980531 0.15596558 -0.52748835 0.37382165 -0.16002162 0.22207458 -1.1727889 0.073307 0.31485206 0.20622264 0.14171766 -0.12023455 0.4993401 -0.5124088 -0.15622227 -0.45983452 -0.30137432 0.19541064 0.009677593 -0.034064986 -0.426553 -0.079088464 0.27191958 0.46573725 -0.29550943 -0.09260589 -0.4632206 -0.11403015 -0.2073042 -0.420674 0.09932175 0.6010104 -0.30657586 -0.17214212 0.14322227 0.25851104 0.29153588 0.077508114 -0.14693244 -0.3411744 0.075561024 -0.14033858 -0.10150436 0.15588431 -0.048936985 -0.24601884 -0.025110945 -0.00046417865 -0.020494422 0.083232164 0.103107125 -0.37898046 0.32749632 0.05789307 0.49072835 -0.30702117 0.34482485 -0.11615626 0.53123194 0.7122121 -0.31744176 0.6022472 0.07834051 -0.1713648 0.20026906 -0.26417944 0.052324113 -0.064737156 -0.15057595 -0.16499381 0.5792813 0.035855513 -0.101833075 0.4863832 0.5997961 0.7312269 -0.09416774 0.17992091 0.46465072 0.2819001 0.19169714 0.97307134 0.10443871 0.44794 -0.048052777 -0.0008259801 0.02884605
that -0.17285031 0.3843192 -0.04057722 0.12727264 -0.17673911 -0.6429964 0.46807697 0.95774597 -0.6580883 -0.17253438 -0.16058277 -0.5047842 0.11460072 0.020697836 0.24854246 -0.17743982 0.28049627 -0.26543695 0.009664952 -1.233112 0.19429137 0.23479752 0.4986781 -0.22091769 -0.41270927 0.36978358 -0.10946164 -0.37196004 -0.12613936 -0.1740224 0.52233404 -0.0371891 0.17947263 -0.28088552 -0.1928479 0.76043725 0.33523175 -0.40880406 -0.11825656 -0.48255318 0.22754146 -0.2694321 -0.28916344 -0.03688973 0.46933946 -0.23653442 -0.1952479 0.10414024 0.31566015 0.10789821 1.3600517e-05 -0.3416341 -0.15601738 0.1364897 -0.32533363 0.15352325 0.11929906 -0.27586403 -0.4898003 -0.23366632 0.25129113 -0.037842967 0.36651844 0.20606758 -0.4448286 0.608269 -0.2577288 0.36678767 -0.62294865 0.492407 -0.19538446 0.31279114 0.47492573 -0.18445835 0.63852704 -0.07512529 0.07206147 0.07921348 -0.15962727 0.044225737 -0.027073553 -0.2058081 -0.5143409 0.80181426 -0.005179943 -0.36732477 0.26025856 0.6346932 0.55244195 0.027597828 0.2419493 0.38759536 0.20987754 0.004684857 0.5697813 0.24006948 0.24964815 -0.33113384 0.3965182 0.016088063
i 0.29457387 0.3823042 -0.19483852 -0.15745252 0.44173408 -0.5348306 0.65904593 0.85385084 -0.8061878 -0.096723035 0.018431967 -0.4025084 0.13275038 0.3164928 0.03707727 -0.16191985 0.6945909 -0.24930671 0.25941014 -1.8178475 0.24083425 0.14554355 0.9053622 -0.34784073 -0.4617467 0.435565 -0.44970384 -0.61850977 -0.08224053 -0.1575987 0.7445935 0.14412954 0.19678786 -0.17790511 -0.55300486 0.983431 -0.1254561 -0.517858 -0.5195756 -0.76412433 0.6760479 -0.30118513 -0.123185106 -0.29211593 0.344915 -0.20962113 -0.39912698 -0.4109651 0.16900921 0.32023314 0.20251483 -0.62602663 -0.59629387 0.40165022 -0.6024045 -0.13637821 0.108211026 -0.6200189 -0.6699467 -0.60846007 0.021107666 -0.70851403 0.6526265 0.26896173 -0.5388599 0.8179631 -0.33460426 0.10358454 -0.9345668 0.092937075 -0.24896984 0.58882624 0.28419837 0.28321105 0.8766617 -0.1683724 0.1607965 0.13723736 -0.16402426 0.4314256 0.28512648 -0.37553057 -0.55829626 0.89539856 -0.2238803 -0.42703807 0.4255864 0.6692548 0.41661125 0.45660815 0.42914334 0.76592386 0.31036577 -0.305453 0.5677065 0.192334 0.62787795 -0.14839943 0.64438784 0.07363012
in -0.2583675 0.17971542 0.68961066 0.32725063 -0.5001133 -1.0652276 0.71704626 1.289794 -0.80814797 -0.5230938 -0.0924776 -0.50749964 -0.052444678 -0.005375163 0.58100873 -0.8384932 0.096114084 -0.13582318 -0.1852982 -0.78554004 0.23037352 0.3858028 0.20862165 0.15495881 -0.1730371 0.44537708 -0.16487621 0.07547469 -0.38725102 -0.2732996 -0.022278914 -0.1517304 -0.12694606 -0.43603146 0.35876226 0.25673708 0.5572273 -0.3139179 -0.24637435 -0.35325116 -0.4511434 -0.5075646 -0.5524029 0.44528776 0.79241216 -0.085711375 -0.1872703 0.25637057 0.07591645 0.049741022 -0.019814696 0.07064276 -0.093248 -0.25620514 0.048681628 0.23136714 0.025666513 0.2776251 -0.07926848 0.21578673 0.0501337 0.24974392 -0.44567272 0.08887551 -0.48883203 0.32673293 -0.031860013 0.9365072 -0.27018034 0.6250513 -0.16837162 0.32535955 0.9607785 -0.36311957 0.21346734 -0.11324314 0.040800694 -0.004175635 -0.37640113 -0.22037047 -0.28156185 -0.14254604 -0.27575243 0.3301809 0.10981661 -0.15317857 0.24944979 0.3550197 1.0077486 -0.41599363 0.08257348 -0.22657105 -0.04077092 0.47225025 0.79543376 0.20660867 0.5515976 -0.40435287 -0.2918287 -0.32285544
we -0.15800104 0.451653 -0.12707622 0.17305775 0.20117348 -0.3732597 0.74910897 0.6626332 -0.9700132 0.04289946 0.096785136 -0.4328914 0.63715416 -0.15978053 0.61299884 0.26433614 0.13332613 -0.24769373 -0.17615657 -1.6511241 0.28630593 0.10424335 1.2650155 -0.5522054 -0.54682463 0.47077093 0.21484043 -0.8635875 0.21979748 -0.1610747 0.7993069 -0.11930678 0.4926201 0.18593739 0.039766237 1.1198902 -0.065617666 -0.48189476 -0.3980719 -0.7579978 0.30407107 -0.41437805 -0.34616902 0.033443213 0.13361512 -0.27411112 -0.22363912 -0.12869619 0.029110817 0.017655488 -0.26120812 -0.45004794 -0.2648443 0.23422095 -0.46395886 0.048299134 -0.107904024 -0.68909144 -0.57909423 -0.31564322 0.3676743 -0.28450602 0.7236807 0.430304 -0.82481724 0.80055517 -0.7134676 0.24099545 -0.81112564 0.7401087 -0.24769616 0.29642567 0.31935737 0.13991003 0.5917516 -0.42767096 0.4631441 -0.2503948 -0.10047792 -0.027402265 0.12561335 -0.04558438 -0.5803573 0.854722 -0.3290391 -0.55906767 -0.004541069 0.58010423 0.2916688 0.03206101 0.5088806 0.18157841 0.32279783 0.10814273 0.2535366 0.4421056 0.4459051 -0.7287283 0.59284997 -0.33077422
it -0.022276383 0.35175347 -0.3083169 0.066598065 -0.016971635 -0.56760514 0.27606246 1.140363 -0.48483875 -0.3753425 -0.21486087 -0.6302122 -0.106293686 0.10736254 0.04912296 -0.033663273 0.62383986 -0.20138247 0.33154756 -1.6038052 0.10344006 0.107604876 0.32907537 -0.29914653 -0.36034286 0.39673623 -0.4686043 -0.28773707 -0.085446365 -0.18826433 0.60796005 0.08855334 0.14596026 -0.2728783 -0.6197011 0.698517 0.4124091 -0.4660556 -0.08617375 -0.43944043 0.44505253 0.019901961 -0.08578584 -0.3479389 0.34961066 -0.4274435 -0.1783782 0.034299135 0.45435464 0.36147624 0.1300122 -0.49874842 -0.34589124 0.38079432 -0.42326018 -0.03694684 0.18018022 -0.32178384 -0.48345545 -0.407283 0.100018464 -0.14413467 0.8044431 0.33506775 -0.4574734 0.70972425 -0.2700048 -0.0300776 -0.6724893 0.27573973 -0.024228891 0.45480242 0.37235507 -0.17823455 0.9429634 -0.07396677 -0.035990212 0.15291847 -0.19909221 0.27870634 0.095675424 -0.2047197 -0.49664184 1.0358714 0.04104463 -0.35989475 0.39620596 0.70622516 0.44199678 0.22366348 0.2156519 0.8831035 0.33992955 -0.09709856 0.63863724 0.19281292 0.095701076 0.014661664 0.6048667 0.33048347
you 0.113478996 0.5401251 -0.34531465 0.02999735 0.36481586 -0.45718682 0.47839567 0.59639263 -0.9999827 0.025551002 0.03244206 -0.59560376 0.7412116 -0.14889753 0.3583593 0.5053602 0.10910734 -0.38741937 -0.04153085 -1.9099293 0.19382672 -0.07555259 1.3326395 -0.78543735 -0.7944945 0.52001387 0.31877047 -0.9617785 0.3404213 -0.054563504 0.99989265 -0.136634 0.93455976 0.12064978 -0.06900131 1.4755911 -0.09925777 -0.7289159 -0.4357323 -0.94307953 0.69085693 -0.25446233 -0.357423 -0.03819164 0.07598648 -0.45987907 -0.3736624 -0.27303198 0.1595969 0.04365026 -0.26539662 -0.55505925 -0.3140529 0.23831645 -0.49154386 0.09795675 -0.05248779 -0.92545074 -0.8363054 -0.3138898 0.1843672 -0.6081502 0.9374728 0.46413016 -0.91343623 1.0625906 -0.79010785 0.039655447 -0.9820422 0.77607626 -0.23513924 0.2636655 0.08113763 0.4755302 0.97251725 -0.35927176 0.61017656 -0.3640198 -0.058884587 0.13181284 0.113309786 0.2594904 -0.6430301 1.1725442 -0.5246651 -0.62755007 -0.08307395 0.8297731 0.33814535 0.28413013 0.6778894 0.4056854 0.53038025 -0.1405099 0.13988946 0.5560343 0.45009747 -0.8383091 1.1029583 -0.1686805
is 0.14072339 0.15721476 0.18258294 0.113447264 0.039221406 -0.6951482 0.53859377 1.3109082 -0.4241803 -0.67735326 -0.07450067 -0.5198878 -0.25873172 -0.10700541 0.34435624 -0.59238803 0.32736105 0.06643367 0.043452516 -1.0025803 0.05472988 -0.032983243 0.077823445 -0.22697559 -0.37248394 0.5026915 -0.49718565 0.22888029 -0.04516659 -0.09837744 0.068654075 -0.1868161 -0.026012905 -0.53561836 -0.01618548 0.53153956 0.31513256 -0.40014556 -0.3065137 -0.5424245 -0.118642546 -0.08883402 -0.1449661 0.13238029 0.33084488 -0.5642268 0.007213639 -0.090247534 0.17621689 0.2703022 0.19980694 -0.23248653 -0.082078636 -0.15088128 -0.116143085 0.235251 0.09754907 0.14906788 -0.14567107 0.0031676288 -0.31732905 -0.23841555 0.20685822 0.16569111 -0.53000647 0.82418805 0.14046624 0.4140533 -0.79617155 0.48616183 -0.0069482615 0.36101672 0.62033474 0.050996825 0.7336618 -0.13351208 -0.019003144 0.10826285 -0.4877522 -0.08450624 -0.34336925 0.23062654 -0.41817153 0.68271565 0.18106355 -0.14649393 0.47207376 0.21589743 0.6819167 -0.20995522 0.16722532 0.13338439 0.035081536 0.093904495 0.61552286 0.23427951 0.34507298 -0.13427837 0.20527916 0.123171225
s 0.3335478 0.0112798875 0.09536032 -0.11175917 0.48033977 -0.49063253 0.5244704 1.4875146 -0.20760524 -0.66710967 -0.29498494 -0.64012814 -0.31979263 -0.046081953 0.24401562 -0.7480485 0.40112028 0.1726181 0.27051508 -1.2318461 0.0920574 -0.14334309 -0.10649692 -0.2505789 -0.42058814 0.61773765 -0.80159485 0.36309466 -0.011089296 0.08524048 0.103646345 -0.09861562 -0.06791084 -0.6115501 -0.2484965 0.6434386 0.13887244 -0.4330824 -0.2545783 -0.65947133 0.048536416 0.13303535 -0.10846243 0.036951434 0.0743114 -0.806808 0.13301712 -0.40910023 0.23149808 0.4847725 0.40957677 -0.43760064 -0.1641066 -0.2678058 -0.10890921 0.18291974 0.12247317 0.031111145 -0.1942718 -0.029510075 -0.5940898 -0.64000446 0.51308924 0.124266826 -0.62447774 1.0051479 0.43939772 0.28409967 -1.0716678 0.3872904 0.21811676 0.2813871 0.57531947 0.16323744 1.0169073 -0.18583392 0.00747747 0.072096184 -0.6767608 0.054919895 -0.48257092 0.3846176 -0.5414943 0.9041447 0.15640011 -0.040363085 0.82757926 0.20199054 0.6689563 -0.17317222 0.3913392 0.39948437 0.30360168 -0.055311505 0.6584204 0.23811232 0.48097318 0.11912456 0.48904762 0.30707848
this -0.041251898 0.32413206 0.05876727 0.036101494 -0.1374602 -0.7820031 0.43992043 1.0571465 -0.6277682 -0.3977331 -0.10199559 -0.45910615 -0.17262615 0.07208516 0.2377886 -0.3083813 0.42880708 -0.11809299 0.056353386 -1.2379166 0.1651879 0.22560093 0.37312308 -0.110874265 -0.25292847 0.43606684 -0.36649898 -0.27381587 -0.21086735 -0.22072403 0.3460884 0.0024193423 0.115485035 -0.40284503 -0.120816626 0.54571575 0.3786453 -0.32651493 -0.15431064 -0.4942935 0.11471992 -0.20976551 -0.2283032 -0.00081255025 0.49742323 -0.2757214 -0.26216504 0.06600716 0.30414993 0.21482232 0.08653978 -0.26590016 -0.23698346 0.14264874 -0.23565972 0.073167466 0.17982273 -0.142661 -0.36099443 -0.09061756 0.024617529 -0.13891837 0.3301041 0.19271815 -0.36394837 0.5860399 -0.08064127 0.31919816 -0.61437434 0.43611658 -0.18324798 0.40791053 0.5475055 -0.16126859 0.68179584 -0.01796163 0.039574437 0.124273464 -0.21134686 0.063838534 -0.014367227 -0.13635746 -0.3864765 0.7396348 0.0133119235 -0.21468186 0.3791432 0.57095027 0.59589034 0.025703395 0.21086814 0.44580024 0.17374307 -0.010240343 0.6880767 0.2016498 0.34147146 -0.21380629 0.2591766 0.11255411
so 0.20156324 0.3542429 -0.26072836 -0.045465894 0.2619875 -0.49169087 0.3360831 0.8465748 -0.5619891 -0.1410516 -0.10191667 -0.5368349 0.2139173 0.0019351346 0.1494458 -0.05234255 0.1756198 -0.20542242 0.0504263 -1.2528281 0.20790732 -0.007911458 0.3631648 -0.38703036 -0.5211892 0.34730202 0.0027742684 -0.3372257 0.052623224 -0.082661085 0.6350051 -0.046705686 0.33576974 -0.43139312 -0.29068488 1.0856469 0.26735398 -0.3911377 -0.09652889 -0.74273294 0.47994462 -0.079293035 -0.08855009 -0.10649943 0.38335657 -0.3182784 -0.18185608 -0.1961433 0.41921622 0.14417616 0.13426666 -0.51534307 -0.14033277 -0.094801754 -0.36180374 0.14920679 0.1289582 -0.3980355 -0.6487178 -0.24241538 0.04302632 -0.5018554 0.64406544 0.16138163 -0.5072028 0.94144803 -0.06894668 0.2517924 -0.96755046 0.57948333 -0.28349113 0.1052534 0.28436366 0.12748994 0.9482573 -0.03677102 0.06771015 0.034478296 -0.23027821 0.07018848 -0.10807701 0.031904545 -0.75822616 0.96898496 -0.07483659 -0.2626575 0.41119534 0.60693514 0.59321344 0.276496 0.38476232 0.5465407 0.37467173 -0.13034114 0.4702292 0.28737956 0.15308703 -0.3372307 0.8160558 0.08975874
for -0.16419907 0.22951709 0.40014154 0.21745026 -0.28615096 -0.91477716 0.5916895 1.2504848 -0.7247783 -0.38781604 -0.16176766 -0.57447326 -0.039981626 -0.026157057 0.35926583 -0.6480485 0.1694009 -0.16379867 0.0014014414 -0.99483275 0.11791659 0.24438581 0.25825384 0.0069864835 -0.29457572 0.4640301 -0.22643407 -0.011418647 -0.29500082 -0.25224748 0.14700365 -0.112517044 0.00400124 -0.31482375 0.08412055 0.46375126 0.46359256 -0.40198174 -0.24294154 -0.44502488 -0.1577551 -0.3514364 -0.49192634 0.26333776 0.6352945 -0.20250721 -0.18875763 0.09540743 0.12617275 0.09980891 0.040553708 -0.097654134 -0.18140689 -0.1272658 -0.11514032 0.13656601 0.09716542 0.035962317 -0.18588455 0.07441519 0.008841842 0.0033804663 -0.111191854 0.1048339 -0.49142817 0.4336493 -0.039097413 0.68053085 -0.44081423 0.53239304 -0.1772378 0.31981513 0.7623136 -0.19843797 0.49734893 -0.057585 -0.01853016 0.012815191 -0.34653464 -0.028752442 -0.19542752 -0.079433024 -0.29883853 0.54769385 0.016780589 -0.16723564 0.28674102 0.390674 0.91878533 -0.18872054 0.1523594 0.13315995 0.15384176 0.2317346 0.7291591 0.17630874 0.5374765 -0.26930577 0.036820207 -0.15645766
they -0.21528046 0.484767 -0.16835745 0.24485418 0.11991754 -0.39373142 0.5910015 0.63641983 -0.8856898 0.18363725 -0.096889 -0.5427011 0.689838 -0.06730677 0.46682584 0.3552594 -0.11388999 -0.3934833 -0.10331328 -1.6235889 0.32604378 0.1823417 1.1918658 -0.44016588 -0.6131721 0.45307785 0.41767827 -0.85533 0.12490446 -0.12270706 0.861708 -0.14882737 0.5988963 0.085162565 0.022938155 1.1986119 -0.045989834 -0.59985274 -0.29313424 -0.7984186 0.28635865 -0.48051146 -0.46173465 0.07753675 0.23828723 -0.16910094 -0.2205216 -0.08683447 0.12660371 -0.0528008 -0.3436451 -0.42139092 -0.20821826 0.15452038 -0.33456647 0.15224479 -0.16314548 -0.76155347 -0.7875153 -0.2775881 0.5226128 -0.13640375 0.53792334 0.43824658 -0.80631655 0.7129459 -0.67202336 0.44435674 -0.6931552 0.8593392 -0.17290698 0.2224954 0.27695888 0.003246815 0.61830205 -0.38398704 0.43209785 -0.25844327 0.0643049 -0.095771655 0.026756601 -0.12460804 -0.6792895 0.8691412 -0.32519212 -0.58012617 -0.09307766 0.7106352 0.41568676 -0.0041458807 0.54119664 0.1260305 0.4281854 0.20859133 0.18293415 0.55595064 0.22243363 -0.7677853 0.54805976 -0.29327962
was 0.2906275 0.13856034 0.26857004 -0.16971081 0.33078107 -0.7920741 0.51712894 1.415108 -0.37072897 -0.4677145 -0.25202987 -0.4727327 -0.25654966 0.14112875 0.09513896 -0.87647206 0.3205579 -0.12195017 0.21541047 -0.93857616 0.17247988 0.10756725 -0.15256608 -0.04000591 -0.33942842 0.45030063 -0.6216964 0.27765444 -0.30676335 -0.019764714 0.035546314 -0.054059654 -0.17745827 -0.7696776 -0.15190987 0.6100311 0.2106289 -0.23004842 -0.2183276 -0.57278305 0.0226931 -0.1136766 -0.18090902 0.15143879 0.54099804 -0.40765968 -0.053316668 -0.26936108 0.2579064 0.42255062 0.39521012 -0.20994368 -0.17307192 -0.25996742 -0.072829425 0.20827216 0.18574263 0.105415985 -0.20111449 -0.057894 -0.4687288 -0.64313585 -0.035291467 -0.06740226 -0.36676076 0.7592458 0.5432504 0.61319196 -0.80352265 0.25737402 -0.11462139 0.27328447 0.6690557 0.11414731 0.75360876 0.06882028 -0.14730579 0.21398431 -0.48925558 0.14736636 -0.34709305 0.07677421 -0.46721837 0.66143405 0.18550806 0.0069780527 0.73124 0.37780797 0.97846115 0.04408097 0.30953094 0.37626293 0.17503637 -0.12454355 0.8247408 0.100669876 0.5034302 0.15000944 0.26490083 0.06845045
are -0.0075811157 0.0807767 0.12094471 0.2456973 -0.17284416 -0.61760336 0.47678524 0.960533 -0.598753 -0.2907029 -0.121638395 -0.6291139 0.11224414 -0.06430941 0.58791184 -0.42552114 -0.1486374 -0.056679778 -0.12194864 -0.74912924 0.31353304 0.06877099 0.14353189 -0.055224735 -0.33796376 0.40567705 0.0742529 -0.046475016 -0.01039756 -0.12863651 0.3519254 -0.13966385 0.20967829 -0.42389315 0.295876 0.7495725 0.4209907 -0.350548 -0.033261612 -0.60427284 -0.21440049 -0.36169967 -0.23604947 0.3004275 0.41847348 -0.13171518 -0.043351475 0.036908645 0.28372902 -0.07788867 0.03784816 -0.2742904 0.12828332 -0.38510785 0.056250755 0.37793887 -0.032032408 -0.043668404 -0.37711892 0.2022381 0.11823687 0.08444772 0.1587839 0.09018548 -0.6268994 0.7081926 0.015803201 0.7719624 -0.6680282 0.8991876 -0.103546165 -0.0719725 0.59848094 -0.18613821 0.6302619 -0.11012821 0.09491205 0.094160065 -0.41020784 -0.38626438 -0.43475136 0.11897853 -0.67516935 0.68928504 0.112333275 -0.12007598 0.40494034 0.3722926 0.6962006 -0.36213717 0.3317067 -0.16403973 0.15952884 0.45191118 0.44973928 0.47827205 0.13039309 -0.5736408 0.22140501 -0.12859191
but 0.079732984 0.32989222 -0.2412478 0.026050072 0.19622159 -0.43530148 0.4019528 0.9179956 -0.43323126 -0.12259287 -0.21532124 -0.5257213 0.14206582 0.039460547 0.121310495 -0.12494746 0.207511 -0.19944927 0.1110347 -1.2672555 0.17248107 0.028428802 0.34373146 -0.3529912 -0.53685343 0.3694557 -0.116392724 -0.26052615 -0.028378835 -0.018854335 0.5715292 -0.03446514 0.26085094 -0.41303372 -0.31619132 0.98599637 0.14173442 -0.46190768 -0.080238394 -0.68972564 0.37810826 -0.0673898 -0.14624132 -0.096369535 0.3015262 -0.3848555 -0.12538745 -0.18199907 0.37940106 0.2029166 0.12481103 -0.450844 -0.12455511 -0.048411928 -0.29656976 0.23467895 0.11235981 -0.34104723 -0.598749 -0.2473278 0.043215327 -0.41311353 0.50039893 0.15318273 -0.504603 0.8583744 -0.0122164935 0.2900003 -0.9269618 0.52427346 -0.1776374 0.17392169 0.3304897 0.007455313 0.9014037 -0.08463339 0.08053712 0.07824275 -0.2424242 0.06478508 -0.19665354 0.005276352 -0.67864174 0.98429406 0.0007782259 -0.30756095 0.43914515 0.56010824 0.5785142 0.081503466 0.3552155 0.4685401 0.3269617 -0.10914765 0.47418 0.26423317 0.16228867 -0.25255695 0.7083102 0.18139511
have -0.10562749 0.31792498 -0.2779369 0.24618517 0.05056662 -0.41500503 0.42263326 0.6849214 -0.63488615 0.16048346 -0.20717175 -0.5900609 0.45231512 -0.121044196 0.23933026 -0.20134571 -0.2461451 -0.29500118 -0.10601345 -0.9086108 0.2785673 -0.025751242 0.23664032 -0.21176204 -0.57280326 0.17269027 0.3773122 -0.20088102 -0.12621504 -0.1134701 0.6570123 -0.11127981 0.34678164 -0.34862998 -0.014670364 1.0681853 0.23911063 -0.35325736 0.105128646 -0.77205414 0.26307616 -0.27327624 -0.34727 0.110742405 0.43288076 -0.15439902 -0.13090734 -0.085049056 0.39781466 -0.08220923 0.103638634 -0.38453588 0.16908878 -0.37196863 -0.1802492 0.41480625 0.015307174 -0.3484802 -0.7712889 -0.012788357 0.29643396 -0.19391933 0.22395167 -0.10087401 -0.5758234 0.74206865 -0.034385223 0.63576394 -0.76273143 0.74951845 -0.4178638 -0.18813916 0.30183548 -0.08491056 0.7664579 0.009342043 0.11362218 0.020322723 -0.21309823 -0.123316795 -0.33748507 0.0778539 -0.79634213 0.8441953 -0.12027313 -0.27237397 0.2732869 0.5055586 0.71830726 0.009028848 0.32850668 0.16243492 0.3518865 0.07072722 0.49581364 0.2577588 0.09340579 -0.6228882 0.7065215 -0.043024
with -0.0983457 0.2885655 0.3266369 0.20390494 -0.17453004 -0.84245044 0.5526947 1.1776118 -0.71016896 -0.28573576 -0.16850968 -0.506991 0.06291827 -0.030507287 0.39739254 -0.6146309 0.10382369 -0.19005325 -0.07430769 -0.91852427 0.1838503 0.2030734 0.1966046 -0.015029673 -0.2968259 0.39948538 -0.09912872 -0.056058545 -0.25020966 -0.19926926 0.27096826 -0.13341294 0.017373819 -0.43987882 0.12399416 0.5165773 0.4380405 -0.3534171 -0.17455636 -0.52150106 -0.14216344 -0.3476975 -0.4207698 0.2475867 0.63825476 -0.14666313 -0.16056602 0.06373419 0.16434117 0.08389667 0.08215456 -0.14640352 -0.17505004 -0.1998321 -0.09830144 0.1626828 0.08400579 0.010126184 -0.29719052 0.03535546 0.037514903 -0.014519946 -0.11243654 0.10129682 -0.4774848 0.5092241 0.009300458 0.7119743 -0.5002825 0.58791643 -0.2518665 0.21479157 0.69931287 -0.22034915 0.48254165 -0.09379159 0.007876258 0.02536103 -0.32399106 -0.059936237 -0.24812211 -0.06624416 -0.4338645 0.536352 0.022852374 -0.18344395 0.31347895 0.43144807 0.8706917 -0.15048367 0.18689871 0.04629407 0.15321203 0.21172146 0.72774976 0.19318078 0.42077708 -0.35957655 0.1278287 -0.18665953
on -0.1032394 0.21431586 0.45960465 0.213181 -0.23060353 -0.9469677 0.5970113 1.2854074 -0.74631464 -0.46161783 -0.12871045 -0.53250927 -0.048655476 0.0021620824 0.5048722 -0.71007115 0.14463264 -0.115460485 -0.06373031 -0.91002697 0.21314852 0.26847935 0.15928024 0.076501906 -0.20136315 0.4588307 -0.23200798 -0.0062753097 -0.25874588 -0.24541564 0.10846074 -0.119398 -0.057350434 -0.44515842 0.21100113 0.44620132 0.52143455 -0.2877595 -0.24689785 -0.40399772 -0.23252994 -0.4034539 -0.44220266 0.3071989 0.67756546 -0.15656607 -0.13271472 0.113145106 0.13058373 0.09897324 0.10560458 -0.09785214 -0.18203236 -0.14559965 -0.03974105 0.17787825 0.06820274 0.093818985 -0.16023974 0.08313407 -0.054355726 0.024576237 -0.14352886 0.10372074 -0.4708167 0.47748962 -0.0017315749 0.7335301 -0.4569622 0.5795558 -0.20192586 0.28267276 0.80116665 -0.23721758 0.393663 -0.08003844 -0.0091344975 0.04873833 -0.38184294 -0.07293554 -0.23344754 -0.06607867 -0.3504272 0.43282902 0.06112025 -0.12329779 0.3396507 0.41257197 0.91801167 -0.23191895 0.15951592 -0.010773112 0.05680195 0.30882716 0.772838 0.19613948 0.4996947 -0.29954565 -0.060996022 -0.20937091
what 0.15230095 0.4371324 -0.43170884 -0.022416962 0.23923302 -0.45646706 0.24427527 0.8317221 -0.65962034 -0.13410392 -0.1432047 -0.5243209 0.22907168 0.108207144 0.1686413 0.15291266 0.35985065 -0.21594676 0.09233663 -1.544374 0.27973074 -0.011314025 0.50199366 -0.51094425 -0.52100974 0.35130873 -0.05249989 -0.5033564 0.10343266 -0.07126358 0.8555787 0.026250439 0.41281378 -0.39588284 -0.3859652 1.1549765 0.30477312 -0.389537 -0.099299945 -0.67906654 0.6385209 -0.014842378 0.005098338 -0.26951554 0.33708304 -0.3656494 -0.25174764 -0.14388388 0.5009696 0.18100122 0.0941981 -0.6142318 -0.19310108 0.19811113 -0.47788972 0.17158066 0.12405105 -0.49526128 -0.7259626 -0.371721 0.15461253 -0.48513982 0.9234976 0.3140843 -0.509719 1.0152446 -0.25750613 0.0058547575 -0.9755481 0.6291766 -0.2870797 0.20142971 0.17488028 0.034316503 1.0484725 -0.107212305 0.16791579 0.06420844 -0.13109201 0.16617194 0.061291616 -0.0001720934 -0.805471 1.1136564 -0.12317034 -0.3967896 0.31296533 0.80891836 0.4343362 0.4092966 0.401776 0.6590553 0.364606 -0.2719814 0.40593404 0.3756268 0.08656489 -0.35445032 0.9702498 0.20550975
our -0.36980557 0.29244584 0.39609587 0.33197677 -0.47081086 -0.9390909 0.6807267 1.1580518 -0.847034 -0.3292868 -0.10814834 -0.49195412 0.024038933 -0.12154873 0.5569208 -0.42838663 0.0703047 -0.1791424 -0.1913729 -1.022402 0.1780308 0.31140864 0.4078755 0.060744803 -0.25944042 0.39511332 -0.015366867 -0.28831372 -0.31060317 -0.33352602 0.2552675 -0.075011455 0.09770362 -0.21202719 0.32556024 0.35147294 0.4948059 -0.35910887 -0.070205644 -0.44008166 -0.32230312 -0.4707316 -0.5112733 0.30897203 0.63410634 -0.0907342 -0.1879688 0.26970327 0.14461395 0.034116916 -0.13132645 -0.018152202 -0.11179122 -0.033641152 -0.0035335605 0.14546666 0.041304898 -0.008635139 -0.25484437 0.19495237 0.25121406 0.28378886 -0.112717934 0.13437441 -0.5260823 0.29739818 -0.21243215 0.6957881 -0.30031863 0.7627576 -0.25029567 0.2611123 0.8050188 -0.48665285 0.35138065 -0.14770232 0.15109411 0.013414105 -0.23715626 -0.21181053 -0.16695012 -0.046022337 -0.3099029 0.5336928 0.002987204 -0.21009077 0.175731 0.5155239 0.7882991 -0.36773515 0.16782627 -0.1106943 0.11103963 0.4396966 0.7416407 0.26155365 0.42570212 -0.58857125 -0.07079012 -0.26877818
not 0.09999669 0.3526984 -0.14090252 0.063265696 0.0987323 -0.54666233 0.35924825 1.0562142 -0.51279247 -0.30904615 -0.17992234 -0.49795827 0.028953187 0.064859234 0.21022138 -0.087876886 0.35021904 -0.06835299 0.07137832 -1.4073879 0.1666894 0.058202136 0.32684785 -0.35529348 -0.36227658 0.44024727 -0.27998886 -0.2925851 0.008272206 -0.09575351 0.55031013 -0.018310543 0.2244247 -0.41080534 -0.29531792 0.86378455 0.3329454 -0.4109187 -0.15278564 -0.5835585 0.28109878 -0.06621381 -0.080363065 -0.13684767 0.34658438 -0.4711709 -0.12137025 -0.10709915 0.37359548 0.22757863 0.0356579 -0.4810982 -0.2884323 0.1342621 -0.3101735 0.12172039 0.060556404 -0.30407593 -0.5078136 -0.28902262 0.07672405 -0.30538458 0.69395846 0.33264983 -0.5011229 0.84775525 -0.15805948 0.10271292 -0.8015944 0.5533756 -0.1188901 0.29314476 0.3741292 -0.07148298 0.89300835 -0.18925978 0.026105212 0.06629009 -0.23429087 0.10451415 0.0025716913 0.0121194925 -0.61139905 0.9078739 -0.02003627 -0.31227204 0.37296632 0.6313495 0.49561128 0.13542081 0.26828113 0.48398548 0.32980475 -0.05377716 0.50178057 0.3170721 0.13369228 -0.20817426 0.5300909 0.1464019
t -0.5651619 0.32041246 -0.92001045 0.5729821 1.0191731 -0.030893581 1.0486697 0.9681524 -1.7121596 0.5124783 -0.7297371 -0.043170366 1.1038054 -0.2339274 -0.3710517 -0.1230679 0.41367477 -0.83825284 -0.021388298 -2.349674 0.75664645 -0.3214987 1.1430943 -1.1266164 -1.3322726 -0.14594007 -0.13199635 -0.21233349 0.095889784 0.50037897 1.0471673 0.15557347 0.4568355 0.21582296 -0.14638846 2.0028164 -0.89638543 -0.4858557 -0.10745465 -0.96917224 0.95008916 -0.2551492 -0.7858801 -0.112819165 0.29768482 -0.73212963 0.17813301 -0.78756803 0.591583 0.06407356 0.17294532 -0.4262404 -0.087557316 0.30305368 -0.57429683 0.72547567 -0.17033157 -0.83371407 -1.3462595 -0.87244475 0.026565641 -1.0370834 0.5867344 -0.1523395 -1.3707713 1.1193206 0.13043149 0.32095927 -1.4402931 0.9606136 -0.5219672 -0.07035585 0.16157643 -0.14774092 0.66720885 -0.9958225 0.89003867 0.088661306 -0.37548357 0.4612729 -0.26557088 0.7443545 -0.9977656 1.6809505 -0.102248445 -1.0087117 -0.08855538 1.4212371 0.6035056 0.17876247 0.7771261 -0.03464158 0.726663 -0.5345852 -0.1465559 -0.18723379 0.7913512 -0.39536893 1.6562505 0.09658935
my -0.04318435 0.3146458 0.3046656 0.05202238 -0.07526811 -0.93682885 0.5728909 1.2124674 -0.7146686 -0.29182795 -0.14128627 -0.45903188 -0.12992045 0.11159667 0.22885738 -0.5801377 0.31629664 -0.27392334 0.037100323 -1.0663142 0.1805761 0.3442804 0.24755229 0.065425865 -0.2472767 0.3566953 -0.36112133 -0.20321934 -0.41491675 -0.27886054 0.24883935 -0.037668534 -0.020383973 -0.45056695 -0.037972488 0.43003094 0.369478 -0.24744856 -0.15907672 -0.50381905 -0.033343595 -0.35216606 -0.39059004 0.17168227 0.7113449 -0.062104616 -0.26522565 0.071203105 0.23100457 0.25735852 0.09239011 -0.18809941 -0.27758622 0.020171767 -0.1086382 0.062331848 0.15280885 -0.047292147 -0.2944634 -0.04884797 -0.003936244 -0.13929716 -0.0502208 0.027481958 -0.3764469 0.40736344 0.0043399157 0.63609046 -0.46598902 0.37019128 -0.26078236 0.3933086 0.7376674 -0.25670174 0.49457958 0.010466681 -0.042673755 0.1085881 -0.27272445 0.052468605 -0.05831017 -0.2014061 -0.33830622 0.56884074 0.03394072 -0.16793099 0.3844723 0.5997447 0.87486124 0.007838436 0.21807696 0.31188405 0.16231917 0.09795293 0.88232267 0.15371267 0.5002246 -0.1677053 0.06494449 -0.13539763
can 0.0015730682 0.4841068 -0.45063344 0.21269631 0.13482752 -0.34308976 0.2932472 0.6198995 -0.5367153 0.17805642 -0.24902885 -0.65396047 0.5294193 -0.04511193 0.24228679 0.047034834 -0.17856196 -0.2613584 -0.0875645 -1.081619 0.19755466 -0.10050797 0.44604066 -0.40943217 -0.6583803 0.18366532 0.56859255 -0.3606155 0.046223186 -0.029000327 0.85366595 -0.07811001 0.5156303 -0.43700624 -0.17383021 1.2054968 0.20881724 -0.62605876 0.11334302 -0.8747757 0.38286513 -0.11184637 -0.18060221 -0.075171694 0.34889573 -0.15637217 -0.29522878 -0.12519906 0.44359624 -0.06044051 0.030907284 -0.42211857 0.11920911 -0.3882575 -0.21860088 0.32847962 0.058808018 -0.4539605 -0.90556973 -0.06481856 0.2973493 -0.30090642 0.37065437 0.07402856 -0.596884 0.874101 -0.119481616 0.45919222 -1.000176 0.8930823 -0.40361357 -0.17837672 0.24494612 0.051445935 0.9378088 -0.12670253 0.216329 -0.06197143 -0.17050256 -0.17150041 -0.39039037 0.050379835 -0.92889434 1.0951174 -0.09506139 -0.3994686 0.28495315 0.49143416 0.67332035 -0.0020802855 0.3286739 0.26042217 0.42500237 -0.09992541 0.37817404 0.41437832 -0.015213486 -0.81434727 1.0442536 0.06247516
all -0.18810664 0.21471933 0.16102526 0.2506273 -0.26959133 -0.7269935 0.50208986 0.92450017 -0.7422648 -0.21384425 -0.048047792 -0.4963299 0.12289522 0.024591642 0.5037517 -0.3814713 0.06375975 -0.20021869 -0.20062642 -0.9553606 0.21170992 0.21517958 0.3904995 -0.055485867 -0.29883394 0.3772917 0.05628876 -0.23504524 -0.18218492 -0.21245159 0.3136955 -0.067542225 0.17266016 -0.3240618 0.22645192 0.6222057 0.39822546 -0.37704775 -0.10818247 -0.44855654 -0.13826346 -0.44485557 -0.37919435 0.256105 0.50401413 -0.05369842 -0.23240384 0.17661214 0.1892433 -0.019343033 -0.001478548 -0.13649759 -0.015423282 -0.09365547 -0.07844869 0.19742799 0.03565438 -0.10655937 -0.31651598 0.10418295 0.21442781 0.048668854 0.033040196 0.103245236 -0.49080613 0.48608574 -0.1405039 0.6425113 -0.571031 0.72080034 -0.2120039 0.17242678 0.5985409 -0.27285853 0.43884256 -0.14577556 0.18132533 0.02206583 -0.2443744 -0.16637973 -0.22478543 -0.052946538 -0.4992686 0.59447676 -0.04138762 -0.22645608 0.22873779 0.44192785 0.6821005 -0.23182654 0.25867715 -0.024455504 0.09877801 0.300371 0.5587341 0.34006342 0.28620702 -0.5362289 0.11172189 -0.16694567
be -0.012524061 0.33257052 -0.27959916 0.17536092 0.1934295 -0.40210772 0.4488131 0.73349917 -0.5623616 0.0354435 -0.15195239 -0.6785269 0.26850474 -0.2918644 0.29879028 -0.055433925 -0.043231748 -0.22100726 0.009416509 -1.2733514 0.16170114 -0.11074597 0.34455264 -0.33517146 -0.563788 0.35798046 0.03145703 -0.39279607 -0.078465134 -0.22358628 0.6848048 -0.09640119 0.46710202 -0.22688626 -0.0066875783 0.90288717 0.191753 -0.33211192 -0.08723599 -0.69691133 0.23868044 -0.22854753 -0.32118028 0.13657497 0.19329338 -0.3650363 -0.06710695 -0.057848923 0.32172075 0.14155507 0.0054618246 -0.4411869 0.035391238 0.022609908 -0.25780773 0.20068152 0.01586631 -0.50570166 -0.66353303 0.043238554 0.25611848 -0.25415328 0.55612755 0.16834171 -0.6142186 0.7702755 -0.34892514 0.43035313 -0.6575345 0.5640215 -0.35791284 -0.0077461386 0.33409545 -0.043652177 0.8984919 -0.10872647 0.23927268 -0.024370374 -0.20301971 -0.07772927 -0.180435 0.21214063 -0.66283286 0.8706745 -0.2883928 -0.43473563 0.31979004 0.6078151 0.5185297 -0.091723114 0.42931363 0.33403796 0.35291874 0.109847106 0.6783333 0.38488725 0.15002446 -0.5122827 0.67708045 -0.017048925
at -0.09978007 0.15000969 0.4739719 0.16367754 -0.3180865 -1.0336125 0.5923228 1.2477226 -0.70698273 -0.47380197 -0.046593677 -0.57591796 0.0012006413 0.15438627 0.4248306 -0.7321555 0.21563031 -0.18564865 -0.040523995 -1.0025861 0.20875968 0.34094667 0.31429726 0.032672457 -0.2222103 0.5095923 -0.2466337 -0.0044619986 -0.29719245 -0.20402604 0.09467708 -0.0696424 0.033206966 -0.5096639 0.14718898 0.57215756 0.5192622 -0.40250033 -0.27797422 -0.46121445 -0.18329674 -0.44701114 -0.4351865 0.28943753 0.75595045 -0.11805631 -0.28308475 0.15991081 0.12943274 0.065679215 0.13599682 -0.017910035 -0.12202235 -0.16111925 -0.103453495 0.20171984 0.06389328 0.1297191 -0.1873412 0.09240471 -0.028401067 -0.059661206 -0.19821593 0.100497626 -0.45353755 0.47252128 -0.0005587376 0.7284276 -0.5324616 0.5933563 -0.18713799 0.39132497 0.7808294 -0.15730807 0.5031868 -0.08392741 0.01830509 0.009722026 -0.31946012 0.005474275 -0.16403037 -0.15788175 -0.36448887 0.50715613 0.05218993 -0.114672706 0.2923464 0.39371306 0.97582483 -0.13262585 0.2030252 0.078697175 0.05631542 0.22681981 0.7324242 0.19731842 0.48829913 -0.27720386 -0.05360005 -0.21169053
as 0.03206669 0.18580037 0.17055736 0.08073365 -0.072293654 -0.7672864 0.4718325 1.1248676 -0.63626015 -0.37354496 -0.12154458 -0.4796997 -0.0012752132 -0.05519535 0.25488323 -0.37271333 0.12371614 -0.22023295 0.017595053 -1.0666826 0.1688967 0.15744539 0.24813107 -0.11861367 -0.28358546 0.39771438 -0.09038306 -0.09718859 -0.18002051 -0.16407876 0.30848822 -0.107290216 0.16167222 -0.4457078 0.013001698 0.66330105 0.42686096 -0.34411818 -0.10589208 -0.55976766 0.073756434 -0.26336396 -0.33443797 0.12250272 0.6650284 -0.29201555 -0.17148155 0.01779579 0.27494898 0.1737882 0.08186162 -0.26762533 -0.18081544 -0.13640039 -0.09974895 0.12961341 0.1408048 -0.02044718 -0.40478343 -0.001791138 -0.073752515 -0.20772825 0.16440384 0.115767054 -0.51179975 0.63479245 0.039625324 0.5502617 -0.60483795 0.625308 -0.25333226 0.21697709 0.62384325 -0.08174046 0.6241737 -0.058777485 -0.01207275 0.034260504 -0.31791186 -0.01666098 -0.11611679 0.003602602 -0.4525025 0.70808995 0.043354463 -0.13771322 0.36487374 0.5448222 0.76407194 0.06004521 0.20317811 0.25465798 0.26434153 0.10455844 0.6552001 0.23593609 0.37416354 -0.2875198 0.3747811 -0.094586454
about 0.019660061 0.34021333 -0.09688024 0.103111 0.11255896 -0.5947513 0.5296183 1.0324944 -0.63719445 -0.2119746 -0.18457335 -0.48273215 0.14179927 -0.038628794 0.22071455 -0.2238254 0.14114857 -0.19505084 0.03402212 -1.1993762 0.15727523 0.042584285 0.44649062 -0.27590066 -0.4744183 0.4004141 -0.016173424 -0.2361313 -0.05102727 -0.05496455 0.54379547 -0.119363226 0.23140243 -0.3847709 -0.12372366 0.9571605 0.17400937 -0.46952283 -0.16659987 -0.70609 0.21329165 -0.18705375 -0.2631186 -0.010330185 0.46827698 -0.32088363 -0.11910086 -0.14063951 0.24490725 0.107096955 0.07660143 -0.3310515 -0.1808627 -0.108081885 -0.28109485 0.21688169 0.038481917 -0.3005927 -0.5689444 -0.19141118 0.016381111 -0.3258826 0.334446 0.21062903 -0.57337195 0.8204977 -0.092564024 0.43025467 -0.81363606 0.61304057 -0.20785621 0.20468503 0.3899145 0.009882217 0.82171345 -0.1805486 0.07644467 0.034695096 -0.23175724 -0.012042948 -0.17118977 -0.015042726 -0.6027844 0.83307934 0.020851877 -0.31497684 0.3268124 0.53800035 0.6899931 0.020342732 0.2538788 0.23094352 0.3424403 -0.031323563 0.47091836 0.28962934 0.27934405 -0.4007281 0.5965637 -0.003740291
there -0.01385498 0.3140094 0.064890295 -0.027071053 -0.2130853 -0.7132912 0.35142788 1.2014217 -0.3877753 -0.48416325 -0.0978979 -0.57528394 -0.11225514 0.20412643 0.22889552 -0.2610207 0.49381053 -0.119511865 0.16418168 -1.2264414 0.1874212 0.32515106 0.19894746 -0.077839114 -0.19434889 0.482542 -0.48085812 -0.26358065 -0.15256225 -0.22232577 0.31585425 0.022695964 0.014883595 -0.36989945 -0.43101826 0.57407844 0.48542812 -0.3666384 -0.13290924 -0.3317753 0.14257163 -0.1000741 -0.04904602 -0.17915456 0.4559614 -0.30873826 -0.073871374 0.05902281 0.34723768 0.29631338 0.011618494 -0.46919397 -0.3214504 0.19254074 -0.28306997 -0.00053194165 0.13777271 -0.17052065 -0.269753 -0.3319463 0.11814199 -0.044999752 0.61750627 0.26319513 -0.39880526 0.6282025 -0.20828842 0.19613624 -0.47964162 0.32910618 0.14895554 0.41449398 0.5346403 -0.19693573 0.73201096 0.06060648 -0.16413993 0.16374452 -0.28736737 0.14572795 0.04670531 -0.2457082 -0.45942265 0.7270958 0.14664349 -0.15982024 0.4561479 0.57801026 0.4812996 0.13384987 0.23752737 0.6131934 0.2276162 0.06133722 0.60744035 0.2685925 0.12120223 0.016983502 0.17375952 0.12628002
from -0.24698342 0.18476595 0.60198313 0.30730477 -0.47284847 -1.1082045 0.7032989 1.3578839 -0.86274016 -0.48359886 -0.116844155 -0.54810256 -0.075867265 -0.011363673 0.535203 -0.7733609 0.09779082 -0.21790768 -0.11517997 -0.909336 0.21659216 0.36545384 0.27024764 0.15060654 -0.19874045 0.4545392 -0.16608508 -0.022971034 -0.4095174 -0.30512226 0.097684726 -0.13276178 -0.035496347 -0.39078867 0.3675696 0.29161873 0.5707448 -0.35118762 -0.23783539 -0.41035762 -0.41589564 -0.52000254 -0.6041491 0.4285659 0.8068074 -0.07134713 -0.19253875 0.263244 0.11474558 0.08054239 0.026168361 0.05478244 -0.17043662 -0.17626852 0.06604596 0.162229 0.074072346 0.18892749 -0.13624202 0.18731143 0.040987536 0.2386149 -0.3727288 0.070589006 -0.51918626 0.32074377 -0.053056337 0.89630383 -0.28809503 0.63840586 -0.22351846 0.3174724 0.9493579 -0.38195226 0.28414756 -0.09741825 0.051901065 0.01759973 -0.37635162 -0.12727354 -0.24203391 -0.106424786 -0.28066775 0.42463452 0.045277808 -0.1731071 0.25223225 0.4560198 1.0017612 -0.3496538 0.12789495 -0.098219864 0.052882075 0.45940346 0.8574116 0.21008697 0.55629593 -0.3645554 -0.23277153 -0.325934
like 0.0058586923 0.36061347 -0.059073653 0.10405917 0.042377252 -0.62307364 0.47987622 0.9869468 -0.5673947 -0.18390708 -0.19115986 -0.5403469 0.14379595 -0.05540232 0.21098053 -0.24637868 0.09045751 -0.20780449 0.019223103 -1.0984122 0.16356176 0.07957594 0.3030432 -0.22887126 -0.434862 0.38696468 -0.075374424 -0.19532955 -0.120413154 -0.12187758 0.41561916 -0.10295018 0.25033903 -0.41976023 -0.08731957 0.8603518 0.28833917 -0.38706937 -0.15034105 -0.6206105 0.15013745 -0.16939215 -0.26897514 0.05365349 0.4828143 -0.3236645 -0.11394662 -0.04705177 0.31262207 0.12973316 0.050862063 -0.29286328 -0.13525935 -0.12342191 -0.21195251 0.19257888 0.06514534 -0.22235456 -0.49082783 -0.13626575 0.04951928 -0.25686413 0.24621764 0.14298694 -0.4880061 0.71195126 -0.07420638 0.469856 -0.70258665 0.5738377 -0.20966345 0.19324927 0.42640167 -0.02564718 0.7639873 -0.09650331 0.061603338 0.015646659 -0.2056748 0.0098410575 -0.20217016 0.030805504 -0.5722706 0.7717861 0.005534436 -0.30607143 0.3011242 0.5777655 0.673126 0.020787677 0.25597775 0.28547955 0.28821906 0.022288768 0.5964358 0.25132072 0.25468254 -0.3266127 0.48582757 -0.026358237
one -0.16339332 0.18944633 0.37669188 0.16183773 -0.42670712 -0.87305313 0.5706651 1.1361305 -0.6329384 -0.41100526 -0.08327838 -0.4976754 -0.17152101 -0.013552609 0.37695172 -0.5208471 0.2651776 -0.121643245 -0.019677296 -0.9260323 0.11385605 0.32777897 0.26839775 0.058706038 -0.18170139 0.47112536 -0.30010536 -0.117238455 -0.34432688 -0.30149224 0.092084475 -0.06336109 0.03317935 -0.3559543 0.106051475 0.31081593 0.42394257 -0.33478028 -0.18227619 -0.34342793 -0.24657074 -0.3629807 -0.39868006 0.232189 0.5655792 -0.17206343 -0.14766476 0.19319545 0.13019261 0.11018147 -0.00089678686 -0.08965047 -0.11477657 -9.6126474e-05 -0.056159437 0.07963171 0.067751944 0.041801903 -0.16101459 0.075144485 0.06461541 0.13487586 -0.06572716 0.10743692 -0.41049927 0.36623776 -0.09765172 0.5987852 -0.3631411 0.47708347 -0.13513587 0.3802151 0.7364259 -0.34448096 0.42039272 -0.022862019 -0.012633141 0.13105784 -0.31391498 -0.07434163 -0.13799529 -0.11841538 -0.27902254 0.47835752 0.07342718 -0.13341534 0.3388309 0.39884314 0.65747666 -0.28940192 0.13548826 0.10054552 0.042858947 0.28294614 0.75248164 0.22168693 0.37029 -0.23877016 -0.1461718 -0.08804642
re 0.10792809 0.21625355 -0.4253588 0.24445431 0.16031767 -0.35104907 0.12598084 0.5499033 -0.65362316 0.04813164 -0.17513421 -0.6990133 0.41500893 -0.017358659 0.3841081 0.009748656 -0.37802228 -0.15945709 -0.1293654 -1.02371 0.3574967 -0.20159294 0.26573274 -0.30146825 -0.50447804 0.17213203 0.64066744 -0.3892362 0.17018293 0.02972857 0.8890424 -0.114921264 0.6521915 -0.5059323 0.1192663 1.2971977 0.3831772 -0.403195 0.15498146 -0.8780753 0.34785107 -0.16141328 -0.1103256 0.06702057 0.3561482 -0.12300291 -0.2226539 -0.079749115 0.5507413 -0.16416073 0.1260883 -0.4325507 0.24488991 -0.3580914 -0.100879356 0.46832845 -0.0033319138 -0.3586559 -0.8707681 0.08754564 0.23040316 -0.25091568 0.5168481 0.06942714 -0.6697171 0.922423 -0.029914666 0.4984956 -0.9979575 1.0854468 -0.42599297 -0.30637085 0.17883013 0.034203675 0.9060955 -0.14404957 0.24032377 0.02612426 -0.19146366 -0.26280317 -0.3162127 0.25050148 -0.9416177 0.9609283 -0.15611859 -0.24520832 0.28369233 0.57894707 0.66688555 0.04288533 0.3844059 0.08259166 0.32690677 0.1441242 0.2594731 0.5672767 -0.17992225 -0.85094696 0.95474374 0.0560342
people -0.1992141 0.31079963 0.11506414 0.20296943 -0.22857979 -0.6605458 0.56852365 0.88320386 -0.7684467 -0.108796775 -0.08888943 -0.5496979 0.21003765 -0.078002274 0.48704702 -0.25548267 0.0023669654 -0.25641438 -0.1067401 -0.99010277 0.25406882 0.25426748 0.5295292 -0.05927555 -0.35570744 0.4144801 0.03307047 -0.35290405 -0.16691706 -0.25835803 0.38409337 -0.09501122 0.28436378 -0.18380448 0.19235112 0.7055613 0.27589914 -0.34650862 -0.15099859 -0.53776807 -0.11628622 -0.42953014 -0.4225714 0.2419638 0.44593585 -0.071933 -0.0932424 0.07702151 0.1434402 -0.009363157 -0.15510517 -0.21029224 -0.02252579 -0.07453052 -0.061423857 0.1377159 -0.04391231 -0.3033977 -0.42171282 0.02835329 0.30753148 0.04874565 0.11745111 0.140557 -0.5778629 0.51223934 -0.27372316 0.68776995 -0.47187147 0.7263107 -0.16306378 0.12826659 0.5856861 -0.23895428 0.4696277 -0.10537506 0.16176558 -0.00017989277 -0.22364093 -0.22045659 -0.18201599 -0.087814584 -0.5291723 0.61138326 -0.044914722 -0.27102944 0.21165234 0.5394564 0.59137285 -0.25293007 0.33945173 -0.033964768 0.2075265 0.33819142 0.5391519 0.37866554 0.22868186 -0.495781 0.13887508 -0.2581077
or -0.2583769 0.31856313 0.25380477 0.23817511 -0.2683982 -0.8387749 0.60747886 1.0826509 -0.7162918 -0.21581875 -0.32007644 -0.5913427 0.082788706 -0.15116112 0.35381982 -0.42607883 -0.02163977 -0.25806364 0.034471005 -1.0399255 0.17127635 0.2602484 0.39252576 -0.051074702 -0.2859831 0.4452954 0.0037382056 -0.18981966 -0.29355145 -0.19920965 0.35141426 -0.13100538 0.15822572 -0.2975549 0.16472459 0.53206706 0.3509229 -0.42643398 -0.09973501 -0.56257427 -0.14774169 -0.32407424 -0.5496681 0.19279483 0.5497972 -0.27448964 -0.14820339 0.12059409 0.18137242 0.03655548 -0.0542476 -0.09009016 -0.13249442 -0.13002694 -0.05648791 0.17590131 0.02689889 -0.08412125 -0.42530182 0.0512347 0.11974719 0.11637648 -0.13536656 0.14005688 -0.57054967 0.42620096 -0.15540363 0.68547904 -0.35156158 0.6484061 -0.22760414 0.27850914 0.6556323 -0.28068852 0.5046231 -0.18482086 0.042875044 -0.0017721998 -0.22523575 -0.13089293 -0.26245517 -0.0044599683 -0.34908733 0.62592494 0.0093852375 -0.2798263 0.21084373 0.5675352 0.7682047 -0.30518815 0.19888096 0.05063137 0.27701253 0.28720313 0.707841 0.25083616 0.38995495 -0.46169585 0.12592213 -0.16995971
if 0.11434677 0.44309953 -0.517903 0.0834392 0.3791741 -0.37059984 0.31613487 0.6260786 -0.79055315 0.10248615 -0.217008 -0.63799614 0.5776995 0.011686025 0.17374884 0.058923684 -0.0019294561 -0.32247788 -0.06396858 -1.4937372 0.2881711 -0.115714535 0.5914762 -0.60803515 -0.70839363 0.24208039 0.3841276 -0.47730863 0.17287025 0.014431902 0.9909596 -0.07937066 0.60666955 -0.38669327 -0.25755912 1.502082 0.14639625 -0.6001582 -0.08585399 -0.93643224 0.67239916 -0.12612483 -0.1955131 -0.1408619 0.31406912 -0.34176508 -0.23258266 -0.24855489 0.50023186 -0.03791846 0.10546472 -0.59391737 -0.017349228 -0.1286339 -0.4253943 0.31071594 0.08573882 -0.6260737 -1.0117619 -0.251826 0.19191174 -0.54786736 0.74186665 0.15291354 -0.71285 1.0477028 -0.22953416 0.27797225 -1.1824356 0.8462298 -0.34985864 -0.04560525 0.13664423 0.23223136 1.0228832 -0.26453176 0.3054233 -0.057726774 -0.19664559 0.0043407436 -0.18256016 0.18627875 -0.9899964 1.179466 -0.19296147 -0.45523784 0.21867578 0.746357 0.5739099 0.29882976 0.47473046 0.42957136 0.5226687 -0.2415893 0.26538917 0.40946147 0.11875164 -0.6760411 1.2402352 0.08789859
do 0.1922082 0.35781658 -0.598152 0.020576252 0.46541435 -0.26050693 0.339677 0.62133974 -0.5662619 0.08704803 -0.08360606 -0.557331 0.38499764 -0.18497035 0.25260073 0.12534665 -0.001371919 -0.15612255 -0.04969952 -1.3091848 0.19812526 -0.2522348 0.44855544 -0.5930758 -0.67356545 0.26191932 0.25265762 -0.44075677 0.20624168 -0.03605633 0.91812 -0.11072013 0.56357515 -0.33358032 -0.16014226 1.3418006 0.088743426 -0.45382467 -0.057894316 -0.913981 0.56747353 -0.045374643 -0.07760331 -0.1108082 0.16439246 -0.35527727 -0.15646799 -0.2417461 0.4305257 0.09840744 0.12165857 -0.5938998 0.042712253 -0.09849008 -0.39011872 0.2944617 0.072028056 -0.5963556 -0.81763124 -0.13697113 0.15628085 -0.5830173 0.846311 0.15784256 -0.6257033 1.1009119 -0.22679092 0.20983532 -1.1500834 0.74310637 -0.380297 -0.10816664 0.09978157 0.1950724 1.085349 -0.20147164 0.2580798 -0.053221833 -0.22810389 -0.058759607 -0.21608672 0.30325148 -0.94941217 1.0984765 -0.20338427 -0.3948022 0.3549225 0.5752379 0.4420713 0.15472555 0.44897893 0.39960647 0.4356129 -0.17857179 0.33479944 0.38060597 0.050532475 -0.6063142 1.1274731 0.09140685
just -0.023917621 0.30909184 -0.10803334 0.09549903 0.06312832 -0.5628627 0.40877622 0.98495 -0.49670374 -0.16203696 -0.2433086 -0.57092106 0.093712375 0.046192158 0.1402138 -0.20263101 0.1768785 -0.22457388 0.140529 -1.2285424 0.16830976 0.09865292 0.36430922 -0.23785457 -0.44720572 0.34654546 -0.11063458 -0.21763349 -0.1067873 -0.10245785 0.4910566 -0.026220096 0.19179659 -0.37648365 -0.2304771 0.77094674 0.2140049 -0.48594496 -0.10719445 -0.6131087 0.24030793 -0.15959375 -0.2702343 -0.044733044 0.4046199 -0.31355736 -0.14943746 -0.06908114 0.30452126 0.14931653 0.09406456 -0.33570695 -0.14162098 -0.02159023 -0.22710429 0.18515812 0.09734527 -0.257665 -0.5396474 -0.18247044 0.063806385 -0.22215843 0.30411378 0.16709004 -0.5048737 0.67337614 -0.04496146 0.40502387 -0.71476287 0.49596706 -0.15266415 0.21647525 0.42418534 -0.066542216 0.76453614 -0.105342545 0.060642567 0.047930058 -0.21015832 0.043669812 -0.19105142 -0.078509666 -0.53839403 0.860773 0.018008629 -0.2954487 0.3633089 0.5660432 0.6485346 0.026638981 0.28084737 0.4117809 0.28333852 0.006070805 0.57170767 0.2694377 0.2029773 -0.2660473 0.5158097 0.10247234
more -0.19198416 0.35259497 0.23543787 0.20267016 -0.31080496 -0.6576387 0.6850116 1.0413392 -0.6417896 -0.30444136 -0.1668685 -0.5337657 0.073304705 -0.35252333 0.23755969 -0.16318685 0.023231115 -0.109177984 0.044188075 -0.93734837 0.079808384 0.28008235 0.25675827 -0.034205012 -0.09110083 0.5421363 -0.14639717 -0.1374283 -0.22585122 -0.3360666 0.1522787 -0.08695264 0.013053294 -0.24065554 0.01767913 0.6692164 0.46687135 -0.2858858 -0.00908686 -0.6639485 -0.20497157 -0.18592586 -0.3927937 0.029217843 0.6191444 -0.33384126 0.07003324 0.028653009 0.22515948 -0.016406912 -0.19415903 -0.33639726 -0.23234339 -0.24505788 -0.29588094 0.068391204 -0.09434743 -0.23273848 -0.42622066 -0.088263996 0.28397062 0.064255714 0.30333123 0.15393245 -0.6356622 0.60859513 -0.26568732 0.6623437 -0.2958364 0.60439306 -0.17725714 0.35666838 0.62641835 -0.2566959 0.6791665 0.08710466 -0.20590115 0.057932373 -0.2523613 -0.14434135 0.031519108 -0.19757496 -0.4960926 0.7246546 0.10020682 -0.20789321 0.3147189 0.44797534 0.66611946 -0.11863218 0.20159087 0.32024223 0.32642198 0.4355033 0.7758686 0.4207764 0.09353435 -0.24628715 0.099535 -0.21450882
when 0.15403284 0.35204497 -0.22527605 0.0003021998 0.24764353 -0.5709202 0.3034116 0.8196623 -0.6511077 -0.050765507 -0.16637866 -0.4747956 0.28649127 0.15619445 0.18106517 -0.21262938 0.05612292 -0.25613618 -0.030143782 -1.128826 0.28787687 0.033285934 0.29220986 -0.25892845 -0.45231602 0.22522293 0.14860122 -0.28333315 -0.07684597 -0.04006361 0.6642189 -0.036278386 0.3427031 -0.5455263 -0.14122574 1.1082264 0.3055897 -0.34538653 -0.054905295 -0.69703484 0.3791309 -0.14611375 -0.16088119 -0.016148005 0.53740036 -0.12843925 -0.25924724 -0.14375599 0.4411751 0.07600839 0.1636088 -0.40829763 -0.086980835 -0.1644963 -0.25146785 0.26228425 0.09731953 -0.3301388 -0.6896931 -0.17311363 0.07445414 -0.5088293 0.3864825 0.06986395 -0.47092924 0.82898057 0.054442585 0.4066056 -0.9234305 0.6952475 -0.3718128 0.025845116 0.32486653 0.036576834 0.8221117 -0.09007164 0.10885219 0.041983146 -0.20634677 0.05809715 -0.15268284 0.013169765 -0.79305565 0.8610408 -0.07778095 -0.24326861 0.33382672 0.65087736 0.74268186 0.2621876 0.35589063 0.36350313 0.34273213 -0.1520346 0.45703545 0.277445 0.15930657 -0.41824347 0.7657704 0.0034210393
me 0.04635775 0.2955473 -0.12198556 0.06882026 0.22551613 -0.5689436 0.4036931 0.97860235 -0.59200734 -0.15191409 -0.2128471 -0.5535093 0.0667615 0.0042593777 0.19400558 -0.33669358 0.22104645 -0.22538641 0.097226895 -1.1956753 0.12401974 0.00606611 0.27325827 -0.22981635 -0.46854758 0.29284224 -0.21455082 -0.21574743 -0.17423017 -0.13841721 0.4958101 -0.039731465 0.18889613 -0.3837221 -0.15340738 0.76264143 0.18462187 -0.39685288 -0.12637617 -0.669288 0.2327878 -0.13545656 -0.28027934 0.040002357 0.3840428 -0.23530683 -0.16586709 -0.12896392 0.3051922 0.22443937 0.1671549 -0.369174 -0.13149972 -0.027578402 -0.18688923 0.12527452 0.09976417 -0.27161968 -0.5053142 -0.08231896 -0.018698703 -0.34552228 0.2989737 0.081743754 -0.4717862 0.6734651 -0.039422926 0.41176617 -0.7535644 0.43384156 -0.18885207 0.17067896 0.4601792 -0.015419623 0.7530293 -0.104483396 0.0979818 0.024207026 -0.2816417 0.07081914 -0.18253595 0.06618789 -0.5691099 0.7830268 -0.09596166 -0.2597334 0.40788195 0.5424932 0.68924105 0.0431548 0.36015487 0.38528216 0.2955762 -0.0022907862 0.628257 0.24137148 0.32311416 -0.23043647 0.5737347 0.04702866
an -0.062557995 0.29699162 0.20651935 0.08316148 -0.118991576 -0.84385383 0.5235935 1.208119 -0.68322045 -0.32932752 -0.22528467 -0.56301624 -0.07471445 -0.0014077147 0.28198445 -0.4598737 0.26410902 -0.18070316 0.08641852 -1.1821529 0.16579679 0.2251321 0.26480088 -0.06485629 -0.24396646 0.4167773 -0.2681939 -0.21368212 -0.2854331 -0.2484392 0.32419157 -0.011826522 0.06855308 -0.4141865 -0.0872397 0.5373463 0.42332998 -0.35081932 -0.121846296 -0.5630197 0.0020589787 -0.24495181 -0.33370054 0.088563405 0.5678557 -0.260341 -0.19449489 0.053752683 0.24512911 0.2261985 0.0925317 -0.24233478 -0.26932582 -0.0040068845 -0.15690172 0.043314956 0.14150564 -0.076570205 -0.3672536 -0.057939153 0.04646059 -0.07978519 0.14162873 0.10584708 -0.45386776 0.51675934 -0.020230666 0.48361197 -0.519924 0.4942338 -0.21916321 0.36735412 0.65888447 -0.2410918 0.644883 -0.05341732 -0.02852775 0.089800626 -0.31032205 0.025560597 -0.102046266 -0.1039817 -0.4103435 0.6816785 0.019222964 -0.15544921 0.42676198 0.5728756 0.7784559 -0.05951905 0.19965746 0.35887805 0.23920177 0.17065127 0.8217851 0.21032433 0.39182884 -0.24141459 0.21504195 -0.037067022
because 0.050100423 0.3487219 -0.11787552 0.051311832 0.09717434 -0.5453764 0.3768303 0.9890379 -0.50614566 -0.17633022 -0.21655355 -0.5422675 0.12231652 0.11811952 0.17820138 -0.20022474 0.20554645 -0.19543627 0.084530696 -1.2388198 0.21662633 0.10373798 0.3401614 -0.2720175 -0.4611532 0.38083875 -0.13188118 -0.20011556 -0.06900381 -0.070589304 0.5271525 -0.032867156 0.18328117 -0.43253574 -0.2955143 0.9049293 0.2563186 -0.42621198 -0.11185586 -0.62603253 0.2984912 -0.15072528 -0.16976596 -0.09244826 0.39823145 -0.31839117 -0.1246784 -0.09994591 0.34887138 0.15638502 0.11280037 -0.4350671 -0.15620485 -0.06639782 -0.2651012 0.22467259 0.07419803 -0.26439384 -0.5741064 -0.2866325 0.0890029 -0.30044988 0.41903117 0.1814598 -0.47429278 0.77648616 -0.009903492 0.36936846 -0.82951874 0.5471295 -0.16491207 0.22384466 0.39794305 -0.022676656 0.8178993 -0.045757238 0.0040330756 0.073651835 -0.23282936 0.06088202 -0.13049151 -0.11604439 -0.6680789 0.9053857 0.024566004 -0.2709373 0.41214234 0.5363867 0.63557047 0.115837574 0.31373888 0.42235518 0.27052242 -0.04877905 0.48914212 0.29388422 0.1628421 -0.22256728 0.5463118 0.09847619
these -0.23403727 0.30319673 0.28097492 0.24264748 -0.36585337 -0.8431148 0.60712826 1.0375904 -0.78092253 -0.20458801 -0.075520895 -0.5272815 0.17378578 -0.052177135 0.568663 -0.29542783 0.013799655 -0.25560182 -0.19765668 -1.033039 0.25423864 0.32099962 0.53731096 -0.043605868 -0.2956924 0.44984576 0.02123294 -0.4415661 -0.1852821 -0.30591595 0.3440392 -0.07766878 0.20958313 -0.20943193 0.23367174 0.62316984 0.39208025 -0.3877915 -0.16326073 -0.5161184 -0.19189286 -0.48116824 -0.44019124 0.2692285 0.58216035 -0.030312216 -0.1945392 0.17796467 0.18281543 0.022927485 -0.14512645 -0.20460318 -0.13076586 -0.08168376 -0.083451934 0.10582106 0.010091021 -0.23834462 -0.38072172 0.079894975 0.31677067 0.13143656 0.12178631 0.13312101 -0.5494468 0.43938148 -0.29312775 0.69607085 -0.42830968 0.7831404 -0.17659937 0.18526012 0.6806626 -0.33013415 0.43467984 -0.101374045 0.16675286 -0.042842105 -0.22189853 -0.18755354 -0.14160374 -0.084265545 -0.4880333 0.5801864 -0.05906259 -0.24515027 0.22612819 0.55763316 0.6685293 -0.20805244 0.3164104 -0.003115977 0.18261914 0.38893798 0.641052 0.39785558 0.31480986 -0.5854426 0.017747099 -0.30678272
had 0.075137615 0.21783847 0.16883753 -0.015160564 0.049327422 -0.81255645 0.52614033 1.2262182 -0.62446284 -0.18670864 -0.13691382 -0.48242965 0.04038379 0.07129289 0.26368085 -0.6829231 0.062179778 -0.2161579 -0.018867867 -0.8540348 0.28891933 0.1600695 -0.04820598 0.04521904 -0.28475907 0.31095362 -0.13778073 -0.0043805474 -0.32843864 -0.188016 0.29301158 -0.04868966 -0.027988985 -0.63979524 -0.031871 0.75299305 0.42190105 -0.14246005 -0.050157133 -0.6513409 0.031941842 -0.2819449 -0.30892178 0.19635104 0.67946476 -0.1314457 -0.123640746 -0.07935797 0.3090979 0.19688372 0.24144761 -0.30169508 -0.081569545 -0.36936665 -0.09767257 0.23431525 0.114138365 -0.033811375 -0.35345256 -0.001609132 -0.0048587583 -0.38045484 0.027978214 -0.17803797 -0.4298859 0.65130574 0.29052988 0.7541889 -0.69099534 0.5039827 -0.34094954 0.07460412 0.6439072 -0.092989564 0.6641791 0.15584311 -0.16330424 0.13188262 -0.41473198 0.038730048 -0.21013568 -0.08049288 -0.65062153 0.603244 0.009136718 -0.004740302 0.5552772 0.43136814 1.0027958 0.098843314 0.31529886 0.28140688 0.23380849 0.10508575 0.8195198 0.10726565 0.36321414 -0.19220994 0.28002334 -0.15007906
now 0.072528005 0.30751875 -0.008651415 0.04759562 0.04796388 -0.63130915 0.3894428 0.93416035 -0.6501936 -0.25802547 -0.07258019 -0.4464615 0.09371019 0.06548719 0.30021897 -0.19824043 0.18173066 -0.16024052 -0.0509162 -1.186948 0.21384111 0.10861581 0.40565476 -0.23982695 -0.35087484 0.36591777 -0.08878001 -0.31937027 -0.02923725 -0.1127306 0.45246944 -0.07123196 0.24631804 -0.39027646 -0.084135674 0.844392 0.30812794 -0.35765323 -0.14847149 -0.5864875 0.21491738 -0.21450825 -0.18288106 0.030982291 0.4599989 -0.26373923 -0.18263993 -0.049877945 0.30018172 0.12686744 0.04750939 -0.3421991 -0.18549597 0.009243984 -0.25061592 0.16008945 0.09771764 -0.24971849 -0.45675066 -0.15038669 0.059133805 -0.26170307 0.41116887 0.18108347 -0.5005217 0.73966265 -0.104809776 0.3558419 -0.75324225 0.6047195 -0.21092473 0.22016731 0.4326096 -0.008660477 0.6873475 -0.11512043 0.08021651 0.061760064 -0.21782446 0.022849197 -0.07195864 -0.01842425 -0.569538 0.7814179 -0.049298387 -0.22029983 0.30212995 0.55175954 0.61490625 0.107394494 0.27719274 0.3050017 0.25256026 -0.010787217 0.51357436 0.31557974 0.25133547 -0.37613323 0.4488475 -0.010314149
by -0.16223858 0.2521959 0.45730382 0.23565383 -0.3690786 -1.0125331 0.6882842 1.3510796 -0.76993 -0.4300808 -0.16768159 -0.58188814 -0.03872295 0.0048462055 0.46071112 -0.6852474 0.18896864 -0.17754477 -0.05303565 -1.0483463 0.24659395 0.35094783 0.2942704 0.06735833 -0.23957711 0.5081263 -0.22517563 -0.07095802 -0.3378102 -0.28359273 0.16204965 -0.117436945 -0.0021594898 -0.44615227 0.17384352 0.46255362 0.51574147 -0.38400722 -0.21691966 -0.47301027 -0.28198215 -0.41834676 -0.46782178 0.28831774 0.7237913 -0.15492852 -0.18357593 0.17116416 0.14171802 0.11405689 0.03101279 -0.11468776 -0.19250387 -0.14939517 -0.04004922 0.16739443 0.06749464 0.06468853 -0.2332401 0.06940636 0.05068799 0.07451022 -0.1583649 0.13485658 -0.5340013 0.4771527 -0.062330257 0.7975447 -0.42304292 0.62604034 -0.18491569 0.33784854 0.8625846 -0.32027942 0.45858553 -0.09112142 0.013299981 0.053542342 -0.35405278 -0.0979588 -0.20939057 -0.11791538 -0.378592 0.5422939 0.07162362 -0.19369273 0.32571355 0.4773303 0.922157 -0.26250175 0.17333019 0.037599392 0.12117367 0.34778503 0.8330621 0.24776302 0.49318597 -0.3218271 -0.0931908 -0.21015878
us -0.22213364 0.2440025 0.111072704 0.28065705 -0.19101748 -0.69142103 0.5351033 0.98568255 -0.6892346 -0.25077146 -0.0910811 -0.54965365 0.064452335 -0.14521052 0.49046233 -0.2749016 0.06752085 -0.15550222 -0.11671006 -1.0136658 0.10797927 0.13976316 0.36756343 -0.09977158 -0.34210572 0.37614197 -0.07217773 -0.27359977 -0.17973119 -0.26342928 0.35781565 -0.07142291 0.2494889 -0.20193759 0.17227356 0.5763216 0.3570586 -0.34089446 -0.08940777 -0.5248848 -0.10363156 -0.307617 -0.39941502 0.21135779 0.4151589 -0.15458587 -0.17004614 0.1451242 0.19170482 0.07572254 -0.057558406 -0.18955056 -0.025039896 -0.027620088 -0.08780033 0.1553716 0.0074542067 -0.20430015 -0.31789544 0.14044593 0.20805255 0.07169384 0.15411025 0.12163057 -0.5448372 0.4859563 -0.22523107 0.54444236 -0.50150985 0.6688223 -0.17933458 0.16795981 0.61303073 -0.273369 0.5463686 -0.14686537 0.19586472 -0.024894252 -0.26976842 -0.16692314 -0.17167965 0.06792861 -0.4367003 0.6524295 -0.09884894 -0.23908658 0.25089929 0.46772373 0.6043031 -0.2969921 0.28570375 0.051601358 0.19218609 0.3397281 0.6140391 0.34745988 0.25941867 -0.4703407 0.20360996 -0.1319915
them -0.25002888 0.33672684 -0.082840204 0.25256318 -0.072374836 -0.54736215 0.49421537 0.7771945 -0.73307115 0.059335634 -0.1898258 -0.5186516 0.30341062 -0.146737 0.32221478 -0.092287816 -0.050972827 -0.32041398 -0.09419774 -1.1202707 0.17971626 0.124516435 0.53722787 -0.15409286 -0.4487857 0.2564906 0.2091782 -0.44925871 -0.20179392 -0.20858628 0.53706783 -0.056785613 0.34361488 -0.16126898 0.08672842 0.7621794 0.19674179 -0.38611537 -0.012796541 -0.6272282 0.107461736 -0.3416632 -0.45476878 0.14963089 0.4451921 -0.05777958 -0.19584401 0.040253874 0.24933209 -0.00077053404 -0.06835043 -0.25271314 -0.035815395 -0.049763635 -0.15634625 0.14880952 -0.013222521 -0.3867691 -0.58458394 0.023122426 0.32535458 -0.01804504 0.15322499 0.10207301 -0.53401005 0.48835188 -0.27013254 0.5903508 -0.54202855 0.67593646 -0.3305247 0.08211567 0.45850798 -0.2443554 0.58709407 -0.14019525 0.23748408 -0.056588706 -0.14649728 -0.102046885 -0.15867826 -0.024682773 -0.53743875 0.7243149 -0.18647128 -0.37752968 0.18074384 0.6124972 0.6288102 -0.14208779 0.3525341 0.12830572 0.31505772 0.2138185 0.59602237 0.31783175 0.21532133 -0.5756658 0.43459722 -0.13940619
how 0.027792806 0.41330728 -0.38787866 0.14376238 0.24061851 -0.44709137 0.3664179 0.77139205 -0.7468386 -0.027767133 -0.18306167 -0.5537073 0.3803246 -0.11197903 0.28462207 0.069279306 0.070188366 -0.19296823 -0.056568343 -1.355666 0.24267991 -0.13791366 0.48810244 -0.49699858 -0.6178286 0.32029647 0.1661241 -0.4594575 0.0860231 -0.06262273 0.8370947 -0.053936526 0.47072917 -0.27664253 -0.14784227 1.1534876 0.23845653 -0.39604828 -0.04245637 -0.77406913 0.47203165 -0.06483541 -0.14462382 -0.081640705 0.31120172 -0.33224353 -0.16863728 -0.19961993 0.48267233 0.057196483 0.004398093 -0.5370394 -0.0582994 -0.051606502 -0.33810413 0.19158812 0.058700737 -0.50543153 -0.75844526 -0.14839359 0.2078548 -0.43078637 0.7610882 0.2410458 -0.62182194 0.9671182 -0.24430609 0.19774196 -0.9666685 0.7925005 -0.37354666 -0.008598172 0.2599752 0.009650371 0.9590598 -0.16835997 0.23630336 -0.035864543 -0.19225211 -0.007966608 -0.10787126 0.21258226 -0.8153617 1.02515 -0.19952998 -0.44533396 0.2610735 0.7306081 0.5267601 0.18073286 0.4158063 0.40887943 0.41731068 -0.13373932 0.42030782 0.34706315 0.10992443 -0.5785963 0.98701155 0.043445896
out -0.046643447 0.25653055 0.12325529 0.13953799 -0.031174699 -0.72504365 0.5428792 1.0935444 -0.6380992 -0.24040468 -0.19682442 -0.5451086 0.09716462 -0.054372653 0.4089685 -0.4146566 0.061595015 -0.17333454 -0.011267726 -1.049515 0.2197416 0.14087473 0.27880988 -0.085277155 -0.39488745 0.43854368 -0.109130315 -0.17290609 -0.20462234 -0.1539302 0.36006495 -0.09184551 0.12428962 -0.34338886 0.083704345 0.6754147 0.3032119 -0.36053988 -0.15594971 -0.5464332 -0.052254904 -0.30349213 -0.39505976 0.16972004 0.50273263 -0.18021391 -0.16862921 -0.04220139 0.21947065 0.10153777 0.087392464 -0.207856 -0.098607 -0.16621597 -0.07281638 0.12808542 0.07242261 -0.16648047 -0.3921382 0.042957574 0.04943593 -0.15081522 0.07894902 0.060290843 -0.5298454 0.55445534 -0.0069126384 0.5863538 -0.6254534 0.5904409 -0.23952432 0.15640683 0.57615554 -0.18910694 0.59198916 -0.09928847 0.10355535 0.045202598 -0.34846947 -0.045557596 -0.28011245 0.02553154 -0.48710525 0.67665654 -0.04163877 -0.18468553 0.3361361 0.47426236 0.7308021 -0.19441032 0.32386374 0.14464477 0.21846557 0.16140394 0.66822577 0.25758946 0.33285084 -0.39068452 0.25717452 -0.09972317
world -0.26262027 0.1808846 0.49569982 0.29314277 -0.5017086 -0.9244396 0.59794766 1.1618868 -0.6906338 -0.55758065 0.06238432 -0.5344328 -0.17524126 -0.0038183853 0.5959407 -0.64689344 0.20727241 -0.057284717 -0.18192501 -0.7638855 0.1328808 0.2775559 0.2209687 0.13598233 -0.13307485 0.39199516 -0.20925434 0.03871891 -0.2670929 -0.33464786 -0.004954 -0.12592019 -0.02949373 -0.3573761 0.3020193 0.22928172 0.5740913 -0.3021001 -0.19225833 -0.27527174 -0.35591274 -0.44279307 -0.41433483 0.3605058 0.595451 -0.11375945 -0.19898173 0.31586 0.073876254 0.055155538 0.01942234 -0.011724735 0.013381426 -0.10349138 0.026244154 0.22013494 0.042367514 0.19766475 -0.03928367 0.17826335 0.051437017 0.26301563 -0.24903648 0.093845785 -0.42971325 0.36589172 -0.12114092 0.70548165 -0.30767068 0.5277304 -0.14228094 0.37790516 0.85047835 -0.3465952 0.287337 -0.08365071 0.12576044 -0.012324863 -0.35095656 -0.20581408 -0.19947925 -0.14798598 -0.25965524 0.3766637 0.082036935 -0.15744705 0.23658319 0.2364585 0.72636855 -0.40396056 0.07461501 -0.14012925 -0.12729454 0.40879574 0.71197975 0.25220662 0.3963072 -0.3352525 -0.233489 -0.16614246
he -0.009683421 0.28357723 0.23418951 0.044142917 -0.06342821 -0.8646354 0.51378894 1.2900834 -0.6590408 -0.42895886 -0.18755285 -0.594914 -0.15409805 0.15799142 0.24405585 -0.60022503 0.483473 -0.19177966 0.20867528 -1.263839 0.15576485 0.2508198 0.26138115 -0.030423056 -0.2547351 0.38994956 -0.50175124 -0.15516403 -0.30911687 -0.25063798 0.26042655 0.009059816 -0.086117595 -0.3913864 -0.20889093 0.41581443 0.4315958 -0.32188872 -0.20331098 -0.41589707 0.0522002 -0.23621096 -0.3007315 0.032764148 0.5629339 -0.20201354 -0.23523438 0.08625812 0.2168642 0.30920333 0.20749749 -0.24289337 -0.32181156 0.10601144 -0.23227955 0.0030837997 0.16941108 -0.019723034 -0.2763536 -0.11574886 -0.032111473 -0.10977142 0.123510525 0.16618758 -0.4102848 0.4503275 -0.060702004 0.47705713 -0.48247057 0.24620803 -0.1215162 0.45379958 0.71077424 -0.22057983 0.5856174 -0.05325873 -0.08967172 0.1213406 -0.30661154 0.17284402 -0.042942625 -0.25333637 -0.33579564 0.64900696 0.0540982 -0.13800804 0.45962128 0.52425826 0.82641464 0.025147423 0.2237095 0.5038792 0.18828371 0.11503342 0.8429154 0.10555008 0.48570892 0.0013660959 0.13445936 -0.001359663
their -0.36740616 0.2989471 0.30644995 0.3573193 -0.33792105 -0.80644786 0.6259647 0.99553585 -0.8913469 -0.09288144 -0.18967779 -0.5680043 0.2038507 -0.094248176 0.57364273 -0.3270542 -0.122078165 -0.3382483 -0.13437974 -1.0561343 0.26127428 0.33333632 0.48785153 0.07390455 -0.30099353 0.3479795 0.15801223 -0.38738635 -0.3331184 -0.2907538 0.38794726 -0.09948142 0.23386554 -0.20029156 0.31412694 0.5539822 0.38334602 -0.32824776 -0.048078414 -0.5182249 -0.21936654 -0.5575905 -0.5795262 0.359134 0.6174689 0.084160395 -0.20944528 0.21503338 0.12922648 -0.0104999365 -0.16417086 -0.07802795 -0.07618209 -0.09786147 0.043849003 0.14554282 -0.054458443 -0.15181167 -0.4355343 0.16604498 0.37168735 0.29914597 -0.15390432 0.105489165 -0.5842164 0.2789814 -0.25103492 0.8568702 -0.29179752 0.78759116 -0.27783975 0.17146102 0.70967495 -0.47750074 0.38514787 -0.175243 0.17054752 -0.0246483 -0.1432108 -0.2408698 -0.14996526 -0.10319241 -0.4326992 0.56887686 -0.09455164 -0.26470095 0.12071863 0.62037486 0.8262642 -0.3383114 0.2948962 -0.14117756 0.1981654 0.5155043 0.65576977 0.365395 0.32054567 -0.63534695 -0.00870337 -0.3542829
were -0.07032042 0.16916671 0.07780526 0.23560497 -0.124998525 -0.6099551 0.3996667 0.83882886 -0.65419465 -0.03831728 -0.15624392 -0.624715 0.24911495 0.0048205773 0.4690922 -0.33398047 -0.23544796 -0.259431 -0.05100752 -0.8619439 0.3230388 0.110987306 0.24975844 -0.007859358 -0.4056105 0.30943486 0.2859425 -0.21175587 -0.14236435 -0.113919266 0.5055834 -0.10814573 0.29247645 -0.3898271 0.23894073 0.82020557 0.34244943 -0.3542066 0.003235092 -0.6644887 -0.044874858 -0.40089116 -0.34516597 0.27928305 0.47720787 -0.00772891 -0.16240743 0.06778892 0.27188194 -0.078370936 0.070360765 -0.2075217 0.11064562 -0.36041057 0.024191136 0.32084408 0.0025418864 -0.15404035 -0.5354501 0.16176534 0.21257617 0.01615996 0.002613372 0.027269265 -0.58055454 0.6069765 0.000261098 0.82485914 -0.6220463 0.82598376 -0.2918302 -0.096547 0.5084216 -0.20703684 0.60856 -0.058137365 0.105744824 0.06431041 -0.24430665 -0.28040418 -0.33312207 0.010120676 -0.66951627 0.70201147 -0.023846712 -0.15306187 0.3374958 0.49696308 0.8027281 -0.21580966 0.35601038 -0.05589712 0.1874551 0.35869443 0.46658838 0.4197102 0.12428876 -0.5738279 0.3244746 -0.14716558
who -0.16850846 0.38912028 0.12440629 0.20215632 -0.2767956 -0.7109467 0.571085 0.9842507 -0.72445786 -0.10043592 -0.20628284 -0.58090454 0.18367346 -0.04517267 0.4481984 -0.29622045 0.0664268 -0.29263997 -0.053474758 -1.1486584 0.2779309 0.3102653 0.4878482 -0.13933197 -0.33926472 0.43761614 -0.04878064 -0.39976045 -0.15007052 -0.21023537 0.5035081 -0.06228326 0.21816134 -0.22535333 0.0573259 0.73604923 0.37541574 -0.3930574 -0.16609316 -0.5241331 -0.04633625 -0.40828204 -0.43629846 0.14704123 0.49432105 -0.15368341 -0.11142631 0.13679601 0.2506869 0.042944796 -0.10540953 -0.31361237 -0.14048721 -0.03759004 -0.20302679 0.1490402 0.017742489 -0.3043677 -0.46408707 -0.053293023 0.36851725 0.10796732 0.2199949 0.18809918 -0.53118736 0.5355559 -0.2956026 0.63198507 -0.50573343 0.6801642 -0.14810535 0.22817615 0.60028887 -0.28992417 0.5141834 -0.12184571 0.07473626 -0.0060803182 -0.20803407 -0.09329863 -0.11070278 -0.1659876 -0.5650444 0.68756926 -0.026068227 -0.33882016 0.2476488 0.6081294 0.62881714 -0.13377406 0.34641042 0.12412134 0.25052726 0.24691266 0.56740046 0.33989063 0.32281575 -0.4434731 0.20582676 -0.21683006
up -0.1528382 0.27216154 0.3216639 0.2004623 -0.1562355 -0.91749436 0.5916824 1.1515318 -0.8126613 -0.25243604 -0.17508467 -0.55485195 0.043336507 -0.005707339 0.4295844 -0.5755336 0.054154377 -0.24886096 -0.092655405 -1.0122718 0.21272932 0.26394248 0.28422752 0.051282838 -0.2844367 0.35937914 -0.07913145 -0.19719504 -0.33018515 -0.2651098 0.28156385 -0.05614369 0.09134955 -0.34753913 0.19826597 0.47458056 0.44655144 -0.27099273 -0.11239205 -0.5255522 -0.13293812 -0.4052444 -0.48677245 0.34703833 0.6702708 -0.023936465 -0.23019479 0.10698126 0.17460406 0.1157716 0.030674526 -0.07660275 -0.112160265 -0.14110787 -0.042850886 0.12739179 0.06302385 -0.055643506 -0.31648275 0.12053692 0.11546427 0.020658934 -0.15800487 0.016083932 -0.47446525 0.37878898 -0.035829976 0.76650614 -0.42694756 0.5727338 -0.33190712 0.20586045 0.7446929 -0.27884027 0.4338917 -0.06853265 0.11063012 0.010059611 -0.31117818 -0.085720286 -0.18105301 -0.06670427 -0.39347014 0.52209944 -0.035500918 -0.18223704 0.3251444 0.50532806 0.87612015 -0.22706287 0.23613246 0.059729226 0.17247343 0.31342533 0.8481114 0.22260103 0.4844216 -0.4265022 0.07410227 -0.22883812
time -0.104123384 0.15677457 0.35350704 0.1377813 -0.30964094 -0.8445811 0.49103335 1.0380714 -0.6549815 -0.4027726 -0.015139958 -0.45386225 -0.11231769 0.093520254 0.33280802 -0.61060876 0.17014359 -0.21248975 -0.028506758 -0.8268324 0.115553655 0.28072453 0.25932077 0.07137245 -0.1944621 0.3388432 -0.14654484 -0.06629063 -0.31995517 -0.20074065 0.07423023 -0.07618181 0.05646952 -0.39628708 0.15686896 0.3599755 0.4059116 -0.2894536 -0.1678957 -0.34643042 -0.13917954 -0.39745232 -0.3961678 0.24590667 0.5945095 -0.063746184 -0.22126056 0.17240778 0.12930301 0.0804343 0.06985734 0.016854955 -0.10281827 -0.05077189 -0.0061260895 0.13666487 0.09117696 0.04268284 -0.11898451 0.09200534 -0.010948781 0.02851284 -0.22482343 0.008191051 -0.35682476 0.3349395 0.08776857 0.64358556 -0.45844856 0.45121685 -0.14953697 0.3001466 0.6761906 -0.16584179 0.33392987 -0.079501554 0.012881011 0.07185777 -0.29003778 -0.0406601 -0.16503675 -0.118690126 -0.2568257 0.47093925 0.02667967 -0.12747519 0.27288115 0.36401707 0.7831857 -0.16270871 0.1366706 0.042386986 -0.005240041 0.24363506 0.58730376 0.19543375 0.38861868 -0.22785123 -0.11399236 -0.08788038
would 0.06773775 0.35898006 -0.31696093 0.12091966 0.37018004 -0.4070819 0.40704575 0.8156966 -0.6738021 0.05541085 -0.22681582 -0.5420985 0.39514896 -0.08268114 0.2593083 -0.2031 -0.051972322 -0.17156784 -0.09757225 -1.0870678 0.23018795 -0.0970251 0.2306694 -0.36292666 -0.4806815 0.24070683 0.19079518 -0.24109113 -0.06607046 -0.041380014 0.65229166 -0.029054204 0.31879273 -0.45370275 -0.16299997 1.1632581 0.1641674 -0.37240535 -0.020611217 -0.7912132 0.3177269 -0.09717368 -0.227208 0.0034489378 0.36898386 -0.24316825 -0.14271764 -0.24429108 0.38797385 0.10807113 0.17688063 -0.47870412 -0.009464403 -0.32191452 -0.31173608 0.25084376 0.04248366 -0.43932313 -0.70326054 -0.12770338 0.16037388 -0.5076657 0.42676786 -0.06430531 -0.592057 0.9154969 -0.031115176 0.47136453 -0.8902095 0.6644535 -0.3974655 -0.10807478 0.29611164 0.0630365 0.863052 -0.104227275 0.14589584 0.013561878 -0.30295447 -0.04531916 -0.2626341 0.15473697 -0.8508638 0.89835036 -0.110048994 -0.292577 0.372051 0.47541812 0.7412345 0.06338252 0.44630188 0.26258156 0.40252727 -0.065061 0.51315147 0.30682385 0.24085668 -0.54435813 0.8472073 -0.077457435
very 0.11307346 0.20822878 0.1031063 0.036730055 -0.011234998 -0.7193815 0.36358592 1.1341648 -0.547878 -0.52481496 -0.134585 -0.61326575 -0.09844623 0.011942605 0.1828521 -0.29617146 0.30240965 -0.11724505 0.11094836 -1.191059 0.050928023 0.06456609 0.22021015 -0.15040734 -0.31332105 0.53043747 -0.39974287 -0.08878374 -0.08877262 -0.18059956 0.2799643 -0.049973954 0.15674734 -0.34658235 -0.21079305 0.69228077 0.4405447 -0.4028624 -0.19709446 -0.5561003 0.1330346 -0.060946677 -0.17338571 -0.020079024 0.40297756 -0.45347965 -0.14125153 -0.08423079 0.3441629 0.26302066 0.09265839 -0.36999533 -0.29383385 -0.06481082 -0.22678865 0.027784673 0.1741871 -0.21258594 -0.33948505 -0.1304212 -0.10661468 -0.30946973 0.5187712 0.20213708 -0.5098921 0.7108996 -0.007142962 0.25175676 -0.6543904 0.46963647 -0.009768989 0.3219 0.4868136 0.096492164 0.83967865 0.04019203 -0.07099732 0.02843105 -0.34170997 0.13658959 -0.038928717 0.11195468 -0.38904145 0.7566319 -0.02518344 -0.15727904 0.421329 0.49658117 0.62112254 0.14016181 0.3176178 0.5518554 0.32552633 0.053800017 0.59114224 0.26597637 0.3080085 -0.118259706 0.3556007 0.08070561
know 0.120512545 0.41082263 -0.6459692 0.05192149 0.47639444 -0.23784511 0.26900604 0.59936094 -0.5994817 0.19609466 -0.29663008 -0.49650043 0.4982349 -0.0075992914 -0.049640715 0.09217034 -0.014468716 -0.38911825 0.04663072 -1.3287661 0.28855056 -0.14617743 0.47141355 -0.6038782 -0.81472385 0.18342137 0.23446628 -0.3183019 0.15147902 0.12534375 0.89731646 -0.04429002 0.5360149 -0.42341793 -0.331036 1.516619 -0.06987733 -0.57724285 0.0074398816 -0.93325955 0.7437513 -0.047064073 -0.15939754 -0.20093185 0.29534382 -0.3695174 -0.13160412 -0.3445966 0.52946305 -0.0010876419 0.16061613 -0.5659833 0.06413485 -0.1592716 -0.36401564 0.42078555 0.053998195 -0.58769023 -1.0450834 -0.32877395 0.09041236 -0.6594283 0.6403335 0.04815152 -0.61418754 1.0686731 0.036765836 0.31017655 -1.2329947 0.7406153 -0.3557001 -0.086626254 0.03838951 0.202302 1.0344603 -0.15076879 0.23597349 0.035436865 -0.1314627 0.02922434 -0.3057423 0.19603945 -0.99295264 1.272014 -0.06217214 -0.43754876 0.31007323 0.7419001 0.53355974 0.32779467 0.43713716 0.4297693 0.5278664 -0.35566998 0.21702392 0.31417024 0.05806973 -0.48623332 1.2796158 0.21979302
see 0.11221181 0.2363468 -0.38275418 0.109494105 0.20692033 -0.34949404 0.2549695 0.4608538 -0.6379098 0.06695842 -0.09427043 -0.53171766 0.35605904 -0.07765806 0.17807429 0.0010152117 -0.06762438 -0.2596747 -0.09446306 -1.0574621 0.2068703 -0.13354857 0.3807751 -0.42357993 -0.61106247 0.18221633 0.33827293 -0.31361493 0.119308494 -0.020704245 0.75795746 -0.103962 0.5347019 -0.31620285 -0.014304529 1.1121148 0.18339965 -0.44536397 -0.03281807 -0.72409886 0.47780982 -0.17624317 -0.21627735 0.026443396 0.26778677 -0.20498155 -0.20677975 -0.07875679 0.39301878 -0.07543509 0.122361496 -0.39132413 0.1285499 -0.1279436 -0.24575797 0.32782945 0.08671977 -0.36804765 -0.75310296 -0.036516033 0.08788692 -0.3507904 0.46925804 0.09852115 -0.5373011 0.82671314 -0.14614935 0.33365577 -0.8971314 0.6896158 -0.38132697 -0.12000884 0.15114205 0.12780319 0.780094 -0.20035976 0.2812362 -0.021138264 -0.158203 -0.074286975 -0.24993026 0.22236441 -0.7394792 0.9048713 -0.17560878 -0.33856317 0.22160868 0.5712369 0.4898734 0.13530847 0.32204112 0.24839455 0.31966138 -0.106110305 0.26326174 0.30705205 0.07720752 -0.5940427 0.9463979 0.10057521
ve 0.14643529 0.20931298 -0.040490247 -0.04864425 0.11715086 -0.6036699 0.37767363 0.8603194 -0.61335707 -0.042536814 -0.062355384 -0.4670657 0.22790477 0.07086904 0.26833525 -0.45691168 -0.08254277 -0.2059903 -0.10665135 -0.77062917 0.35325623 0.0752106 -0.025294563 -0.054492593 -0.3483043 0.20046481 0.17710797 -0.106855996 -0.15305288 -0.1329101 0.48370644 -0.07218066 0.12985007 -0.6025649 -0.10203891 1.0120038 0.44364893 -0.1541215 0.04719762 -0.7135047 0.23431814 -0.25736663 -0.1607002 0.09750835 0.6304942 -0.08117206 -0.14909966 -0.11740529 0.39646325 0.051919818 0.29757708 -0.42493546 0.04729888 -0.44462863 -0.18354928 0.33075237 0.107608244 -0.19495061 -0.56437546 -0.08514953 0.03988162 -0.40917993 0.25013357 -0.22422346 -0.37993124 0.7954759 0.26870263 0.6323732 -0.89149874 0.61251056 -0.40689108 -0.08123446 0.42470935 0.026379025 0.7391526 0.20519912 -0.12799439 0.13811833 -0.31089517 -0.023200205 -0.19373925 -0.1051722 -0.81974006 0.72670174 -0.026223805 0.040435567 0.45470005 0.40004537 0.87380695 0.2852793 0.30374676 0.3481316 0.29072013 -0.027378077 0.58670473 0.15005732 0.16674949 -0.39210445 0.56727004 -0.093907766
think 0.23026416 0.32609138 -0.4398264 -0.08805728 0.3943761 -0.35058314 0.20664783 0.71770483 -0.4210075 0.00030478725 -0.16961226 -0.39706782 0.23110881 0.021398814 0.007892937 0.03654971 0.07888927 -0.22971673 0.0057029957 -1.0964111 0.2099356 -0.04857247 0.2123012 -0.41521522 -0.5436765 0.27943143 0.0369821 -0.23143901 0.06252199 0.041250553 0.6602659 -0.031712353 0.3803465 -0.54383403 -0.34343758 1.2149273 0.15700135 -0.3606343 -0.00037487142 -0.7338483 0.5720837 -0.0038906971 -0.007245039 -0.16203292 0.37582666 -0.33142868 -0.14810066 -0.25050455 0.5009651 0.14147955 0.17924054 -0.54768187 -0.02627029 -0.118666425 -0.3544806 0.29867893 0.108734354 -0.42952675 -0.73612374 -0.26332387 -0.012232483 -0.66636413 0.65248966 0.06576716 -0.4051608 1.0124478 0.08387539 0.20979172 -1.0578928 0.5804779 -0.31189555 0.007862994 0.13383098 0.19341384 0.9992481 0.013848093 0.070804164 0.09396941 -0.1712258 0.061645903 -0.15304507 0.12912908 -0.8420335 1.043181 -0.035362195 -0.26909345 0.4128968 0.62822247 0.49161303 0.3908492 0.3910334 0.5363588 0.37945825 -0.3442123 0.37018967 0.319317 0.022333382 -0.32314366 0.99482936 0.1890886
your -0.12890993 0.41185334 0.025465695 0.21451795 -0.07271325 -0.7287954 0.45676675 0.8887309 -0.8276201 -0.11443035 -0.22854966 -0.5603916 0.17980148 -0.10891826 0.30323344 -0.20229982 0.039655786 -0.27215493 -0.008925561 -1.2001369 0.13867927 0.17091991 0.45538205 -0.22968578 -0.41400227 0.33537218 0.080559626 -0.41200456 -0.16078253 -0.17941713 0.51773155 -0.104188524 0.36962697 -0.26258942 0.043056082 0.7525332 0.27209264 -0.49577466 -0.08963168 -0.6536272 0.18755107 -0.27910227 -0.42984575 0.12373833 0.48621348 -0.19530867 -0.258367 0.05695161 0.24759074 0.013568805 -0.043449167 -0.20778072 -0.15237437 -0.038187854 -0.15441479 0.12857617 0.059312552 -0.28490242 -0.5618509 -0.025606573 0.14454462 -0.049829066 0.15908748 0.09279709 -0.55612576 0.51693577 -0.26089308 0.49924597 -0.5651165 0.63123846 -0.27134293 0.20409025 0.47080165 -0.119808026 0.6672798 -0.16412541 0.19969562 -0.053727485 -0.19164404 -0.07334287 -0.17710036 0.10611978 -0.4623076 0.7423721 -0.11481684 -0.32810438 0.14222169 0.64627814 0.69868773 -0.06701464 0.27350974 0.20138769 0.30496794 0.11913878 0.6245528 0.30681917 0.3631997 -0.5782269 0.47237855 -0.09678498
get -0.025575759 0.30217135 -0.20792809 0.16212937 0.12973866 -0.44120148 0.37313226 0.7002158 -0.61443865 0.02520373 -0.16865039 -0.53814566 0.2752038 -0.08675951 0.2524614 -0.11044145 -0.046096627 -0.25309387 -0.044514548 -1.0670557 0.19030605 -0.009132887 0.37652913 -0.2582439 -0.4966124 0.25219452 0.19528799 -0.28321472 -0.06672977 -0.08729314 0.61214226 -0.090968765 0.359662 -0.27745646 -0.023016145 0.9028945 0.20646378 -0.38390067 -0.029193325 -0.66854817 0.24374002 -0.21800283 -0.2976536 0.0815324 0.37137356 -0.14710972 -0.1690736 -0.097164325 0.31827134 0.008817064 0.052198324 -0.30607843 0.009095318 -0.12474136 -0.19150993 0.22424358 0.051626954 -0.3360523 -0.6054025 -0.03232727 0.1701688 -0.24566676 0.2841256 0.084966354 -0.52204293 0.66505384 -0.14314446 0.4609472 -0.69808894 0.62387335 -0.3592617 -0.02271304 0.30666307 -0.021141231 0.6857184 -0.117603496 0.17557703 -0.020463392 -0.19276302 -0.037454456 -0.19014606 0.10094057 -0.60967225 0.7721408 -0.12569687 -0.31577018 0.24267054 0.551971 0.5778951 -0.0019047277 0.32906455 0.20620449 0.30429444 0.0069085816 0.49827847 0.29174644 0.15581079 -0.51250845 0.6629729 -0.036013853
could 0.054820996 0.32078525 -0.1499863 0.07360328 0.19939929 -0.49011007 0.41115898 0.92975736 -0.557397 -0.095160864 -0.17012925 -0.4881686 0.25398198 -0.043136217 0.2448463 -0.23677996 0.030332226 -0.16609494 -0.022413578 -1.0571167 0.2263227 -0.008267688 0.22826235 -0.2458647 -0.39116335 0.29659212 0.11533541 -0.20652069 -0.09049648 -0.07329501 0.5063156 -0.035973653 0.24244888 -0.48420382 -0.10280092 0.97586113 0.27266446 -0.36584765 -0.02202046 -0.7024773 0.192271 -0.13243997 -0.19047403 0.013748314 0.4528493 -0.23935676 -0.16064554 -0.14032605 0.3518878 0.120351925 0.13327406 -0.36289835 -0.06902791 -0.24965382 -0.2227802 0.2224016 0.053560052 -0.27899405 -0.5704223 -0.12296349 0.08285974 -0.37948787 0.3376956 0.014971819 -0.55383223 0.82357067 0.035221502 0.46153688 -0.81397223 0.6563038 -0.33226928 0.029911295 0.37941888 -0.01118458 0.8023976 -0.06827678 0.06240937 0.05168505 -0.29705223 -0.04268875 -0.21467713 0.06955008 -0.73333156 0.84157366 -0.010900155 -0.20020573 0.39255488 0.47201237 0.72904307 0.052452542 0.353219 0.26725608 0.31481126 0.006040634 0.5233442 0.30506673 0.18655874 -0.45247927 0.6402305 -0.05554391
been -0.0026722644 0.26111794 0.29394946 -0.040059756 -0.0851081 -0.7560515 0.60972804 1.0465431 -0.7606033 -0.20314008 -0.07284944 -0.47040576 -0.017645985 -0.065812916 0.43371344 -0.49680448 0.22971235 -0.13019408 0.0508748 -1.0679939 0.17057157 0.30375338 0.37561014 0.0007446483 -0.16491279 0.45768663 -0.2836945 -0.31244844 -0.16126433 -0.2658044 0.32682034 0.0009768332 -0.033988085 -0.30893746 -0.14008285 0.6222721 0.38796443 -0.22287014 -0.23346266 -0.5981249 0.049335577 -0.30964 -0.33497605 0.070328824 0.43222463 -0.21372579 -0.17569888 0.014425361 0.18967637 0.11497735 0.11357496 -0.3566643 -0.32033488 -0.061437026 -0.34953228 -0.07600327 0.10390899 -0.24504165 -0.28387824 -0.12709245 0.14537445 -0.09719223 0.20498909 -0.009533791 -0.45032722 0.49615604 -0.02560708 0.5189259 -0.5924529 0.31465364 -0.22945932 0.40591654 0.6298896 -0.019121192 0.504803 0.12722492 -0.12925667 0.11806693 -0.36140212 0.003732348 0.038614023 -0.28356367 -0.45706818 0.627913 -0.08079977 -0.043046705 0.48724198 0.35319895 0.722534 0.0692603 0.34766954 0.457296 0.1565151 0.19051218 0.7892006 0.13020478 0.5576113 -0.20751864 0.0908394 -0.22777897
m 0.4141921 0.26927772 -0.21482669 -0.2147232 0.57269406 -0.613647 0.29099488 1.0177879 -0.4414573 -0.13850005 -0.1926542 -0.34341437 -0.0016648786 0.13328576 -0.108246714 -0.2984777 0.1395315 -0.24373582 0.031899117 -1.0368403 0.22054124 0.04267016 0.021169303 -0.280272 -0.4120267 0.31046808 -0.22042446 -0.092721075 -0.09679057 0.030100793 0.46259862 -0.022845546 0.25889823 -0.7810134 -0.34551153 1.1465384 0.19757944 -0.23101266 -0.099090695 -0.7398148 0.50957054 -0.028787011 -0.036922477 -0.043203343 0.6377039 -0.34618497 -0.15821077 -0.3805345 0.5178519 0.30519003 0.2913522 -0.4791882 -0.1905165 -0.14065132 -0.2760834 0.30722556 0.18909156 -0.3219284 -0.6142294 -0.29900628 -0.2688359 -0.88661367 0.43243372 -0.058671106 -0.35593358 1.0267446 0.30693662 0.34646425 -1.032857 0.4563933 -0.43139404 0.10316584 0.287929 0.29068595 0.9860288 0.11193014 -0.008458523 0.15134667 -0.3148951 0.17572607 -0.09432378 0.05378248 -0.79603755 0.92647487 -0.002666953 -0.1601923 0.5280463 0.6862221 0.7403381 0.49322656 0.35718894 0.5531079 0.34225637 -0.383953 0.65142393 0.23466776 0.23305674 -0.10332111 0.8308716 0.089935966
has -0.13665913 0.18846272 0.4864245 0.16675858 -0.2657099 -1.0095273 0.70627296 1.477187 -0.7182849 -0.5219929 -0.14219356 -0.58749497 -0.12103403 -0.041339587 0.47695687 -0.8528509 0.23290554 -0.09452011 -0.0054432717 -0.9948481 0.20558597 0.23903924 0.070579425 0.07260966 -0.20118876 0.49975383 -0.40588382 0.111442834 -0.36313403 -0.3110795 0.04581868 -0.118869625 -0.14595795 -0.41663998 0.11642499 0.37546223 0.5234268 -0.30912057 -0.19533056 -0.49215505 -0.30302888 -0.3568787 -0.46210757 0.2859836 0.6371149 -0.29513332 -0.07990258 0.090745404 0.1199513 0.20734978 0.10509445 -0.13466473 -0.18171036 -0.22693245 -0.019645482 0.1644748 0.08657947 0.143199 -0.12043749 0.11213565 -0.045893945 0.004802622 -0.091455325 -0.012745192 -0.53470176 0.5037367 0.08170642 0.7371311 -0.45037967 0.5180175 -0.075671285 0.32546833 0.89412516 -0.25532445 0.49100888 -0.0038505401 -0.09047234 0.04963486 -0.48381338 -0.037691426 -0.2522248 -0.06945177 -0.35890847 0.50031763 0.086250335 -0.032127094 0.44739103 0.32376897 0.98214865 -0.27798572 0.18361698 0.095779814 0.15721154 0.33547682 0.8682368 0.124419376 0.58126336 -0.19877137 -0.12617952 -0.1532167
into -0.20639876 0.2661583 0.41509715 0.26208097 -0.24655147 -0.97439337 0.6713082 1.346927 -0.8297514 -0.3909379 -0.19234857 -0.58132464 0.019430956 -0.032584906 0.49851325 -0.6861758 0.110620596 -0.20577686 -0.09417496 -1.0656165 0.21051152 0.24476631 0.2918635 0.015497739 -0.33611137 0.43957424 -0.13509794 -0.072714634 -0.32557407 -0.2343489 0.21453364 -0.13924032 0.0037018154 -0.41650978 0.22114143 0.50806564 0.4908391 -0.36934972 -0.18660414 -0.5303139 -0.21349128 -0.4151202 -0.5423763 0.32787305 0.71578765 -0.14677697 -0.2019591 0.129393 0.18272308 0.10875521 0.050067276 -0.06678119 -0.13526358 -0.1994914 -0.03696363 0.21661773 0.08432027 0.060443815 -0.2690802 0.09567393 0.014803391 0.043031264 -0.19418964 0.095529385 -0.5796188 0.4916726 -0.028458852 0.82809174 -0.5004963 0.6769714 -0.25507954 0.25799203 0.82146823 -0.28590083 0.47239196 -0.15170036 0.102528155 0.03027854 -0.38594592 -0.09220826 -0.27294973 -0.048992652 -0.41046458 0.6003574 0.025726369 -0.23578848 0.31453702 0.50499326 0.99375284 -0.29614064 0.1862378 -0.0038664984 0.1438418 0.31615993 0.82770574 0.23482396 0.5243696 -0.41400307 0.05520628 -0.21315435
going 0.0899684 0.38177714 -0.42474627 0.11085548 0.28906 -0.3548529 0.28559938 0.6738051 -0.519104 -0.07046482 -0.060073815 -0.46260935 0.24947263 0.03214185 0.26810628 0.18195106 0.1182635 -0.08475812 -0.06365969 -1.3201287 0.13778059 -0.08125291 0.42307022 -0.3920995 -0.39523327 0.298428 0.063173704 -0.51831865 0.05075602 -0.097258806 0.73743534 -0.0073714834 0.44922295 -0.26042634 -0.24088216 0.97491217 0.19283468 -0.37367463 -0.09215106 -0.65478027 0.39744338 -0.06625517 -0.07540549 -0.11668524 0.23491792 -0.26303032 -0.18667893 -0.17910962 0.33666798 0.199319 -0.044631913 -0.49306646 -0.1757672 0.11904047 -0.28900087 0.11473972 0.0014535318 -0.54288745 -0.5982984 -0.22814539 0.28029782 -0.41956347 0.77948344 0.24386074 -0.47359434 0.79628336 -0.31302074 0.06258576 -0.74710405 0.6414239 -0.20017754 0.046648674 0.1843546 0.0019314274 0.8472802 -0.16204466 0.17501816 -0.03950021 -0.16145377 0.0701444 0.03868913 0.10717804 -0.69053173 0.77206767 -0.22822994 -0.38350192 0.23131378 0.61428905 0.36420852 0.1355953 0.42110854 0.39164743 0.38057345 -0.026590928 0.4283485 0.3897333 0.039262317 -0.4444239 0.7282869 0.050358176
where -0.114872955 0.32179803 0.10846706 0.17279467 -0.14358523 -0.7375774 0.5084298 0.99422747 -0.7026604 -0.23419954 -0.14106053 -0.5643569 0.14448123 -0.0037007895 0.36729485 -0.30699262 0.04531592 -0.20561193 -0.09398887 -1.0884736 0.21265823 0.19077773 0.38082296 -0.11791044 -0.37186638 0.39423263 0.033893257 -0.25362912 -0.17516135 -0.16267085 0.43766892 -0.117466584 0.21206184 -0.36844045 0.08872098 0.73443377 0.39168662 -0.38665795 -0.095875956 -0.5721267 0.012557288 -0.31528547 -0.37655994 0.15681127 0.5510692 -0.17243575 -0.16803946 0.0763668 0.2903384 0.03238074 0.0045181136 -0.24332379 -0.0853861 -0.10131138 -0.15794581 0.2243973 0.04127949 -0.16196749 -0.45334858 -0.009583706 0.18587317 -0.04785822 0.15153423 0.16219583 -0.52312565 0.604186 -0.12003303 0.5707379 -0.58836937 0.69793785 -0.25003657 0.19127758 0.5767779 -0.19931547 0.58704823 -0.09688993 0.09857538 0.012962725 -0.23601581 -0.108794376 -0.18557619 -0.026887555 -0.5382997 0.7008182 -0.033704683 -0.2764027 0.27021834 0.5620843 0.7210689 -0.09851686 0.26137564 0.13964592 0.21638705 0.180851 0.6197458 0.29654264 0.27141353 -0.48242134 0.32116893 -0.11515478
don -0.20925833 0.96362877 -0.77745247 0.17121838 0.039062593 -0.1622638 0.29542968 0.37373787 -0.20170136 0.8405845 -0.53635275 -0.9935278 0.8697656 0.11945293 -0.13666788 0.5686669 -0.41738707 -0.79256445 0.35358265 -1.5127879 0.116684064 0.22389442 1.1729556 -0.5743525 -1.2646573 0.3427415 0.96889895 -0.7825622 -0.015728626 0.045961566 1.3186084 -0.1372895 0.73152065 -0.25215855 -0.7420118 1.6362194 -0.31113407 -1.3168817 0.20731807 -1.2475157 0.9221572 -0.37758395 -0.35550866 -0.38201854 0.15459657 -0.14520264 -0.39516377 -0.14853749 0.46899506 -0.2654693 -0.14768839 -0.56250393 0.16046517 -0.38829747 -0.4607542 0.4105917 0.030924171 -0.9649639 -1.6097316 -0.46263874 0.74628055 -0.11594084 0.2261645 0.29663205 -0.5077358 0.9389259 -0.3323958 0.76241654 -1.3491008 0.74827546 -0.35021535 0.0017349913 -0.03456289 0.14516537 1.3520103 0.13994257 0.16259655 -0.08729227 0.39081123 -0.14070012 -0.5704972 -0.627793 -1.1054561 1.7065135 -0.09020195 -0.8283397 0.3203166 0.71387553 0.67697996 0.12113991 0.41543236 0.694364 0.672551 -0.38998488 0.36750156 0.6278535 -0.18428303 -0.94635415 1.460621 0.3321078
really 0.07150742 0.36280158 -0.30180743 0.04683251 0.26541743 -0.3977944 0.34523904 0.90220493 -0.5134431 -0.09240922 -0.25108555 -0.52057856 0.18260379 0.04076363 0.10577657 -0.08492886 0.20831156 -0.20608595 0.1159149 -1.2811964 0.19323398 -0.009399386 0.37178802 -0.3863964 -0.51536506 0.34477508 -0.0934468 -0.26718163 -0.013550442 -0.019608678 0.6287539 -0.021581743 0.24909925 -0.35690895 -0.3299382 1.0000174 0.15260349 -0.4491595 -0.08588253 -0.66245455 0.4046417 -0.064237036 -0.14766961 -0.15525763 0.3045124 -0.36900318 -0.10355762 -0.19201578 0.4088923 0.18835863 0.116807535 -0.4896511 -0.14018472 -0.012102983 -0.32893446 0.1925372 0.08271018 -0.39256102 -0.6288479 -0.30959916 0.08859214 -0.41145 0.5803143 0.16629109 -0.52073014 0.8434376 -0.058087327 0.24188003 -0.8987419 0.5451196 -0.17562489 0.14500888 0.2731663 0.017294891 0.8765074 -0.09694553 0.07766909 0.08125268 -0.2006518 0.095749244 -0.11703873 0.007296929 -0.71579784 0.97424483 -0.026162596 -0.35245842 0.3853923 0.5971857 0.52976054 0.17238027 0.35165954 0.4862252 0.37446055 -0.14535727 0.45552868 0.27224237 0.15461816 -0.27779403 0.76471114 0.14815544
first -0.09053827 0.19936985 0.27300662 0.13628656 -0.24493074 -0.8576742 0.5176357 1.13517 -0.61947095 -0.41844442 -0.04902462 -0.48036608 -0.11983855 0.10801767 0.3638401 -0.58219534 0.28813386 -0.1270318 -0.011134475 -1.0034164 0.17861722 0.24558605 0.21685979 0.02650749 -0.25382173 0.4208749 -0.29649115 -0.07711228 -0.27040148 -0.24505797 0.15640168 -0.04042604 0.008083807 -0.43678924 0.07917978 0.47738227 0.44594187 -0.3249197 -0.19071156 -0.40417844 -0.10690594 -0.32079872 -0.3358934 0.20074719 0.6122538 -0.13632718 -0.2290986 0.1355191 0.20196037 0.15356246 0.11800004 -0.116456956 -0.11056477 -0.049492087 -0.111544624 0.16400318 0.11148375 0.056614622 -0.21180972 0.032501563 -0.016871125 -0.06492612 -0.02012909 0.07714825 -0.4155527 0.5012992 -0.021769552 0.5938398 -0.539191 0.48792046 -0.19681442 0.36100358 0.71318257 -0.18615949 0.5193869 -0.05317036 0.019704897 0.10082365 -0.31625023 -0.0006003442 -0.12332952 -0.109265625 -0.35314515 0.555841 0.066406935 -0.15472265 0.32497728 0.4162526 0.7789346 -0.12648684 0.1659228 0.16599332 0.067868456 0.17152426 0.71038234 0.22500907 0.4026869 -0.2204532 0.04937865 -0.06708681
then -0.019509263 0.25873825 0.06447669 0.1322884 0.016134856 -0.6357561 0.4758967 0.98121685 -0.6827805 -0.22114575 -0.13320182 -0.5294182 0.14977537 0.032634523 0.34829858 -0.37246355 0.1077793 -0.17723213 -0.017942835 -1.0830594 0.24052404 0.10048399 0.29854 -0.10416356 -0.3497924 0.3143347 -0.037111156 -0.21724835 -0.16475666 -0.15020975 0.38540903 -0.041785028 0.13430522 -0.37667894 0.018810786 0.718075 0.35071778 -0.31873646 -0.11895797 -0.57398236 0.071545064 -0.27756935 -0.29981458 0.1562868 0.49742782 -0.13357331 -0.19921745 -0.0011938686 0.26736492 0.1034534 0.10389255 -0.25306958 -0.1022496 -0.107821174 -0.15938978 0.13228469 0.047127634 -0.172551 -0.42574605 -0.026658544 0.08757946 -0.16733697 0.19337548 0.08421016 -0.51434994 0.58982116 -0.0477455 0.5566793 -0.6363276 0.5661264 -0.24806629 0.15889208 0.5218272 -0.117187425 0.60156673 -0.0879351 0.10914528 0.020484267 -0.27569297 -0.01829657 -0.15445533 -0.039865047 -0.54113245 0.6650635 -0.05004613 -0.24317351 0.35986945 0.49310043 0.7376404 -0.034942444 0.28922784 0.2342922 0.19038498 0.15095028 0.60133743 0.25934216 0.3081765 -0.36627877 0.3579517 -0.093859404
no 0.055988412 0.262299 0.15172863 -0.072804205 0.04386601 -0.7398622 0.55970484 1.2621357 -0.5013256 -0.38507184 -0.21759498 -0.58963466 -0.1005528 0.06095513 0.20698895 -0.54823786 0.39726546 -0.078388534 0.16826794 -1.2483697 0.25143406 0.23795979 0.06586505 -0.15741335 -0.28393456 0.48263067 -0.48947838 -0.12466488 -0.23008494 -0.19547553 0.32398057 0.00789085 -0.069906816 -0.52709126 -0.29415402 0.6695058 0.32403657 -0.34600464 -0.13466533 -0.5730106 0.077387825 -0.1038119 -0.1301085 -0.007875185 0.46225515 -0.42337224 -0.09935207 -0.0870413 0.3535304 0.29830623 0.18550186 -0.44632643 -0.24047443 0.016675118 -0.27512214 0.13424431 0.10727556 -0.076827794 -0.40196106 -0.19027303 -0.07282418 -0.20870197 0.41470313 0.090175286 -0.5072656 0.68681234 -0.0007092597 0.40508428 -0.60781294 0.35656092 -0.032386284 0.36428636 0.5846564 -0.13288176 0.80715483 0.033818945 -0.1118823 0.21982278 -0.41807988 0.057074137 -0.15787406 -0.03795759 -0.5673821 0.78010607 0.08718123 -0.122905456 0.6108635 0.5253033 0.7353584 0.021691475 0.33824572 0.525969 0.22164948 0.021041265 0.7240469 0.23532327 0.39193708 -0.039253928 0.3069617 0.090175994
years -0.13204896 0.18579365 0.5892335 0.117344804 -0.375335 -1.0760287 0.6107332 1.2285382 -0.80191696 -0.28454196 -0.19060722 -0.5348214 -0.05144987 0.12579966 0.36366898 -0.7761817 0.22071166 -0.2529145 0.06947915 -0.8942266 0.17625384 0.3055396 0.24993101 0.22819129 -0.17996688 0.4658062 -0.19496433 -0.08193817 -0.46195614 -0.29221922 0.10162075 0.004182001 -0.15539119 -0.39788973 0.20683388 0.21099538 0.4928107 -0.30977166 -0.18048225 -0.3801884 -0.2976058 -0.47387186 -0.51879466 0.23266543 0.78262866 -0.12350717 -0.19693924 0.12149903 0.17293069 0.0794471 0.03268837 0.022985896 -0.2160131 -0.052666325 -0.08291354 -0.03104165 0.06886419 0.04366626 -0.10913506 0.12154442 0.034459736 0.003485627 -0.311592 0.033162408 -0.49248967 0.3417315 0.1352854 0.7860086 -0.3548312 0.51503485 -0.23247348 0.3172253 0.88702285 -0.36514384 0.27500644 0.09121926 -0.14430186 0.18543622 -0.27154577 -0.040285636 -0.18841408 -0.28028983 -0.18922715 0.38758525 0.13402416 -0.0021445625 0.31955308 0.48845577 1.0521662 -0.20529865 0.13338888 0.15989044 0.17366439 0.29699713 0.80926794 0.024426324 0.53125244 -0.18529198 -0.14866614 -0.24318533
will -0.073039375 0.33835855 0.060204145 0.22741091 -0.004587768 -0.6514051 0.50135237 1.0685325 -0.6871401 -0.1774326 -0.2213219 -0.58096653 0.20042664 -0.066073254 0.38255104 -0.40816614 0.019749425 -0.16133738 -0.075076796 -1.0784134 0.20209481 0.085937075 0.2348134 -0.17522028 -0.38400662 0.36290416 0.05083667 -0.14671059 -0.17474696 -0.15462932 0.42181376 -0.057158772 0.19477151 -0.43492645 0.021169933 0.7926278 0.3511115 -0.41538835 -0.06206289 -0.6394279 0.0008478881 -0.22899413 -0.34587044 0.13161053 0.50150645 -0.22538128 -0.17793015 -0.013354526 0.28177705 0.080676526 0.057453126 -0.25095174 -0.05852038 -0.2401876 -0.14219655 0.23389854 0.0119590135 -0.17137606 -0.47316545 -0.013888631 0.14593555 -0.13674167 0.1317193 0.05635926 -0.57061046 0.6997307 -0.016815176 0.6048763 -0.6692637 0.6868689 -0.29274783 0.099457376 0.5635234 -0.17082538 0.6744094 -0.11747919 0.10583353 0.02854216 -0.31538746 -0.106476106 -0.2530179 0.02495969 -0.6294282 0.776523 0.009760898 -0.26018322 0.35324118 0.4486646 0.83180416 -0.18450621 0.29909623 0.13275304 0.24386367 0.16827473 0.6587725 0.31281415 0.2880669 -0.49628034 0.42440507 -0.10282025
those -0.13913183 0.3367224 0.054686163 0.19399703 -0.15725157 -0.6895277 0.54714537 0.9470987 -0.7328475 -0.08950421 -0.13620727 -0.572224 0.26840487 -0.047364295 0.4292011 -0.25307894 0.0292519 -0.28241995 -0.08397166 -1.1357297 0.2628547 0.19518721 0.50379604 -0.18238238 -0.44579124 0.3880649 0.045385912 -0.37787285 -0.12277972 -0.20958726 0.5057509 -0.06700468 0.29472482 -0.23833299 0.09420811 0.82284456 0.28901738 -0.4431736 -0.10895612 -0.6227855 0.03617203 -0.38493845 -0.40107146 0.17283602 0.49613863 -0.116624154 -0.16530092 0.07178648 0.24985413 0.01826813 -0.07200756 -0.28518593 -0.059243254 -0.10674443 -0.13988052 0.19220415 0.021625485 -0.31775162 -0.53460646 -0.0071994406 0.26869804 -0.0509309 0.22044669 0.11936926 -0.58295244 0.59047204 -0.22377539 0.6149402 -0.6198951 0.75304526 -0.2211919 0.114496015 0.5430085 -0.19798653 0.59294236 -0.1547316 0.18979472 -0.03299267 -0.23991176 -0.12635593 -0.197091 -0.022680636 -0.60726124 0.77713394 -0.056834977 -0.31902513 0.26366672 0.5807806 0.67087555 -0.13948086 0.35427 0.09655864 0.28087395 0.22668028 0.56516135 0.36159363 0.2754292 -0.5506469 0.32897142 -0.17442094
