3380 100
the -0.009629377 0.2161479 -0.1346057 -0.13166569 0.17498721 -0.12432097 -0.021572122 0.519626 -0.04964408 -0.056908574 0.1805502 -0.28008503 -0.06584429 0.4965566 -0.32632652 -0.31057984 0.228357 0.087973036 -0.43540314 -0.18057613 -0.29252514 -0.16453683 -0.02404805 0.10207464 -0.0055164355 -0.28207272 -0.48432225 -0.34679952 -0.15786287 0.40586725 -0.040600576 0.24306606 0.45992354 0.25347826 -0.021410814 -0.108135924 0.006441734 -0.21276252 -0.02413906 -0.22161527 0.45397544 -0.10663687 0.17598568 -0.010464017 0.0067891604 -0.03116649 -0.14595063 0.011808574 0.22001685 0.056048103 -0.1644937 0.12842616 0.1652977 -0.41844425 -0.09036087 -0.11102668 -0.047378425 -0.025500314 0.025732556 -0.11775372 -0.33052164 -0.32312164 0.18984915 0.08508457 -0.29014525 0.13536839 0.14063852 0.09423542 -0.235944 0.07332879 0.040298246 0.27338 -0.05849061 -0.16411483 -0.06699403 -0.12495107 0.3309944 0.16197029 0.006876409 -0.0010753615 -0.22110568 -0.25943264 -0.101230584 0.078203745 0.113339424 -0.29087815 0.3882416 -0.1000522 0.117234476 0.030246783 0.068482876 -0.19394687 -0.015619824 -0.11088864 -0.051864546 -0.31978232 0.0612185 -0.16442706 0.12385303 0.0070003346
and -0.18291275 0.2547817 -0.18737341 -0.09938626 0.30185324 -0.0338133 0.12977774 0.2802097 -0.19500856 0.26530647 0.018166682 -0.3351273 -0.14565308 0.51210773 -0.3149073 -0.3271003 0.090918526 -0.253037 -0.19922884 -0.39503738 -0.14565408 -0.1266736 -0.12135694 -0.14779721 -0.099676594 -0.20814863 -0.3351031 -0.17272231 -0.01437023 0.18048345 -0.037912395 0.10791179 0.34803894 0.09012286 0.13381566 0.013775438 -0.0472031 -0.15036952 -0.08065661 -0.210045 0.42539853 -0.06384537 0.19003752 -0.1408864 -0.100427784 -0.029616121 -0.10944475 -0.30503544 0.010862733 0.04123604 -0.03705519 0.12802924 0.018979406 -0.096296035 0.020136248 -0.07947833 0.010327535 -0.13590959 -0.12310408 0.10691272 0.03537273 -0.30138132 0.19338565 0.029370515 -0.21520874 0.30440614 0.09684331 -0.0047386237 -0.087002635 0.052064773 0.09014603 0.38966185 0.23705518 -0.091408625 0.107198216 -0.31197163 0.33104634 0.16268118 -0.10197226 0.16518144 -0.10345411 -0.18363915 -0.050232165 -0.0687465 -0.0015251382 -0.21194494 0.17999676 -0.1156746 0.020110777 -0.10279218 -0.015524083 -0.005751814 0.15300706 0.019280458 -0.12812217 -0.011322028 -0.17003708 -0.026334362 0.06816411 0.16681674
to -0.20027536 0.2425164 -0.11606746 -0.034295812 0.22340426 0.03746956 0.04295929 0.11235362 -0.15782832 0.2946437 -0.052793067 -0.24513625 0.21084845 0.12537971 -0.36225146 -0.5189843 -0.17179966 -0.36684266 -0.1081814 -0.4118371 -0.09777391 -0.050055422 -0.15802443 -0.14758763 0.036614947 -0.38563874 -0.2061879 -0.26223814 0.33647615 0.29101044 0.16666403 0.05301035 0.15524308 0.16134657 0.22389907 0.098990284 -0.115186065 0.058238722 -0.16313261 -0.01910619 0.36889362 -0.09067072 0.19163355 -0.1517812 -0.29916182 -0.01912653 0.06646339 -0.013936874 0.025158532 0.0062963646 -0.28321487 0.26404282 -0.32297826 -0.12213309 -0.21647191 -0.0006901919 0.15981512 -0.17492299 -0.06768387 0.22413254 0.16346887 -0.49772888 0.3691809 -0.114729956 -0.14112487 0.30438924 0.2709996 0.04348751 -0.16615975 0.061986703 0.12724423 0.3458445 0.10046815 -0.2723141 -0.3241501 -0.42798832 0.2636667 0.074807994 -0.19799277 0.2624763 -0.10087947 -0.21735846 0.17286107 -0.011072155 0.0125305 -0.4287719 0.062377006 -0.1299661 0.09592228 0.02386228 -0.15621954 0.079890974 0.0010274611 -0.058811247 -0.017058745 -0.043427754 -0.01161915 0.1984849 0.1366036 0.07067339
of -0.13709632 0.3135724 -0.00040480192 -0.16476311 0.10367655 -0.01988374 -0.13239491 0.55426526 0.19316007 -0.083546415 0.100136496 -0.22130857 0.041479893 0.20834428 0.0040145917 -0.12822169 0.2444557 -0.032605175 -0.14318442 -0.1260798 0.15002556 -0.32067695 0.09629361 0.17286663 0.09730531 -0.36687532 -0.4535218 0.025569921 -0.12934346 0.115661055 -0.00776814 0.09955133 0.07657291 0.17248222 0.23726852 -0.028497133 0.051493715 -0.298757 -0.051883746 -0.1066431 0.35673282 -0.016484909 0.29174528 -0.010014547 -0.20206828 -0.16452974 0.09684139 -0.14185487 0.01919489 -0.087250784 0.1436886 0.011338181 0.18183583 -0.24258775 -0.14154935 -0.18260767 -0.19761524 -0.17023234 -0.05440211 -0.024219446 -0.13675624 -0.16214861 0.28928518 0.057050623 -0.30534753 0.4403619 0.10353595 0.10884573 -0.15253824 0.19057152 0.22202104 0.33200163 0.26056868 -0.13716164 0.17022038 -0.3276166 0.12205817 0.31647226 -0.047498547 -0.12110125 -0.073525205 -0.18763094 -0.29637963 0.08560101 0.103213064 -0.4027676 0.2807647 0.07606448 -0.39843014 0.07040595 0.052796915 0.04567104 -0.015278698 0.021239813 -0.12528786 -0.07617609 -0.05734288 -0.25060445 0.05766797 0.07916732
a -0.05754951 0.12250743 -0.113073535 -0.15005748 0.07030402 -0.104654826 0.059263326 0.17759119 -0.033463202 0.119843125 -0.35345265 0.044291995 -0.037881676 0.20283808 -0.22058477 -0.22391653 0.05350659 0.12783661 -0.041043792 -0.10324097 -0.09246723 -0.13872477 -0.009872664 0.18922889 -0.08765252 -0.11046267 -0.28814375 0.2005379 -0.17303336 -0.009624802 0.10982469 0.118068956 0.22674376 0.08595357 0.1218849 -0.10298722 -0.13324717 -0.039897766 0.05786595 -0.10698229 0.1982578 -0.19937713 -0.103326574 0.025976611 -0.070361935 -0.038612686 0.0603121 -0.068312235 -0.0036801118 0.09673402 -0.035450146 0.41558534 0.011333666 0.02518168 -0.089401186 -0.10163385 -0.041810717 -0.23602077 -0.11945614 -0.08405918 -0.10132573 -0.31288448 0.16198806 0.04617823 -0.07924502 0.13059253 0.16915537 0.061936893 -0.24178247 0.083236836 -0.16168056 0.12242541 0.052853078 -0.1026219 0.03838277 -0.0990161 0.08733323 0.14571911 -0.06837474 0.13750823 -0.12127818 -0.24939293 0.005820486 0.11556031 -0.1115115 -0.2846414 0.22930989 -0.008423885 -0.26123264 -0.15872698 -0.053947754 0.03378053 0.104430586 -0.10392644 0.17224576 -0.10578653 -0.02414905 0.12933528 -0.0032550753 0.02731647
that -0.019772304 -0.02627504 -0.1954132 -0.05768323 0.061328813 -0.07033087 0.24725346 0.26958978 -0.17923206 0.21914011 -0.10612586 -0.25980428 -0.11916542 0.43707383 -0.3564451 -0.23202752 0.26232508 -0.07764856 -0.23009223 -0.38737333 -0.28708073 -0.2628217 -0.0035476123 0.08848718 -0.09861746 -0.2014855 -0.47704753 -0.06337845 0.11066187 0.40014267 -0.066794924 0.23658086 0.34615555 0.16797365 0.119554155 0.046297252 -0.12948507 -0.22078632 -0.24709743 -0.13722867 0.4859872 -0.08982018 0.096609 0.036012594 -0.11565723 0.017383976 0.036058746 -0.0030912338 0.08755626 -0.11467394 0.05013286 -0.007863238 -0.044405654 -0.201399 -0.24285875 0.024580993 -0.046686377 -0.24607125 -0.1384136 0.02387205 -0.10530265 -0.31512344 0.3490565 0.053927638 -0.15761961 0.38269606 0.106823 -0.115625195 -0.3329008 -0.019583685 -0.05269972 0.39612186 0.17639814 -0.1330774 -0.04016085 -0.3588182 0.30110288 0.32778743 -0.032274153 0.10362352 -0.14859153 -0.13265012 -0.279996 0.114017844 -0.009449843 -0.38691723 0.13860698 -0.07275443 0.033118334 0.19241153 0.21069163 0.1526427 0.12588117 -0.026580257 -0.22913924 -0.20745422 -0.06240251 -0.011693842 0.004423142 0.15532112
i 0.17281134 -0.11763889 -0.15358496 -0.06145471 0.0575399 -0.011650093 0.21724978 -0.049424265 -0.1388956 0.3147688 0.021609189 -0.05687614 -0.22649844 0.054619238 -0.1403213 -0.20349756 0.22248532 0.015321396 -0.2235592 -0.23100828 -0.173898 -0.3210913 0.06944929 0.06732233 -0.008573292 -0.033135906 -0.39214 -0.048373222 0.22286192 0.35563514 0.03748155 0.1893406 0.01821571 0.17591071 -0.14377889 0.08978528 -0.32543358 -0.23260587 -0.071329445 0.025190342 0.39960018 -0.19732982 0.18579754 -0.15598802 -0.025910297 0.27568856 0.023294378 -0.49411234 -0.26576075 -0.114041336 -0.122185566 0.048655607 -0.36099535 0.027265798 -0.1631248 -0.12334412 0.20822923 -0.44118193 -0.07443183 -0.059320256 0.11017796 -0.20481168 0.25028542 -0.14172998 -0.23462051 0.45249134 0.056087106 0.008484947 -0.35072923 -0.087900564 0.017632648 0.018340677 -0.19032717 0.061949693 -0.14752476 -0.10655389 0.2338797 -0.046362985 -0.13743417 0.25533268 0.033512387 0.012326175 0.029896997 0.20110722 -0.082864724 -0.20320986 0.11584438 -0.13297404 -0.17049713 0.007726235 -0.19974071 0.29775813 0.027578834 -0.10398915 -0.17122564 0.09395141 0.12961107 0.05328311 0.05317776 -0.092046864
in -0.09176579 0.33408153 0.1291366 -0.10805644 0.14883147 -0.0026284605 0.07631308 0.25717068 0.029708687 -0.064402446 -0.14244136 -0.2706514 0.06132848 0.36618215 -0.0033642203 -0.19552936 0.1404188 -0.21739036 -0.28033113 -0.4908253 -0.1686583 -0.023954138 -0.16600898 -0.10052718 -0.013422132 -0.20683026 -0.38830572 -0.03682027 0.04983884 0.09337458 -0.14331236 0.24158627 0.18549393 0.049317993 0.045340113 0.07957308 -0.10018417 -0.12935477 -0.04652007 -0.29816407 0.28993213 -0.34628394 0.12402909 -0.113260955 -0.1598617 -0.03141526 -0.10739036 -0.17254716 0.012792107 -0.07843686 0.08911073 0.15908352 0.20713675 -0.11649912 -0.1716972 0.19465493 -0.03319018 -0.049432784 -0.10001874 -0.067828834 -0.051378224 -0.37593877 0.022607997 0.10497579 -0.16447558 0.31474373 0.048301853 0.09098971 -0.20752846 0.17780924 0.02263727 0.21133256 0.19541556 -0.2739035 -0.10740579 -0.24862786 0.31506035 0.10728671 -0.121784195 -0.051674083 0.002691634 -0.24314131 -0.16999097 0.095460966 0.23238978 -0.34256482 0.20894438 0.026272804 -0.17668878 -0.04415632 0.07341319 -0.01041688 -0.09871891 0.104790956 -0.02647999 -0.12041575 -0.0057556545 -0.09907681 -0.029370788 -0.01599016
we -0.2857409 0.13640824 -0.14627929 -0.13011402 0.418546 0.041996583 0.42535362 -0.060477 -0.31468785 0.1629557 0.094811305 -0.2934239 0.06470041 -0.009341568 -0.12011543 -0.2429371 0.029823205 -0.19016309 -0.23548202 -0.5119604 0.15348622 -0.11720236 0.14816193 -0.0015087128 -0.14443694 0.13172989 -0.22190662 -0.20689183 0.22186205 0.40441567 0.007842608 0.3033302 0.39841956 0.15412769 -0.18263978 -0.10887113 -0.14066586 -0.111734025 -0.42586982 -0.29752916 0.6054777 -0.2669825 0.24072716 -0.1188232 -0.30016404 0.02151352 0.064544834 -0.13170947 -0.0927312 -0.10236092 -0.050345257 0.15512253 -0.08318899 -0.17407271 -0.025872698 -0.029216554 -0.0322321 -0.16525604 -0.23724781 0.0005104188 0.06499606 -0.39655238 0.20253146 0.066277705 -0.2627715 0.23180753 0.004390843 0.058999594 -0.5171531 -0.16978297 -0.013182566 0.13355829 0.16118954 -0.07766636 -0.23344624 -0.34505388 0.14383435 0.13859625 0.06400369 0.1950999 -0.10280326 0.12849379 -0.24939819 0.41339222 0.03892616 -0.38757887 0.14511646 -0.19112164 0.11966954 -0.038221978 -0.14503194 0.257663 0.23721747 -0.23493338 -0.2390422 -0.01605359 0.23314178 -0.10718784 0.29094738 -0.29905212
it -0.097037666 -0.19372447 -0.33147871 0.0017899917 0.060381427 -0.09954659 0.13382919 0.15644172 -0.15672791 0.110305145 -0.119868696 -0.056737527 -0.056424335 0.17547724 -0.20933475 0.05795099 0.12422489 -0.048478324 -0.00665237 -0.22763179 -0.1729622 -0.40750903 0.10587903 0.2706221 -0.25568902 -0.25239348 -0.49117553 -0.11685983 0.026306491 0.49096936 0.028378472 0.12861143 0.2653685 0.23046295 0.10999733 -0.18402703 -0.14940663 -0.21222267 -0.24857451 -0.0037351958 0.30608067 -0.11333172 0.054387793 0.09483291 -0.052571945 -0.16284822 -0.09105398 0.10372278 -0.01846563 0.019727461 0.030593084 0.1890997 -0.0780648 -0.22488143 0.088873915 -0.14165178 0.05871304 -0.13907886 -0.18064387 -0.0031702965 -0.16488692 -0.27746195 0.49249616 -0.107901804 -0.17382273 0.4082008 0.19958724 -0.06250722 -0.5194846 -0.14512171 -0.13967201 0.36896056 0.12183342 -0.22161585 -0.05016437 -0.3795494 0.31643012 0.24295989 -0.07186452 0.30763447 -0.3977059 -0.18180592 -0.07749168 0.27185088 -0.043129463 -0.48515338 0.0712726 -0.21942675 0.004650507 0.006629944 0.046740647 0.13556619 0.21029678 0.0137243755 -0.16984406 -0.08873003 -0.021287512 0.24190861 -0.092637755 0.11827028
you 0.20663503 0.15623675 -0.31488252 -0.020029435 0.25419292 0.17695585 -0.0660209 -0.10271687 -0.2771569 0.5144134 0.0707825 -0.07160204 -0.2784588 -0.08681047 0.1635871 -0.54532796 0.22753263 0.21916492 -0.23333791 -0.7412041 -0.14444388 -0.32735702 0.10341893 0.35644937 -0.09473102 0.20364225 -0.525039 0.031055804 0.1233703 0.5579336 -0.19409706 0.65511733 0.32031292 0.43265948 0.020787993 0.027721882 -0.370079 -0.15382396 -0.27132747 -0.011255137 0.60593516 -0.14715911 0.42306975 -0.5111168 -0.36670038 -0.293972 0.28163484 -0.24370556 -0.28984657 -0.0503379 0.035331815 0.5690258 -0.5206881 -0.1005498 0.019860793 -0.15659334 -0.05104377 -0.51701623 -0.16114001 0.20977297 -0.11699521 -0.6204137 0.28919643 0.21435042 -0.08078468 0.5263458 0.13465472 -0.13414332 -0.2659983 -0.51723605 -0.12973452 0.2211375 -0.097178705 -0.31534943 -0.09347316 -0.15844575 0.36757925 -0.023889437 0.30127153 0.6223752 -0.1674522 0.1279109 -0.20415893 0.25004 -0.027752474 -0.27676567 0.100152425 0.31205103 0.21047707 0.053818148 0.018978063 0.16970944 0.11636945 -0.23516704 -0.23799403 -0.1217639 0.21158995 -0.10834645 0.47102633 -0.22418213
is -0.08961663 0.37346202 -0.07074757 -0.014664717 0.38172376 -0.05193741 0.110307515 0.619604 0.07175797 -0.060410716 -0.34298736 -0.27916586 -0.20915416 0.01692862 -0.15038571 -0.19449778 0.00041438825 0.18838458 -0.07062026 -0.2910216 -0.31719977 -0.085124284 0.14502338 0.100620486 0.16052479 0.016357034 -0.67654264 0.056605686 0.0027668662 0.19113885 -0.055812728 0.252402 0.14519003 0.281554 0.15731671 -0.18279268 -0.16898134 -0.1574827 -0.26189524 -0.3407513 0.24325585 -0.015740767 0.2757738 -0.036950335 0.028721858 -0.2804629 -0.20713139 -0.10776681 -0.122447394 0.099858224 0.21950734 0.1482516 0.044531636 0.12217186 -0.07088726 0.16330922 -0.1209949 -0.26371312 0.05108485 0.091923 -0.36147547 -0.30571896 0.37323856 -0.033480577 -0.46993387 0.3891767 0.2690349 -0.014475761 -0.16280165 -0.21415725 0.2223064 0.41222984 0.14731231 -0.0631656 -0.24252918 -0.13887061 0.08072283 0.062183388 -0.34635624 0.04301248 -0.29706687 -0.10751322 -0.16350156 0.13305171 -0.0005602017 -0.3096144 0.01709304 -0.041366022 -0.17556244 -0.23805429 0.37444714 -0.13157903 0.1485684 -0.099008575 0.0681551 -0.101873174 0.13519675 0.06721152 -0.083818346 0.037632816
s -0.08731748 0.062123172 0.07442901 -0.06689426 0.08677855 -0.027991232 -0.07735525 0.21736303 0.0717543 0.019096011 -0.14483613 -0.21061563 -0.25102866 0.12142295 -0.110160924 -0.11322561 0.08493505 0.045315966 -0.03302421 -0.15477565 -0.1357608 -0.001223411 0.030654185 0.13627362 0.14252192 0.1086178 -0.39383882 0.08971441 -0.046166625 0.2098582 -0.1959302 0.122415446 0.19423352 0.1413585 0.15793654 -0.13813727 -0.21727966 -0.095424145 -0.09440627 -0.12962681 0.14169186 0.002135601 0.18055665 -0.063496985 -0.01707578 -0.17736122 -0.15177694 -0.07307456 -0.124099135 0.074229695 0.07368631 0.048475612 0.06422219 -0.071785316 0.05734221 -0.035809666 -0.109751314 -0.1281559 -0.044157058 0.18963352 -0.23492125 -0.20432343 0.16000196 0.0015611765 -0.21439213 0.09714399 0.28373757 -0.1117993 -0.23548883 -0.14221013 0.13000816 0.19640468 0.15686864 -0.14064251 -0.07903886 -0.30700988 0.19884333 0.035966057 -0.18258998 0.07558463 -0.23389262 -0.065977395 -0.033348884 0.1389968 -0.016193222 -0.1740844 0.11511624 -0.07835974 -0.10964669 -0.102733426 0.33721912 -0.0755097 0.26420814 -0.022211008 0.026834873 -0.06873841 0.14843209 -0.027980682 -0.029436223 0.13046047
this 0.047511507 0.14270757 -0.11928153 -0.15914147 0.20348619 -0.10701522 0.04029233 0.38652724 -0.0480575 0.21234483 -0.12625208 -0.23552822 -0.15359217 0.3129712 -0.31234062 -0.14503366 0.1956262 0.33341202 -0.19183579 -0.35233182 -0.4015284 -0.29824904 0.09595574 0.30303434 -0.077522695 -0.10986018 -0.53633666 -0.20857893 -0.14731196 0.4389431 0.11060481 0.3930948 0.34299523 0.257141 0.19231701 -0.19872403 -0.1399181 -0.12254138 -0.13135514 -0.17366022 0.5294352 -0.16362256 0.10672386 0.05204288 -0.05192466 0.05668414 -0.1331361 -0.14344963 0.12607206 0.15784632 -0.09634329 0.1692255 -0.11802626 -0.13711916 -0.15777433 -0.01589901 -0.026946627 -0.29884222 0.04157896 0.0013777072 -0.31482136 -0.39502385 0.42937976 -0.005865565 -0.28808665 0.3973665 0.29398176 -0.08544689 -0.48657733 -0.089298084 -0.06029731 0.33606735 -0.015394211 -0.118472576 -0.26227102 -0.13933066 0.3574843 0.15787023 0.024762593 0.14746451 -0.28878844 -0.13264705 0.006729099 0.06491401 -0.1828906 -0.3381523 0.352586 -0.16457143 0.044858787 0.08342847 0.18682885 0.024177225 0.20729508 -0.25824293 -0.16500355 -0.24450727 0.1760704 0.074971884 0.083271414 -0.048044313
so 0.04573475 -0.030507052 -0.053976897 -0.04313369 0.29182205 -0.09804432 0.15007888 -0.03687391 -0.023061726 0.25043052 -0.108407736 -0.27325696 -0.18317477 0.15650986 -0.27405298 -0.30601448 0.14028274 -0.020755228 -0.12312369 -0.37540168 -0.22929762 -0.21744743 0.024229737 0.10584183 -0.17940417 0.043403335 -0.2814302 -0.06959385 0.08804214 0.30835366 0.07311778 0.15742241 0.25019088 0.10576536 0.19657499 -0.15580931 -0.20611097 -0.14555305 -0.15378802 -0.16998953 0.38895392 -0.188364 0.062692694 -0.052297328 -0.22122505 0.005579641 0.015091633 -0.35119668 -0.10768805 -0.06427915 -0.066421665 0.15016526 -0.097340874 -0.009511998 -0.093697 0.04924633 -0.048273943 -0.3676273 -0.09601116 0.2220267 -0.08714608 -0.40976718 0.35848922 0.13913545 -0.16241898 0.49152204 0.20555298 -0.057477713 -0.29836842 -0.13071534 -0.033089288 0.29500642 0.22433484 -0.047518566 -0.1173801 -0.34123504 0.3567511 0.08328681 0.05095466 0.26873982 -0.1117269 -0.17829178 -0.07411283 -0.011008411 -0.1263192 -0.21672666 0.18532266 -0.18552694 -0.013076208 0.03043212 0.07555874 0.13688023 0.26216152 -0.06039569 -0.17155586 -0.035729524 -0.05715645 0.108074136 0.12741913 -0.17588165
for -0.1069146 0.29453626 -0.08864639 -0.1567626 0.16454999 0.11555832 -0.06261313 0.21472216 -0.0011514127 0.13776729 -0.15610377 -0.28114143 -0.012720926 0.18913384 -0.064426504 -0.36128566 0.28370816 -0.13116935 -0.13874854 -0.4431295 -0.223264 -0.16462348 -0.09398203 0.045295656 -0.028627386 -0.30531153 -0.37423176 0.0315029 0.09354273 0.12265652 -0.15954056 0.13145447 0.18501732 0.40492955 0.16148685 -0.09417086 -0.2128141 -0.11019431 -0.21834596 0.02008001 0.21257918 -0.15253623 0.17865321 -0.04989112 -0.16633429 0.02949824 0.17823854 -0.16171864 -0.14881982 -0.15759243 0.13534056 0.20823877 -0.1822519 0.024001194 -0.17076182 0.029460102 -0.15607905 -0.20397449 -0.016927417 0.050719596 -0.19029549 -0.3188564 0.10038768 0.11438202 -0.22429967 0.3695631 0.026004845 0.011521171 -0.1924996 0.09195459 0.08159513 0.35700533 0.30618784 -0.33558747 0.042261478 -0.5125932 0.15231524 0.19499768 -0.0034797788 0.10405535 0.021008791 -0.3549146 -0.21010597 0.007726925 0.023124546 -0.24408086 0.24679942 -0.107272044 -0.19137666 0.10575106 0.056018025 0.14106935 0.17113683 0.14890945 -0.05024899 -0.070613354 0.1436536 -0.007052894 0.112957135 0.06107712
they -0.27586663 -0.16174765 -0.34881642 0.05591839 0.31699225 0.2705805 0.2671099 -0.21826226 -0.37361205 0.18123177 0.2698571 -0.3027164 -0.09308016 0.16881333 -0.05289385 -0.515311 0.16814314 -0.2693762 -0.22918242 -0.4795327 0.10323944 -0.19749017 0.0019100294 -0.028218977 -0.06919356 -0.0051683323 -0.36579973 -0.43113184 0.18789339 0.62186915 -0.34950498 0.28604293 0.4245063 0.2613963 -0.24463294 0.11780095 -0.1909536 -0.115302086 -0.27752143 -0.21027683 0.602943 -0.21382494 0.42257738 -0.29079187 -0.23177262 0.006700879 0.1263281 -0.1572588 0.01945238 -0.250542 -0.1978233 0.25380442 -0.22816657 -0.5092874 -0.032592475 -0.26714253 -0.11303196 -0.16664681 -0.3745189 0.05334375 -0.06817526 -0.49570015 0.12509318 -0.030672349 -0.34738111 0.14436275 0.0814453 -0.16771486 -0.5026372 -0.12189425 0.050494704 0.17459558 -0.03418324 -0.32307747 -0.079729006 -0.402784 0.25448254 0.28967568 0.22422732 0.23328248 -0.04964271 -0.03242894 -0.4383918 0.23334919 0.26089543 -0.55913454 0.10385197 -0.022156639 0.18688726 -0.14036743 -0.21345967 0.14025778 0.20704907 0.050524972 -0.39807445 -0.0070026214 0.24656568 -0.1710576 0.22799574 -0.051151633
was 0.080005035 0.015463761 0.21211775 -0.0356807 0.2816425 0.0037241748 0.04569612 0.3526427 0.15926984 0.11743761 0.06385416 -0.12508377 -0.6507314 0.31869492 -0.30577144 -0.2229676 0.15905616 -0.070893325 -0.15626113 -0.25316843 -0.28224513 -0.11581762 0.10594302 0.28407064 0.06920867 -0.008863862 -0.7788373 0.0543771 -0.21426834 0.45608017 -0.22373073 0.30833563 0.3285438 0.2601661 0.1504897 -0.01834071 -0.34757662 -0.16672075 0.016206633 -0.07840215 0.13602935 -0.23019405 0.2684057 -0.05724407 0.048287187 -0.177616 -0.38469893 -0.6050445 -0.20258252 0.1993319 0.06077587 0.033616282 0.05415419 -0.008927492 -0.089435 -0.30635643 0.16189401 -0.4858664 0.022028279 -0.0074233892 -0.29223534 -0.2138279 0.018078487 0.018272588 -0.47791073 0.20676826 0.3995325 -0.063097276 -0.26161355 -0.06648312 0.23679505 0.13275936 0.042886335 -0.17646456 -0.12214639 -0.40031433 0.28189546 -0.05409204 -0.45333752 0.2447002 -0.30882272 -0.2519408 0.15198483 0.24152753 -0.041578192 -0.44629645 0.25677523 -0.14777549 -0.32903862 -0.2204643 0.20284054 0.049737368 0.25557426 0.09071018 0.18977979 0.11920973 0.19494595 0.054961197 -0.08181747 0.09602578
are -0.32605267 -0.009583317 0.12218767 0.1547075 -0.027844569 -0.026121799 0.2507234 0.37997523 0.19866565 -0.23780134 -0.1559067 -0.47151962 -0.38002345 0.31125158 -0.1315634 -0.4298028 -0.27659366 0.07241496 -0.1690304 -0.14217319 0.25214776 -0.18723999 0.076373234 0.1271167 0.3954907 0.17320685 -0.5695362 -0.013743362 0.057827402 0.016156955 -0.25900912 0.1623597 0.3395073 0.093599506 -0.08151941 -0.06612146 0.031618536 -0.370955 -0.06017551 -0.5041413 0.7360986 0.0933769 0.46970776 -0.14931297 -0.28436202 -0.4333729 -0.18401249 -0.30224448 0.07962221 -0.18814008 -0.009283359 0.09581227 0.22479181 -0.039319225 0.00068909995 0.25342155 -0.35005236 -0.0889221 -0.21914378 0.5112291 -0.117649995 -0.30690172 0.16969958 -0.27217612 -0.3325064 0.5266452 0.47770628 -0.1766504 0.0826866 -0.14166096 0.4755544 0.47869608 0.2218099 -0.17484464 0.09502679 -0.17650016 0.20270692 0.24255545 -0.3106361 -0.16443041 -0.017672297 -0.08638851 -0.4963217 0.062237386 0.2687388 -0.5961861 0.24928914 -0.08397823 -0.20387377 -0.47125965 0.26660612 -0.0470118 -0.1766304 0.041374657 -0.33221313 0.07208474 0.13688818 -0.3235452 -0.085085034 0.20908567
but -0.116362385 -0.06172369 -0.18314897 -0.09507502 0.19190976 0.0154628595 0.2388912 0.109782405 -0.1878099 0.45076758 -0.19606209 -0.31506768 -0.24265984 0.42581305 -0.38026688 -0.23962553 0.231842 -0.19813664 -0.2727683 -0.46774596 -0.18464907 -0.17698191 0.14932021 0.05819196 -0.1653928 -0.053173862 -0.43637004 -0.044588648 -0.0154913645 0.29430798 -0.111879535 0.17623708 0.39865112 0.21054843 0.10848994 0.03561366 -0.21706991 -0.10170481 -0.28972134 -0.24442005 0.36072248 -0.11814583 0.09340785 0.05657826 -0.001463162 -0.057046175 -0.13328226 -0.2251992 0.0172576 -0.18078114 0.09101255 0.0865546 -0.1378535 0.018776042 -0.090532884 0.007975923 0.082583085 -0.3025685 -0.26789695 0.051576722 -0.07726615 -0.38654345 0.3164603 0.0305962 -0.19014059 0.4183888 0.21015091 -0.25844222 -0.3213478 -0.21636173 0.053361356 0.33056185 0.17921959 -0.06352988 -0.13725434 -0.32218838 0.24011971 0.3025808 -0.028700113 0.114522986 -0.05904063 -0.22561768 -0.25931257 0.000545076 0.016294416 -0.4301999 0.104540296 -0.12541254 -0.14163218 -0.113760695 0.23306286 0.1539037 0.27958873 0.044113666 -0.1494694 -0.07639963 -0.084627144 -0.040122766 -0.04593518 0.012445503
have -0.24411649 0.03353936 0.074941896 -0.040206257 -0.111753084 -0.049599398 0.21620785 0.13058038 -0.23730396 -0.18737435 -0.24069114 -0.36205953 0.0646296 0.21822156 0.0065579307 -0.16276489 0.2260322 -0.14144255 -0.50412464 -0.4001914 -0.15015973 -0.29442585 -0.002704707 0.092264466 -0.1556747 -0.10492687 -0.3321873 0.091706015 0.08452851 0.13669921 -0.23305716 -0.01392772 0.40663385 0.47425807 -0.30044273 -0.23517327 -0.09312196 0.108687736 -0.34517497 0.0013409582 0.6292856 -0.07921909 0.5993429 0.056743767 -0.2764239 -0.017308464 0.24485976 -0.31998348 -0.014149279 -0.14437245 0.09357358 0.034891214 -0.048042096 -0.003778111 -0.15766971 0.25755385 0.01100845 -0.32251644 -0.29550007 0.13943854 0.18932246 -0.13394938 0.110882305 -0.26278016 -0.36352074 0.65650845 0.23849033 -0.116736844 -0.26477626 -0.094032176 -3.0132856e-05 0.40100777 0.42382917 -0.23485357 0.3216551 -0.28446805 0.18242754 0.33820313 -0.027612202 -0.027918838 -0.08682421 -0.47984084 -0.6358548 0.1817955 0.0036122664 -0.34159994 0.04870707 0.07669192 -0.15243779 0.019428335 -0.024646336 0.26583827 0.3193424 0.1677034 -0.27934963 -0.12001708 0.2170474 -0.014856005 0.047569275 0.3896599
with -0.023149876 0.4279494 -0.020981438 -0.12262137 0.17542586 -0.0037400478 -0.050625123 0.29999617 0.028266435 0.09062598 -0.1386032 -0.24491934 -0.039358675 0.2757104 -0.06281052 -0.37862214 0.042827174 -0.21610667 -0.13205479 -0.460625 -0.35669976 -0.14140858 -0.33588484 -0.20848519 0.032030355 -0.2771185 -0.32298595 -0.13992196 0.2276868 0.14895684 0.0076687606 0.15971503 0.13202164 0.13237467 0.15066786 0.07079971 -0.08628313 -0.021361982 -0.06317807 -0.11832727 0.37521067 -0.19744964 0.3997234 -0.20250234 -0.30150828 0.007927988 0.07216627 -0.33738354 -0.00015756488 0.058818653 -0.04940034 0.24237928 -0.12329607 -0.041442774 -0.1406216 0.12783606 -0.07426457 -0.2354622 -0.058922455 0.18887988 0.015738536 -0.3718686 0.12771906 0.032905202 -0.19067211 0.5048322 0.10350637 -0.038433455 -0.15021616 0.17203099 0.06558093 0.3799618 0.30802685 -0.28979722 0.123789765 -0.45978728 0.33063996 0.08181677 -0.1229024 0.14551336 0.042982187 -0.31651792 -0.07853489 -0.076293774 0.032854658 -0.2178403 0.15260541 0.0018885352 -0.12884179 0.05352235 -0.052688215 0.11418505 0.10743458 0.031002732 -0.17519528 -0.06868845 -0.006019375 0.023251886 0.1690203 0.14343305
on 0.09114283 0.34092644 0.13760602 -0.08975984 0.10931975 0.15270333 0.045000713 0.21454142 0.085918345 -0.024467632 -0.11952728 -0.2712274 -0.1480201 0.3333854 -0.03695059 -0.30737793 -0.15559767 -0.07486168 -0.103939086 -0.4038598 -0.26757276 -0.11106753 -0.071120724 -0.027583808 0.110598184 -0.16965584 -0.3283634 -0.18399197 0.14004911 0.0851334 -0.05436114 0.23484759 0.0856376 0.20757708 0.122726746 0.08526994 -0.15261 -0.13801967 -0.064452246 -0.17072326 0.32333407 -0.25261453 0.2469627 -0.2844824 -0.22217219 -0.056168348 -0.044592105 -0.11469808 -0.013529781 -0.010087237 0.06489992 -0.011989117 -0.013176123 -0.06947406 -0.1158687 0.124455385 -0.069372386 -0.14353403 0.10261463 0.0037512854 -0.14371966 -0.36271054 -0.0036544204 -0.10326841 -0.17241919 0.35468015 0.1952231 0.012441281 -0.050367936 0.085167825 0.116091266 0.34348595 0.118409395 -0.3099587 -0.080054335 -0.27580255 0.2997864 0.045733258 -0.20650652 -0.022392973 0.011845693 -0.24149211 -0.05767472 -0.06238772 0.09523869 -0.30944663 0.25502723 -0.102709286 -0.08231209 -0.022132874 0.0584463 0.11089772 -0.011037692 0.057516776 -0.16856106 -0.07515856 0.1544902 -0.08557373 0.035058394 -0.11040275
what 0.06554938 -0.10809491 -0.29283538 -0.041697785 0.008469083 -0.00094808097 0.31898978 0.22588363 -0.12384456 0.48929417 -0.21746343 -0.35336182 -0.070957325 0.4586832 -0.2185915 -0.16591124 0.15231086 0.094952725 -0.09361432 -0.537269 -0.43622458 -0.5021632 0.08752958 0.21456198 -0.14122471 -0.16621198 -0.45609817 -0.17526618 0.12973565 0.74102765 0.018177532 0.5656074 0.23600578 -0.07251825 0.30953622 0.19207378 -0.19730277 -0.1326715 -0.2887481 -0.21493645 0.7118945 -0.25190786 0.052743457 0.027980955 -0.16181667 0.03394078 -0.039018508 0.018561639 0.24588928 -0.1164327 -0.19134587 0.047833122 -0.24956995 -0.23918265 -0.21652332 0.18088228 0.028387045 -0.32860902 -0.04851829 0.2536268 -0.15005101 -0.50542396 0.61098963 0.056825604 -0.0607697 0.5895132 0.18554185 -0.29382637 -0.53205115 -0.19138163 -0.23611823 0.40650728 0.12587625 -0.07557952 -0.2915634 -0.22437091 0.47667912 0.3009417 0.18282004 0.21949483 -0.037430905 -0.024197482 -0.17038204 -0.022128837 -0.112989515 -0.4790162 0.18129231 -0.092001826 0.24135494 0.41255477 0.36632192 0.13020836 0.33875215 -0.2593311 -0.5319906 -0.25158045 0.0684365 0.073821306 0.102602676 -0.06643749
our -0.44335863 0.5281497 -0.26322442 -0.15392627 0.27903524 0.034485865 0.019470606 0.50580144 -0.123923376 -0.058212932 -0.09890063 -0.15729392 0.17728446 0.15271159 -0.11811037 -0.12801602 -0.110641 0.03943226 -0.019394208 -0.3775645 0.08164579 -0.19666454 0.041941877 0.1177838 -0.053640686 -0.1847403 -0.37787017 -0.27883354 0.05019877 0.08322982 0.1469098 0.40531632 0.47382572 0.4670716 -0.029410155 -0.3025246 0.18423475 -0.16200052 -0.23090096 -0.21916683 0.62397486 -0.010936012 0.21689253 -0.009094119 -0.14324577 -0.25981712 0.022508534 0.0654224 0.27280498 0.10149003 -0.15810683 0.4913072 0.0353856 -0.1524631 0.1804338 -0.052875645 -0.22007988 0.08562569 -0.09346332 -0.049739588 -0.08971281 -0.41092017 0.1694984 -0.046238296 -0.22277677 0.23696686 0.061814483 -0.044889603 -0.24109466 0.070456885 0.114835925 0.44053024 0.18833898 -0.24496232 0.10162335 -0.31731653 0.13908963 0.3307304 -0.0029021676 -0.04831636 -0.14290802 -0.065037325 -0.070936 0.25142318 0.0542259 -0.37505084 0.2731064 -0.1105442 0.008409434 -0.14702503 -0.16226017 -0.042608533 0.06655811 -0.07097392 -0.12872717 -0.20204103 0.00021338782 -0.124331474 0.2004219 0.13520363
not -0.050535474 -0.06109686 -0.14071749 -0.146744 -0.0058634505 0.07479677 0.2674658 0.12495451 -0.2381039 0.22698064 -0.27088204 -0.21172164 -0.2154875 0.28260595 -0.19956936 -0.16133161 0.08324764 -0.20466213 0.0025249124 -0.36929432 -0.29143438 -0.21191975 -0.0470757 0.038562026 -0.051183153 -0.18498214 -0.50593597 0.034904387 -0.06344663 0.51816577 -0.16352062 0.385137 0.21016805 -0.053112514 0.08287634 0.24473886 -0.30822045 0.0035818985 -0.39815417 -0.28708696 0.319695 -0.07983265 0.12856314 -0.11891634 0.08117289 -0.14124696 0.0025404487 -0.012405208 0.10801172 -0.1364126 -0.022359869 -0.009845856 -0.26115647 -0.070285514 0.0070780134 0.09172519 -0.006369342 -0.30174893 -0.24740991 0.13023861 -0.246612 -0.42577502 0.31692553 -0.08983127 -0.27636677 0.32793704 0.21578799 -0.34497127 -0.28337827 -0.19770785 -0.004711301 0.410542 0.20687066 -0.20873676 -0.17814086 -0.3217757 0.30146974 0.28826532 -0.26250836 0.2968874 -0.06503666 0.0051721334 -0.4535148 0.30370113 0.0065999543 -0.59658337 0.11035531 -0.026086735 0.040416382 0.026832117 0.31337687 -0.012822769 0.41118827 -0.097943164 -0.2782008 -0.048198167 0.07743184 0.06403589 -0.23925836 0.024984105
t -0.2008898 0.057227965 -0.2776071 0.24312557 0.016252102 -0.11584636 0.05217249 0.15095754 -0.2433627 0.53916377 0.11335825 0.24086682 -0.022091908 0.012059171 -0.5255052 -0.06343002 0.23470117 -0.2525374 0.10483635 -0.3961911 0.07158099 -0.1375837 0.18244869 0.050997563 -0.034362733 -0.35339805 -0.25920913 0.27907038 -0.05440008 0.38775194 -0.15237112 0.35384184 0.11975581 0.092857204 0.055840164 0.21765262 -0.0038233232 0.3863829 -0.29789168 0.19850346 0.30269316 0.14326978 0.15946524 0.20770586 0.17072281 -0.24531633 0.070887476 -0.4670191 0.12263282 -0.05492378 0.016424539 0.093911976 -0.25559616 -0.051602975 -0.036675498 -0.07926806 0.010662624 -0.13629048 -0.22382075 -0.04919187 0.14559914 -0.20871675 -0.05509128 -0.091572165 -0.5011913 0.4352954 0.3666892 -0.27891082 -0.09232554 -0.0677512 0.05691085 0.27569076 -0.06334796 -0.112935506 -0.2610498 -0.4152887 0.075204164 0.32819897 -0.092877984 0.22053817 -0.106670395 -0.018348165 -0.30847663 0.32926428 -0.15627347 -0.5240165 -0.025622604 -0.03521013 -0.03395489 0.10449131 0.13674471 0.047791097 0.1655061 -0.0043023066 -0.353467 -0.11025091 0.046381395 -0.15262273 -0.0460715 0.19908142
my 0.15316382 0.18799455 -0.10676239 0.007779058 0.267177 0.025091505 0.009751931 0.38915715 0.04688286 0.45400688 0.108998746 -0.01478784 -0.25566018 0.23015493 -0.41595405 -0.1682236 0.15750293 0.057683926 -0.0011961935 -0.31177303 -0.23955666 -0.28447735 -0.09288101 0.2327321 -0.12156436 -0.23195933 -0.7494947 -0.20023227 -0.10091562 0.5239653 0.31494775 0.45879203 0.23577414 0.2953316 0.0019114162 0.10593943 0.097565666 -0.09967235 0.18010989 -0.05166372 0.51555854 -0.25158122 -0.021370314 0.03293906 0.09426741 0.12607124 -0.045733474 -0.5031127 0.27492952 0.28016058 -0.3185251 0.28699535 -0.38266763 -0.023131687 -0.019450229 -0.32626194 0.0639302 -0.45484135 0.18956503 -0.16210409 -0.013871314 -0.34899983 0.16182694 -0.09545225 -0.39397785 0.24260846 0.13976717 -0.049027763 -0.34910277 0.28401983 -0.03777495 0.22490618 -0.22512895 -0.082175076 0.010261927 -0.093930624 0.3523152 -0.051453244 -0.20977053 0.20902468 -0.07813926 -0.10281479 0.2798083 0.16438088 -0.14802957 -0.23663004 0.15886936 -0.074427426 0.042037398 0.013410262 -0.22139719 -0.03494703 0.044042505 -0.2460722 0.016278282 -0.029324718 0.07775362 0.20508753 0.15465431 -0.073471494
can -0.26305935 0.46128726 -0.3850166 0.071280494 0.067143366 -0.3417417 0.013948096 0.35523796 0.038770992 0.2658589 -0.22633553 -0.2330025 0.18009141 0.14554623 -0.22537549 -0.38730898 -0.11444179 -0.07425131 -0.44205564 -0.30206373 -0.025383694 -0.21143296 0.21813235 0.011214486 0.063181356 -0.17594026 -0.23992154 -0.051667828 0.1997285 0.19353727 0.04741985 0.30333766 0.27600273 0.3430505 0.08860506 -0.00080059574 -0.14949568 0.051890288 -0.25222567 -0.052855812 0.3139685 -0.020061646 0.5847202 -0.025911147 -0.21566789 -0.56678027 -0.045437075 0.105186865 -0.056391913 0.059830032 -0.04006999 0.4124188 0.07475221 -0.12599273 0.020057997 0.16499229 -0.0027678963 0.013639263 -0.13851008 0.3635233 0.06544538 -0.48669413 0.39158416 0.23016079 -0.0508246 0.5814788 0.37782767 -0.12614247 0.13510168 -0.22293638 -0.07106595 0.44637018 0.20353685 -0.16308679 -0.21887918 -0.22289756 0.2483977 0.08807331 -0.013794984 0.22706914 -0.28068224 -0.5096601 -0.059551638 0.038742013 0.17729177 -0.5476155 0.27659315 -0.07299781 -0.11688967 -0.07401819 0.09206514 -0.016125364 0.017411655 -0.12671272 -0.25525868 -0.3097387 -0.16132037 -0.15145919 0.41515562 0.13283835
all -0.119778104 0.10603 -0.15948153 -0.09485542 0.18579689 -0.08484083 0.016272878 0.20049606 -0.18745352 0.22092202 0.04500552 -0.36010364 -0.004226438 0.4935279 -0.33530924 -0.38947564 0.17330018 -0.16637738 -0.17319383 -0.2740502 -0.00693165 -0.1490957 -0.13961104 -0.17150977 0.049883287 -0.1775565 -0.25007242 -0.25192162 -0.021363592 0.17236482 -0.13413897 0.14586571 0.27872744 0.020686176 0.24618343 0.07787906 0.07984678 -0.13573803 -0.14894919 -0.33396998 0.4331222 -0.13509023 0.11434967 -0.04484829 -0.118714966 0.048187945 -0.07494124 -0.18964912 0.027671827 -0.25648174 0.01865201 0.096737705 0.11019786 -0.30184573 -0.06069531 -0.03148648 -0.14608638 0.03153926 -0.1526626 0.12341017 -0.0041267276 -0.48709464 0.3065928 0.031603895 -0.26933214 0.36092186 0.22957073 -0.0035093215 -0.34552863 -0.027541634 0.14304458 0.33490425 0.13987397 -0.094919465 -0.17763881 -0.3449318 0.3415931 0.26589295 0.08488609 0.08489353 -0.100889765 -0.1713462 -0.2454232 -0.1238325 0.014746159 -0.308075 0.42510325 -0.22123787 0.029324602 -0.06758476 0.14119099 0.12865345 0.12948655 -0.010691026 -0.24563316 -0.20910321 -0.006083214 -0.4105845 0.08836024 -0.1518192
be -0.06092591 -0.21935898 0.03228318 0.047572426 0.11661506 0.07031416 0.23038396 0.113839075 -0.47033364 -0.07288315 -0.070075646 -0.072276644 -0.039125048 0.12029997 -0.31282657 -0.408021 0.113816746 -0.37711477 -0.17984699 -0.26339453 -0.10267627 -0.21384904 -0.16197832 0.031707473 -0.1611179 0.06576382 -0.6443591 0.2584374 0.20753786 0.3871341 -0.17457977 0.27521548 0.61840343 0.12452539 -0.08417715 -0.042759452 -0.14148632 -0.09164709 -0.33362737 -0.26904243 0.4868654 -0.009005515 -0.038289633 -0.068497404 -0.14037257 -0.029213713 0.18987378 -0.18407634 -0.005239621 -0.24821794 -0.15740179 0.0915358 -0.15003635 -0.077019915 -0.18553938 -0.032152593 0.07917226 -0.38682574 -0.20534477 0.19768836 0.2935582 -0.3624026 0.28688705 -0.06637085 -0.2322681 0.20307252 0.22981143 0.028359657 -0.23546202 -0.22479585 0.15668431 0.19379243 0.3561696 -0.09661602 0.16901597 -0.33909816 0.26208657 0.09660816 -0.37563816 0.24228156 -0.20351632 -0.026143491 -0.3633226 0.35249823 -0.2554475 -0.2566504 0.03151193 0.22017005 0.19541012 0.020320935 0.13921407 0.009774027 0.41487473 0.19199412 0.15667969 -0.17516662 -0.11087125 -0.069307186 -0.11931458 0.24732634
at -0.06994957 0.30091926 -0.07433686 -0.29395413 0.12256294 -0.008004537 0.07484907 0.23172957 0.12085058 0.22296806 0.016625598 -0.28733304 -0.120867014 0.49371564 -0.069387734 -0.33345997 0.28575355 -0.014580876 -0.2587543 -0.45053604 -0.2991533 -0.09091631 -0.027403211 0.14351138 0.2233805 -0.16160817 -0.17834647 -0.022204282 -0.03913053 0.281538 -0.39215264 0.42202875 0.24380858 0.29502714 0.16534844 0.06809037 -0.302392 -0.06663414 -0.17817125 -0.15615863 0.2222341 -0.43539804 0.1719243 -0.13198577 -0.08737911 0.29785803 -0.080980524 -0.09546362 -0.17811148 -0.27555582 0.20102276 0.1065349 -0.0118449405 -0.32568675 -0.30805835 0.18376829 -0.079644084 0.15919204 0.044378094 -0.1641547 -0.22574686 -0.30394328 -0.23047546 0.13249215 -0.11409004 0.2365396 -0.04662057 0.07185775 -0.33205247 0.07386235 -0.12081473 0.1191122 -0.017664582 -0.3305921 -0.3199348 -0.43720263 0.2463634 0.0802117 0.12965423 -0.019480862 0.15036222 -0.26641786 0.05524736 0.11571637 0.03928627 -0.26557708 0.37340337 -0.32847673 -0.022113293 0.22778496 0.26422328 0.07468307 0.053507455 -0.07734992 -0.34952033 -0.18086484 0.3528868 -0.28320828 -0.018658863 -0.14079161
as -0.03339387 0.15541574 -0.071416296 -0.14270853 0.20846897 -0.19222789 0.01504424 0.26966858 0.11983806 -0.10245228 0.01210611 -0.1640778 -0.027650036 0.08408566 -0.052112978 -0.33755964 0.14463127 -0.13741548 -0.26185584 -0.37255603 -0.15374409 -0.21778324 -0.014985092 0.10234834 -0.08493599 -0.2098273 -0.27625304 0.035452448 0.012804486 0.2755255 0.21595064 0.1954153 0.34120107 0.08111717 -0.11117548 -0.17347206 -0.18714999 -0.073403135 0.059506714 -0.24319775 0.46833944 -0.17050487 0.031202406 0.071146354 -0.16902603 -0.2581994 0.15608087 -0.3687539 0.07408199 -0.05640939 -0.25806507 0.17997587 0.0010618344 0.13546708 0.07917243 0.09781788 -0.08748058 -0.1831879 -0.19078682 0.11918742 -0.20601287 -0.3848709 0.026378222 0.11303099 -0.14712949 0.5408423 0.17320359 0.08790358 -0.02470497 0.09748797 0.033752233 0.30682626 0.26568797 -0.217661 -0.08632365 -0.4124623 0.23728028 -0.227807 0.012214869 0.28840518 0.10006738 -0.26207253 -0.22973385 0.33478594 0.28368047 -0.14914939 0.23061655 -0.09259951 -0.34814447 0.17420892 -0.0056779524 -0.23046526 0.04518442 0.06955448 -0.30457008 -0.13425216 -0.092658065 0.119303614 0.01809344 -0.1955219
about -0.118959196 0.18834911 -0.2989336 -0.009682509 0.31711584 0.06914482 0.30107883 0.2381826 0.12993677 0.45835474 -0.115366966 -0.1564144 -0.34695783 0.18559577 -0.2530624 -0.2977553 0.16252454 -0.071901016 -0.16157998 -0.5285018 -0.12590571 -0.20771898 0.24838004 0.04939538 0.023350583 -0.15096459 -0.4267691 -0.129765 0.21836153 0.24760853 -0.10453043 0.13410053 0.053723652 0.30944854 0.12215973 0.009703426 -0.14816175 -0.25733897 -0.35771957 -0.040382918 0.40960228 -0.04144243 0.37007576 -0.06790552 -0.24454139 -0.10684367 -0.019773003 -0.33637437 -0.08889334 -0.003790326 0.14035346 0.18815732 -0.24745935 0.1363891 -0.16064236 -0.014097753 -0.12912723 -0.39659518 -0.22270915 0.1141112 -0.13546944 -0.30398938 0.25779468 0.08952215 -0.32503948 0.6246305 0.16800724 -0.42302766 -0.20666534 0.0035602183 0.2854517 0.4553525 0.1357415 -0.14702426 -0.06884429 -0.54423434 0.09737248 0.31332225 -0.080290645 0.016409395 0.06443778 -0.16399713 -0.29441616 -0.01766288 0.11360431 -0.55618656 -0.0965113 -0.10400068 -0.3897546 -0.081170894 0.0104330545 0.2821187 0.033981144 -0.005501288 -0.2508129 0.16799907 -0.05985466 0.024029283 -0.020767983 0.06993882
there 0.0381989 -0.2139818 0.056173466 -0.247869 -0.23855965 -0.08128404 0.12746315 -0.00642031 -0.06463367 0.015210355 -0.0842889 -0.4761957 -0.41847122 0.6400301 -0.09656752 -0.16075845 0.25393257 -0.12508073 -0.15168786 -0.24442162 -0.24929015 -0.27900973 -0.26300964 0.18791088 -0.10085191 -0.17827486 -0.5248231 -0.23441312 -0.18915994 0.4764029 -0.13119654 0.021498999 0.13866188 -0.08346786 0.1440747 0.21905094 -0.2846465 -0.40508893 -0.083219685 -0.26956984 0.3456982 -0.13682747 0.37592834 -0.26650017 -0.052797087 -0.15999152 -0.0850153 -0.09369776 0.06401418 -0.13621168 0.05816045 -0.16457723 0.10288524 -0.29284465 0.1372998 -0.0816779 -0.06661076 -0.35965312 -0.41264427 0.098370105 -0.4764617 -0.3049647 0.4579183 -0.1512359 -0.12652592 0.2815939 0.0962349 -0.18991019 -0.37964904 0.042900812 -0.056851175 0.51902676 0.211715 -0.21519282 0.16091417 -0.3861552 0.56059074 0.56285375 -0.048902582 0.3705441 -0.22206238 -0.08596287 -0.36197916 0.18233556 0.32716897 -0.47341484 0.27955022 -0.18442719 -0.10410258 -0.09110354 0.16139296 0.1292087 0.090230785 -0.12878281 -0.43471172 0.108640686 0.009535018 0.16030048 -0.12640251 0.17802319
from -0.119713254 0.5127186 -0.072235435 -0.19231907 0.25817502 0.0065336036 0.018416375 0.44920245 0.096805125 -0.0944643 -0.013081085 -0.22227493 -0.005154309 0.46520206 -0.052382853 -0.35607013 0.01740148 -0.30058047 -0.17155091 -0.41295612 -0.18081476 -0.1460332 -0.23568219 -0.17247011 0.0699493 -0.3206892 -0.3223684 -0.20374328 0.06802952 0.1122166 -0.1289795 0.20170693 0.28804082 0.182835 0.13499914 -0.022489905 0.0031858168 -0.16359049 -0.06583288 -0.17603536 0.3851957 -0.25666058 0.2443686 -0.18482633 -0.25416076 -0.021735923 0.024339462 -0.2003981 0.02020801 0.06173011 -0.036453217 0.19927278 0.08451801 -0.15274087 -0.07861826 0.029296916 -0.15837508 -0.009621263 0.06837686 -0.018579612 -0.06722724 -0.37667271 -0.06027595 0.05813346 -0.27451918 0.35553503 0.06543955 0.13791864 -0.106504805 0.2923395 0.12989515 0.3691968 0.27799442 -0.3481324 -0.020536302 -0.47897837 0.31194708 -0.030706096 -0.038979027 0.04852082 0.0061250315 -0.3051726 -0.06023058 0.021972476 0.100937076 -0.24883795 0.3227625 -0.12128806 -0.1484345 -0.030532409 -0.0466873 -0.016914338 -0.003746664 0.109377675 -0.14101104 -0.043839384 0.020511298 -0.17650652 0.073151775 -0.04580716
like -0.107854635 0.107774235 -0.22880296 0.031659063 0.029840179 0.056596827 0.16811259 0.17762333 0.010616207 0.21081404 -0.16382037 -0.1552125 -0.17361405 0.34915525 -0.09028578 -0.33733296 0.05576197 -0.17510305 -0.04915892 -0.39045575 -0.4076929 -0.25341856 -0.16849285 0.11600918 0.03996171 -0.17414704 -0.38235304 0.104218274 0.053281948 0.34540364 -0.4017273 0.15307686 0.20920411 0.15337749 0.15720719 0.086303 -0.26008132 -0.03294237 -0.2945095 -0.09407281 0.28262696 -0.2297135 0.35443607 -0.23006353 -0.1262678 -0.2630514 0.019897318 -0.02721378 -0.14839365 -0.18562664 0.23998709 0.27552462 -0.058722626 -0.20940089 -0.114352256 0.15339075 -0.08204127 -0.24142495 -0.13668257 0.10734877 -0.116971485 -0.34024698 0.21872713 0.08622828 -0.15618803 0.47128707 0.08404147 -0.0105060395 -0.19327827 -0.07586359 -0.082308106 0.47484973 0.24397093 -0.3194563 0.08483827 -0.36911023 0.26241952 0.29921725 -0.09154701 0.20816348 -0.028836155 -0.2987478 -0.21934065 0.06852827 0.11869723 -0.40832952 0.01748227 0.051329028 -0.00851518 0.07834 0.12780619 0.042006753 0.15421744 -0.0128412405 -0.16132341 -0.0821131 0.085722536 0.0034513446 -0.053935647 0.18834804
one 0.2838397 0.07462327 -0.14444306 -0.1457753 -0.07032128 0.0138674015 0.07294686 0.2771679 -0.09846793 0.1844857 -0.07739576 -0.104070835 -0.2913305 0.4232292 -0.25955006 -0.2574394 0.155473 0.12195788 -0.26485515 -0.11258201 -0.5057131 -0.17651851 -0.19557388 0.016762216 -0.04088968 0.020389106 -0.510898 -0.0715404 -0.015562677 0.14600404 -0.092565835 0.3163288 0.23910391 0.20037186 -0.020141503 0.16854373 -0.24619508 -0.105357885 -0.12266861 -0.32959557 0.33820254 -0.13752453 0.23436287 -0.09024718 0.05775967 0.16557094 -0.022844374 -0.14205897 -0.11214606 -0.18585615 0.1274542 -0.11612861 -0.08365871 -0.16896407 -0.17003843 -0.05285615 -0.016507419 -0.3509439 -0.09045671 -0.08139521 -0.015058019 -0.26917925 0.2684336 0.02391879 -0.21078508 0.36696938 0.10836114 0.020776065 -0.23591128 -0.14749672 0.117827415 0.34785905 0.05897829 -0.28192958 0.1045313 -0.11416022 0.2789723 0.15846743 -0.31199524 0.14374496 -0.07033552 -0.27760014 -0.3836684 0.058844667 -0.121311724 -0.32618505 0.46432924 -0.15761383 0.01061668 -0.14020182 0.070626296 0.3190787 0.07312853 0.023749003 -0.124659896 -0.17418566 0.022704128 -0.27694148 0.042486455 -0.08649521
re -0.3077725 -0.077469945 -0.07603576 0.039164167 0.042975128 0.12900738 0.44831145 0.16449827 -0.021751426 -0.18330377 -0.28203535 -0.35377884 -0.11108366 0.3158277 0.04192345 -0.33794138 -0.4046089 0.12574035 -0.05592338 -0.28030318 0.20906633 -0.26335156 0.4121369 0.32311916 0.21303512 -0.04176798 -0.3153428 0.008211479 0.009152038 0.28037822 -0.30411777 0.3184442 0.2873651 0.013046864 -0.01607133 -0.15786226 -0.23169754 -0.19766453 -0.10492292 -0.2950374 0.7042619 -0.03995737 0.2510078 -0.2888784 -0.34829772 -0.34190884 -0.09099767 -0.057486676 0.11200402 -0.0016331598 -0.19307451 0.1792363 0.0076215453 -0.054754607 -0.03397895 0.22188506 -0.10238561 0.042969987 -0.20810935 0.3420444 -0.25727132 -0.40969336 0.03282523 -0.4233198 -0.26431286 0.4543982 0.5319709 -0.35320315 0.08211538 -0.34499323 0.2210665 0.29460958 0.19081686 -0.11219102 -0.18462612 -0.13050398 0.22677764 0.18220548 -0.0010067001 -0.024312153 -0.037512325 -0.043111987 -0.33796698 0.07594154 0.09452051 -0.87496966 0.19974884 -0.12188561 -0.09229008 -0.30420667 0.24346855 -0.07325755 0.049277063 -0.031905048 -0.4920561 0.15580659 0.34787965 -0.14735338 -0.19261527 0.04500401
people -0.14024341 -0.10852126 -0.21062385 0.052990325 0.025982618 0.075692005 0.2189127 0.14933981 -0.069902405 0.25558507 0.15718469 -0.23725171 -0.33295912 0.28134158 -0.24142441 -0.48271605 0.17101067 -0.17365137 -0.20714594 -0.043323684 0.01692531 -0.24508788 -0.15131791 -0.016146466 0.018829226 0.077744156 -0.4520358 -0.18965161 0.029818224 0.16776608 -0.181982 0.084904924 0.38139814 0.22430736 -0.09220723 0.20682217 0.073812164 -0.10621195 -0.17878209 -0.18299791 0.5415509 0.010636556 0.4073888 -0.15519418 -0.098163836 -0.0005742939 0.115197636 -0.31333765 0.013595509 -0.2011827 -0.12372941 0.16017778 -0.10906174 -0.20427404 -0.042621236 -0.23095238 -0.22426628 -0.49984676 -0.31169614 0.2512562 0.16405289 -0.18269277 0.25999022 0.03027579 -0.2779005 0.3148227 0.11562147 -0.13914314 -0.21767709 0.067299984 0.24404104 0.41592056 0.15911442 -0.30511132 0.24028693 -0.3348271 0.17775932 0.32500458 -0.18876228 0.2013005 -0.031284142 -0.22075887 -0.49143615 0.12694165 0.05703355 -0.473634 0.4378133 -0.15247388 -0.04535992 -0.21708564 -0.24627721 0.2256176 0.013725441 0.082722925 -0.34319788 0.12809071 -0.04691789 -0.31920862 0.26221573 0.060865026
or -0.13839811 0.31393987 -0.29083508 -0.13237521 -0.01944036 0.10242749 0.08470501 0.21558754 -0.10176207 0.2141048 -0.23049274 0.1566759 -0.21088074 0.2610272 0.017677024 -0.2057099 -0.037636742 -0.17826006 0.025751188 -0.27925575 -0.19057138 -0.1688916 -0.02086445 0.092488155 -0.020797467 -0.19963391 -0.304237 0.21651459 -0.036662918 0.09548884 -0.20605405 0.3477178 0.2436409 0.19355206 -0.022799708 0.11110649 -0.2849495 0.068334416 -0.11899157 0.015723135 0.27271718 -0.020336881 0.35559547 -0.22503346 -0.09851769 -0.36315808 0.060407847 0.030942917 -0.02799647 0.14951563 0.099452116 0.48174793 -0.122146286 -0.009598643 0.057166237 -0.047799155 0.01844175 -0.24728635 -0.26554975 0.016175913 -0.051681247 -0.29186276 -0.14310195 0.10135789 0.04493992 0.29060397 -0.03195431 -0.20347854 0.107186645 -0.11461792 -0.041328475 0.2929126 0.25032237 -0.41929516 0.30069298 -0.35531652 0.07541874 0.20395201 -0.15175262 0.23865858 0.07545434 -0.20896004 -0.24273509 0.2727533 0.12561038 -0.48649752 0.17906219 0.17254716 -0.16627675 -0.05128424 -0.03776954 0.07458778 0.09967678 -0.019247398 -0.13470377 0.013157917 0.0057843216 -0.041426457 0.120452 0.25267616
if 0.053810276 0.023595698 -0.26012307 -0.029758958 0.15764083 -0.08395222 0.23088309 -0.08543143 -0.17846754 0.42462182 -0.124013364 -0.10411803 -0.160325 0.40207717 -0.14279121 -0.34011602 0.1306693 -0.10248387 -0.097449675 -0.56338704 -0.17577119 -0.32465413 0.1476768 0.014298228 -0.08349541 -0.15774827 -0.22850715 0.0891841 0.10435918 0.32880434 -0.2366618 0.33388138 0.14782652 0.039655235 0.12881234 0.20309052 -0.32871893 -0.036450446 -0.2041169 -0.08210475 0.44690624 -0.18642835 0.16622692 -0.19395939 -0.2722141 -0.08702404 0.10479841 -0.24003483 -0.1512505 -0.13005754 0.08298318 0.17782661 -0.07939013 -0.18850571 -0.12201247 0.004649111 -0.0067594266 -0.17389058 -0.30381024 0.14822848 0.0610316 -0.4562838 0.16073357 0.09109769 -0.13046937 0.42109537 0.23443842 -0.23921648 -0.2611822 -0.23432672 -0.10721695 0.22848211 0.09031016 -0.080802105 -0.15505189 -0.324043 0.36852175 0.21870038 0.12619889 0.24158877 0.018499896 -0.112240374 -0.27617064 0.038853113 -0.038074743 -0.40030503 0.02116318 0.09207737 0.01777704 0.1893403 0.15441565 0.2200731 0.19376056 -0.11302276 -0.40196988 -0.14339586 0.028844008 -0.20097676 0.07118811 -0.013447475
do -0.12336995 -0.0010928474 -0.19284534 0.09729914 0.28887898 -0.10489489 0.20413068 0.11671917 -0.05987484 0.26122445 -0.09890794 -0.2564061 -0.045489702 0.089652166 -0.36663043 -0.34713292 0.07537046 -0.15001123 -0.19045393 -0.32483593 -0.1846829 -0.16595872 0.1034716 -0.08111644 -0.19077495 0.1336261 -0.26139686 -0.06946723 0.09659505 0.41807088 -0.08386955 0.07034406 0.3611581 0.124897495 0.058248065 -0.22331545 -0.10858252 0.0058490625 -0.34083635 -0.2142878 0.45801482 -0.015397474 0.20740765 -0.058032297 -0.21736208 -0.15156381 0.06175095 -0.23114516 0.05289302 -0.13674831 0.07476312 0.200852 -0.090329446 -0.062372666 -0.07254142 0.16602884 -0.12290108 -0.27939543 -0.2142401 0.356976 0.050329946 -0.4254198 0.45980746 0.07082061 -0.26541182 0.539177 0.36378488 -0.25971308 -0.3117723 -0.30509448 0.10263922 0.48018008 0.3333452 0.10591308 -0.05494265 -0.34642467 0.24198812 0.18704425 0.082124665 0.106067866 -0.27592376 -0.13283111 -0.32171798 -0.06798663 -0.10671113 -0.33157805 0.007332409 -0.09859281 0.12283419 -0.1158851 0.20971794 0.16134255 0.44708973 -0.0044029467 -0.20338988 -0.12360771 0.005968216 -0.15677886 0.24553257 -0.024745218
just -0.07505235 0.0050353245 -0.2450294 -0.028109642 0.10205405 0.10934343 0.17637593 0.048463557 -0.09674081 0.391308 -0.13954543 -0.13407232 -0.26253712 0.35936463 -0.23473789 -0.1252169 0.0845875 -0.20228197 -0.08563607 -0.4514292 -0.26052696 -0.29584825 0.07540657 0.12029176 -0.10248025 -0.15726751 -0.44713202 -0.05263166 0.028375786 0.2962529 -0.23162055 0.32049945 0.3255018 0.20387937 0.14110327 0.106651574 -0.20480157 -0.054077063 -0.31739932 -0.10355143 0.3436641 -0.24372397 0.17354664 -0.0022689016 -0.019825783 -0.16066122 -0.09150557 -0.17383729 -0.019166373 -0.07480591 0.07171488 0.16108434 -0.14163034 -0.11198905 -0.01944801 -0.06774688 0.033469196 -0.33698484 -0.14677264 -0.018273436 -0.073966004 -0.35280532 0.17496432 0.006838907 -0.21292152 0.42298335 0.10380864 -0.16689068 -0.30770853 -0.16864043 -0.019259095 0.32343894 0.173447 -0.27957478 -0.0921489 -0.3626941 0.26231578 0.27445143 -0.107832305 0.20646904 -0.017947495 -0.28464395 -0.17847571 0.10934532 0.013161376 -0.5014642 0.1698986 -0.09084901 -0.09221291 -0.016492572 0.05431454 0.1946435 0.23402213 0.028762627 -0.13458334 0.024664473 0.019811576 -0.02766931 -0.009999177 -0.017967897
more -0.2573249 -0.11637252 -0.23660411 0.25943127 -0.27349332 0.10154374 0.44846436 -0.00074543734 -0.13305901 -0.08776488 -0.13954605 -0.16081072 -0.088930435 -0.011158618 -0.4661978 -0.53378946 0.08473079 -0.031379823 -0.18131766 -0.034642637 -0.3374628 -0.045006603 -0.17866841 0.24052233 0.10495692 -0.03001195 -0.45198524 0.119696505 0.20793802 0.3954398 -0.19732046 0.16420376 0.3842476 0.0030973086 -0.091559984 -0.12617312 -0.4169638 -0.056824878 -0.31413564 -0.018364364 0.53062063 0.17171085 0.2535864 -0.13554 -0.0151665835 -0.22293368 0.45689437 0.0034297109 0.05264561 -0.20812225 -0.18206967 -0.038045548 -0.06511307 -0.25808656 -0.333319 0.039169654 -0.25010955 -0.6586747 -0.11282661 0.17282166 -0.29885808 -0.10815716 0.3609792 0.021718903 -0.27594125 0.3426317 0.07784002 -0.14823355 0.19227023 0.030404437 0.09147701 0.5396096 0.36676502 -0.43994027 0.0690888 -0.41892985 0.05041984 0.46848604 -0.2866683 0.20158885 -0.21144591 -0.2764 -0.5869686 0.5361199 0.12155547 -0.70119613 0.363692 -0.07021525 -0.09555967 -0.15598351 -0.11163297 0.12114372 0.13973317 0.18840575 -0.18271776 0.18091537 -0.116995975 0.18586193 0.001418428 0.20071134
when 0.039403755 0.1465934 -0.12824021 -0.14512168 0.19814005 0.00033077327 0.21843754 0.0031245567 -0.054083444 0.5355178 -0.021617768 -0.24539743 -0.20707937 0.7190059 -0.18671604 -0.2612467 0.1326543 -0.15435742 -0.093486406 -0.7006651 -0.24885212 -0.313208 0.0796608 0.039400365 -0.1345494 -0.3636717 -0.18633008 -0.15119186 -0.03684642 0.46679753 -0.23913717 0.43202773 0.15505339 0.006285895 0.37323838 0.2728811 -0.22989616 -0.017016321 -0.11821285 -0.021299286 0.41677558 -0.34658062 0.11418376 -0.15121086 -0.2913489 0.060968935 -0.07289944 -0.34972543 0.06634975 0.04742645 -0.09274307 0.09179142 -0.075167686 -0.22300023 -0.17458653 -0.006332013 0.061354216 -0.111417696 -0.16477858 0.045414682 -0.14677954 -0.52267414 0.021258425 0.17995317 -0.12809582 0.389725 0.22982226 -0.340199 -0.31432512 0.041893773 -0.11685598 0.26045015 0.110477835 -0.13942017 -0.25752786 -0.39179334 0.48603544 0.26252553 0.20771913 0.14377336 0.065483466 -0.22578278 -0.03460938 -0.13141231 -0.019609587 -0.54295045 0.22309619 -0.054901578 -0.08578669 0.34532693 0.16060823 0.21006504 0.19182847 -0.12411842 -0.4129265 -0.051431347 0.077986486 -0.10995516 -0.0033358715 -0.09506414
me 0.057949614 -0.10285783 -0.30092812 0.12087521 0.37347874 0.06031426 -0.009002048 0.21293956 -0.12563832 0.41393456 0.03230376 -0.20232663 -0.2671438 0.16140334 -0.3501652 -0.39653748 0.2671387 -0.0046303943 -0.022693679 -0.20050138 -0.28630432 -0.35261112 0.11163035 0.10417899 -0.015877314 -0.18634395 -0.51785487 -0.19656359 -0.0072929934 0.44699645 0.089354925 0.13549685 0.260854 0.26034838 0.22621071 -0.07035819 -0.15069127 -0.03618691 0.10629807 0.09120928 0.29962832 -0.061770797 -0.031853408 -0.023524512 -0.049963467 0.09468467 0.044267297 -0.35307956 -0.099627584 -0.0034758635 -0.13780607 0.29273608 -0.28544825 -0.16594478 -0.1335015 -0.4179027 -0.016807998 -0.43288904 0.01738241 0.08440789 -0.08785403 -0.26749447 0.2264486 -0.034040414 -0.3462524 0.26257935 0.31742674 -0.15987076 -0.36841568 -0.15076715 0.07755585 0.19793391 -0.019505993 -0.05043499 -0.050595026 -0.32844102 0.28364652 -0.0033659637 0.048191976 0.29833347 -0.28989774 -0.21407904 0.04429374 -0.13044038 -0.22479343 -0.284114 0.19242404 -0.08646167 0.05817589 0.008957576 0.0018602163 0.07671883 0.2726891 0.092553705 -0.14492603 -0.037265435 0.1202323 0.018563047 0.29854295 -0.014658377
an -0.039839968 0.3397843 -0.2631892 -0.17762609 0.18571869 -0.18826768 0.2713229 0.38662285 -0.1569277 0.17342074 -0.33145443 -0.0070118904 -0.16598386 0.28730854 -0.27699947 -0.14057645 0.04382395 0.070958406 -0.23473376 -0.25920385 -0.17901811 -0.19319773 0.050676614 0.1045184 -0.11467993 -0.28237534 -0.5047247 0.124085456 -0.12165922 0.07340476 0.16406488 0.34034628 0.33985716 0.15947722 -0.057395276 0.026372708 -0.1531932 -0.12677799 0.015098587 -0.2175656 0.37417078 -0.14519614 0.12772873 0.041758023 0.0038304515 -0.1731731 -0.041993324 -0.016871555 0.011233285 0.3327076 -0.06575264 0.30798796 -0.048449226 0.13267614 -0.0067106783 -0.08401741 0.06362526 -0.26573747 -0.06047062 -0.08185123 -0.03628561 -0.31079727 0.12306309 0.060562707 -0.12869711 0.28148276 0.118836716 -0.018557101 0.0128343105 0.039447676 -0.14637518 0.2967513 0.13522062 -0.10026914 0.05049931 -0.009010062 0.274381 -0.007712908 -0.3503505 0.2439438 -0.07326196 -0.22671556 -0.06418316 0.25021264 -0.012975089 -0.34903365 0.14311245 0.015283078 -0.18438563 -0.05468674 -0.077384956 -0.041187525 0.046475302 -0.21431527 0.06011355 -0.1044816 -0.18379167 0.21543404 -0.0017577354 0.101255685
because -0.15412255 -0.13060454 -0.17547159 -0.00065842207 0.13980046 0.086679265 0.26068342 0.012394796 -0.16726165 0.36707795 -0.20244995 -0.40175462 -0.25941512 0.46286127 -0.43334132 -0.22742853 0.25965968 -0.2627236 -0.19105376 -0.52331436 -0.26413682 -0.155757 0.038307883 -0.002503197 -0.078155555 -0.10777693 -0.5326642 -0.043303013 -0.029674074 0.30133525 -0.18209241 0.15839228 0.33780345 0.14499173 0.16351227 0.15371014 -0.112251915 -0.03320566 -0.24605969 -0.3262405 0.35833362 -0.2370986 0.13977326 0.15726724 0.08387084 -0.06535614 -0.15845032 -0.19879441 0.09517335 -0.19331889 0.043968342 -0.02500373 -0.10339743 -0.09649826 -0.09420883 -0.008302003 -0.009500948 -0.31897488 -0.2709744 0.08564436 -0.12835756 -0.45701164 0.35083556 0.05896144 -0.3105503 0.38404506 0.22668543 -0.16990803 -0.36961174 -0.10120469 -0.030886328 0.4017207 0.23568313 -0.19004564 -0.13206768 -0.25335023 0.33844644 0.35106668 -0.0987975 0.11759079 -0.02162098 -0.37434492 -0.45725098 -0.0122249415 0.118155606 -0.53144515 0.15592706 -0.18315907 -0.105812214 0.025700714 0.19018005 0.09604448 0.31185588 0.0629526 -0.08384889 -0.12444388 -0.099802025 0.12631263 -0.12468865 0.0348148
these -0.22243467 0.05218752 -0.11272624 -0.050970323 0.10013746 -0.05420602 0.007941562 0.1311277 -0.09214352 -0.020621363 0.27294827 -0.39764908 -0.1010811 0.3795958 -0.1856135 -0.5086254 0.14598459 -0.10714451 -0.3512187 -0.28621638 0.057514492 -0.19486858 -0.27595884 -0.04185181 0.05277912 -0.025587792 -0.32158118 -0.5298292 0.060036637 0.26860645 -0.05634313 0.14691517 0.45487604 0.22215357 -0.15194176 0.064292975 0.14933324 -0.24571203 -0.18869302 -0.34918395 0.72987556 0.019536566 0.47370034 -0.18185692 -0.27219763 -0.04896911 0.057396874 -0.21519259 0.22986446 -0.25091216 -0.25658885 0.14105636 0.028260428 -0.40745077 0.0041404064 0.011561363 -0.29821345 -0.078694955 -0.27953532 0.22006747 -0.14904027 -0.4015606 0.26459843 0.057078965 -0.20936504 0.28368276 0.061667047 -0.026770199 -0.30566427 0.15814167 0.15726903 0.40889028 0.048894044 -0.20980419 0.08666681 -0.33438963 0.32599744 0.36144012 0.16074906 0.0536583 0.0049819113 -0.06840753 -0.3718599 0.03826278 0.27970752 -0.31445056 0.40621135 -0.086139455 0.14677647 -0.045143142 -0.1390008 0.02912522 -0.10390937 -0.084169544 -0.37130558 -0.16748454 0.02815835 -0.2573525 0.2844525 0.021083249
had -0.06094346 0.07898398 0.24038683 -0.17754783 0.084096566 -0.10899262 0.17019966 0.18010889 -0.103087835 -0.12205936 -0.10825081 -0.4295471 -0.2171583 0.30611342 -0.25063965 -0.1720612 0.31164956 -0.1117692 -0.51313657 -0.24332783 -0.2678546 -0.047108226 0.020796249 0.08183205 -0.08707338 -0.14244518 -0.30585805 -0.10790728 -0.16398214 0.24619962 -0.03758074 -0.10430566 0.3321393 0.40640903 -0.14742675 -0.27514905 -0.14054242 0.21416564 0.14592583 0.09594866 0.3698953 -0.24509017 0.54570824 0.09429665 -0.14098166 0.24550979 0.07998449 -0.47040004 -0.009258686 0.2783012 -0.0075481725 -0.06358061 -0.031900298 -0.07226343 -0.22587402 -0.14893828 0.09602572 -0.38565907 -0.095571555 -0.0029163447 0.040096667 -0.08993951 -0.0907822 -0.26105693 -0.53440034 0.36864105 0.44042757 -0.13538517 -0.2944074 0.11699003 -0.041403677 0.24052212 0.35191536 -0.2149384 0.21011205 -0.33561686 0.39386424 0.0993082 -0.08972811 0.08049734 -0.2727572 -0.64607054 -0.33488327 0.072830915 -0.11964876 -0.32867977 0.23954043 -0.26872334 -0.20438759 -0.063036874 -0.09855105 0.27742502 0.4569025 0.08915729 -0.15855649 0.022737881 0.30813962 0.14715168 0.13715169 0.17981842
now 0.005479025 0.077767596 -0.10250945 -0.096088156 0.16441308 -0.0005951311 0.16732284 0.13971731 -0.033767093 0.3041484 0.015274507 -0.30657664 -0.3053069 0.35231942 -0.19634879 -0.16272108 0.07554132 -0.004197787 -0.14093766 -0.4620522 -0.1521857 -0.29673645 0.047439396 0.08475392 -0.07176818 -0.14445464 -0.37852046 -0.16672303 -0.06773354 0.29230374 -0.1441437 0.3096335 0.25656202 0.015965521 0.17471655 0.07133405 -0.104041815 -0.20118806 -0.29034516 -0.3121542 0.48978668 -0.08342423 0.13647129 -0.04728851 -0.13404112 -0.08539657 -0.0134036755 -0.28344348 0.04074213 -0.13206314 0.045538973 -0.062028587 -0.08149655 -0.020127831 0.012575792 0.069556236 -0.12245299 -0.23247094 -0.13790406 0.14886405 -0.21035635 -0.33466142 0.21486199 0.05070746 -0.25966692 0.5087071 0.13257872 -0.22127327 -0.17543612 -0.16899171 0.16977663 0.46321106 0.15064947 -0.108371 -0.12777586 -0.23621313 0.27732003 0.27111608 -0.036137275 0.10859009 0.012422388 -0.058938827 -0.41563052 0.06431212 0.044644702 -0.3512918 0.20581457 -0.07169588 -0.03309646 0.05466325 0.21390645 0.11646397 0.1287283 -0.121360846 -0.3309171 0.03903689 0.010769633 -0.10082782 -0.09799307 -0.16845356
by 0.012719335 0.27704993 -0.12746759 -0.16735241 0.053820282 0.031530418 0.18420643 0.3722394 -0.0033934359 0.050550014 -0.1513268 -0.26255685 -0.17555606 0.37421155 0.006028887 -0.27294165 0.16483372 -0.07395785 -0.2432985 -0.280263 -0.17664823 -0.076116234 -0.1446411 -0.064735316 0.11015628 -0.24305892 -0.39862368 -0.096887395 0.0065082586 0.098839924 -0.20158315 0.21148393 0.0918691 0.12393281 0.11099751 0.20904592 -0.051065333 -0.15259622 -0.07192137 -0.19951358 0.20986693 -0.11434103 0.37045622 -0.11357764 -0.07668649 -0.0037483852 -0.028205657 -0.04605726 0.038959585 0.018725753 0.06522264 0.005567152 0.024092171 -0.03703242 -0.12761898 0.0045550894 -0.13034439 -0.17401136 -0.075180076 0.029167335 -0.22478539 -0.33849102 0.0354844 0.07411562 -0.16987695 0.24926755 0.026765006 -0.07372599 -0.044743277 0.13593425 0.04052665 0.28322208 0.16933423 -0.26893663 -0.0064427527 -0.22544877 0.20679319 0.13997197 -0.1500117 0.051215373 -0.016532773 -0.18135923 -0.32882997 0.015154092 0.17742498 -0.40604264 0.2266612 -0.037880845 -0.26013777 -0.043081664 0.08040235 0.06709014 -0.042387962 0.036092713 -0.10230629 -0.013680169 0.0019631856 -0.057902128 -0.09807396 0.09719056
us -0.2905196 0.088497296 -0.30261943 -0.011234969 0.2656457 -0.05453474 -0.07079327 0.42215496 -0.18283662 0.06769025 -0.017771926 -0.30640608 0.13839896 -0.07063484 -0.21264951 -0.3019651 0.19501092 0.03568604 -0.14160138 -0.025529206 -0.05407265 -0.15772592 0.0027774647 0.13154137 0.012660429 -0.03630787 -0.3992459 -0.17677869 0.06722577 0.2035385 0.101755515 0.089880176 0.38351777 0.31521487 0.11717066 -0.23896787 0.06642379 -0.013351269 -0.23528299 -0.14544207 0.361042 0.1342397 0.14206672 -0.009644732 -0.06705704 -0.018994704 0.0372967 0.06627385 -0.011352427 -0.13899535 -0.06576688 0.25342003 -0.1080574 -0.19171742 0.02530365 -0.09760775 -0.20469451 -0.16698676 -0.086168736 0.21754548 -0.089346044 -0.19203071 0.4215755 0.011949433 -0.286406 0.23958611 0.17053966 -0.01805409 -0.34575886 -0.17624581 0.16580519 0.4003335 0.2527166 -0.11146468 0.015885402 -0.411253 0.14812613 0.18227395 0.016645774 0.17179796 -0.3680625 -0.11389804 -0.13472497 0.10532807 -0.17876963 -0.31089544 0.40521944 -0.18843505 0.102023646 -0.1273959 0.02979413 -0.02675236 0.23288667 0.060850516 -0.24621299 -0.15491667 0.028729524 -0.12695995 0.3532467 0.063863225
them -0.22181357 -0.13332933 -0.34031066 0.16421324 0.10200243 -0.03911142 -0.054294944 0.01892254 -0.21800694 0.22028299 0.30835235 -0.09454791 0.068717904 0.2243359 -0.37137696 -0.5041888 0.06398589 -0.23901933 -0.25775853 -0.21413551 -0.026351692 -0.39069203 -0.010816755 0.16635539 -0.155506 -0.22426154 -0.27753353 -0.31154445 0.0697915 0.5500911 0.005573846 0.21882387 0.58353305 0.28403753 -0.108189136 -0.088541724 -0.07920808 -0.0055126026 -0.15365978 0.0065417914 0.6643549 -0.02377833 0.2574126 -0.11221664 -0.19332042 -0.15606107 0.12663183 -0.31905362 0.16015859 -0.22522025 -0.4117934 0.3702833 -0.14561714 -0.4801875 -0.007040194 -0.20306636 -0.029835986 -0.21030073 -0.16994375 0.14751047 0.094900034 -0.35553962 0.25361755 -0.07918556 -0.24654536 0.39619446 0.2865136 -0.04989998 -0.2577466 -0.034028925 0.033127222 0.31901747 -0.00084085896 -0.17609848 0.059173856 -0.42690495 0.3146411 0.26853052 0.18206258 0.26815778 -0.17064928 -0.24946903 -0.05151793 0.07296053 -0.02760185 -0.4389181 0.3112612 -0.072384655 0.26138136 -0.037626836 -0.24541382 0.0044484544 0.1630236 0.09803604 -0.38241622 -0.17988111 -0.007512179 -0.20004 0.38920215 0.07745232
how -0.23149171 0.15687768 -0.2009889 0.037699994 0.18448354 -0.10241208 0.05335108 0.2534167 -0.063129365 0.25271064 -0.06760653 -0.28472486 0.1068374 0.115420826 -0.2371823 -0.31859595 0.10946071 -0.032556344 -0.010499669 -0.4875835 -0.21576872 -0.42978698 0.03746668 0.11825969 -0.22726117 -0.1846585 -0.26267546 -0.21341725 0.18827021 0.49184537 0.23876067 0.3748049 0.23032227 0.11390512 0.22845456 -0.13314089 -0.17506826 -0.08480084 -0.34068012 -0.13053656 0.697679 0.13939606 0.1437901 -0.06158042 -0.38961378 -0.14037135 0.17737822 -0.2442064 0.17768778 -0.14096616 -0.27703616 0.19501288 -0.16928557 -0.13446887 -0.086997285 0.110657796 -0.08654439 -0.2790815 -0.13890362 0.37993377 -0.11707795 -0.40679386 0.55348575 0.1644814 -0.09477984 0.60367185 0.14499252 -0.21663053 -0.30579206 -0.00829219 0.019607008 0.54498565 0.24230655 -0.027882906 -0.04901714 -0.5033466 0.27428773 0.341968 0.16905056 0.16889243 -0.050772417 -0.01689041 0.0057336516 0.020702956 -0.13450252 -0.31969914 0.119239785 -0.06808509 0.1752274 0.25432208 0.10150491 0.099773645 0.3070454 -0.06308736 -0.3978901 -0.18300986 -0.12012201 0.11374413 0.3170252 0.13693176
out -0.16999604 0.07596065 -0.112768374 -0.0028949901 0.2743573 0.053117123 -0.031335026 0.109495215 0.10299101 0.44384196 0.065115415 -0.1225305 -0.3084291 0.46664587 -0.5084161 -0.30328354 0.103699096 -0.29961237 -0.046962064 -0.43234444 -0.073486134 0.0029573229 -0.008617629 -0.081699155 -0.09151205 -0.065276995 -0.2618237 -0.41633564 0.08329199 0.1878469 -0.023661364 -0.019564655 0.21611516 0.3879641 0.121046476 0.02492247 -0.02005395 -0.026216421 -0.106413744 0.0035841411 0.33298787 -0.06508583 0.25947624 0.0027236703 -0.18383801 0.0124803865 -0.29169646 -0.47873092 0.044584546 0.009675956 -0.025815079 0.24483678 -0.135159 -0.16213302 0.034105785 -0.27431503 -0.002365718 -0.114789724 -0.2703414 0.07819276 -0.018987844 -0.32761306 0.06302978 0.03677401 -0.16847445 0.30368233 0.3121658 -0.30880097 -0.38721666 0.1356276 0.22029403 0.31282645 0.011465539 -0.320952 0.067283526 -0.7326061 0.20668824 0.29832366 0.00258325 0.021841735 0.023876565 -0.30931354 0.09389268 -0.15115495 0.049370967 -0.4796121 0.10860578 -0.2838652 -0.12648532 -0.27180216 -0.11035014 0.26725826 0.038661916 0.2147192 -0.069604985 -0.0082748365 -0.08304964 -0.13127469 0.10847695 0.20970841
world -0.09878443 0.33807188 -0.22358781 -0.21636365 0.18742962 -0.015171743 0.00024412858 0.55473113 -0.050804485 0.04132207 -0.020092195 -0.34987286 0.17584176 0.36373097 -0.1965193 -0.13117984 0.01626227 -0.17498286 -0.27967823 -0.18581924 -0.26290193 -0.010166293 -0.1507553 -0.120592624 0.00748792 -0.08728608 -0.41693756 -0.19686252 0.06402585 0.1616025 -0.117198065 0.15302795 0.26407698 0.017883714 0.18802968 -0.11887654 -0.016684977 -0.15624428 -0.23326614 -0.37673098 0.32311833 -0.14331983 0.20543346 -0.20080474 -0.008287151 0.101021856 -0.17800562 0.13127202 -0.10327434 0.024049187 0.06173489 -0.009125739 0.06940393 -0.25255662 0.012458529 0.093828544 0.043173835 -0.050668668 -0.093087636 0.0019816686 0.035321575 -0.25312284 0.41289446 0.05900577 -0.29842165 0.4212553 0.047718346 0.15701133 -0.14727205 -0.19973047 0.2548905 0.45287043 0.3883597 -0.26502797 -0.06672608 -0.36980394 0.3373883 0.07794486 -0.20842691 0.07148576 -0.3463949 -0.3338628 -0.3163973 0.18256645 -0.030438066 -0.51687455 0.66281617 -0.3181326 0.056050565 -0.25859693 0.09466619 0.0985497 0.040853437 0.015006805 -0.20013493 -0.052908424 -0.079455994 -0.3445072 0.12824428 -0.15764329
he 0.3725286 0.034660205 -0.24250145 -0.030887835 0.3453047 0.015466824 0.18988462 0.42836344 -0.24106897 0.3182773 0.0047506653 0.035831828 -0.25893542 0.43961573 -0.31845534 -0.022505265 0.3243009 0.0011419579 0.007784374 -0.32852256 -0.49071243 -0.3844981 -0.016451303 0.15969583 -0.19931737 -0.29001558 -0.7671257 -0.07435395 0.18276122 0.59947115 -0.086819716 0.27574614 0.10445145 0.26216865 0.10853688 0.08809699 -0.15466706 -0.32771787 0.13513327 0.14589763 0.30762133 -0.4410362 0.03915578 -0.057613336 0.08126802 0.20274058 -0.21357502 -0.117744006 -0.1598968 0.29142863 0.1303213 0.0109134875 -0.21509519 -0.29925334 -0.090660535 -0.44960332 0.27822348 -0.31837645 0.18107209 -0.26309103 0.16156858 -0.24406804 0.24858779 -0.051842965 -0.30351156 0.2545585 0.1157681 0.14775959 -0.6536651 -0.031914204 -0.16728905 0.036143087 -0.06472589 -0.11098997 0.020041727 -0.2861187 0.4839195 -0.048145697 -0.23608108 0.3126494 -0.42273644 -0.18287271 0.21814021 0.24148244 -0.3201077 -0.22463599 0.16250718 -0.07481003 0.094154336 0.17203608 -0.0120564215 0.26070243 0.18190527 -0.14777614 -0.0077136084 -0.14417674 0.20556593 0.122902244 0.11487821 0.07659509
their -0.36792988 0.073546596 -0.33109123 0.13644862 0.15399274 0.1531576 0.08727857 0.26401743 -0.1567922 0.05838996 0.3143951 -0.13565904 -0.032930043 0.40275082 -0.31649616 -0.4441368 -0.002339691 -0.21827012 -0.107935585 -0.190825 0.11319366 -0.25971952 -0.050706837 -0.0055372757 0.023490839 -0.2646523 -0.36106956 -0.47615808 -0.0076804725 0.4238047 -0.11149698 0.30924326 0.5538387 0.27740982 -0.20504436 0.05509281 0.18569125 -0.0015949074 0.1357879 -0.105245374 0.7512993 -0.10618861 0.32301137 -0.04354666 -0.11183269 -0.07641994 0.055396665 -0.19549726 0.4191969 -0.0036516062 -0.48857346 0.37509695 -0.011550354 -0.6036589 0.017448405 -0.37766495 -0.18648955 -0.0069656414 -0.17322873 0.026331462 0.062851444 -0.37568808 -0.09534029 -0.14037843 -0.36653358 0.08904697 0.23094079 -0.14324254 -0.26274875 0.27094412 0.102339424 0.28188097 -0.03493254 -0.34730098 0.20711662 -0.36659387 0.27692434 0.34879023 0.113667935 -0.045330513 -0.017278345 -0.2944868 -0.2553497 0.12738234 0.17967233 -0.5530707 0.36046603 -0.094361626 0.18101619 -0.112772346 -0.32648286 -0.04152722 0.053006034 0.10619401 -0.3791933 -0.13212205 0.104031995 -0.30889452 0.3217349 0.15433986
were -0.0870123 -0.118001655 0.1006773 0.058414698 -0.069689184 0.020069238 0.40818042 0.15072645 0.09756305 -0.054240063 0.019917531 -0.3882461 -0.4933782 0.57289684 -0.23818006 -0.3858318 -0.13917041 -0.15747094 -0.21449019 -0.1698584 0.12114606 -0.18607292 0.13473001 0.10005602 0.15209216 0.0003356043 -0.32461938 -0.13918924 -0.05647409 0.24973735 -0.29836267 0.120262176 0.3345432 0.0287395 -0.05526143 0.041460335 -0.13823833 -0.22981228 0.09062021 -0.13604015 0.5669592 -0.102444984 0.40865174 -0.13760029 -0.28266308 -0.19636716 -0.09988413 -0.3776416 0.03366737 0.020196164 -0.09845114 -0.041699454 0.15896237 -0.17247127 -0.06626291 -0.09721641 -0.10728445 -0.16160731 -0.25999862 0.26449335 -0.079820216 -0.21798044 -0.14684692 -0.26406115 -0.32286778 0.31532994 0.4371164 -0.27615005 0.0245979 -0.024804251 0.20787244 0.2951423 0.21421327 -0.23470241 0.12705217 -0.3591296 0.3129152 0.25214502 -0.1309827 0.064639054 -0.09304946 -0.28691295 -0.46447915 0.11188268 0.19124037 -0.6986423 0.39956096 -0.24149828 -0.1361096 -0.28780052 0.07643459 0.21084833 -0.0031299822 0.08506603 -0.41728124 0.25891188 0.23625845 -0.2764431 -0.0044198576 0.10180712
who 0.092311665 -0.032535166 -0.16217896 0.04978841 -0.16967316 0.17669277 0.23200257 0.2564799 -0.07214467 0.36740735 -0.12581943 -0.12972789 -0.30138344 0.4686083 -0.25848836 -0.114774264 0.13874033 -0.28417453 0.10094811 -0.39041644 -0.3631272 -0.21777932 -0.3122862 -0.15435971 0.110809684 -0.15577652 -0.58731353 -0.103949256 0.1561861 0.30153093 -0.14681602 0.22903565 0.19542077 -0.005477119 0.07957808 0.55294734 0.20548141 0.05339631 0.029321423 -0.12779638 0.42851403 -0.19856524 0.32429913 0.028052116 0.04564822 -0.040709805 -0.008035902 -0.048180576 0.33196253 0.00569391 0.014322313 -0.01759703 -0.26730725 -0.19574752 -0.09071048 -0.09167816 -0.10585157 -0.40996388 -0.18206869 0.17002991 0.11129554 -0.29270628 0.15190697 0.009855313 -0.16014375 0.2990311 0.056937594 -0.2717942 -0.33375248 0.13485752 -0.038978584 0.36718217 0.2239938 -0.32048127 0.22374977 -0.2942218 0.3625626 0.32017085 -0.16686308 0.110893965 0.1018937 -0.18499611 -0.49321756 0.01737326 0.109135486 -0.44989324 0.18756709 0.05020392 0.03510304 0.24867211 0.08247882 0.21030024 0.023987876 -0.075017236 -0.3151345 -0.11733438 0.0016963131 -0.09435307 0.172351 0.13047715
up 0.011874547 0.34977496 -0.056158714 -0.12595436 0.17792039 -0.029270303 -0.06405324 0.27115762 -0.09871416 0.20025557 0.06421772 -0.10219048 -0.026100775 0.3656022 -0.27405304 -0.32557845 -0.07787418 -0.27895707 -0.13057269 -0.38036567 -0.15508883 -0.11067513 -0.19234113 -0.046577893 0.018987361 -0.2534806 -0.249029 -0.15570681 0.10846797 0.2916204 0.0109680025 0.35345548 0.35870785 0.26164797 0.16500503 -0.04147947 0.05096717 0.016643157 0.07108118 0.062183198 0.3856287 -0.25563562 0.1301538 -0.21722528 -0.16262656 0.08612172 0.0045493115 -0.25891167 0.06712138 0.18215224 -0.2104681 0.31096762 -0.14995724 -0.18566224 -0.09938535 -0.08250956 0.1508549 -0.046379488 0.08788962 -0.06740725 0.1715835 -0.39670655 -0.0950499 -0.055667117 -0.1186092 0.21622297 0.147835 0.08783888 -0.09722234 0.16128583 -0.026099183 0.2009866 0.07809307 -0.19748904 0.019083593 -0.28753367 0.42736346 -0.07288069 -0.08697027 0.20566423 -0.18813181 -0.19236666 0.23247775 0.1284423 -0.16785017 -0.27085012 0.38579872 -0.12051855 0.0010532141 0.015873564 -0.13162723 0.07129538 0.08545464 -0.027816402 -0.10866074 -0.094709106 0.016887756 -0.14822821 0.13224754 0.061490417
time 0.018929578 -0.035445094 -0.17116667 -0.109541915 0.2222393 0.12814103 0.028657502 0.03128579 -0.10747345 0.2123312 0.23083085 -0.21371664 -0.2249898 0.4823025 -0.22183895 -0.21926607 0.23566543 -0.0077555045 -0.23701058 -0.2812488 -0.44065064 -0.41074964 0.20736593 0.16934623 -0.13759269 -0.28744185 -0.21159558 -0.12681146 -0.17148326 0.22251023 -0.3040233 0.16947772 0.3790942 0.25759125 0.2933043 -0.21237026 -0.2452762 -0.053750493 -0.26100752 0.008666373 0.24903654 -0.28182197 0.018235026 -0.035281304 -0.07902736 0.105051085 -0.083456576 -0.3263551 -0.23392825 -0.18090668 0.10163541 0.029084118 0.12352317 -0.23525256 -0.13208531 -0.14043221 0.011076635 -0.23514691 -0.07307997 -0.097163685 -0.25668707 -0.17393701 0.05043266 0.22102265 -0.40627176 0.41197187 0.17511113 0.042405784 -0.27731106 -0.27244523 0.16312699 0.31897917 0.24253154 -0.26358062 -0.10902162 -0.32223952 0.16599102 0.27779123 0.1388214 0.15039273 -0.087758064 -0.4974991 -0.33595857 -0.009112993 -0.13923545 -0.4961666 0.7294041 -0.35192266 -0.13986243 0.19578171 -0.039193783 0.2075041 0.18822943 0.14600036 -0.30023515 -0.01550006 0.13435277 -0.3873063 0.10241684 -0.33746532
would 0.0363443 0.38222963 -0.2011479 -0.05470915 -0.047279127 -0.29661128 0.049784698 0.22087431 -0.13251375 0.40322918 -0.17614977 -0.31622258 0.035490338 0.05309685 -0.47893748 -0.57205397 0.21663238 -0.27623066 -0.5815102 -0.28958 -0.220219 0.053780913 0.049968895 -0.22123447 0.17128268 -0.100254394 -0.18986185 -0.043521464 0.26588213 0.37334147 -0.027470576 0.16349792 0.2589402 0.35146567 0.08547912 0.059873722 -0.35335252 0.31963095 -0.08657471 0.29329178 0.16029046 -0.012265638 0.7160587 -0.07959986 -0.17012481 -0.12754706 0.2923889 -0.010029241 -0.15876244 0.21308783 0.0032732938 0.25656587 -0.2431313 -0.2513458 -0.3338743 -0.084649496 0.1763742 -0.28764042 -0.21928568 0.25291577 0.21704717 -0.45785674 0.22271381 0.13377474 -0.12540556 0.45819807 0.41475102 -0.20121264 0.044360414 -0.21884881 -0.1489339 0.27468017 0.21342134 -0.3170867 -0.22530532 -0.4582477 0.36177394 -0.0007691099 -0.097019404 0.42857543 -0.53408086 -0.5746118 -0.26342535 0.18698555 -0.0055123568 -0.5252121 0.3444592 -0.09266987 -0.06399244 0.0024900893 0.042648938 0.3450448 0.2878253 -0.057481017 -0.15235864 -0.20961308 0.05607972 -0.13417588 0.4761196 0.19543858
very -0.1429589 -0.091068074 -0.050598286 -0.124964185 0.1926724 0.06266537 -0.02424479 -0.068616934 -0.19673118 -0.10037561 -0.28258327 -0.50977904 -0.05754708 0.037843302 -0.1301483 -0.49798432 0.34127155 0.23340231 -0.18815552 -0.47613347 -0.38674116 -0.26310736 -0.0032573207 0.37311527 -0.10220638 -0.21356377 -0.4989278 0.05108367 -0.17101513 0.18985148 0.14281908 0.17213036 0.34748745 0.34553653 0.2963839 -0.3258621 -0.3350544 -0.17336251 -0.15765318 -0.2446332 0.32810956 0.006336689 0.004199895 -0.117035344 -0.1356298 -0.1388004 0.2698375 -0.13069107 -0.030060936 -0.16161425 -0.11391879 0.22836946 -0.08058097 0.041514818 -0.1378697 0.027829815 -0.22950532 -0.49786422 -0.19051123 0.1784527 -0.72082907 -0.49610624 0.5256986 0.14069425 -0.30387735 0.3823373 0.22058511 0.03883982 -0.16059998 -0.015591743 -0.07221842 0.47834453 0.2699068 -0.25003123 -0.1400659 -0.19798635 0.29145288 0.28435352 0.17830949 0.34494567 -0.23196863 -0.26737234 -0.32406747 0.05625029 0.02555546 -0.39412835 0.3593541 -0.13716191 -0.20294389 0.04295594 0.056996368 -0.09881465 0.20590901 0.10285714 -0.049678087 -0.13215974 -0.111501 0.43683273 0.008867511 -0.10277543
know -0.025275135 -0.100069925 -0.2602593 0.20543708 0.098630674 -0.045494184 0.23589568 0.06773734 0.070772216 0.62803084 -0.06158935 -0.2237401 -0.44129488 0.31232157 -0.35196036 -0.22442055 0.13516133 -0.14979672 -0.2266791 -0.59527564 -0.18210568 -0.4826875 0.3021491 0.156292 -0.1821588 -0.0097846445 -0.4217144 -0.017951544 -0.0046057906 0.47240213 -0.30295417 0.33980292 0.4059541 0.27459505 0.06471881 0.10421539 -0.08082196 0.03555732 -0.4836173 -0.12045488 0.53769916 -0.13300128 0.3465543 0.16953956 -0.1409853 -0.36303982 -0.0672612 -0.5107146 0.080635004 -0.24770798 0.13895494 0.081044324 -0.22091848 0.04689758 -0.018921709 0.16749921 -0.0308515 -0.38228694 -0.23231554 0.3101691 0.04477162 -0.38588303 0.29931328 0.055018976 -0.31526265 0.86644745 0.42671344 -0.4556665 -0.28942326 -0.40559566 0.050923012 0.50872463 0.15733773 -0.08465146 -0.1444127 -0.25111777 0.2801713 0.3061273 0.043807995 0.190913 -0.041757245 -0.35142133 -0.51145864 -0.053312484 -0.0066862777 -0.5758655 -0.042989824 0.02875958 -0.083694115 0.029420923 0.27793396 0.25632623 0.34917834 0.004321331 -0.40068227 -0.030045308 0.07789144 -0.15193516 0.024787916 -0.0012829489
see 0.099793054 0.078997865 -0.11998936 0.011670449 0.06825039 -0.110959105 0.10418252 0.12628853 -0.08843558 0.17484887 0.005512097 -0.008834014 -0.14532606 0.51073843 -0.19304089 -0.27763617 -0.02279416 -0.15354274 -0.21367584 -0.4878955 -0.24904285 -0.41264942 0.016841723 0.090198174 -0.2602616 -0.03224825 -0.20880207 0.2545767 0.073506586 0.18605603 -0.34414795 0.283884 0.4599727 0.1061527 0.100748114 -0.1547824 -0.24660465 -0.20210433 -0.358316 -0.15494648 0.5098757 -0.18904667 0.08618118 -0.12437414 -0.4010891 -0.23714922 0.018415371 -0.41138038 -0.24355267 -0.24304578 0.24076612 0.15295991 0.13143936 -0.048865046 -0.0402213 0.21413486 -0.024414629 -0.053110626 -0.19888063 0.17242198 0.16331689 -0.3577108 0.09149984 0.1348199 -0.1163655 0.7071763 0.24877109 0.0785855 -0.11517994 -0.36017475 0.050374586 0.36486617 0.35656843 -0.088339984 0.13305676 -0.385675 0.2741696 0.16335693 -0.0035004574 0.19504616 -0.09281119 -0.26575217 -0.28939676 0.08970801 -0.20138252 -0.27277637 0.25533196 0.046666253 0.057131793 0.047203142 0.20770144 0.2453127 0.15309922 0.08868152 -0.19116321 -0.14549565 0.029443515 -0.41858977 0.052330654 0.021276424
ve -0.09319261 -0.12233347 0.33881897 -0.21542145 0.08189957 -0.20607547 0.18273854 -0.15195897 -0.249375 -0.30974266 -0.05905378 -0.60642314 -0.04631179 0.1634704 -0.1213621 -0.27571416 0.27197438 0.14581054 -0.62346536 -0.4407478 -0.17778072 -0.12996498 -0.02156159 0.20274267 -0.11854829 -0.12905969 -0.19922125 -0.056433603 -0.11693161 0.12741798 -0.018398508 -0.10407497 0.42341885 0.3317007 -0.16808492 -0.45595098 -0.108314596 0.047011852 -0.111004055 -0.123847075 0.6157601 -0.13407606 0.33047193 0.056418642 -0.36100757 0.32575828 0.32063895 -0.5969193 -0.0011636056 -0.0519118 -0.140905 -0.20434785 -0.025636457 0.08534846 -0.26919106 0.24585347 -0.12081844 -0.31500086 -0.18235235 0.1464714 -0.23382294 -0.18176855 0.018988669 -0.27696785 -0.53163904 0.5274442 0.3916282 -0.043801658 -0.25451642 0.05908534 0.042739935 0.30984926 0.34104535 -0.13045178 0.038829666 -0.1910387 0.34112376 0.118013054 0.1090589 -0.0023073405 -0.10088311 -0.43340406 -0.59934324 0.0613845 -0.106303826 -0.20913973 0.2459605 -0.21269077 -0.17989604 0.13349557 -0.017910533 0.18317543 0.2584197 0.022027671 -0.2522484 -0.047245674 0.27681053 0.18655714 -0.069347575 -0.07155608
think -0.01989873 -0.19502048 -0.123568416 0.0310315 -0.0781062 -0.17160848 0.04828902 0.042826783 0.090680584 0.38236824 -0.036683552 -0.31873614 -0.26093233 0.21190384 -0.35235915 -0.24592187 0.15583819 0.007994445 -0.28071156 -0.35993904 -0.3614124 -0.38713914 0.08846254 0.30682147 -0.1543875 0.059887774 -0.2956522 -0.11324434 -0.09988848 0.58326507 -0.04190577 0.3194359 0.46935716 0.092400685 0.27011234 -0.09895158 -0.19666283 0.02717237 -0.5419171 -0.19870004 0.5371259 -0.021987883 0.2553711 0.13013993 -0.19271263 -0.21853127 -0.068589956 -0.30532208 0.10900558 -0.31825426 -0.044578124 0.08533492 -0.095001794 -0.13616848 -0.13667281 0.32013524 -0.03739735 -0.44261006 -0.1827522 0.36803 -0.27259105 -0.3296503 0.63893735 0.101634376 -0.16300069 0.81682575 0.34733436 -0.2639431 -0.39018413 -0.38481915 -0.0057492703 0.55372196 0.20609048 -0.16804641 -0.24299012 -0.30785507 0.3493773 0.35247004 0.08881078 0.31027508 -0.14364992 -0.21570145 -0.3069958 -0.02421444 -0.093314104 -0.51995313 0.27071565 -0.16153617 0.09242773 0.115610525 0.32899252 0.15601984 0.38268504 -0.06928303 -0.3941403 -0.12754682 -0.00978653 -0.042017687 0.052253503 -0.06137162
your 0.059890985 0.52711594 -0.49600267 -0.05466415 0.24425673 0.15693645 -0.12995905 0.30321944 -0.14963351 0.40189704 -0.0610839 0.17950824 -0.13844506 0.22490644 0.114727594 -0.40096807 -0.047746528 0.24624252 0.06520787 -0.6087699 -0.20285048 -0.4586248 0.042686433 0.3464671 -0.14301051 -0.1744551 -0.4567174 -0.040756658 0.0567117 0.2994745 -0.050539114 0.6808601 0.36296555 0.51356757 0.07361834 -0.10346007 -0.1642754 -0.19401234 -0.03734879 0.117525406 0.688611 -0.12199195 0.27556124 -0.4212786 -0.32952526 -0.3688668 0.23759228 -0.09927814 -0.040174555 0.23880865 -0.097823456 0.84691054 -0.3458779 -0.1447228 0.136099 -0.24877876 -0.080633014 -0.24172972 -0.020312322 0.01759756 -0.02730426 -0.5525251 0.083054535 0.08871797 0.019310368 0.4327424 0.046318326 -0.11588797 -0.08854025 -0.17308086 -0.1389785 0.35066393 -0.040184245 -0.36640108 0.2457599 -0.19184628 0.32112685 0.09899055 0.20083068 0.38973844 -0.09192085 -0.046827234 0.12331882 0.16224727 -0.07479765 -0.25708616 0.14785886 0.31831127 0.12741767 0.05324549 -0.21256518 0.047936596 0.0035819358 -0.1661972 -0.18273415 -0.1407504 0.05682653 -0.10229594 0.39791965 0.08988086
get -0.09919333 0.012940739 -0.17809196 0.020949159 0.117130674 0.03075638 0.077437066 0.08158611 -0.14769861 0.17520039 -0.018704623 -0.13875143 -0.025123341 0.39457184 -0.15201955 -0.31880537 -0.07287858 -0.32002655 -0.15719655 -0.37557006 -0.19268887 -0.3965251 0.05169404 0.085605495 -0.24985377 -0.18266866 -0.21984473 -0.07422413 0.106202826 0.45793742 -0.19707923 0.20562848 0.42126867 0.21743874 0.05543801 -0.14504659 -0.3369451 -0.1019252 -0.2673142 0.02680017 0.4738722 -0.07629066 0.18259525 -0.23749433 -0.28353268 -0.070347406 0.0044938647 -0.3544318 -0.08143369 -0.12061832 -0.15940087 0.17837533 -0.12562147 -0.17647086 -0.08277146 -0.018672744 0.16558994 -0.15562327 -0.11012385 0.1716747 0.12720576 -0.30479947 0.21211348 -0.13004975 -0.16864677 0.5380888 0.25635496 -0.063458614 -0.1755716 -0.20535962 0.095060125 0.3010135 0.22950684 -0.12013789 0.0141678285 -0.4413835 0.32319838 0.14487532 -0.005691788 0.23611324 -0.13150297 -0.2581512 0.052068334 0.016267493 -0.18550822 -0.45400116 0.2196987 -0.0923563 0.11603272 -0.057302214 -0.016998911 0.18085125 0.2784994 0.2023135 -0.24354813 0.03982969 0.077440254 -0.1676098 0.10319294 0.10762616
could 0.0008955669 0.3274205 -0.19288822 -0.08344378 -0.08614885 -0.31385803 0.11055891 0.16660205 -0.072007775 0.31552982 -0.19634026 -0.33034298 -0.010016275 0.095001824 -0.44194308 -0.5076422 0.10503932 -0.21390145 -0.6098089 -0.2891799 -0.23096685 0.07067295 0.087561384 -0.12522425 0.18014108 -0.061977472 -0.17406526 -0.075669535 0.21277072 0.3431381 -0.024928663 0.19151849 0.2615206 0.29865173 0.027219323 0.05601944 -0.38974842 0.27858585 -0.121126704 0.14633457 0.16472653 -0.07754819 0.70140225 -0.05505119 -0.11314115 -0.20075229 0.1763231 0.01219334 -0.15225658 0.1328914 -0.00059832784 0.2110587 -0.15818106 -0.21024852 -0.27044123 0.006328502 0.17004326 -0.22157308 -0.25023657 0.1960351 0.07420642 -0.4506054 0.21168648 0.106773965 -0.12565182 0.47663456 0.42639273 -0.18920353 0.08413649 -0.25944608 -0.15459886 0.287945 0.17287141 -0.34271106 -0.28326803 -0.36666 0.35140508 0.03194005 -0.11561131 0.40640318 -0.4290847 -0.5970861 -0.29934794 0.21526197 0.09978237 -0.61639506 0.4066267 -0.19702569 -0.101773106 -0.073293455 0.055093307 0.28335226 0.20241593 -0.07355055 -0.1921711 -0.18356723 0.03269606 -0.119179815 0.33981043 0.06851087
been -0.07569161 -0.23603259 0.25096816 -0.1747764 0.23161069 -0.02503077 0.3494149 -0.3339777 -0.4336046 -0.12999754 -0.077467434 -0.4620061 -0.39635086 0.07528635 -0.6501474 -0.26937813 0.34142277 -0.064179406 -0.35223466 -0.3626692 -0.28468868 0.080915324 -0.12491503 0.052062914 -0.015578839 0.12760599 -0.53059554 0.047156975 -0.05275737 -0.01967131 0.08508669 -0.057674333 0.6337361 0.10648742 0.052104887 -0.28462738 -0.12238002 -0.033711243 0.16873866 -0.42277545 0.45840168 -0.34897354 0.17999144 0.111649945 -0.23891692 0.31053478 0.20934077 -0.15429553 -0.2063389 0.034910765 0.18253526 -0.054149747 0.033601638 -0.27777264 -0.38115433 -0.341465 -0.13916996 -0.54390013 -0.29845896 0.08579748 0.021142652 -0.30905846 0.23946624 0.07755148 -0.44607124 0.15431789 0.3047149 0.17379759 -0.46913612 -0.08760592 -0.071653165 0.27691045 0.5346377 -0.24184808 0.23075637 -0.20110436 0.58930355 0.25801307 -0.2979575 0.16962329 -0.36147022 -0.4635282 -0.71800923 0.30504715 -0.19298655 -0.29644254 0.41578904 -0.28641352 0.034049865 0.098391704 -0.17448235 0.45047933 0.42180842 -0.1136248 0.22003612 -0.12979573 -0.012475434 0.2949379 0.18640094 -0.16561763
m 0.15280177 -0.055853847 0.12602928 -0.06187755 0.13475011 0.041196257 0.11470331 0.07536677 0.052679908 0.17599453 -0.03823351 -0.13120575 -0.41982776 0.058358464 -0.040070258 -0.2837054 -0.12207412 0.028160583 -0.3015042 -0.21436457 -0.095960535 -0.17026164 0.048974924 0.30128843 0.12043143 -0.030766882 -0.5137329 -0.097758986 -0.0031629144 0.36831293 -0.04124857 0.3253214 0.28770465 0.16540873 -0.059560426 0.062554106 -0.21692832 -0.17323264 -0.22541182 -0.14390874 0.32818857 -0.0466572 0.20333704 -0.264957 -0.074332 -0.11066629 -0.076408155 -0.42337063 0.066302985 0.066899516 -0.25526565 0.09652485 -0.37015834 0.2517804 -0.09957173 0.10954644 0.088513695 -0.46159154 0.116083376 0.19377555 -0.21455745 -0.25761926 0.12941682 -0.21271959 -0.28116927 0.41013682 0.27428803 -0.27046978 0.07912242 -0.11664009 0.25460833 0.120314546 -0.1360147 -0.11140177 -0.27319524 -0.04113738 0.22247206 -0.19816032 -0.38673154 0.22034161 0.086496174 0.046633273 0.05495392 0.08067394 -0.038287904 -0.3341766 0.049201556 0.004849543 -0.1511106 -0.16584265 0.055204038 -0.09591862 0.016081363 -0.11003796 -0.04096491 0.24247766 0.14470701 0.1549844 -0.1641727 -0.22564574
has -0.18680246 0.33744428 0.269446 -0.2791551 0.273171 -0.13797805 -0.10751821 0.5381294 -0.060263198 -0.4502748 -0.25046524 -0.46371564 -0.083315745 0.029942444 0.009439083 -0.12564033 0.42829677 -0.036660735 -0.34519514 -0.23411076 -0.29314914 0.08499544 -0.21086018 0.024541896 0.102729745 -0.17353323 -0.6190253 0.08070052 -0.1805834 0.073670164 -0.09837512 -0.14008345 0.19888724 0.3892042 0.017289162 -0.39436364 -0.1192994 0.03571066 0.021408206 -0.17751506 0.16898249 -0.08207121 0.5342657 -0.011439102 -0.030482901 0.0038889113 0.01284569 -0.25047967 -0.14874326 0.25102943 0.20996521 0.009774336 0.118271746 0.024149721 -0.027274486 -0.03171148 -0.14757672 -0.30630928 -0.11878782 0.07843645 -0.26913366 -0.18160672 0.12078048 -0.12695195 -0.6047463 0.30066776 0.31444544 0.07426341 -0.2978871 0.13613282 0.16647789 0.38240692 0.50349355 -0.33890805 0.13750546 -0.48026112 0.29717824 0.015330023 -0.28661212 0.11197274 -0.4322441 -0.44072577 -0.4218456 0.2758357 0.046027157 -0.17730859 0.2136592 -0.13321638 -0.41777325 -0.15731736 0.16877191 -0.08615566 0.37214023 0.12725726 0.04068331 -0.110997304 0.21506119 0.22373904 -0.06149762 0.28823504
into -0.17853129 0.5287548 -0.04606061 -0.0668014 0.24668635 -0.07556495 -0.10956633 0.40899336 -0.0048196036 -0.020834887 -0.016656075 -0.1074116 0.1277382 0.41652906 -0.12542017 -0.37415627 -0.05579807 -0.36505172 -0.20208889 -0.4562086 -0.14856516 -0.100120306 -0.24708594 -0.15731551 -0.012269193 -0.32258043 -0.32338 -0.0745223 0.12497022 0.16239755 -0.1359358 0.22750387 0.27516782 0.2086584 0.09710267 -0.036328588 -0.097684264 -0.018988913 -0.049955286 -0.11032569 0.36921635 -0.19474441 0.31052855 -0.22740246 -0.31002915 -0.16130137 -0.06376423 -0.25694752 -0.061822142 0.080932505 -0.0137489345 0.3132239 0.09972294 -0.23579401 -0.059958827 0.046214152 0.028885115 0.06601966 -0.067447074 0.05286764 0.15533403 -0.46586704 -0.026180388 0.047107324 -0.18417579 0.37244165 0.198073 0.18008405 -0.086532764 0.16784777 0.08732515 0.30796257 0.24589978 -0.3146705 0.01024224 -0.5559694 0.31517193 0.010516875 -0.12250406 0.094893195 -0.14820531 -0.35966638 0.06815605 0.09187018 0.062212646 -0.35310203 0.26669523 0.003087058 -0.0574543 -0.07753549 -0.02485636 0.0015826578 -0.029609116 0.13651946 -0.062060524 -0.18970075 0.0025240919 -0.2285571 0.14268328 0.17864032
going -0.1567858 0.10040224 -0.3386346 -0.28979817 0.29225692 0.17848022 0.18560812 -0.004362059 -0.20665935 0.39279458 -0.5302999 -0.6304992 -0.108473584 0.40407574 0.18971181 -0.43872058 0.030147437 -0.3062724 -0.09228213 -0.3630885 -0.059441995 -0.3190802 0.011764658 -0.07189392 -0.25296137 -0.111099176 -0.36810842 -0.46805832 -0.050911598 0.56777954 -0.19352002 0.13449945 0.22152774 0.049238633 0.26853675 0.037247993 -0.29027912 -0.12931153 -0.28039172 -0.24508499 0.36092377 -0.12654914 0.28755552 -0.56783384 -0.028578566 -0.08603702 -0.0035150547 -0.062916346 0.15298653 0.08132873 -0.38309532 0.38033065 -0.38058928 -0.048171345 0.19418974 -0.10311516 -0.003950693 -0.4052567 -0.17224762 0.43199894 -0.29898104 -0.657852 0.61906445 -0.22503707 -0.116111234 0.4886287 0.32741967 -0.53451794 -0.24569385 -0.3113849 0.080965824 0.44231236 0.38216045 -0.049465586 -0.22016768 -0.27651343 0.5637895 0.1422143 0.22840527 0.44218805 -0.17759171 -0.066034876 -0.07673001 -0.34208962 0.055180248 -0.5801907 0.24073197 -0.08449022 -0.116529115 -0.4324619 0.07255826 -0.054870438 0.63089275 0.054636043 -0.38315862 0.2758431 0.021030577 0.043721557 0.057051703 -0.123788424
where -0.12225826 0.19699682 -0.059073642 -0.1472486 -0.032666285 0.009431284 0.17366177 0.20546861 -0.09430156 0.16384143 -0.11257642 -0.2828427 -0.0400012 0.7032658 -0.096662395 -0.21809772 0.00362973 -0.26984236 -0.044392765 -0.5216962 -0.13821164 -0.24266268 -0.20547853 -0.034837697 -0.08361198 -0.23018344 -0.33777365 -0.057130143 -0.011056821 0.3272133 -0.22602922 0.31800407 0.20343015 -0.15493879 0.20274363 0.24906617 -0.08430947 -0.1617966 -0.14684378 -0.2717537 0.55621874 -0.20753378 0.1764597 -0.25500128 -0.20771863 -0.15249246 -0.052068867 -0.16311677 0.15721877 -0.047044262 -0.05271543 0.070333675 0.08662165 -0.22101958 0.038041346 0.12646005 -0.039659597 -0.09204902 -0.26151538 0.11755218 -0.045586172 -0.44773942 0.1688285 -0.0035473346 -0.08429482 0.3502619 0.10642082 -0.14033379 -0.19737186 0.07872127 -0.003925129 0.440325 0.30661535 -0.17260781 0.053763274 -0.38193494 0.43304536 0.36882153 0.047060274 0.12452083 -0.0016388436 -0.069718115 -0.22234297 0.089555696 0.14035398 -0.4730368 0.27808425 0.004031098 -0.0065775574 0.05408787 0.16042183 0.039643206 0.05204117 -0.08169016 -0.39732423 -0.04021797 -0.028691232 -0.18889007 -0.0051665506 0.12596942
don -0.22954512 0.13262579 -0.26753116 0.34835133 -0.05871606 0.11654598 0.22418758 -0.075687684 0.03963964 0.6497203 -0.16017045 -0.21624304 -0.1445304 0.20049164 -0.40141866 -0.27883363 -0.032291092 -0.30225205 -0.26702002 -0.73624355 -0.10281331 -0.3458616 0.38095373 0.042012222 -0.04740899 -0.06609466 -0.3750979 -0.16218212 0.27977777 0.50065625 -0.13727042 0.41063565 0.3529852 0.47811916 -0.013492925 0.21361335 -0.09434246 0.17385854 -0.38048053 0.124869585 0.49034318 -0.37533098 0.5296847 0.12044985 -0.11638893 -0.5537589 0.008832152 -0.10125196 0.14821565 -0.18158735 0.086596765 0.31165954 -0.18962632 -0.21544369 -0.1108889 0.06278489 0.07304382 -0.3832512 -0.09030573 0.07264847 0.18975751 -0.46179724 0.289471 0.033075504 -0.2268156 0.71105766 0.44775608 -0.35406804 -0.29170737 -0.22661228 -0.19353835 0.451286 0.043703523 -0.23161285 -0.23347332 -0.16702366 0.28954473 0.3794294 0.089219615 0.071839735 -0.09232553 -0.56298834 -0.2728526 0.019311752 0.2809044 -0.73963463 0.00029529844 0.0076669795 -0.046806592 0.078471415 -0.009665696 0.37452766 0.27089804 -0.013317706 -0.28135702 -0.17164414 0.10918897 -0.11615884 0.43081853 0.019485163
really -0.21065639 -0.1545586 -0.21615691 0.03965975 0.14429066 -9.70246e-05 0.26143575 0.103806145 -0.13975102 0.39099064 -0.2954421 -0.38619453 -0.19104493 0.27507156 -0.3418128 -0.2126751 0.19472401 -0.2364736 -0.06307339 -0.44496596 -0.15818076 -0.2994264 0.1225541 0.10546837 -0.16899383 -0.107680246 -0.5926991 -0.077187315 -0.019770054 0.60805815 -0.09776528 0.2296925 0.28287864 0.14079781 0.13314603 0.13608384 -0.2180591 -0.05739422 -0.394877 -0.26285318 0.37863472 -0.14114082 0.18029632 0.08750768 0.06090221 -0.2621309 -0.14552674 -0.11487662 0.14872295 -0.19505942 0.010704533 0.070154004 -0.1678773 -0.094919264 -0.0045948513 0.01640935 0.025072224 -0.39067742 -0.2587098 0.16484033 -0.18275712 -0.4982263 0.6170229 -0.06960976 -0.33261645 0.4958726 0.3793149 -0.30132297 -0.5461545 -0.24573994 -0.01648535 0.46430045 0.19607352 -0.059068076 -0.2985326 -0.31328678 0.3727839 0.38794443 -0.09865885 0.29867005 -0.24696355 -0.15740761 -0.2948606 0.11051563 0.08077165 -0.67625713 0.014393493 -0.11081932 -0.06367169 -0.10579212 0.27294225 0.10458563 0.46929812 -0.03350185 -0.22368681 -0.08085765 0.06826791 0.15553546 -0.0629305 0.08771262
first 0.094380215 0.21329321 -0.1676906 -0.24179314 0.3494698 0.057801027 0.13976774 0.3068543 -0.037531268 0.38907546 -0.01569224 -0.3496256 -0.14462942 0.46424666 -0.22808446 -0.1993931 0.28483003 0.09117584 -0.33800328 -0.50191206 -0.35588005 -0.2316506 0.1526412 0.17040475 -0.1159019 -0.2676005 -0.4876714 -0.1958508 -0.07371469 0.3071573 -0.113618724 0.36791843 0.25617644 0.34877697 0.22571011 -0.041203976 -0.2211294 -0.14786585 -0.18397497 -0.16574942 0.31687516 -0.3313336 -0.01151381 0.012803773 -0.013039846 0.30197608 -0.12416252 -0.34289312 -0.09046742 -0.05603103 0.04411589 -0.05297316 -0.124705076 -0.015378812 -0.20660691 -0.07325446 0.07148744 -0.25233206 0.076669365 -0.23544899 -0.2492599 -0.36674932 0.15147397 0.08024027 -0.3881573 0.41354525 0.10453286 -0.03937718 -0.3687481 -0.034142412 0.10128391 0.25602552 0.031221513 -0.16291492 -0.3544935 -0.2227951 0.2880651 0.038483556 -0.013239632 0.057455145 -0.07878585 -0.37391472 -0.06977448 -0.0045173545 -0.10518596 -0.43760967 0.46704966 -0.3077711 -0.17902373 0.06865351 0.09039613 0.19497496 0.14970013 0.021004144 -0.13533007 -0.012041302 0.1302551 -0.10290989 -0.032140404 -0.3555452
then 0.008353415 -0.09065719 -0.07535439 -0.032250714 0.14831509 -0.04086944 0.010848208 -0.066316195 -0.1299394 0.10708239 0.18450832 -0.22629513 -0.087163195 0.46175015 -0.29039735 -0.33767357 0.14061727 -0.23179613 -0.24184279 -0.36243752 -0.21749593 -0.2644908 -0.055301882 0.06964434 -0.15260042 -0.25370765 -0.24864745 -0.28549728 -0.021681145 0.53143096 -0.16847154 0.17424105 0.36930272 0.17412211 0.14074682 -0.052815493 -0.2078115 -0.06931646 -0.050421417 0.0004461787 0.36091307 -0.2577367 0.21508074 -0.16110669 -0.21610074 0.035893764 -0.017009262 -0.31624824 0.011647395 -0.027272379 -0.1857482 0.092687726 -0.009503224 -0.45588332 -0.102398634 -0.17141654 0.052679107 -0.09735293 -0.1595582 0.033796374 -0.09718481 -0.42048132 0.15748625 0.005112881 -0.2588141 0.294363 0.3113139 -0.068137385 -0.35252056 0.02230036 -0.051563308 0.23855238 0.10992701 -0.18369927 -0.10217745 -0.436411 0.5056773 0.19673096 0.1499041 0.23905236 -0.2730747 -0.34401143 -0.03791367 -0.0029400154 -0.022565983 -0.44640315 0.32571623 -0.17232288 0.07681724 0.086063035 -0.040881313 0.13853128 0.23725778 0.07556108 -0.26384285 -0.10745718 0.074344456 -0.10182702 0.12022341 -0.025858242
no 0.17954114 -0.00854561 0.010664601 -0.19827315 -0.09685651 -0.2297737 0.20165572 0.14524445 -0.21837506 0.19524209 -0.27164346 -0.25132912 -0.51004535 0.3622119 -0.392749 -0.22920328 0.17133816 -0.060622837 -0.16049469 -0.23780018 -0.39408475 -0.0292416 -0.35446227 -0.02183129 -0.07093334 -0.09082702 -0.603811 0.018564906 -0.058090687 0.41580546 0.065774366 0.28858516 0.2452686 -0.12710899 0.062776186 0.28427175 -0.47504354 -0.1929405 0.06299509 -0.3782997 0.184419 -0.012609447 0.24542785 -0.05825759 -0.008667611 -0.10733998 0.013950843 -0.08424534 0.027169183 -0.03631456 0.19238557 -0.032947853 0.0024053273 -0.08891573 -0.092863075 -0.039410073 0.09687224 -0.4022134 -0.34453076 0.066627204 -0.22642075 -0.3898498 0.2841491 -0.024108319 -0.03472865 0.17192784 0.09431139 -0.28524274 -0.18882562 -0.12665007 -0.03265243 0.40563577 0.1317145 -0.13767284 0.18290165 -0.2695304 0.45991236 0.31662017 -0.42359564 0.30444506 -0.3092658 -0.0033664815 -0.35783023 0.31387153 0.12617432 -0.20639503 -0.023444913 0.13213487 -0.029234014 -0.14593554 0.37092665 0.24227059 0.24454752 -0.13827835 -0.07300612 -0.09961797 -0.13696925 0.3055813 -0.16078758 0.3631732
years 0.169966 0.25318033 0.23579271 -0.30890104 0.072166 0.076493405 0.20848198 0.0527288 0.10656406 0.12416657 0.22232981 -0.08446993 -0.77431047 0.6311935 -0.4299492 -0.14846697 0.053901356 0.040339723 -0.24845813 -0.30606875 -0.50078577 -0.3008707 0.0039999327 0.23401235 -0.16879596 -0.15470943 -0.20713629 -0.119026564 -0.2761701 -0.16427179 0.008111263 0.32614613 0.5412215 0.47392482 0.13420926 -0.2477726 -0.13049178 -0.05852476 -0.09161472 0.10885922 0.46398562 -0.263629 0.22592518 -0.060560472 -0.3518606 0.27602518 0.015975975 -0.633941 -0.14934196 0.32884493 0.08240455 -0.053394414 0.02984281 0.01621105 -0.17933966 -0.25963837 -0.014966269 -0.54453766 -0.051527422 -0.26796553 -0.1310945 0.013404378 -0.49146834 0.20498386 -0.38273808 0.3471239 -0.013151913 -0.003551204 -0.094009325 0.2408217 0.13642034 0.34350663 0.35628256 -0.42920664 0.24904962 -0.5164436 0.25432068 0.2112457 -0.28652313 0.20547806 0.02273213 -0.6358821 -0.18107577 0.2749132 -0.3205613 -0.5613739 0.9430651 -0.5248774 -0.22343495 0.14104383 -0.42149985 0.7068661 0.04101497 0.0039290506 -0.122220375 0.33696702 0.24002904 -0.21743849 0.30602634 -0.22370644
