3380 100
the -0.38444608 0.14618309 0.6081622 0.32139882 -0.76355016 -0.90609854 0.40670496 0.78950626 -0.7661531 -0.38003474 0.08423742 -0.3350415 -0.36094806 0.071792945 0.458383 -0.4757014 0.13379511 -0.13672243 -0.2797269 -0.7479409 0.16002908 0.49969932 0.4337535 0.25315627 -0.08543145 0.3941913 -0.11339643 -0.33295554 -0.544666 -0.5239591 0.09102043 -0.08898263 0.2158312 -0.48810893 0.44889757 0.17000203 0.7062994 -0.46113026 -0.074492574 -0.42235893 -0.45345226 -0.67242265 -0.70841867 0.35778195 0.9453935 0.03558229 -0.48852363 0.4538002 0.25468913 0.075982 -0.16541715 0.13947272 -0.0728476 0.025118459 0.11903212 0.10130484 0.04626698 -0.017846476 -0.23470815 0.35981312 0.27636397 0.37924024 -0.37956342 -0.0048930277 -0.42618445 0.1531276 -0.12343304 0.94721323 -0.29761752 0.6059046 -0.2512904 0.43070045 1.0080564 -0.72652227 0.2939307 -0.07666432 0.22438839 0.05427587 -0.20691955 -0.30967218 -0.18631756 -0.22843345 -0.17380045 0.5372062 -0.05698389 -0.17174509 0.36273605 0.5672643 0.89632964 -0.36643696 0.07879216 -0.136532 -0.012082157 0.5075532 1.0124608 0.37832797 0.3573256 -0.6475275 -0.32413673 -0.05218661
and -0.12331187 0.23510826 0.23204467 0.1778376 -0.019395007 -0.72977114 0.48929662 0.9862885 -0.6822548 -0.20826198 -0.18701105 -0.5099604 0.04233591 0.069649674 0.30898938 -0.55205965 0.021989306 -0.19921653 -0.058317494 -0.9107341 0.21508197 0.15551308 0.25674596 0.02375827 -0.35901242 0.28361204 0.033868346 -0.021549754 -0.26020297 -0.1293443 0.3357657 -0.116920784 0.062355526 -0.4992892 0.18063408 0.54178625 0.3335904 -0.3650461 -0.06392387 -0.54248345 -0.07622055 -0.43008184 -0.4570362 0.24692397 0.606724 -0.04294124 -0.17762806 0.00022393715 0.22441801 0.07732488 0.14854129 -0.15302065 -0.014747369 -0.21654136 -0.029788407 0.27598488 0.06874279 0.0059340363 -0.38277414 0.0740111 0.03487673 -0.092529446 -0.18267608 -0.014217299 -0.446784 0.4999867 0.12152186 0.7835251 -0.5568066 0.57429296 -0.33166564 0.114878565 0.70794713 -0.18762612 0.5104211 -0.11767293 0.061496593 0.057948343 -0.30934456 -0.11335446 -0.35921657 -0.03358299 -0.5051085 0.61863005 0.05179607 -0.20817605 0.42880866 0.5062221 0.8721038 -0.21678375 0.2119327 0.026870992 0.17205364 0.11710801 0.7109261 0.2178334 0.40989804 -0.4542102 0.26334992 -0.034712367
to -0.21720183 0.42947012 -0.14236672 0.41315845 0.26821667 -0.3320461 0.44894865 0.7092203 -0.8795424 0.06325492 -0.23313516 -0.5081444 0.50527537 -0.15222116 0.40246883 -0.3229611 0.0017673632 -0.023762723 -0.2542733 -1.0878643 0.08067781 -0.08881368 0.38766953 -0.24801339 -0.35897267 0.20135826 0.3594429 -0.26770815 -0.10934824 -0.1449389 0.6563006 -0.09945853 0.16727507 -0.27125347 0.04198915 0.7111627 0.24378935 -0.38396135 -0.04602638 -0.66595215 0.010240906 -0.25604948 -0.4727793 0.22215913 0.45415348 -0.0214821 -0.22098197 -0.09467447 0.21671043 -0.032281432 -0.012724815 -0.31304756 -0.23678 -0.13112713 -0.36588094 0.1263249 -0.11203034 -0.3378998 -0.5417944 -0.17179401 0.37156305 -0.19029771 0.21542093 0.17693792 -0.69848996 0.7375039 -0.25753996 0.5443502 -0.66748595 0.71205384 -0.51931477 0.12043595 0.5246552 -0.110288516 0.56391436 -0.31190956 0.34075215 -0.07571216 -0.30021808 -0.065752625 -0.121504195 -0.008284465 -0.6984194 0.66904384 -0.14472702 -0.57972413 0.2181364 0.49798918 0.8921419 -0.18141869 0.28680548 0.10260472 0.37644342 0.11533619 0.67818683 0.30722344 0.5018302 -0.7333839 0.6269373 -0.28821346
of -0.35138556 0.09370769 0.6982071 0.3322183 -0.679517 -0.8676959 0.5047467 1.0313953 -0.7484175 -0.6581661 0.0006877388 -0.32984492 -0.25641772 -0.027450936 0.5947684 -0.86423635 0.104061715 -0.042624295 -0.2767625 -0.47788802 0.11333278 0.34385142 0.18832397 0.29876378 -0.18243466 0.52416706 -0.13344869 0.09893821 -0.36266944 -0.25403565 -0.08033317 -0.25002992 -0.118061066 -0.58698624 0.55598116 0.18176293 0.7339663 -0.48753187 -0.2599335 -0.25185794 -0.5611597 -0.5727181 -0.6405228 0.43654692 1.0043168 -0.023841178 -0.19028555 0.31037405 0.12133831 -0.07823287 -0.0068007265 0.12534739 -0.08458851 -0.34276918 0.13983864 0.21903707 0.031091806 0.41010603 0.066085 0.2491265 -0.004719907 0.38130996 -0.51077014 0.12366732 -0.45804262 0.3295091 -0.047731865 1.1929442 -0.38453546 0.64674634 -0.084428005 0.3122779 1.167522 -0.40842724 0.19593805 -0.2496635 0.07144749 0.0078237085 -0.52328634 -0.351893 -0.38020477 -0.14973357 -0.308734 0.46071345 0.15021604 -0.25905395 0.47386938 0.5463153 1.0156076 -0.5683031 -0.051085778 -0.38667285 -0.014453369 0.45579004 0.8619555 0.22140424 0.64064753 -0.50754935 -0.27400714 -0.21462421
a -0.19511676 0.21687314 0.33710107 -0.027638787 -0.24374966 -0.9298716 0.5136237 1.1766225 -0.7283826 -0.3946446 -0.2612759 -0.57871604 -0.2971912 -0.034793414 0.2373337 -0.5515392 0.29084167 -0.1854602 0.20632339 -1.1501887 0.12726298 0.26949194 0.28857765 0.09909519 -0.17428721 0.50404495 -0.39605713 -0.24212086 -0.4429037 -0.36993396 0.24699426 -0.042086776 -0.009961011 -0.44472295 0.12424677 0.29781222 0.4426434 -0.33945033 -0.12402777 -0.56015825 -0.18284428 -0.3199023 -0.51048106 0.18466493 0.71712 -0.2973304 -0.18675323 0.08490431 0.2645615 0.27563912 0.07070831 -0.14060038 -0.27720302 0.00014784209 -0.06019173 -0.05778457 0.13695799 -0.081684075 -0.29247275 0.044556342 -0.006779559 -0.033105023 0.004831445 0.06446135 -0.39416564 0.29920563 0.1484491 0.52203685 -0.31631812 0.3526399 -0.17512809 0.452372 0.73764163 -0.3139738 0.5407537 0.0337931 -0.17926809 0.13697821 -0.2101328 0.020392658 -0.13424098 -0.052638907 -0.13896197 0.52034116 0.043632016 -0.10330252 0.48544556 0.5584924 0.69172436 -0.1193044 0.15450262 0.3647387 0.27801016 0.2387261 0.8313145 0.12644993 0.46143574 -0.11513442 -0.060837954 0.07190126
that -0.18811347 0.38305318 -0.04857919 0.1014348 -0.15479587 -0.6218302 0.42682672 0.9600434 -0.6309299 -0.27807194 -0.18136224 -0.5519119 0.031405017 -0.0061304504 0.23022544 -0.2241088 0.23634 -0.2185526 -0.013918059 -1.1802715 0.16379996 0.16482271 0.40252325 -0.19307868 -0.4183605 0.36760688 -0.11329286 -0.33837378 -0.12839411 -0.19547325 0.51995826 -0.06216732 0.18927118 -0.3750902 -0.11662965 0.752647 0.41067478 -0.36938092 -0.108577676 -0.5148032 0.18621795 -0.20695336 -0.26505992 -0.04046667 0.464843 -0.2373345 -0.1917849 0.043299686 0.34923935 0.12917723 0.030853188 -0.37322536 -0.14216657 0.07633776 -0.255891 0.15078714 0.09118721 -0.23546548 -0.48239693 -0.21071097 0.19264182 -0.078408174 0.41213065 0.18523869 -0.42197222 0.67893285 -0.12600344 0.32459164 -0.6596825 0.50214225 -0.19425045 0.28535464 0.45255142 -0.18160534 0.67183334 -0.07562965 -0.0030526782 0.068032324 -0.12918681 0.044835377 -0.044209108 -0.098320924 -0.5111789 0.77163273 -0.035256315 -0.39047897 0.35935435 0.65672785 0.5764055 0.06813486 0.23103268 0.41191977 0.23816545 0.012586862 0.5817361 0.2717378 0.21095785 -0.34893858 0.39868876 0.11569517
i 0.20107532 0.43243784 -0.11564825 -0.28627586 0.49243057 -0.66058534 0.7259355 1.0201354 -0.81113756 -0.08513731 -0.12694311 -0.5297143 0.17038497 0.2558991 -0.0289534 -0.15973902 0.6659278 -0.41528648 0.38665637 -1.9905589 0.27402413 0.15498076 0.90908164 -0.34346357 -0.53006524 0.4149449 -0.44713828 -0.6632005 -0.14229219 -0.14496434 0.7404379 0.09157174 0.08093284 -0.18241695 -0.57218075 0.90793324 -0.26855448 -0.5414919 -0.51632655 -0.79300076 0.6400768 -0.42439815 -0.24887593 -0.23073085 0.29669222 -0.20059016 -0.33020923 -0.41084585 0.15192035 0.34751266 0.17652777 -0.71025795 -0.57612103 0.4407421 -0.59908485 -0.11033562 0.21743867 -0.6684565 -0.7390616 -0.60057425 -0.046590123 -0.7154059 0.5306465 0.24832167 -0.48894218 0.85801244 -0.1812111 0.04652913 -0.82529736 0.01708892 -0.26195127 0.64363253 0.26346657 0.30171105 0.9272313 -0.15584093 0.005691045 0.19361989 -0.066495925 0.42976472 0.2516635 -0.32177064 -0.5091276 0.78970444 -0.14932472 -0.44612792 0.4331529 0.65289015 0.40749094 0.50048685 0.46196482 0.87162954 0.2846576 -0.39285225 0.44368336 0.18731022 0.6187515 -0.12784633 0.61976784 0.16244511
in -0.20671853 0.12907149 0.6269853 0.27175072 -0.46438044 -0.81571525 0.47702456 0.9666511 -0.7299857 -0.50131327 -0.014837776 -0.381013 -0.16089894 0.054147314 0.5145979 -0.73471665 0.08002593 -0.048290145 -0.20103677 -0.6865357 0.15986913 0.3475569 0.17638992 0.19006689 -0.1755298 0.4343262 -0.09162718 0.013862161 -0.3548647 -0.2616738 0.043007772 -0.1745914 -0.07821418 -0.58950984 0.37781048 0.24425632 0.60775673 -0.41587627 -0.20740947 -0.39268547 -0.41789937 -0.56414086 -0.5620536 0.38330385 0.8875564 -0.06038262 -0.25323534 0.20853098 0.19030808 0.029512592 -0.0023715503 0.027545542 -0.06973736 -0.25526813 0.07081737 0.21521117 0.01706633 0.2419831 -0.09694719 0.16481285 0.05906958 0.21421546 -0.3965534 0.10335807 -0.4527475 0.40717918 -0.018447913 1.0463094 -0.43911594 0.6324607 -0.19352433 0.31525347 1.0620097 -0.39851874 0.31614277 -0.17367841 0.07377758 -0.004956178 -0.42465687 -0.28008056 -0.3255024 -0.20763472 -0.4203769 0.4765164 0.10607577 -0.20694585 0.4662761 0.5196021 1.0200254 -0.38391817 0.0600089 -0.20965017 0.001972123 0.38330507 0.84794515 0.24532735 0.5375378 -0.4952651 -0.12018544 -0.19917688
we -0.16044816 0.43131602 -0.13803911 0.20113976 0.17087808 -0.29275954 0.5954746 0.5626707 -0.84139454 -0.08625936 0.12383819 -0.41744053 0.5017249 -0.20279007 0.49042815 0.2202814 0.15513596 -0.15785673 -0.21151346 -1.4924108 0.1464283 0.11108024 0.97680247 -0.52946496 -0.53306603 0.5138688 0.097941235 -0.82691926 0.14593016 -0.27478227 0.80517805 -0.11549894 0.48916522 0.026507583 0.034584288 1.0580037 0.07598402 -0.43729633 -0.2879556 -0.842338 0.2731599 -0.34416476 -0.344398 0.05958835 0.1879125 -0.31528988 -0.24825194 -0.07491324 0.068590105 0.027311685 -0.29128215 -0.5217104 -0.37963575 0.32569858 -0.44175628 0.047932528 -0.11350107 -0.6123542 -0.5695961 -0.35947457 0.3055321 -0.34420863 0.79271454 0.43012646 -0.81487024 0.8991959 -0.64608413 0.14791656 -0.7965299 0.78930074 -0.3136275 0.44164425 0.33536142 0.089557715 0.7229991 -0.50714326 0.3752682 -0.2256017 -0.1757709 -0.05985604 0.17341696 0.04082677 -0.6089076 0.7926641 -0.29936883 -0.6330388 0.097789474 0.6477811 0.4400025 0.1378725 0.4918339 0.3028659 0.40703 0.13462429 0.39868498 0.44261724 0.39439783 -0.6503168 0.52031666 -0.29195005
it -0.11451466 0.43372652 -0.24237259 -0.04648966 -0.05937523 -0.71167773 0.40454626 1.2517881 -0.52274436 -0.48010913 -0.24638513 -0.7588845 -0.15924427 0.01256016 0.08950223 -0.06292891 0.552182 -0.258679 0.2894065 -1.5774953 0.061936587 0.12811667 0.36872792 -0.31086496 -0.3715096 0.4373063 -0.47569123 -0.35835055 -0.108045734 -0.26046607 0.56451774 0.017162966 0.17349888 -0.25956473 -0.51408976 0.73225117 0.44728732 -0.40383765 -0.14398324 -0.48935583 0.34515733 0.09029751 -0.06465348 -0.31384712 0.33982342 -0.40359107 -0.17097063 -0.016091723 0.42397416 0.42222208 0.09989356 -0.48992765 -0.28737253 0.2660717 -0.30368143 -0.06239696 0.24922521 -0.3084317 -0.46015716 -0.35355297 -0.019787718 -0.15499943 0.8046532 0.28358024 -0.36029378 0.7142205 -0.110324346 -0.12392156 -0.6382523 0.24105583 -0.011755641 0.45431885 0.29567745 -0.08512737 0.8529745 -0.0051255855 -0.18536817 0.06627186 -0.039333876 0.25793004 0.11007878 -0.11626294 -0.38980764 0.8762199 0.027419565 -0.35407838 0.39579177 0.6212634 0.40632465 0.3345394 0.19168365 0.87634337 0.36884043 -0.10364832 0.5281129 0.19398408 0.06909059 0.016694322 0.47537896 0.3465781
you 0.005919756 0.5760183 -0.31147593 0.0946983 0.35977742 -0.44132197 0.49682772 0.6276103 -0.9446469 -0.049240265 0.010913623 -0.5271883 0.67534906 -0.20384906 0.29635873 0.36571077 0.2088301 -0.36649534 -0.020077396 -1.8772552 0.12842 -0.0037673395 1.183122 -0.7412268 -0.82986933 0.5258465 0.107627764 -0.93350774 0.28718126 -0.117728464 1.015015 -0.14011636 0.8077693 0.08560201 -0.00866775 1.3568342 -0.10023801 -0.60193384 -0.39091775 -0.9441179 0.6739157 -0.24546723 -0.38457066 0.0066823033 0.08650026 -0.40617067 -0.31902137 -0.24238332 0.10481661 0.011531492 -0.29997176 -0.6210344 -0.5246806 0.44089743 -0.5229399 0.07820091 -0.08687674 -0.80535114 -0.7985526 -0.43437624 0.13348454 -0.64467645 0.9402333 0.53672034 -0.9065679 1.0490501 -0.72949886 -0.09139388 -0.8610866 0.7481209 -0.30193624 0.43923652 0.10612555 0.4411237 0.95694035 -0.5656579 0.49635604 -0.3425434 -0.09747874 0.18793473 0.21373205 0.362214 -0.572787 0.99874544 -0.47840908 -0.79343873 -0.07130549 0.9262573 0.384006 0.3405465 0.6562755 0.49547553 0.55275416 -0.11094452 0.18881242 0.4896827 0.5049977 -0.7065694 0.9156203 -0.1854682
is 0.15524131 0.24523449 0.1492154 0.021961734 0.13361084 -0.7573256 0.6308848 1.4242135 -0.612915 -0.7090697 -0.116511375 -0.6019837 -0.17115605 -0.1478425 0.35435107 -0.57374746 0.2824352 0.01403122 0.12874414 -1.1440238 0.066741206 -0.04274657 0.10287202 -0.2742204 -0.38165557 0.46841237 -0.38020062 0.20276453 -0.03602422 -0.07514568 0.11467455 -0.199307 -0.004348326 -0.50501865 0.020926272 0.5666828 0.29116976 -0.3911522 -0.2716065 -0.6203769 -0.15881135 -0.06157652 -0.13216265 0.07279306 0.3157295 -0.49625397 0.040959053 -0.12557967 0.1307911 0.29866317 0.25515735 -0.28357062 -0.07894323 -0.14467324 -0.042690482 0.17084505 0.15127693 0.15874025 -0.16424185 -0.01086513 -0.43458113 -0.28098097 0.30109197 0.08937631 -0.5127196 0.7858774 0.19398157 0.38050446 -0.75939775 0.47281486 -0.07495925 0.33987713 0.5902161 0.044518456 0.6916261 -0.17536323 -0.07201862 0.081293926 -0.47443655 -0.08860378 -0.39910966 0.3116728 -0.48131105 0.65412736 0.19656485 -0.15559718 0.4674654 0.32610962 0.64826864 -0.1062239 0.12505053 0.15403476 0.15670487 0.00032017054 0.5245369 0.19502375 0.3435792 -0.15934955 0.31576088 0.12093003
s 0.24962306 0.17494327 0.010575617 -0.21197757 0.4959606 -0.7274615 0.76006186 1.752278 -0.4341303 -0.78563416 -0.35070047 -0.84334517 -0.18387535 -0.1640449 0.25946766 -0.6526207 0.34943482 0.037960168 0.4181036 -1.4468806 0.12136691 -0.10699684 -0.029614888 -0.34019578 -0.41267467 0.60389626 -0.68472385 0.31553468 -0.025151556 0.060316958 0.16666517 -0.11033006 -0.063792445 -0.45989725 -0.23358701 0.63453907 0.1491163 -0.33554462 -0.19465879 -0.69521534 -0.028626965 0.20048581 -0.055922754 -0.052699316 0.008794808 -0.7583218 0.20006908 -0.3758178 0.14670905 0.52739376 0.44205418 -0.50858194 -0.12671883 -0.2420725 -0.03728663 0.124788135 0.22051705 0.04840999 -0.19442844 -0.0020881402 -0.696594 -0.5534444 0.6588401 0.06264718 -0.5182733 0.8750489 0.4112775 0.10475393 -0.83721554 0.319771 0.14751914 0.28553316 0.42197546 0.13610508 0.9199232 -0.15807001 -0.12623832 0.05308768 -0.53409797 0.058941726 -0.50625265 0.45222557 -0.5208185 0.7843069 0.15460978 -0.0972992 0.7128491 0.23956332 0.46819928 -0.06759846 0.28397092 0.45546776 0.40748465 -0.1552898 0.52535325 0.18927683 0.4145839 0.15834694 0.51974577 0.3509019
this -0.10211742 0.34015498 0.10747291 -0.032183968 -0.1381931 -0.7823558 0.44786015 1.0564611 -0.63305825 -0.39130852 -0.1250968 -0.5300255 -0.16846626 0.04325654 0.27432984 -0.29444674 0.3648806 -0.17584422 0.08412386 -1.2337688 0.17366333 0.22279562 0.42085734 -0.11148042 -0.30454546 0.43542188 -0.29582304 -0.34577966 -0.22275811 -0.25908658 0.3797291 -0.0605842 0.14878608 -0.40399218 -0.053685565 0.5408422 0.35549927 -0.34000722 -0.1522749 -0.5426033 0.06885595 -0.26385912 -0.26675013 0.014383321 0.5303523 -0.24654272 -0.27488995 0.027699184 0.2967441 0.22584955 0.05454676 -0.30094075 -0.22867732 0.10765513 -0.1702672 0.06450858 0.1723263 -0.17736824 -0.38682777 -0.05880715 0.024699247 -0.11502514 0.30159658 0.16003735 -0.34027705 0.57965714 -0.010948229 0.327979 -0.56945926 0.37963408 -0.18334058 0.39052162 0.538917 -0.16699712 0.66859484 -0.013285491 -0.049308952 0.08872753 -0.133265 0.035606243 -0.049049094 -0.0849482 -0.3218613 0.68485886 -0.013223381 -0.23098443 0.3990331 0.5862351 0.5918127 0.047954284 0.20827308 0.45395556 0.2021748 0.008991226 0.6352969 0.22720467 0.32776505 -0.25880274 0.22739942 0.16298102
so 0.124828346 0.42888528 -0.18046853 -0.02610982 0.30471814 -0.6881714 0.50171494 1.1142222 -0.5928292 -0.26891518 -0.1448774 -0.68928075 0.15816143 -0.015210149 0.18350543 -0.18215235 0.17757441 -0.24262516 0.09450153 -1.2899712 0.19838943 -0.0003487544 0.35253644 -0.33208412 -0.5110189 0.28155035 -0.02895222 -0.2302719 0.020322923 -0.09259573 0.5792767 -0.07606245 0.28521857 -0.3950045 -0.23395479 0.9124065 0.21499975 -0.31106114 -0.10052642 -0.68349415 0.3866854 -0.042198658 -0.059370287 -0.08266175 0.25387025 -0.2517658 -0.164778 -0.19542298 0.344452 0.1895703 0.15671457 -0.4945881 -0.105882056 -0.04766591 -0.27321622 0.15134865 0.13418858 -0.30084398 -0.56699246 -0.16515945 -0.042881798 -0.4354469 0.6065032 0.12293457 -0.41867533 0.85907644 0.013972284 0.18975602 -0.81692857 0.46447942 -0.25225666 0.13522078 0.2757728 0.16937083 0.8485778 -0.07332066 -0.012023991 0.023492299 -0.1690105 0.058066998 -0.14575754 0.11508922 -0.6126566 0.8137492 -0.053931117 -0.31388164 0.41789395 0.56031233 0.51158345 0.21038975 0.35093907 0.5404014 0.33768207 -0.14737242 0.48437443 0.2741238 0.1654424 -0.3062318 0.70536566 0.17845355
for -0.14431107 0.17254108 0.4103935 0.14427385 -0.2657219 -0.82021755 0.50120956 1.0634586 -0.71879375 -0.4033047 -0.112963915 -0.5361861 -0.1311006 -0.029989026 0.32586464 -0.640849 0.13949804 -0.13546015 -0.0076723797 -0.8924222 0.09518181 0.22596057 0.19748917 0.08277806 -0.26610157 0.4365086 -0.19593495 -0.016570698 -0.30905765 -0.27454135 0.15089287 -0.14257655 -0.014722753 -0.4036493 0.17758478 0.37957513 0.4877005 -0.3865753 -0.20570467 -0.45727554 -0.21562214 -0.4062874 -0.52126265 0.2770942 0.70826834 -0.14887328 -0.18944034 0.077815495 0.1773609 0.09263232 0.047909874 -0.1204437 -0.13146134 -0.15553245 -0.061293405 0.14935426 0.10074281 0.05739838 -0.1763468 0.10729628 -0.0031957887 -0.014928895 -0.110858 0.0658136 -0.43401235 0.43560028 0.018431224 0.7729972 -0.44433284 0.48716232 -0.19593766 0.30127007 0.84766465 -0.22649439 0.49961114 -0.054285303 -0.036603976 0.011978809 -0.35538453 -0.07738439 -0.22741173 -0.09209358 -0.3520788 0.54649705 0.032896277 -0.17635238 0.43671468 0.4546979 0.910233 -0.1786716 0.1355296 0.12502663 0.18120304 0.21648815 0.7699701 0.20288597 0.5334179 -0.29022607 0.07237222 -0.08308229
they -0.21638368 0.42692682 -0.11074224 0.26710102 0.11455085 -0.33035603 0.4400381 0.53669226 -0.7323451 0.038067646 -0.011515202 -0.43779877 0.5271706 -0.042948194 0.3709731 0.23130003 -0.051963832 -0.2996498 -0.17723303 -1.3940271 0.21188717 0.20090266 0.9131096 -0.37996465 -0.54665667 0.46217048 0.23588608 -0.77892435 0.074498065 -0.21240804 0.78740764 -0.11236763 0.5776464 -0.0869021 0.067594655 1.0978029 0.06347826 -0.50744754 -0.23896 -0.80345076 0.2813053 -0.4351856 -0.43373966 0.1368072 0.31897244 -0.20044027 -0.26576394 -0.059956938 0.14321539 -0.039486334 -0.34540665 -0.45155188 -0.31575784 0.26232645 -0.3172096 0.16458908 -0.19496085 -0.6423192 -0.728093 -0.35690793 0.4381955 -0.22831793 0.56008035 0.4138901 -0.79655623 0.7772639 -0.5979313 0.37312192 -0.6854809 0.8676751 -0.21292892 0.35515723 0.31206262 0.0055895937 0.7130953 -0.4713151 0.3634629 -0.22554483 -0.040717117 -0.09877815 0.1199347 -0.02252756 -0.6738069 0.7946363 -0.29110613 -0.62669224 0.03241756 0.77250063 0.53121877 0.08530539 0.56213117 0.18885948 0.4252189 0.22588079 0.34248358 0.5323015 0.23024023 -0.65695685 0.4124287 -0.25976887
was 0.20687616 0.15168814 0.33958974 -0.2565971 0.33217436 -0.98500866 0.658463 1.6141692 -0.5951938 -0.537755 -0.27673146 -0.63880646 -0.23085539 0.114560276 0.19218785 -0.9020299 0.29629514 -0.2546744 0.32426918 -1.1648419 0.26236612 0.1414767 -0.010744496 0.021438917 -0.2758391 0.38278544 -0.5133357 0.28186157 -0.31628448 -0.005210593 0.023090184 -0.10608245 -0.22082295 -0.68664044 -0.09508514 0.45708737 0.15632856 -0.26716146 -0.2209053 -0.52386796 -0.11418059 -0.25088367 -0.25517666 0.15209854 0.5110544 -0.3078216 -0.030273639 -0.22535233 0.20473997 0.42428046 0.44576356 -0.2121877 -0.056943223 -0.23934428 0.008992191 0.18896489 0.28672618 0.13569625 -0.1681569 0.049422387 -0.5348725 -0.47448403 -0.09126379 -0.14002816 -0.2911866 0.6038605 0.5535164 0.63823146 -0.6069965 0.15590222 -0.08494699 0.25450608 0.71525174 0.074671775 0.64051497 0.07197682 -0.20423491 0.2356501 -0.43140548 0.075693324 -0.44760153 0.052005973 -0.39890432 0.57259893 0.25048852 0.05678694 0.70321345 0.37731495 0.80022997 -0.026867697 0.24946077 0.33868566 0.14811733 -0.16650082 0.7342846 0.111811094 0.507447 0.07796411 0.251434 0.13435842
are -0.041802637 0.14984268 0.11810481 0.34176242 -0.10468392 -0.6202517 0.45782593 0.89968693 -0.58423865 -0.28048182 -0.1040253 -0.62864214 0.12124078 -0.049960095 0.5191769 -0.43408796 -0.25704232 -0.031298354 -0.12453828 -0.6232555 0.23337668 0.054029703 0.13942766 -0.064636625 -0.3130425 0.3666572 0.174529 0.00014577096 -0.0116544785 -0.14708391 0.38601032 -0.13691762 0.2861378 -0.4521262 0.35938558 0.7264159 0.44065732 -0.34433293 0.034158584 -0.6702678 -0.22049834 -0.31795365 -0.2541122 0.29851595 0.4188547 -0.1316356 -0.102640316 0.053284787 0.29096973 -0.10398258 0.036600184 -0.26928875 0.079194635 -0.33977023 0.066692784 0.38016647 -0.102020785 -0.024346204 -0.42939588 0.16669717 0.16449021 0.11663517 0.18825002 0.0694552 -0.64965576 0.64847076 -0.021903053 0.8402233 -0.6488642 0.90766376 -0.15792586 -0.050299745 0.60629565 -0.1889674 0.63211113 -0.1572229 0.10792709 0.0877592 -0.3884708 -0.4289575 -0.47170186 0.13800628 -0.6985896 0.7397114 0.10982501 -0.21953587 0.4657883 0.46582448 0.7363078 -0.38587382 0.30620077 -0.21137802 0.20923515 0.43217334 0.5586716 0.447714 0.10407181 -0.606496 0.23224421 -0.068939514
but 0.02330551 0.39911872 -0.2027594 0.040241208 0.23053695 -0.5724067 0.5430386 1.0970588 -0.5716288 -0.24068092 -0.23174052 -0.6401094 0.16833214 -0.019210909 0.16295049 -0.20573981 0.17989068 -0.24036771 0.11549119 -1.365863 0.18497033 0.0034568843 0.39073431 -0.35181803 -0.56299436 0.3339833 -0.06492421 -0.19780791 -0.004507503 -0.024195315 0.55331326 -0.07494092 0.25506467 -0.38086066 -0.22688593 0.9443134 0.13179457 -0.425921 -0.107438445 -0.70151913 0.3074679 -0.067299016 -0.14141811 -0.06742426 0.24405804 -0.340629 -0.10132285 -0.20164506 0.30891922 0.18928002 0.1450778 -0.45216724 -0.100052156 -0.029920906 -0.22343153 0.23219189 0.09916593 -0.25190115 -0.58193386 -0.22604638 -0.04362852 -0.37867236 0.4892539 0.12940274 -0.49947155 0.8514119 0.03270533 0.2475611 -0.847497 0.5046542 -0.23192886 0.20009446 0.2988503 0.06601806 0.8239832 -0.13164699 0.024938762 0.07620999 -0.1995836 0.042278364 -0.209119 0.101909064 -0.6233394 0.90351665 0.0077452674 -0.36993924 0.41143095 0.57116187 0.5369523 0.08807698 0.31446078 0.4386125 0.3048328 -0.13503586 0.4216284 0.25408787 0.18289214 -0.27894735 0.6755944 0.22876757
have -0.12269715 0.40561548 -0.30417508 0.34689352 0.15446395 -0.47271538 0.5175305 0.77408504 -0.59474874 0.13285068 -0.17380974 -0.67005455 0.4525963 -0.120359905 0.16149098 -0.18097968 -0.29706088 -0.27774212 -0.086410746 -0.97581756 0.24072021 -0.078287095 0.27279517 -0.21099782 -0.60020393 0.066021435 0.44764036 -0.13989536 -0.08822732 -0.114246264 0.69215 -0.06465849 0.40108478 -0.3049795 -0.017900003 1.011658 0.18663493 -0.30800554 0.15302274 -0.7723768 0.33013967 -0.21794593 -0.28813282 0.07215707 0.2776684 -0.16871123 -0.111740455 -0.11236008 0.3763967 -0.07424531 0.09793862 -0.41818354 0.1469872 -0.25370142 -0.20851438 0.41115895 -0.086411454 -0.32831103 -0.84926957 -0.058833122 0.36594546 -0.19000694 0.37642446 -0.090687856 -0.5977028 0.7498205 -0.050916355 0.574268 -0.75667435 0.72566336 -0.4630964 -0.17533757 0.2170335 -0.06914392 0.7949682 -0.020290727 0.13002945 0.03700721 -0.14896393 -0.11931949 -0.31807065 0.14298755 -0.8007772 0.8858231 -0.14312465 -0.37570953 0.34170765 0.5649845 0.67096543 0.00040937905 0.34626076 0.24151678 0.37033144 0.087354295 0.58657193 0.29361567 0.06250005 -0.6500947 0.729879 0.05970956
with -0.13668895 0.25703064 0.3084185 0.22264057 -0.15340583 -0.7470662 0.49625182 0.96353877 -0.75615495 -0.27118587 -0.105416454 -0.48876545 0.024405729 -0.04636544 0.39742896 -0.5581627 0.07706388 -0.1653463 -0.09535802 -0.91881883 0.13433635 0.18087012 0.26285374 0.012282288 -0.29838595 0.37229118 -0.025950784 -0.14223458 -0.2519247 -0.24081188 0.337536 -0.15319303 0.08005675 -0.4558363 0.24565741 0.44655997 0.417026 -0.39024404 -0.15776785 -0.56666344 -0.16322728 -0.44976375 -0.510824 0.29434457 0.6508718 -0.101895206 -0.2123353 0.0702725 0.1814851 0.057795063 0.04029271 -0.15062097 -0.17788242 -0.12214879 -0.08915804 0.14092863 0.03818595 -0.043397106 -0.3244678 0.06520482 0.10476451 0.004799496 -0.084350646 0.13207549 -0.4817767 0.5014977 -0.04689519 0.7666372 -0.5126647 0.5928348 -0.2698353 0.22909103 0.76525784 -0.24764422 0.5064501 -0.19249798 0.08052192 -0.020339014 -0.3057272 -0.122261986 -0.25452256 -0.042590097 -0.45559376 0.54850155 -0.026729248 -0.2947644 0.41107467 0.540818 0.8466334 -0.19647956 0.21341869 0.02831715 0.19469571 0.23556642 0.774277 0.2457855 0.48614192 -0.47875944 0.15499684 -0.14823948
on -0.10668914 0.18396519 0.43393973 0.16723874 -0.19489998 -0.83595747 0.46894374 1.09881 -0.75261164 -0.4726876 -0.12309846 -0.4919769 -0.12312522 0.04427223 0.44910175 -0.6821541 0.15792511 -0.091964826 -0.045862142 -0.87957203 0.17760314 0.24009024 0.16397427 0.11124067 -0.21150917 0.42773917 -0.17444673 -0.010139369 -0.2521781 -0.23070878 0.1384458 -0.149972 -0.054574847 -0.5360833 0.24528047 0.40187454 0.5297044 -0.36371726 -0.22995967 -0.4228895 -0.22942424 -0.44261068 -0.48552996 0.2717976 0.7381063 -0.12194133 -0.19316295 0.08920865 0.19362189 0.09457836 0.13378678 -0.11219795 -0.15964766 -0.14385368 -0.029561885 0.18480095 0.08536115 0.100411505 -0.17134103 0.07087232 -0.07578665 0.014974143 -0.15408812 0.0928732 -0.4336205 0.51228076 0.032806456 0.8011395 -0.5311733 0.5381967 -0.205459 0.30509403 0.8845344 -0.26176158 0.4348681 -0.12777352 -0.0038743308 0.042474087 -0.37780017 -0.101801366 -0.2750434 -0.08886789 -0.404432 0.49698278 0.080188856 -0.18039817 0.45920095 0.5142502 0.94299954 -0.21414171 0.1158033 0.0023420518 0.09579407 0.22805059 0.775341 0.20712624 0.5245636 -0.36200503 0.04182754 -0.09123272
what 0.051258776 0.5379351 -0.3648507 0.0012574584 0.25661048 -0.6122975 0.4188187 1.0669541 -0.6629517 -0.20657429 -0.20768106 -0.70559007 0.23364623 0.040260024 0.21466011 0.05318574 0.2784602 -0.25735575 0.101974435 -1.5426668 0.24399458 0.00426268 0.5396942 -0.5024739 -0.5819112 0.34927285 -0.023939675 -0.46443343 0.113417 -0.09292585 0.8640659 -0.03520132 0.4317167 -0.3755421 -0.33488938 1.1309303 0.2659193 -0.3422651 -0.11275609 -0.72003114 0.59098995 0.05732078 0.0333734 -0.22665349 0.19985631 -0.33145922 -0.24986213 -0.16614899 0.4313373 0.18152907 0.07916345 -0.64932454 -0.19034882 0.16288555 -0.42463154 0.17213011 0.115775056 -0.43826595 -0.72683406 -0.34491897 0.09488358 -0.44212267 0.92081714 0.30431977 -0.48445734 1.0223953 -0.16161107 -0.058534827 -0.9098363 0.6007235 -0.2827498 0.22691064 0.10833912 0.1231843 1.0139133 -0.13069706 0.0579857 0.015572469 -0.04020206 0.1494674 0.02369998 0.09845104 -0.7064648 1.0043896 -0.13824694 -0.48209727 0.31482294 0.7517727 0.4067337 0.39051852 0.3995533 0.6861858 0.3823393 -0.25550073 0.39286852 0.39631167 0.07497759 -0.38304082 0.8822475 0.25203425
our -0.32956073 0.23129717 0.3450202 0.3163482 -0.4347273 -0.7251435 0.498023 0.8599565 -0.7926424 -0.34690464 -0.018065622 -0.4273737 -0.04000555 -0.1000819 0.48150957 -0.3900383 0.058562636 -0.088845804 -0.2339157 -0.87867695 0.1025507 0.25206655 0.37518838 0.025215164 -0.29292968 0.40385827 0.023296734 -0.33391413 -0.27021396 -0.38329548 0.33756545 -0.08996146 0.16498756 -0.3352979 0.3693646 0.4118764 0.55928314 -0.42877904 -0.056643553 -0.52995914 -0.274979 -0.49686173 -0.5341758 0.28467736 0.73680466 -0.11857509 -0.26701155 0.22346263 0.20909502 0.020870551 -0.12423169 -0.061082445 -0.14495648 -0.011285072 -0.030974023 0.16632785 -0.019560171 -0.040218282 -0.30484572 0.12813316 0.25943664 0.19097252 -0.03890295 0.16907766 -0.54973334 0.42355752 -0.2122653 0.70653373 -0.44131163 0.76228964 -0.30418158 0.27119744 0.8273759 -0.46059033 0.44938764 -0.22027673 0.18342629 -0.019047903 -0.2639244 -0.21585582 -0.15162374 -0.044443086 -0.38107193 0.6071475 -0.028304607 -0.30632144 0.3035449 0.59579563 0.86021185 -0.2802751 0.14484447 -0.078067966 0.16760075 0.40800223 0.7811159 0.2929127 0.4362972 -0.62858164 0.026138319 -0.19226485
not 0.044007875 0.4039992 -0.14132632 -0.0031443622 0.18362758 -0.60748404 0.4760691 1.1783509 -0.5583898 -0.3808202 -0.19849588 -0.59788114 0.046985067 -0.028592553 0.23183 -0.13823152 0.31232786 -0.11736192 0.09044739 -1.4617733 0.13421553 0.04984735 0.33161566 -0.41796827 -0.4105929 0.44500732 -0.2743387 -0.3107745 0.012757496 -0.12203868 0.5404636 -0.06262438 0.24721235 -0.39759567 -0.23234761 0.8832396 0.29316577 -0.3486359 -0.17244527 -0.6467148 0.24916744 -0.019920321 -0.06628568 -0.10258202 0.26543745 -0.4916218 -0.10796516 -0.16553561 0.32211122 0.27667925 0.0507126 -0.5312694 -0.28020108 0.14255986 -0.24884012 0.084754616 0.07783576 -0.28896692 -0.49941278 -0.2918684 -0.036228113 -0.36276358 0.7501533 0.27250063 -0.46802503 0.8709533 -0.066910595 0.010295205 -0.7699665 0.5218294 -0.15351377 0.31187806 0.28173396 0.0016195289 0.86323 -0.21506491 -0.058268484 0.029566234 -0.1829532 0.10965005 7.3812866e-05 0.1531844 -0.57194656 0.8106028 -0.06799926 -0.3643711 0.37663448 0.6366366 0.44303086 0.2016565 0.29114422 0.52045506 0.37489447 -0.082638554 0.45253482 0.30094823 0.15234464 -0.18308894 0.50367594 0.17865014
t -0.55989003 0.39779913 -0.95592564 0.5769552 0.9782965 -0.09391131 0.97076267 1.0013732 -1.7433859 0.45379943 -0.6651629 -0.17599887 1.0677836 -0.11847345 -0.35886773 -0.2388316 0.38695577 -0.89404416 0.038050037 -2.4712107 0.73386395 -0.35590166 1.1519948 -0.94302607 -1.3811727 -0.19067873 -0.044829205 -0.28317 0.14648254 0.48884413 1.1433203 0.17337275 0.5020428 0.09418211 -0.11310101 1.9284612 -0.82842904 -0.4845272 -0.15137264 -0.99025816 1.0003467 -0.32591742 -0.72846645 -0.055087835 0.2704528 -0.5711705 0.20471779 -0.71665406 0.5978122 0.01808943 0.21751945 -0.54403514 -0.19984421 0.39127007 -0.5633237 0.62708265 -0.18143795 -0.71436435 -1.4792899 -0.91237867 0.011757168 -1.0689381 0.63289595 -0.042575557 -1.3547972 1.1742172 0.09485777 0.24771681 -1.3868561 0.9523479 -0.6692021 -0.018022176 0.0841778 -0.004588562 0.7613601 -1.0409789 0.84002465 0.21738699 -0.33927658 0.54213 -0.18206263 0.7841646 -0.9969422 1.604872 -0.08367724 -1.045909 -0.034021366 1.4920211 0.6287306 0.33455688 0.80594635 0.18606384 0.69695723 -0.5765294 -0.10721276 -0.13732184 0.6871621 -0.39158034 1.5751125 0.22497326
my -0.06440417 0.2577332 0.35275334 -0.044168465 -0.027889596 -0.9457784 0.5430154 1.2062304 -0.7358479 -0.31882137 -0.15729332 -0.5197464 -0.21568541 0.10566014 0.23697254 -0.6019291 0.30961755 -0.33480996 0.07964346 -1.1214714 0.2007262 0.32895383 0.30614257 0.08157093 -0.27501532 0.34081182 -0.34186676 -0.19461803 -0.40742248 -0.25756973 0.24572442 -0.09721763 -0.02978663 -0.5188192 0.023401523 0.36639723 0.31699648 -0.31134582 -0.16438045 -0.5201622 -0.069130376 -0.46344274 -0.4783095 0.19380361 0.7409636 -0.0828662 -0.28559625 0.025283495 0.2568516 0.27885947 0.12686998 -0.2009099 -0.20723143 0.008578246 -0.06528006 0.10770737 0.2132102 -0.07077279 -0.2927325 0.022639425 -0.07780366 -0.16453935 -0.11472348 -0.0046054316 -0.32038635 0.43383342 0.124482915 0.65972424 -0.4778688 0.2890987 -0.23542975 0.3677244 0.781517 -0.209913 0.5305896 -0.008025944 -0.08256154 0.11388976 -0.23911744 0.022539943 -0.14997607 -0.1430139 -0.27172717 0.5651558 0.070483245 -0.15260048 0.46289364 0.59293675 0.81467456 -0.023499731 0.22401036 0.3222499 0.13337535 0.027591934 0.8486538 0.18348056 0.5243926 -0.22050889 0.104946144 -0.012711622
can 0.02874174 0.6346508 -0.46874273 0.31562957 0.2517056 -0.4808584 0.4440218 0.85818255 -0.5228489 0.096999675 -0.2736917 -0.80043983 0.5730149 -0.03018494 0.15315703 -0.03430492 -0.22330819 -0.19685107 -0.031907406 -1.123879 0.16130486 -0.14713246 0.4473511 -0.40642935 -0.6800122 0.13362084 0.6133589 -0.21786778 0.086517975 -0.009297397 0.8910115 -0.082562186 0.5454168 -0.42351085 -0.1948538 1.1465254 0.16998255 -0.59629977 0.13905966 -0.878468 0.4008703 0.0069334577 -0.07804059 -0.110974826 0.20126773 -0.1008443 -0.2747842 -0.15772931 0.38834864 -0.061442483 0.043194354 -0.44187605 0.07220952 -0.32168666 -0.2169544 0.2914586 -0.032152783 -0.34346625 -0.9497153 -0.109260365 0.26602238 -0.3175926 0.4849036 0.14015691 -0.6202414 0.88228816 -0.11411614 0.3913738 -0.9698076 0.8353559 -0.46967494 -0.14438182 0.16543762 0.15583794 0.9294657 -0.15954103 0.19331217 -0.07212497 -0.09760555 -0.15341409 -0.38991964 0.0988001 -0.92396843 1.1038362 -0.07925607 -0.5537224 0.3414305 0.55316496 0.6141763 0.0036297967 0.2707224 0.35643497 0.43016204 -0.14859611 0.4124708 0.4013237 -0.04687745 -0.8047013 1.0828679 0.16989604
all -0.15221886 0.22842774 0.12435323 0.22689123 -0.19773102 -0.6095978 0.37586313 0.7874706 -0.6538341 -0.26442418 -0.037309613 -0.46805292 0.039363846 0.037873987 0.39388874 -0.32254663 0.07493596 -0.132748 -0.17734496 -0.8686815 0.1485133 0.17944531 0.36022428 -0.08451746 -0.3035149 0.36950764 0.020627072 -0.21499135 -0.15500271 -0.21676612 0.3467418 -0.081859306 0.23104851 -0.41005552 0.19668712 0.6115989 0.42397618 -0.41164193 -0.09967269 -0.47169816 -0.09355892 -0.3822301 -0.35100847 0.17704637 0.49220675 -0.09669946 -0.2714827 0.1200756 0.24310175 0.00089512306 0.010828477 -0.18796436 -0.049045194 -0.032868963 -0.07626929 0.17921714 0.01455891 -0.11013501 -0.3427857 0.050737377 0.1692566 -0.0075375224 0.14527486 0.11880031 -0.49509704 0.5441218 -0.11969275 0.58226997 -0.6316302 0.6791872 -0.1885715 0.22996457 0.5861159 -0.2442727 0.5098857 -0.17969161 0.16836403 0.047664028 -0.23636322 -0.15750314 -0.2485924 -0.021524452 -0.51415783 0.6761517 -0.047718134 -0.28807133 0.3221569 0.53053397 0.69568497 -0.16598697 0.24508035 0.05311482 0.1579629 0.22083564 0.5985697 0.3593644 0.2412081 -0.52772146 0.18297963 -0.025260797
be -0.055404603 0.39688963 -0.3081094 0.21986632 0.27064547 -0.49049628 0.5970709 0.8349831 -0.55526245 -0.019506834 -0.14964765 -0.7712211 0.28096753 -0.3622582 0.24627666 -0.06993019 -0.087273665 -0.21204858 0.02250764 -1.345219 0.0872576 -0.12259396 0.31871724 -0.3779767 -0.5957781 0.27942187 0.064795814 -0.37536559 -0.04475342 -0.24532066 0.73831135 -0.072115 0.47611377 -0.17568822 -0.040080987 0.879928 0.19605175 -0.2979636 -0.005481573 -0.7599042 0.30107108 -0.18477283 -0.31064057 0.12192537 0.09104844 -0.34751183 -0.10362542 -0.09304664 0.2959355 0.085446805 0.008129693 -0.51323193 -0.017137622 0.1126168 -0.3049331 0.19932199 -0.01646932 -0.5101446 -0.69676757 0.007597348 0.26097816 -0.3045309 0.673384 0.13157156 -0.6001029 0.7826947 -0.3178091 0.2818761 -0.6378182 0.53676784 -0.45182088 0.014208064 0.22789162 0.01296639 0.9330772 -0.17361017 0.17599444 -0.047167506 -0.20143738 -0.06491414 -0.13965464 0.30579156 -0.6415738 0.8242042 -0.3492079 -0.5356178 0.35578585 0.59975225 0.5491559 -0.03385304 0.46253854 0.4841874 0.4300939 0.101057194 0.80914384 0.4244115 0.21282993 -0.5665466 0.702931 0.035900258
at -0.11850507 0.1312996 0.46236405 0.114679985 -0.24089713 -0.898075 0.47807148 1.0589122 -0.72892416 -0.4742373 -0.042687427 -0.48250803 -0.062839784 0.14282286 0.36722556 -0.68714327 0.20661356 -0.15302849 -0.042372577 -0.9204786 0.19727395 0.29751316 0.29571232 0.076633655 -0.23201744 0.461259 -0.2089869 0.006191619 -0.29807436 -0.18038295 0.12017199 -0.108256236 0.043035116 -0.59379625 0.23683296 0.5291173 0.5150737 -0.42833328 -0.2582077 -0.44497308 -0.19915748 -0.5103411 -0.48433986 0.2671919 0.8225627 -0.07355702 -0.2806627 0.104195066 0.20340888 0.062101062 0.14550257 -0.029604597 -0.10099946 -0.15586768 -0.066555455 0.19338891 0.078903385 0.13845035 -0.18636744 0.092659675 -0.07579238 -0.106074154 -0.18778484 0.05959401 -0.43145075 0.49318203 0.051996395 0.81878394 -0.5582287 0.56890863 -0.198219 0.36265743 0.87358695 -0.17649269 0.50371975 -0.15862048 0.03994003 0.0054729683 -0.34042385 -0.030477127 -0.21262883 -0.111290954 -0.41715708 0.5555335 0.061911575 -0.17410609 0.40717646 0.54121655 0.96220183 -0.12343888 0.18171419 0.054007314 0.08796698 0.14070934 0.7400383 0.19751255 0.5169044 -0.34334138 0.05347649 -0.115080185
as 0.0058693155 0.21657768 0.17922567 0.039143756 -0.017571284 -0.75022626 0.5100572 1.1069769 -0.6409265 -0.37978172 -0.1268531 -0.5188571 -0.035770446 -0.034075662 0.2523239 -0.402307 0.088296555 -0.22316763 0.06583329 -1.0538242 0.17112452 0.142393 0.3011711 -0.07546208 -0.3062844 0.3460136 -0.06315707 -0.07764975 -0.17866378 -0.15430762 0.32992846 -0.13374059 0.13079505 -0.48000142 0.072570175 0.56190854 0.34102812 -0.35386768 -0.09983316 -0.5641914 0.032711033 -0.30664134 -0.32179478 0.10572193 0.59729743 -0.23327844 -0.1937476 -0.041504525 0.24698068 0.17447607 0.10243847 -0.26190582 -0.12782812 -0.13767803 -0.05269817 0.10410427 0.14196236 -0.02496106 -0.40434527 0.020017764 -0.1126935 -0.23074009 0.13896279 0.07880945 -0.4455405 0.5988433 0.12062191 0.56438935 -0.59916806 0.5377844 -0.26677233 0.20848836 0.6485765 -0.030085603 0.5868003 -0.08843475 -0.040729508 0.03694303 -0.28445676 -0.03319907 -0.16867895 -0.022284424 -0.44059998 0.6694081 0.055325422 -0.19787478 0.46040532 0.5449065 0.6594741 0.01589766 0.16846596 0.25236064 0.22940315 0.018124057 0.6504876 0.23001094 0.39057758 -0.31949824 0.3821375 0.012356956
about 0.0068050027 0.3978548 -0.10633471 0.05904648 0.14114706 -0.64543134 0.5559679 1.1049067 -0.68134475 -0.32556668 -0.17670307 -0.5455342 0.16177686 -0.04388726 0.22131175 -0.24392648 0.1405898 -0.19467847 0.060701404 -1.2249829 0.13867664 0.020220924 0.42325103 -0.2773742 -0.46031243 0.36995542 0.016523076 -0.20626691 -0.02268856 -0.05504736 0.54202324 -0.14265686 0.20553148 -0.40478152 -0.096588865 0.92590684 0.17645879 -0.4189235 -0.15003729 -0.7145711 0.18174097 -0.124607496 -0.19580619 -0.046702404 0.39810184 -0.28454918 -0.093711145 -0.14774452 0.19605452 0.12029611 0.10979591 -0.37510443 -0.19477119 -0.08743844 -0.2645218 0.1968526 0.026018228 -0.24167363 -0.5505162 -0.21652365 -0.04917611 -0.331565 0.42298824 0.20164753 -0.5333909 0.84753394 -0.031786088 0.33868155 -0.78860545 0.5820961 -0.21210787 0.24468563 0.35295516 0.04712779 0.81544036 -0.19167069 -0.0071360543 0.016169379 -0.1991682 -0.006009183 -0.15132833 0.05044067 -0.61694866 0.7911771 0.049268346 -0.3403365 0.36140794 0.5635776 0.6392537 0.09478538 0.21209884 0.29385844 0.34538183 -0.07688304 0.41183826 0.26902312 0.24970557 -0.3876474 0.6104608 0.058719162
there -0.07476106 0.34087697 0.07212848 -0.14067374 -0.19770215 -0.7433885 0.37268505 1.1744725 -0.41067275 -0.5520993 -0.10918265 -0.66088665 -0.15236835 0.10414335 0.25834742 -0.2036284 0.4737732 -0.18684402 0.15369017 -1.2837796 0.14952777 0.3275746 0.26968887 -0.18052675 -0.21580125 0.5703765 -0.5234182 -0.3848772 -0.1360068 -0.30424783 0.30985045 -0.04661028 0.09673045 -0.35652038 -0.33654064 0.64050025 0.47196224 -0.36404055 -0.23964599 -0.42180717 0.10580153 -0.048593152 -0.048321772 -0.17326461 0.45244887 -0.3985635 -0.08200376 -0.02221226 0.3418705 0.38078433 -0.07396935 -0.51396084 -0.32467175 0.18457823 -0.20777576 -0.034713082 0.19556104 -0.2368599 -0.2550842 -0.34500164 0.031208009 -0.10644791 0.7029385 0.2648498 -0.36546937 0.68165445 -0.16922835 0.08561126 -0.48591942 0.34018144 0.20876783 0.4564171 0.481059 -0.107742615 0.73239493 0.06717943 -0.26666132 0.066541 -0.18420504 0.14834233 0.08461408 -0.13452324 -0.39183632 0.6452994 0.09602574 -0.19693004 0.4512609 0.5808645 0.3929139 0.22448842 0.263877 0.6165856 0.2945366 0.05939662 0.48636258 0.29669687 0.08199205 0.050546065 0.106312275 0.1522748
from -0.22075003 0.12037606 0.5695716 0.2626363 -0.4303447 -0.915635 0.5531192 1.067526 -0.8629247 -0.47779837 -0.058903594 -0.45272943 -0.15271448 0.0028016162 0.48672485 -0.7431641 0.07279286 -0.165623 -0.12806654 -0.82985663 0.17738329 0.32336667 0.2830154 0.17021835 -0.23224223 0.45460925 -0.10031918 -0.06665949 -0.3844415 -0.3024629 0.15721957 -0.171789 -0.00936542 -0.52763 0.46609646 0.3118206 0.5816701 -0.44164562 -0.21051505 -0.49819067 -0.40741205 -0.6167135 -0.68016547 0.4112464 0.928518 -0.067402184 -0.2414997 0.19896409 0.20249318 0.045651983 0.03561565 0.023632186 -0.15606874 -0.19800968 0.051718805 0.18336782 0.055313632 0.1438792 -0.19017135 0.16990472 0.045509435 0.1710871 -0.36119944 0.07165453 -0.5385385 0.41525373 -0.013704994 1.0297554 -0.44648582 0.65752965 -0.24518484 0.31293547 1.0698419 -0.39413407 0.37945643 -0.18214773 0.09589861 -0.0029215098 -0.42897534 -0.19000661 -0.30339217 -0.11495742 -0.400878 0.547747 0.050316438 -0.24371852 0.44252476 0.59498924 1.0577849 -0.34163266 0.12316163 -0.1179158 0.11678453 0.4072273 0.9085576 0.23579288 0.62540376 -0.47574106 -0.10140856 -0.22903684
like -0.036380716 0.37464935 -0.0066046105 0.0883725 0.056231055 -0.68537766 0.5218681 1.0466169 -0.64892864 -0.24805799 -0.20663507 -0.5990153 0.11990041 -0.062749155 0.20774592 -0.33887464 0.09692402 -0.23080489 0.055687685 -1.1432917 0.13915169 0.07794081 0.30558962 -0.2009231 -0.42992744 0.3601703 -0.058808997 -0.16246061 -0.11963587 -0.14343555 0.41955003 -0.12774372 0.2017206 -0.43189 -0.032308582 0.776805 0.2866077 -0.38003963 -0.166986 -0.6256558 0.1119829 -0.17727794 -0.29833055 0.06360138 0.49348173 -0.29362878 -0.097179145 -0.055174775 0.28144848 0.13614185 0.0809201 -0.3021827 -0.17798887 -0.096984215 -0.18851769 0.14959693 0.07070075 -0.166699 -0.46799734 -0.14480431 0.0021956288 -0.24325529 0.24279982 0.13005565 -0.46288213 0.67277116 -0.014755955 0.4655153 -0.65610427 0.53025794 -0.21147539 0.23250884 0.45016474 -0.0064260154 0.7202384 -0.1460174 0.0057164966 -0.001152809 -0.20037657 0.02209895 -0.20163946 0.0755586 -0.5501311 0.7272779 0.019777507 -0.3478014 0.36140043 0.6146415 0.6659844 0.04339912 0.22251917 0.3198643 0.31378934 0.00988303 0.59469676 0.23244928 0.31834194 -0.31512317 0.45473084 0.016137525
one -0.13818754 0.16420077 0.39443645 0.07576121 -0.37430736 -0.77919364 0.45600694 0.9596003 -0.6245826 -0.4244196 -0.04699413 -0.40922046 -0.23169066 -0.016452886 0.3388669 -0.46987143 0.23710065 -0.094643466 -0.047348466 -0.8451041 0.10551179 0.32538128 0.26500532 0.048745167 -0.14744103 0.46926984 -0.2803817 -0.16071323 -0.34307212 -0.33303732 0.08707617 -0.10185594 0.06917474 -0.47221178 0.16333652 0.3292057 0.46286744 -0.36231488 -0.20541202 -0.3819961 -0.25529456 -0.41926023 -0.43913823 0.2017868 0.6764918 -0.16958962 -0.19497176 0.13482276 0.18559158 0.12055201 -0.0026074466 -0.119580254 -0.1112438 -0.0065090517 -0.030116577 0.06820558 0.07764389 -0.00646688 -0.17475179 0.08258431 0.03792018 0.042350966 -0.05362342 0.06640319 -0.3945094 0.41266346 -0.044409096 0.62802863 -0.41366825 0.44354475 -0.16476779 0.38866568 0.77297604 -0.33563167 0.43743268 -0.032085977 -0.026774056 0.13247417 -0.31073904 -0.09250331 -0.16692966 -0.106347606 -0.31071377 0.50482136 0.054729547 -0.13390607 0.41683406 0.47512823 0.67476696 -0.21677954 0.12605293 0.09951247 0.06382986 0.22688684 0.7542541 0.25483766 0.35415864 -0.2931227 -0.10891954 -0.030576926
re 0.009133837 0.39630672 -0.41218162 0.44707403 0.2513855 -0.48803884 0.29639232 0.8026215 -0.57849663 0.033946343 -0.20177874 -0.8061046 0.43639657 0.032883532 0.2962487 -0.07480758 -0.43941635 -0.14441144 -0.06561242 -0.9799427 0.2911336 -0.1932782 0.31213835 -0.28468376 -0.555405 0.04813647 0.6816974 -0.25674483 0.19748789 0.021693543 0.88272893 -0.07264937 0.6897827 -0.4468243 0.122774765 1.2083126 0.31056684 -0.32002884 0.23012628 -0.84639126 0.40124655 -0.034645204 -0.033033337 0.0465498 0.16563539 -0.10137329 -0.25971502 -0.11037421 0.50643295 -0.1687843 0.15645519 -0.422327 0.1467633 -0.23575184 -0.11030044 0.44515917 -0.11789393 -0.28706998 -0.9092989 -0.02355148 0.26408425 -0.18888727 0.58629405 0.07499781 -0.66505086 0.82551515 -0.003331195 0.44419396 -0.9294658 1.013251 -0.4586599 -0.2669778 0.09478304 0.065909415 0.8244499 -0.19125696 0.19838935 0.02022616 -0.08987608 -0.21170741 -0.33065617 0.3071558 -0.8518336 0.9532642 -0.15911132 -0.40063417 0.30658904 0.6279246 0.6383143 0.0014238775 0.37507448 0.116593204 0.32414818 0.14658636 0.381488 0.521427 -0.19587381 -0.8078468 0.8678352 0.17385446
people -0.19485101 0.24786347 0.16191873 0.20589651 -0.21720682 -0.57026225 0.45486167 0.71938574 -0.6924818 -0.19478676 -0.024323648 -0.45491692 0.09561095 -0.061718922 0.4448598 -0.29367504 0.044652686 -0.18715343 -0.15719211 -0.8579872 0.18950781 0.25461185 0.43859103 -0.06699611 -0.31041294 0.42825976 -0.048638586 -0.3345285 -0.14552075 -0.29547632 0.34861937 -0.102158226 0.27832994 -0.29139698 0.21657786 0.65297186 0.34941682 -0.36529127 -0.15874839 -0.5594284 -0.12517954 -0.43261462 -0.42665148 0.23975395 0.53973573 -0.112112544 -0.12636706 0.06681139 0.17877096 0.0030473745 -0.18866739 -0.2395092 -0.09060665 -0.0006054159 -0.06357341 0.16346541 -0.07477755 -0.24092191 -0.377232 -0.03651188 0.2942676 0.022821533 0.1398554 0.15865591 -0.5780698 0.56885 -0.28133997 0.6846797 -0.5037718 0.71875185 -0.14494102 0.22369696 0.6695598 -0.23300976 0.51477706 -0.18550488 0.14532182 -0.0011316016 -0.2814294 -0.24567258 -0.14061017 -0.089754015 -0.5438568 0.6327307 -0.018267168 -0.3169544 0.31941402 0.603102 0.661204 -0.22692509 0.3261683 -0.023341633 0.2140592 0.33653533 0.62452954 0.3726813 0.25206906 -0.4643923 0.09526232 -0.20712903
or -0.23901889 0.29380253 0.19590181 0.22217123 -0.21185502 -0.7420988 0.45941636 0.8697247 -0.67988545 -0.20583662 -0.2703097 -0.5436644 0.070074275 -0.1343387 0.28939897 -0.3984223 -0.08745053 -0.2309727 0.064055 -1.0109981 0.13265339 0.22937417 0.36269704 -0.05284278 -0.31677204 0.43244085 0.0480432 -0.24855937 -0.2471206 -0.2450433 0.4300997 -0.13692586 0.20431897 -0.39427838 0.25519827 0.59217703 0.36782038 -0.4257019 -0.06298447 -0.65282893 -0.08217953 -0.31963742 -0.5622615 0.19912921 0.65243345 -0.27531302 -0.16929153 0.067432925 0.23871091 0.03289725 -0.045599334 -0.12946089 -0.1822371 -0.10023189 -0.048603546 0.17363177 -0.033634435 -0.100755386 -0.53113264 -0.024687815 0.12105338 0.023192622 -0.05432411 0.1490946 -0.5977913 0.44965816 -0.11436148 0.7042944 -0.4151322 0.6637916 -0.29397422 0.27547777 0.66473645 -0.2439988 0.57145953 -0.252306 0.020379597 -0.036746804 -0.22319019 -0.11013083 -0.23466666 0.0760912 -0.43748766 0.6887585 0.011388117 -0.33976513 0.3309756 0.69357055 0.7616384 -0.22350508 0.19884303 0.11285998 0.33309168 0.30216417 0.71079534 0.270569 0.3540994 -0.4655677 0.16972393 -0.10775011
if 0.042222682 0.5481794 -0.42861095 0.18485266 0.44486117 -0.5571266 0.49998263 0.9216463 -0.76092166 0.00083211175 -0.2321929 -0.7441118 0.552527 0.0085706925 0.1605936 -0.121558115 -0.048754882 -0.2851223 -0.03722834 -1.4433666 0.25661722 -0.13679051 0.4826857 -0.49929735 -0.6820101 0.14033878 0.3562882 -0.3253079 0.12221103 0.002319503 0.941465 -0.06502646 0.53673476 -0.40216285 -0.1822974 1.3173702 0.13367054 -0.43381178 -0.05010073 -0.869742 0.6019266 -0.049802903 -0.1249024 -0.074171394 0.18218349 -0.23231328 -0.20359129 -0.24241781 0.43386936 -0.00080022163 0.16039531 -0.5755617 -0.061177447 -0.0694179 -0.38733542 0.2639788 0.014322026 -0.47587872 -0.9497397 -0.21649575 0.16110675 -0.5129587 0.7379749 0.11596816 -0.66148794 0.9588521 -0.12138099 0.2299287 -1.0374103 0.7746549 -0.39469805 -0.023549948 0.11334394 0.24644053 0.9304059 -0.28898102 0.21592039 -0.046545457 -0.15016952 0.024628805 -0.19001527 0.28937542 -0.90649694 1.0132945 -0.19525652 -0.543698 0.2703592 0.7389125 0.5575228 0.249043 0.454116 0.46047553 0.4874366 -0.21730426 0.37667125 0.3630944 0.13005905 -0.6366157 1.0866506 0.14711687
do 0.12601723 0.5123603 -0.6346382 0.14248775 0.51027787 -0.46992472 0.5573199 0.920563 -0.6053217 -0.007906517 -0.109742105 -0.75262624 0.45166257 -0.23113337 0.22286606 0.073208064 -0.04225 -0.17810698 -0.018149013 -1.3899988 0.16098373 -0.27683586 0.4465097 -0.6070867 -0.7167593 0.13019022 0.33842894 -0.3590784 0.21763657 -0.052535545 0.9751324 -0.088842966 0.5849491 -0.2640563 -0.154098 1.2806904 0.08778235 -0.34699023 0.034432504 -0.90773094 0.5866121 0.062014915 0.010646035 -0.13148858 -0.005358987 -0.25946057 -0.17163329 -0.21185996 0.37327793 0.07641202 0.14429688 -0.6207749 0.012799857 0.022086311 -0.38932323 0.29480362 0.011706166 -0.5092269 -0.838355 -0.14371453 0.16146924 -0.52898306 0.9718325 0.15035944 -0.5919805 1.0826638 -0.19871528 0.05248729 -1.0335177 0.7275918 -0.47502244 -0.08448238 -0.016497292 0.23372784 1.0341632 -0.2570521 0.1835195 -0.06439942 -0.1397172 -0.042979445 -0.19334903 0.39795464 -0.8929177 1.0065966 -0.22613148 -0.5427937 0.31197253 0.6076467 0.42781708 0.18552265 0.41031227 0.50027573 0.46694213 -0.19157794 0.41703832 0.36636564 0.027070517 -0.64678186 1.1296781 0.15758009
just -0.031173185 0.36304128 -0.103231855 0.033146918 0.12539382 -0.6275609 0.44972432 1.0366949 -0.53790283 -0.21732369 -0.24099527 -0.6276729 0.10333293 0.03132948 0.13103284 -0.20913798 0.15194654 -0.2650634 0.16147389 -1.2814927 0.17066053 0.08359419 0.38935843 -0.25942364 -0.4647801 0.338041 -0.099143386 -0.2388996 -0.07048829 -0.108643435 0.5029423 -0.04435929 0.22814675 -0.36188093 -0.17563906 0.76923853 0.17462792 -0.4423056 -0.117402464 -0.62656707 0.23683184 -0.14338103 -0.23749305 -0.038765233 0.3629347 -0.3085559 -0.12921591 -0.11740464 0.28496355 0.17195599 0.09545422 -0.37964705 -0.15065186 0.023470039 -0.18189682 0.16143513 0.09294886 -0.2586896 -0.5606656 -0.20665663 0.00037382412 -0.2617255 0.3821949 0.16355641 -0.47525296 0.6792295 -0.004216062 0.3139584 -0.6641823 0.4573512 -0.1602215 0.23221017 0.3544711 0.002386195 0.74094063 -0.12680516 -0.008849621 0.03367644 -0.1321174 0.05473017 -0.16250753 0.026056921 -0.50777704 0.8060271 0.01241809 -0.32369027 0.37383705 0.5965328 0.5546825 0.103598066 0.29130697 0.44116908 0.30297574 -0.042660017 0.48486608 0.27889568 0.18280496 -0.24249603 0.489023 0.16121149
more -0.24354894 0.33127633 0.26992378 0.17396618 -0.30490777 -0.66411716 0.7001644 0.9618739 -0.66724324 -0.4018067 -0.13107711 -0.57753175 0.0002376073 -0.42143226 0.24985045 -0.19965842 0.03727212 -0.09821248 0.010015663 -0.9328203 0.004446589 0.28453374 0.23344886 -0.048840217 -0.049239833 0.58515215 -0.20026655 -0.17068633 -0.23506327 -0.47050175 0.11788325 -0.08957861 0.051357638 -0.25322685 0.105113655 0.5693648 0.46863827 -0.2930975 -0.007029818 -0.7322742 -0.23984918 -0.16371985 -0.43740946 0.041835546 0.66184735 -0.40564993 0.061998826 0.018220149 0.18781404 0.03028926 -0.25128093 -0.3538382 -0.24199444 -0.19058345 -0.2633826 0.03888659 -0.11078929 -0.22395287 -0.37940863 -0.079818025 0.25241062 0.02061624 0.3540367 0.11917574 -0.65851253 0.5822938 -0.2823689 0.64969355 -0.29832494 0.56138945 -0.1578771 0.43308824 0.67117506 -0.27527228 0.69699645 0.042284913 -0.21994191 -0.006678158 -0.32675964 -0.12825015 0.06073617 -0.09517812 -0.48623425 0.6923689 0.10568048 -0.20177068 0.4487931 0.45725203 0.6481296 -0.15259418 0.18982275 0.3491379 0.3510185 0.49050948 0.85849226 0.41989854 0.12198957 -0.21100686 0.037400257 -0.18438055
when 0.0692295 0.4322115 -0.1309421 0.048880763 0.27992025 -0.70388377 0.41108832 1.011345 -0.6301122 -0.10578343 -0.19608366 -0.6142397 0.26136586 0.19500369 0.19452362 -0.31832165 0.055065393 -0.29176068 0.026269054 -1.1833416 0.2780411 0.055495124 0.3532195 -0.1898221 -0.45768318 0.16262479 0.15734884 -0.20561369 -0.087498814 -0.037303664 0.6399011 -0.06752943 0.30578974 -0.5225671 -0.14069325 0.94918686 0.23932615 -0.3593153 -0.06677637 -0.6386973 0.31907362 -0.16785017 -0.1604968 -0.0019556032 0.41195792 -0.061710306 -0.28018987 -0.13473377 0.39051098 0.09625378 0.1812504 -0.40009388 -0.08354041 -0.09911093 -0.23203318 0.24173926 0.08610153 -0.26247132 -0.66827136 -0.16087388 0.062367152 -0.4039952 0.34555167 0.06938784 -0.42761856 0.7524458 0.07832576 0.3966382 -0.8192426 0.5821252 -0.3322653 0.07320273 0.34285724 0.06582165 0.7708829 -0.109646834 0.058794465 0.03982094 -0.1332075 0.046019785 -0.19105145 0.009036375 -0.697067 0.79969776 -0.048812397 -0.31095907 0.36430094 0.6342496 0.6864223 0.18625577 0.3351803 0.4023572 0.295313 -0.16789705 0.48963827 0.29074973 0.17430863 -0.4358405 0.68559813 0.112654485
me -0.014056959 0.34466833 -0.07245605 0.059659347 0.2373048 -0.6987984 0.5039397 1.0608194 -0.67314667 -0.19403467 -0.2067634 -0.6285377 0.056206696 -0.028160898 0.1991365 -0.33101326 0.21621868 -0.2829098 0.10907435 -1.2947984 0.12587516 0.03503672 0.36314747 -0.2145505 -0.4829229 0.23965812 -0.17636745 -0.24639331 -0.17435887 -0.15427107 0.5052073 -0.060671747 0.2029369 -0.34491235 -0.0963813 0.68630606 0.1568699 -0.3675601 -0.12272128 -0.65427727 0.22048801 -0.19388336 -0.32545573 0.058577783 0.36120248 -0.17205292 -0.19151634 -0.12753125 0.27262786 0.20802341 0.1428244 -0.3795175 -0.11844074 0.051500194 -0.17476778 0.14449488 0.11377307 -0.27155584 -0.4927975 -0.04765847 -0.022738887 -0.3209413 0.28472698 0.06615089 -0.41683608 0.63491815 -0.034388486 0.3465278 -0.6568034 0.37179422 -0.22956386 0.21091413 0.44700885 0.018226976 0.70606047 -0.14351562 0.06703605 0.0039398987 -0.1980639 0.061912302 -0.15933315 0.10839104 -0.48414272 0.69724613 -0.11294384 -0.31125268 0.38040534 0.5644226 0.6479414 0.05145544 0.36731753 0.4189228 0.28864977 -0.026869198 0.6399355 0.2632354 0.35769585 -0.280978 0.5376515 0.09625075
an -0.11620248 0.2720813 0.28830647 0.025189731 -0.118958 -0.87644124 0.5392427 1.177579 -0.7476659 -0.36954638 -0.18370134 -0.5773783 -0.13064632 -0.007137617 0.2944851 -0.51164997 0.23716135 -0.21693124 0.073124394 -1.1911473 0.17136124 0.25565982 0.3192261 -0.029218206 -0.2460175 0.4217736 -0.26245993 -0.23983298 -0.31377658 -0.31032655 0.31431857 -0.0629597 0.05664307 -0.47888765 0.040733352 0.50360817 0.41844177 -0.36591303 -0.16967951 -0.5980615 -0.07376316 -0.3595779 -0.42600563 0.15218149 0.67031175 -0.23639825 -0.22878684 0.024410853 0.24391536 0.25317708 0.09527479 -0.23972511 -0.25336495 -0.004908516 -0.1040942 0.063621044 0.1479562 -0.08852248 -0.35747313 -0.02567588 0.012130489 -0.093476206 0.06986148 0.071233325 -0.43171382 0.5272092 0.049196135 0.5510383 -0.5034595 0.44503123 -0.24671598 0.39226407 0.72802716 -0.22897041 0.614854 -0.07495198 -0.058742974 0.067207806 -0.28299928 0.0062514795 -0.12928046 -0.08400596 -0.38146934 0.6232015 0.02794085 -0.18595833 0.485346 0.60205317 0.77309215 -0.053788874 0.18624829 0.3245793 0.21225223 0.17135721 0.8187456 0.22788799 0.44488102 -0.2688077 0.14752181 0.0019587623
because -0.009706706 0.39639893 -0.06749176 0.014198173 0.11447892 -0.6308125 0.44524285 1.0907643 -0.531213 -0.24166864 -0.24392577 -0.62134355 0.10071477 0.107531406 0.16525283 -0.24529366 0.18720824 -0.24952847 0.1233088 -1.2799964 0.21795498 0.11569249 0.3760537 -0.2423755 -0.47830036 0.35899657 -0.12370249 -0.1676223 -0.0800865 -0.0840324 0.4910253 -0.047634404 0.17244653 -0.414816 -0.25139335 0.82251644 0.2099891 -0.41979837 -0.13661923 -0.6079808 0.24762149 -0.15180534 -0.17526464 -0.08451004 0.34618062 -0.29277194 -0.119804464 -0.13039063 0.2959387 0.19897422 0.12004662 -0.4200209 -0.13031852 -0.042759094 -0.17279838 0.19596878 0.085809655 -0.21854214 -0.5563441 -0.26899272 0.012733922 -0.27564073 0.38438252 0.14904502 -0.4265167 0.7266558 0.056571525 0.32685125 -0.7530675 0.48645082 -0.15980415 0.24921712 0.3604654 -0.0025693097 0.7661973 -0.046814054 -0.05833605 0.06589941 -0.15456451 0.06322436 -0.1603345 -0.06308597 -0.5899634 0.8394578 0.02859483 -0.29755005 0.42540315 0.548026 0.5654699 0.12398931 0.2868964 0.42114133 0.26193354 -0.092878014 0.4382451 0.2711378 0.16278245 -0.20843486 0.4853468 0.1845702
these -0.2585185 0.26334032 0.3100619 0.23395461 -0.4023918 -0.72890246 0.4219395 0.79501003 -0.67346185 -0.24780549 -0.010673472 -0.43332586 0.035239834 -0.021087354 0.46179795 -0.27283487 0.014360674 -0.23682378 -0.22465868 -0.8605105 0.18072422 0.34644836 0.48538432 -0.034180347 -0.2865932 0.46370676 -0.011964538 -0.44954768 -0.21716247 -0.35869223 0.34744844 -0.09660638 0.25117335 -0.33889237 0.2781563 0.576121 0.4415174 -0.43492088 -0.15019237 -0.54003996 -0.17669535 -0.5067767 -0.4830928 0.2530556 0.7144213 -0.07020794 -0.25927156 0.18154569 0.23525907 0.02595619 -0.21172875 -0.1945607 -0.17969605 -0.0013318894 -0.07061408 0.13562681 -0.031284697 -0.22523448 -0.39292878 0.03277335 0.332142 0.11506179 0.086830124 0.1573573 -0.52322507 0.46632153 -0.27494666 0.7293127 -0.4462426 0.74846536 -0.16120562 0.25913954 0.7221782 -0.34557515 0.4931978 -0.13680373 0.14404278 -0.04257405 -0.20861863 -0.20436959 -0.10803505 -0.097656645 -0.464094 0.61213 -0.044211328 -0.32752183 0.3177486 0.6540273 0.7301817 -0.15920518 0.28204167 0.016409634 0.19038148 0.37507004 0.70540136 0.41186547 0.2831846 -0.56134385 -0.016953276 -0.20645201
had 0.03235306 0.20424019 0.22983336 -0.045206804 0.12672116 -0.9213383 0.6065347 1.3219204 -0.6955198 -0.23237264 -0.14586078 -0.60214084 -0.028913194 0.07818002 0.2610008 -0.7188411 0.07489496 -0.28030413 0.056803506 -1.0182171 0.3126353 0.15132119 0.030408883 0.079277635 -0.26447478 0.22876796 -0.10373844 0.07136975 -0.35106274 -0.18063203 0.27025428 -0.066539176 -0.04761871 -0.6154776 -0.024630768 0.5946493 0.33951595 -0.17170821 -0.06377655 -0.6246383 -0.007332031 -0.3427795 -0.3455543 0.18456635 0.5986205 -0.15061551 -0.11134728 -0.08933092 0.2861276 0.24776663 0.27263883 -0.29552117 -0.0048762234 -0.30907792 -0.07357128 0.2643725 0.1418796 -0.011753943 -0.34335324 0.0564806 -0.032843813 -0.29133675 0.009602334 -0.23462713 -0.36983964 0.59947973 0.3319501 0.74977535 -0.61018854 0.37486345 -0.2971936 0.09995916 0.66865623 -0.0883618 0.6472639 0.15515803 -0.16931787 0.15348439 -0.36239153 0.0030119063 -0.27240944 -0.068926826 -0.5772291 0.5950922 0.062166512 -0.007402866 0.61089575 0.42978972 0.8864907 0.010041787 0.2893896 0.30886418 0.21030858 0.06670388 0.83666885 0.11816329 0.40723196 -0.21359922 0.28613028 -0.012714489
now 0.020729901 0.33092898 0.0035134812 0.05042191 0.1178693 -0.66175544 0.43905723 1.0066717 -0.6687066 -0.2687712 -0.12171531 -0.52494633 0.093849145 0.04705272 0.2654843 -0.2493057 0.12781855 -0.21629974 -0.025875138 -1.1753688 0.20280422 0.0876634 0.38670146 -0.21884623 -0.403286 0.31176692 -0.05655796 -0.2643965 -0.045793187 -0.108178504 0.46572092 -0.09809332 0.25087458 -0.41312534 -0.03779734 0.79785603 0.2524122 -0.34373865 -0.12851304 -0.607838 0.19990602 -0.21220529 -0.20332122 0.049218256 0.4211107 -0.24128172 -0.17967498 -0.09913741 0.2882292 0.1460731 0.067861184 -0.35612407 -0.16632211 0.015509741 -0.198568 0.17850213 0.0843313 -0.22516751 -0.47254178 -0.14557014 0.018163707 -0.26679987 0.37599003 0.12906533 -0.470439 0.7244964 -0.017689906 0.35774368 -0.69953686 0.55564547 -0.22431773 0.20577647 0.41416827 0.01456958 0.6706053 -0.14569981 0.033259794 0.05745553 -0.18003437 0.012027332 -0.12864622 0.06007226 -0.5360825 0.72909886 -0.05163708 -0.2809767 0.3316207 0.58583915 0.597799 0.10396527 0.27470207 0.30384657 0.2721871 -0.039403994 0.51910156 0.3096037 0.2384313 -0.37549612 0.45040262 0.06651454
by -0.16364104 0.1975197 0.446861 0.17318498 -0.3415133 -0.8783712 0.549962 1.1686401 -0.7612608 -0.48916027 -0.12462933 -0.49878854 -0.12567273 0.014686477 0.42949066 -0.6546361 0.17789239 -0.12878892 -0.07050954 -0.97807026 0.21020876 0.32724524 0.27010962 0.07802706 -0.23086314 0.5181238 -0.20250781 -0.07629706 -0.30905548 -0.2815815 0.15659149 -0.16136995 0.014870232 -0.5656313 0.2519006 0.44480804 0.54789674 -0.43857312 -0.21541123 -0.504088 -0.3117353 -0.46179393 -0.50023204 0.27270216 0.8143292 -0.17187335 -0.20927598 0.12456231 0.20025364 0.117159076 0.03891586 -0.1397572 -0.17575751 -0.16118318 0.0019567732 0.1678442 0.0699849 0.06905961 -0.2250759 0.047061134 -0.007347236 0.025385382 -0.13959917 0.124038726 -0.531366 0.5408703 -0.005129072 0.8582752 -0.5162525 0.6301617 -0.17861402 0.35531375 0.9458367 -0.32234666 0.5054352 -0.14577961 0.018144961 0.027833642 -0.39258176 -0.14161815 -0.24240348 -0.102403216 -0.44849864 0.60322195 0.09236713 -0.23487087 0.46361816 0.5841953 0.9116921 -0.24215932 0.14390914 0.024030827 0.15328898 0.28938437 0.82474965 0.2647307 0.50261146 -0.36657673 -0.017682865 -0.11736404
us -0.21341416 0.227024 0.13611473 0.26487345 -0.17014883 -0.6413232 0.49265164 0.8669179 -0.676849 -0.32242164 -0.042257983 -0.52003276 -0.009401205 -0.17638229 0.4426197 -0.27479494 0.090904504 -0.08379753 -0.12684986 -0.95004815 0.053799167 0.14430879 0.34374365 -0.12543938 -0.3130262 0.3914872 -0.11114372 -0.29605427 -0.18234193 -0.31899604 0.36491817 -0.07661717 0.25276193 -0.26060167 0.21801275 0.5327674 0.43024182 -0.3302905 -0.081891894 -0.56551105 -0.121813074 -0.31466404 -0.4307103 0.19263104 0.48552912 -0.17128903 -0.21374226 0.11625741 0.2038964 0.07875069 -0.08259615 -0.22737752 -0.10315846 0.0390567 -0.10663715 0.14836416 -0.024068503 -0.17991339 -0.29013047 0.1021367 0.18805075 0.020499833 0.2112555 0.13888437 -0.5487299 0.53271496 -0.22345671 0.5118382 -0.5071732 0.63537145 -0.22025616 0.24187222 0.64450324 -0.2734796 0.5769402 -0.21021728 0.17194757 -0.041595887 -0.2837496 -0.1594486 -0.12306394 0.07364281 -0.42345276 0.6400327 -0.112083465 -0.30883256 0.32590112 0.5229559 0.6901353 -0.23682249 0.2719259 0.103141636 0.23971508 0.3450372 0.707704 0.3518826 0.3152837 -0.47082883 0.18465112 -0.109358534
them -0.22513467 0.34113023 -0.09863776 0.32462928 -0.021944985 -0.48175618 0.4383471 0.6445534 -0.6651934 0.04157758 -0.114405215 -0.5082037 0.29611343 -0.11131769 0.27405158 -0.088904485 -0.08964054 -0.23473255 -0.15048595 -1.0116516 0.14061876 0.07391197 0.51595384 -0.15548217 -0.4601307 0.18800896 0.27498648 -0.43070778 -0.14057043 -0.22187734 0.5816031 -0.044101197 0.38568732 -0.222907 0.11939746 0.7468652 0.20785737 -0.39701203 0.017921459 -0.6515426 0.15842995 -0.3578958 -0.43174216 0.13806354 0.42248327 -0.019316323 -0.26152217 0.016438078 0.2665476 -0.06725294 -0.07694155 -0.27957585 -0.060576953 -0.009901423 -0.182583 0.19007336 -0.08926596 -0.36398786 -0.6195999 -0.009737027 0.36191162 -0.062082477 0.2028463 0.13003409 -0.5428753 0.55508155 -0.26969138 0.5602855 -0.60257673 0.6670402 -0.37649485 0.08537048 0.41985846 -0.1741655 0.62158275 -0.21681407 0.25245172 -0.060824044 -0.12997727 -0.13284135 -0.13184395 -0.0037474483 -0.56671774 0.7334093 -0.206319 -0.46136495 0.25815067 0.6084366 0.6633021 -0.11483721 0.35874408 0.15986842 0.3033707 0.21365273 0.6425003 0.3614701 0.22357163 -0.6556317 0.4474995 -0.06698911
how -0.062165435 0.5024768 -0.34553596 0.20578645 0.20587026 -0.5725253 0.49192446 0.92783296 -0.72488004 -0.1155204 -0.19398558 -0.70396227 0.35958263 -0.13082922 0.26562342 -0.015816392 0.0458166 -0.19886716 -0.03534426 -1.3229555 0.1869337 -0.104606524 0.49347386 -0.4612421 -0.6358105 0.2927677 0.16990799 -0.4355436 0.065923505 -0.11646799 0.8464367 -0.05910591 0.45933735 -0.24534224 -0.1299339 1.04205 0.24794933 -0.33245018 -0.010204129 -0.7708883 0.4392606 0.009127606 -0.105660535 -0.075805366 0.20963891 -0.27513608 -0.19471101 -0.16638064 0.4272765 0.055253882 -0.032039233 -0.55978304 -0.118794106 0.0055592526 -0.32839844 0.16685417 0.015243748 -0.4313377 -0.7441843 -0.16021703 0.22796315 -0.348153 0.7994147 0.26818892 -0.5820271 0.92875427 -0.23059425 0.10793795 -0.8547131 0.73019195 -0.38672 0.044597734 0.20772177 0.024259295 0.92374045 -0.19158514 0.1633001 -0.06312601 -0.11028263 0.003050609 -0.07882339 0.24046859 -0.7153563 0.92388135 -0.21150054 -0.5587535 0.29221928 0.717142 0.5218673 0.17038243 0.38238156 0.49992648 0.43735915 -0.088914506 0.5045108 0.3479374 0.11131336 -0.57672626 0.87737274 0.11040847
out -0.08617409 0.27381766 0.108023815 0.15895543 -0.03174963 -0.707607 0.5160059 0.9914845 -0.6368697 -0.2608813 -0.17351907 -0.564657 0.06929647 -0.05347974 0.33161736 -0.36177734 0.036202554 -0.16693899 0.018005483 -1.0377831 0.17656553 0.14434198 0.32583055 -0.06357292 -0.4065865 0.41257244 -0.052287698 -0.18778314 -0.22548753 -0.19374311 0.41030303 -0.109005734 0.15256387 -0.34672484 0.12270364 0.59871143 0.2975653 -0.41482455 -0.1303252 -0.564521 -0.05498616 -0.35898778 -0.44436067 0.15272172 0.530908 -0.13360484 -0.22698095 -0.050710097 0.2183585 0.07089669 0.06915792 -0.21390764 -0.10025769 -0.11643376 -0.056678254 0.12853184 0.047808755 -0.17502758 -0.43398127 0.05153981 0.08036026 -0.11137981 0.08138942 0.07195255 -0.51592433 0.51856226 -0.034534436 0.59120834 -0.5843809 0.53667676 -0.27668446 0.18949977 0.57034576 -0.19866452 0.62302965 -0.13783748 0.101041585 0.059189387 -0.30119038 -0.07740972 -0.3076318 0.00826712 -0.46330833 0.6865546 -0.049677912 -0.2834327 0.3881594 0.5359743 0.7260235 -0.20524399 0.27810395 0.18047495 0.2404173 0.14465494 0.7217582 0.27249646 0.33616027 -0.44904572 0.26217046 0.010883038
world -0.22990277 0.11375235 0.51339686 0.20631753 -0.4881465 -0.7124825 0.4516816 0.89538586 -0.6525962 -0.6405641 0.103558965 -0.3700817 -0.33542186 -0.03107004 0.5211261 -0.575457 0.23911713 0.06932513 -0.20830542 -0.6335105 0.054526754 0.2853395 0.17078273 0.16461894 -0.07054781 0.41337046 -0.24197172 0.029506603 -0.25389984 -0.33578908 -0.052460924 -0.15981643 -0.039312426 -0.4770975 0.3498175 0.17015558 0.6968615 -0.35658553 -0.19449651 -0.27438474 -0.40452158 -0.46010938 -0.44805744 0.28670797 0.70660794 -0.11893122 -0.2594786 0.25658134 0.15095523 0.055031933 0.022943275 -0.016080232 0.004601408 -0.09599609 0.051800635 0.17114305 0.05922526 0.22641389 0.04830232 0.1649257 -0.02313019 0.2049207 -0.21045119 0.08133104 -0.4099889 0.43831056 -0.088700436 0.78953075 -0.40762207 0.51426303 -0.14327659 0.45753336 1.0104946 -0.3974115 0.31691673 -0.16877343 0.13672854 -0.025126899 -0.44945884 -0.23707111 -0.21263982 -0.1880526 -0.3249009 0.46959856 0.06284575 -0.19353597 0.4054086 0.404458 0.8157878 -0.3443759 0.025263747 -0.13626325 -0.050112415 0.3334343 0.8114753 0.26619223 0.4720509 -0.38547662 -0.12868683 -0.0957052
he -0.06259285 0.25682926 0.2685806 -0.081094846 -0.0321536 -0.89979964 0.4949464 1.2095786 -0.7213559 -0.44724253 -0.17129984 -0.6044522 -0.22558938 0.1391727 0.24822435 -0.57134724 0.49049732 -0.26349 0.21011241 -1.3145958 0.16675276 0.2669331 0.3376235 -0.0029477999 -0.25466725 0.3906986 -0.5219836 -0.29039705 -0.32838377 -0.29131192 0.27619827 -0.031107107 -0.07404783 -0.40964764 -0.123576246 0.37875658 0.39167014 -0.32813436 -0.24686025 -0.43521827 0.027246064 -0.34095183 -0.38294736 0.06236622 0.6273127 -0.1476821 -0.28716388 0.03769337 0.268537 0.35037583 0.19559813 -0.2762778 -0.28538555 0.12400956 -0.19659208 0.005362102 0.25307697 -0.10692268 -0.2745546 -0.071690775 -0.081415705 -0.13160835 0.09815617 0.14047432 -0.3254975 0.44841644 0.0012604736 0.45936546 -0.46622977 0.16226463 -0.11756319 0.45255846 0.7368452 -0.19404326 0.57161176 -0.06309037 -0.1182643 0.08967822 -0.2170498 0.15182756 -0.027404927 -0.22959347 -0.293793 0.58052206 0.030714061 -0.15961607 0.5133163 0.5577487 0.748658 0.086119734 0.24948145 0.52102256 0.18917012 0.0624494 0.79517376 0.14088899 0.5246541 -0.052475456 0.12195491 0.06532185
their -0.35208216 0.23653689 0.31604782 0.3766206 -0.3291709 -0.67780817 0.46772575 0.74493253 -0.8036305 -0.10849404 -0.120318845 -0.4809514 0.06854781 -0.05369924 0.48029912 -0.36745653 -0.11604679 -0.260479 -0.18297838 -0.9109556 0.18029335 0.3205624 0.45143858 0.0963905 -0.30342063 0.3530394 0.13392395 -0.39832032 -0.33054134 -0.3591542 0.4062962 -0.09403368 0.26505232 -0.35238922 0.36862195 0.5386945 0.41972125 -0.4204568 -0.0286307 -0.60732496 -0.1880824 -0.62631595 -0.65667117 0.3820562 0.76157475 0.04613499 -0.31896096 0.18847999 0.19156283 -0.03187006 -0.17161897 -0.09679061 -0.1241552 -0.07126497 0.01458261 0.18412314 -0.103922606 -0.1680245 -0.50467205 0.12469158 0.3955667 0.22903128 -0.17587912 0.10287128 -0.6196873 0.36756986 -0.22696376 0.9479226 -0.42264685 0.78089255 -0.3283388 0.23326361 0.80881816 -0.4709782 0.50218093 -0.2322073 0.1909113 -0.018374596 -0.19343057 -0.26784885 -0.15155274 -0.11598121 -0.48045754 0.6629653 -0.077749856 -0.3326888 0.3012139 0.69492126 0.9520585 -0.33391997 0.295064 -0.11217025 0.21726313 0.5074105 0.8231359 0.3925443 0.38462332 -0.6781816 0.008336851 -0.24480811
were -0.08856323 0.19164492 0.11551145 0.31879935 -0.0667444 -0.64178115 0.40933362 0.86695385 -0.5926138 -0.07860413 -0.12620598 -0.6226365 0.16832267 0.052400295 0.4005973 -0.39391887 -0.2701812 -0.20205086 -0.029940972 -0.779757 0.2742516 0.110553354 0.22624107 0.03322757 -0.37211165 0.2570233 0.28496376 -0.118003376 -0.1403415 -0.13222273 0.48053384 -0.08823155 0.28997776 -0.45307928 0.28049427 0.73391855 0.34482673 -0.35560825 0.050721396 -0.6781014 -0.057492528 -0.38538828 -0.33695424 0.2926039 0.49219766 -0.016479949 -0.22621168 0.05511179 0.29522717 -0.06842614 0.091123864 -0.20763054 0.07017088 -0.29412073 0.03340962 0.33414626 -0.042344216 -0.09324944 -0.5452661 0.1298979 0.21121228 0.04372938 0.011798342 0.016704379 -0.58501035 0.5784378 0.02838379 0.884205 -0.61772764 0.7873383 -0.3107026 -0.066446446 0.5588923 -0.20704857 0.6279808 -0.103068694 0.08589028 0.08631187 -0.24840534 -0.30333522 -0.36970615 0.015060364 -0.66398925 0.74174035 0.024413755 -0.2133076 0.45740458 0.5472004 0.816642 -0.27066174 0.34068432 -0.06607923 0.18531989 0.34699446 0.6080529 0.40017498 0.13770425 -0.5701 0.28662917 -0.039211355
who -0.16080926 0.36086813 0.11444577 0.19132884 -0.23133601 -0.64226174 0.46913815 0.81901413 -0.6593353 -0.10987059 -0.17928259 -0.5561184 0.126378 -0.025585141 0.3754949 -0.31443104 0.024084628 -0.2860415 -0.073515646 -1.042722 0.23159139 0.28907788 0.4278215 -0.14128652 -0.36930323 0.42625 -0.020973178 -0.38687244 -0.14952554 -0.24391717 0.52650803 -0.06759702 0.26394722 -0.36118242 0.101457775 0.75135314 0.3755917 -0.41822785 -0.15078281 -0.61249983 0.002192631 -0.39547107 -0.4455688 0.17964233 0.5696084 -0.15829678 -0.17036265 0.09693087 0.2923777 0.033101827 -0.12043271 -0.34911293 -0.15422823 -0.04813159 -0.18277441 0.19057587 -0.033529013 -0.29126593 -0.51932496 -0.099525794 0.37385896 0.036813475 0.19922303 0.18357438 -0.5368669 0.6077275 -0.23857123 0.6775939 -0.57899076 0.689672 -0.17416617 0.2539078 0.6153724 -0.24860016 0.6040998 -0.14743169 0.056791425 -0.024290904 -0.18051948 -0.12339977 -0.10981687 -0.14703447 -0.61323845 0.74593955 -0.0210935 -0.41834465 0.3908426 0.6746386 0.6806966 -0.08980256 0.3600987 0.13273242 0.2661318 0.22847651 0.60802156 0.35585582 0.31472978 -0.4588012 0.23227397 -0.13635933
up -0.16890697 0.21804374 0.3406184 0.19361928 -0.13255177 -0.82508785 0.5156211 0.9942352 -0.81369114 -0.26709437 -0.14220221 -0.49982864 -0.04992569 0.024347838 0.37531015 -0.5736169 0.07089071 -0.21459077 -0.096312955 -0.9631467 0.17898197 0.26662454 0.30927727 0.08590628 -0.2751365 0.3222208 -0.06470213 -0.180082 -0.30821353 -0.26750663 0.29098466 -0.090877816 0.073433176 -0.4267011 0.24144346 0.3909022 0.43459505 -0.33165824 -0.10207547 -0.5244066 -0.13922219 -0.494413 -0.5619917 0.3346542 0.73502874 -0.0115709 -0.27658767 0.08013689 0.22419383 0.08664209 0.03650986 -0.08284941 -0.123461574 -0.10139071 -0.07045367 0.16306859 0.046276804 -0.064435884 -0.30389792 0.09074967 0.11622421 0.016936641 -0.20285437 0.022605918 -0.4440417 0.4085172 -0.009624514 0.81450576 -0.4693937 0.5066878 -0.3380121 0.25165603 0.82528204 -0.26815164 0.45225716 -0.14249742 0.11995987 0.008278758 -0.31972852 -0.108759895 -0.19427413 -0.10525029 -0.393121 0.5564095 -0.010238054 -0.25680768 0.431246 0.5560291 0.8717428 -0.2368857 0.20987229 0.065621816 0.1678939 0.26219773 0.88681966 0.25038314 0.5484505 -0.4701914 0.108230405 -0.13110505
time -0.10625916 0.12828486 0.376327 0.1002673 -0.3070551 -0.7805476 0.43928203 0.9452148 -0.6657183 -0.46485803 0.01751322 -0.42825198 -0.21909897 0.0735082 0.32467481 -0.5911233 0.17005692 -0.18390198 -0.03295539 -0.7921277 0.113292865 0.27836686 0.27300102 0.11335682 -0.18912116 0.3300596 -0.15353307 -0.08728361 -0.32102194 -0.2093447 0.077088356 -0.13215204 0.06412959 -0.4709763 0.24214235 0.30122313 0.45344278 -0.34147227 -0.16386749 -0.34906057 -0.18383928 -0.46912184 -0.4575133 0.22626987 0.6766788 -0.0432993 -0.2728022 0.14305761 0.18870036 0.0822906 0.080310434 0.0150909 -0.067209005 -0.03932685 0.037615187 0.123161934 0.12287066 0.05727817 -0.111543685 0.1395426 -0.054074813 0.03583499 -0.21772316 -0.0002688972 -0.3459587 0.3491287 0.10361626 0.73277354 -0.4883445 0.41591644 -0.14503233 0.30687445 0.7973441 -0.20376328 0.34088102 -0.13882297 0.011895352 0.07224756 -0.30934533 -0.089750886 -0.22611842 -0.11970844 -0.26711768 0.5144658 0.029520204 -0.16672401 0.38734028 0.45627287 0.79418635 -0.17371164 0.10663372 0.008660534 0.014280961 0.20473641 0.65957403 0.22036913 0.41917723 -0.3025975 -0.07102653 0.009714795
would 0.02394548 0.44906944 -0.31478548 0.17218842 0.4345494 -0.5247067 0.5194286 0.9404441 -0.6621824 0.026855163 -0.20105563 -0.6475105 0.44683334 -0.05986967 0.2205301 -0.22517547 -0.04596204 -0.20644681 -0.04183886 -1.1870035 0.20598018 -0.0854333 0.2716495 -0.32742387 -0.4666079 0.14365347 0.23860621 -0.20205542 -0.06654371 -0.07089181 0.6492605 -0.020912841 0.31181726 -0.40681106 -0.2024883 1.0144004 0.08690776 -0.35206008 -0.020488275 -0.7667692 0.30969372 -0.09157516 -0.17701316 0.019189406 0.21440431 -0.16091517 -0.14995383 -0.20346428 0.3243913 0.11674302 0.16211696 -0.4967857 -0.042051874 -0.18843327 -0.35498747 0.22430103 0.0031988495 -0.39771247 -0.6924516 -0.16120337 0.19912525 -0.4479567 0.47962093 -0.04913535 -0.544506 0.8805391 -0.06632947 0.37483191 -0.77646226 0.5579378 -0.42788664 -0.024592105 0.22695947 0.10461714 0.8449059 -0.124622166 0.13129202 0.018234532 -0.20699811 -0.030236984 -0.23484051 0.13939841 -0.8001627 0.82872874 -0.091475345 -0.38413382 0.36673436 0.49533498 0.6692231 0.06252957 0.44614688 0.36720872 0.3768857 -0.08108648 0.54089 0.32158566 0.2396384 -0.56054026 0.80634284 -0.029727116
very -0.01202428 0.24916933 0.18140315 0.0028213277 -0.06218805 -0.83255625 0.492015 1.2680982 -0.6428279 -0.6253895 -0.17099947 -0.7068019 -0.1509761 -0.044396907 0.23059545 -0.36483616 0.32761022 -0.17398384 0.13909562 -1.2526418 0.047886845 0.108367376 0.22976534 -0.12691508 -0.299559 0.5362351 -0.44929957 -0.09787596 -0.13948455 -0.24890219 0.2385864 -0.09473284 0.08449889 -0.32046393 -0.11396158 0.5972647 0.45411277 -0.36081955 -0.22673216 -0.5450095 0.010770082 -0.054218706 -0.20125806 -0.010703748 0.43541324 -0.44627818 -0.103675194 -0.084019266 0.30838683 0.31352124 0.065989494 -0.36106914 -0.28944218 -0.051759914 -0.16037759 -0.000101516795 0.20883676 -0.15725699 -0.28102204 -0.10975007 -0.15897444 -0.24224678 0.482112 0.1571 -0.45099872 0.6312126 0.041440208 0.22007445 -0.5226354 0.39692494 0.008956198 0.36937955 0.53060913 0.05004294 0.74499893 0.027896438 -0.17651868 -0.008891587 -0.30016142 0.13308978 -0.047713332 0.15668009 -0.3099169 0.63886344 0.008293158 -0.19929871 0.4387301 0.5061923 0.579871 0.116984144 0.27446398 0.53567874 0.3520935 0.08131749 0.58081055 0.25323468 0.35164022 -0.07353058 0.22742525 0.10585628
know 0.067454554 0.60544527 -0.6388026 0.12992813 0.54998296 -0.4707297 0.46934944 0.9332672 -0.611785 0.1545193 -0.3448728 -0.7047638 0.5964763 0.0061927354 -0.059250314 0.023868574 -0.083127 -0.46674606 0.11431299 -1.4511161 0.2953361 -0.16485612 0.5363666 -0.56313485 -0.85545594 0.07530434 0.33568782 -0.23638126 0.17175615 0.1491867 0.94268113 -0.033725657 0.5549015 -0.34666428 -0.35643372 1.4322828 -0.16308883 -0.5198152 0.022082806 -0.9012629 0.76265335 0.026641402 -0.057367157 -0.2198489 0.09005648 -0.25789547 -0.100734346 -0.3460819 0.4227907 -0.0019320945 0.17588973 -0.5839927 0.04703843 -0.07316368 -0.33447373 0.37228325 -0.00850662 -0.5204398 -1.1054956 -0.33305094 0.11387745 -0.6001822 0.6941546 0.062701315 -0.58607 0.9800995 0.046398062 0.19833222 -1.0787765 0.6666367 -0.38932154 -0.08440323 -0.11091873 0.30805898 0.97688836 -0.14200103 0.1516802 0.047106855 0.0026110543 0.04967746 -0.29760292 0.26435742 -0.9104841 1.1892223 -0.06718793 -0.53894126 0.25831372 0.74183154 0.41987935 0.32747686 0.4314369 0.5127937 0.48576668 -0.3892105 0.19806594 0.30552316 -0.04051204 -0.48934427 1.216849 0.3138792
see 0.06732773 0.36793697 -0.3685009 0.21406594 0.27770865 -0.5001785 0.42277777 0.7143645 -0.62915176 0.023262365 -0.13641441 -0.6314904 0.36719844 -0.07163194 0.13023013 -0.10091538 -0.1100876 -0.26304793 -0.06805297 -1.0850213 0.18609391 -0.13925189 0.35856828 -0.36865985 -0.6402729 0.08770478 0.3547686 -0.21223907 0.11138053 -0.0051156054 0.78092027 -0.09284881 0.517336 -0.32797623 0.0014952233 1.0454746 0.17423105 -0.3652482 0.01468423 -0.69147927 0.485895 -0.118548915 -0.16197838 0.01968484 0.17636795 -0.12459424 -0.2159536 -0.10634362 0.38644886 -0.085110225 0.1492386 -0.39829358 0.08077866 -0.06515881 -0.25152758 0.30298507 0.023705194 -0.30220014 -0.7576596 -0.054854296 0.09905816 -0.3550889 0.5189803 0.09146459 -0.51121026 0.7961287 -0.08381637 0.30842224 -0.8349647 0.6573091 -0.4419728 -0.11541524 0.13565533 0.17419557 0.7407246 -0.24104692 0.2190535 -0.017008644 -0.12139853 -0.047784377 -0.25918475 0.26340395 -0.71489155 0.8688443 -0.1865304 -0.47011697 0.26848367 0.63657415 0.5005267 0.12589975 0.3028347 0.31508955 0.33662385 -0.1482351 0.39973205 0.29822478 0.09132491 -0.61111385 0.929934 0.182323
ve 0.042436335 0.30419305 0.013097601 0.030931067 0.19745836 -0.7438614 0.5218662 1.076259 -0.67708695 -0.07889867 -0.09526946 -0.61176026 0.22443292 0.09616441 0.2553062 -0.4716969 -0.098780476 -0.27558392 -0.0794261 -0.9361356 0.38021344 0.057602916 0.10341637 -0.03496325 -0.3717943 0.082975544 0.24777022 -0.016338807 -0.18387763 -0.11671867 0.48857018 -0.07582993 0.15532216 -0.5453034 -0.10558089 0.88830817 0.3361895 -0.15885647 0.054419305 -0.6634402 0.22546576 -0.26096454 -0.16577996 0.074765295 0.4631018 -0.10864995 -0.13107546 -0.11821205 0.36157483 0.11126882 0.28438574 -0.41446027 0.09167407 -0.33612224 -0.172752 0.36354136 0.050812684 -0.17874955 -0.5992011 -0.073482655 0.08890447 -0.28734297 0.27529773 -0.2573533 -0.37788427 0.76241523 0.26229566 0.619087 -0.80915236 0.545362 -0.36034545 -0.0460758 0.42708567 0.0037555636 0.7074896 0.19443472 -0.09625769 0.15397553 -0.21209675 -0.040440865 -0.2449306 -0.08140451 -0.7570479 0.7510892 -0.00346146 -0.048492678 0.4621147 0.44278184 0.76807785 0.17352805 0.30212364 0.34096953 0.2618088 -0.04174932 0.6314819 0.16545178 0.16850069 -0.44551954 0.56532437 0.036821693
think 0.13978724 0.46532384 -0.421135 -0.02836345 0.49721363 -0.56416386 0.45824257 1.0496583 -0.5386236 -0.05876454 -0.22943714 -0.61676306 0.30679396 -0.017170915 0.07170952 -0.04369264 0.05106236 -0.31795904 0.050064825 -1.2893863 0.24604863 -0.07121605 0.316908 -0.41058588 -0.575254 0.1496866 0.112478934 -0.17108549 0.060553584 0.057903524 0.69860905 -0.04073368 0.38263723 -0.43775767 -0.33173242 1.1149348 0.056134198 -0.29253793 0.0018330856 -0.7060152 0.5467581 0.047583938 0.035484586 -0.15210587 0.16424678 -0.23902377 -0.13399678 -0.24781601 0.39105082 0.16379246 0.20492992 -0.557006 0.010129533 -0.028532151 -0.33303136 0.2808279 0.07630733 -0.37549493 -0.74399364 -0.22632438 -0.031018512 -0.5906947 0.70075643 0.03572121 -0.38603085 0.9388217 0.10222108 0.09955822 -0.90169233 0.50074726 -0.3212422 0.011964402 0.03474943 0.25490984 0.9121746 -0.03221806 0.030205924 0.074837275 -0.06215535 0.07517293 -0.16053826 0.21428631 -0.72247195 0.93776506 -0.05889728 -0.364799 0.34437674 0.6072876 0.39292178 0.34631753 0.38984886 0.5822173 0.35928744 -0.3562291 0.36878744 0.3181413 0.013568331 -0.37619346 0.9699298 0.2474773
your -0.17446265 0.40725887 0.07014008 0.2805298 -0.075302795 -0.7193683 0.43498254 0.8296709 -0.82358646 -0.13327654 -0.20218502 -0.5389673 0.14090864 -0.10591246 0.29374966 -0.2756588 0.003378111 -0.23536475 -0.034666684 -1.1168536 0.10536449 0.16531414 0.4366537 -0.1709378 -0.43827596 0.28970546 0.104028404 -0.4027752 -0.14874654 -0.21661161 0.543393 -0.12573175 0.36608565 -0.335581 0.18413937 0.7149685 0.31163555 -0.46441922 -0.060130376 -0.67768687 0.17771842 -0.31218958 -0.48261142 0.18272258 0.553994 -0.1279341 -0.2876428 0.049955413 0.26132828 -0.023318991 -0.036112912 -0.19956498 -0.19222541 -0.01067737 -0.14857513 0.14977536 -0.004526007 -0.23130746 -0.5776451 -0.016367473 0.16151422 -0.05968265 0.12982853 0.113425195 -0.5760688 0.5052441 -0.20104745 0.54444724 -0.5786512 0.63222325 -0.32894987 0.2148251 0.53537226 -0.12653944 0.63980025 -0.2681575 0.18446198 -0.08200735 -0.19498079 -0.08238873 -0.18207474 0.16677439 -0.4526441 0.7093041 -0.118522994 -0.42482907 0.21576351 0.71074986 0.73607093 -0.08851932 0.2547751 0.18485858 0.30215067 0.16522658 0.6714524 0.32063687 0.38524273 -0.6051807 0.42461196 -0.051735707
get -0.0506328 0.38212556 -0.25855705 0.25163063 0.21403894 -0.47496116 0.4431954 0.72206414 -0.5941526 0.049563345 -0.15853724 -0.6095623 0.3129024 -0.09774949 0.20050584 -0.092359446 -0.108846955 -0.25430736 -0.04415218 -1.0894598 0.14600769 -0.060934357 0.4153634 -0.26432502 -0.5626783 0.13831098 0.30253175 -0.27780116 -0.028628487 -0.08806843 0.69170773 -0.0813995 0.42871636 -0.23733565 0.0068369866 0.86176544 0.14662935 -0.37085852 0.038553327 -0.6860973 0.30750945 -0.19372974 -0.28172222 0.084713474 0.26111412 -0.07340625 -0.22138767 -0.11202074 0.3084988 -0.03620339 0.043245003 -0.3183544 0.006562703 -0.041071802 -0.20562115 0.23750924 -0.009408667 -0.3424757 -0.66635364 -0.035077102 0.21956277 -0.24807435 0.34403616 0.08916895 -0.5245007 0.6579635 -0.1596881 0.3999568 -0.6809686 0.596798 -0.43774977 -0.04616445 0.22761115 0.02847809 0.6929766 -0.18992 0.20550497 -0.04434423 -0.13758178 -0.05455321 -0.19584988 0.18014543 -0.5919153 0.7708161 -0.1759279 -0.44544512 0.25646466 0.59079784 0.57106507 -0.0055710594 0.3478676 0.2580225 0.33122835 -0.008067577 0.5635249 0.3283243 0.16814333 -0.60509664 0.71048546 0.05029178
could -0.011128985 0.39384708 -0.14200772 0.13995935 0.26582757 -0.5921185 0.51618934 1.0378923 -0.6376736 -0.112081714 -0.17718808 -0.5949591 0.28746575 -0.031117612 0.23142351 -0.29970655 0.0016700467 -0.18790951 0.0072117043 -1.1255559 0.21743797 -0.011265741 0.27568263 -0.22843212 -0.38455054 0.20245099 0.18545498 -0.1648363 -0.096113525 -0.10795453 0.5381057 -0.04420324 0.2552938 -0.45887345 -0.076962456 0.88730675 0.22846894 -0.34597224 -0.00070067076 -0.71342134 0.17340271 -0.13886714 -0.19238332 0.035797015 0.3705181 -0.16654795 -0.17291395 -0.12845254 0.32508063 0.11525533 0.14248617 -0.37863588 -0.07848973 -0.17748731 -0.22587803 0.20968553 0.033533454 -0.24513058 -0.6007517 -0.13072687 0.09886096 -0.3278204 0.36265612 -0.0124231735 -0.5366418 0.77612835 0.035354335 0.4374671 -0.7381621 0.58694476 -0.39228243 0.057855327 0.3618799 0.021428365 0.7600664 -0.11040511 0.05058987 0.047063198 -0.24065863 -0.038413938 -0.21463573 0.0898339 -0.7005025 0.79674536 -0.00051749335 -0.28559047 0.41066527 0.50802976 0.68511707 0.03229895 0.33437425 0.31369066 0.30911613 -0.0053926287 0.54840744 0.28654376 0.20465553 -0.4902009 0.63806266 -0.0033170602
been -0.049185123 0.24021104 0.33453757 -0.06334865 -0.1340507 -0.78945863 0.57397926 0.97924954 -0.79796976 -0.29044157 -0.07683286 -0.5461209 -0.093154654 -0.06648773 0.3843398 -0.47996852 0.2448489 -0.1699502 0.059337597 -1.0983366 0.16674565 0.29395834 0.36110637 0.014672863 -0.16884361 0.4587096 -0.30008283 -0.3265532 -0.21468453 -0.35037965 0.3378276 -0.015806125 -0.041923713 -0.351794 -0.11292579 0.56741405 0.4164436 -0.26294038 -0.26133057 -0.6451901 0.037090115 -0.32650617 -0.38564813 0.08518171 0.48174083 -0.24097617 -0.19102085 0.030406918 0.21279459 0.13874167 0.07764926 -0.37341434 -0.26861247 -0.051384076 -0.3028751 -0.022703802 0.10985735 -0.23109588 -0.28288478 -0.087532155 0.14754863 -0.02367699 0.18186304 -0.019839214 -0.41388306 0.50518763 -0.0136429155 0.51419365 -0.5331687 0.25226122 -0.18467188 0.4869547 0.6635769 -0.05705731 0.5231731 0.11627177 -0.1499391 0.11676702 -0.29086557 -0.030161468 0.022417814 -0.29602483 -0.42631465 0.6067654 -0.028160093 -0.101207666 0.5526872 0.3631851 0.69087917 0.060444165 0.29977462 0.4507926 0.153971 0.21591748 0.7672938 0.1659676 0.4983192 -0.18348795 0.047168393 -0.115081094
m 0.35262945 0.39335927 -0.20032494 -0.28234506 0.76037747 -0.83627754 0.513125 1.4229597 -0.5352926 -0.14139304 -0.28198543 -0.59160584 0.09936609 0.14894137 -0.0014345627 -0.36020428 0.11129735 -0.4524837 0.16067842 -1.3798156 0.3309212 0.025272157 0.17951007 -0.2664797 -0.44970402 0.12806985 -0.08069431 0.004047431 -0.08270424 0.11947743 0.49621207 -0.066105105 0.20103125 -0.6983059 -0.43243557 1.0335375 -0.013110658 -0.21413162 -0.0761466 -0.69107866 0.4697076 -0.066141464 0.008918022 -0.07186398 0.36521733 -0.2606388 -0.11151841 -0.40860435 0.4166997 0.36632207 0.3772672 -0.52043307 -0.07097337 -0.07582222 -0.2479171 0.32886177 0.23023696 -0.30553332 -0.6506531 -0.25454423 -0.31446964 -0.80638057 0.4248571 -0.15186423 -0.25148496 0.951755 0.42753053 0.2263003 -0.8724116 0.30228996 -0.38333675 0.05540365 0.17537907 0.37932763 0.9449523 0.14532624 -0.124021925 0.20715766 -0.19252828 0.16989578 -0.1711347 0.09913555 -0.6832039 0.8448971 0.05292409 -0.14848715 0.48542938 0.6220093 0.5446487 0.4365402 0.38482645 0.64140457 0.26092678 -0.50509757 0.5633274 0.25482255 0.17748097 -0.1803432 0.87682086 0.20894757
has -0.15292951 0.12516722 0.52096707 0.0755851 -0.2602648 -0.9540978 0.6435365 1.3391371 -0.7841414 -0.5968684 -0.11083271 -0.5517026 -0.22407243 -0.06803689 0.43498668 -0.8453771 0.24083541 -0.08624776 0.0075616045 -0.9687644 0.17388743 0.23018637 0.038628135 0.099113606 -0.16804826 0.496561 -0.38966686 0.12215672 -0.39709106 -0.33752486 0.022333752 -0.15004393 -0.16982743 -0.48946586 0.19522828 0.29947066 0.5653926 -0.3277924 -0.20638457 -0.5171162 -0.3665576 -0.3977783 -0.5185356 0.25778666 0.73877233 -0.32241496 -0.059050273 0.0684986 0.14802323 0.25125813 0.12388857 -0.13802858 -0.15592228 -0.24877048 0.028983273 0.15724668 0.11961974 0.17561772 -0.085226364 0.13725628 -0.1074253 0.0004886596 -0.09497022 -0.06376104 -0.48464915 0.50272816 0.14016786 0.7863877 -0.45440766 0.46454167 -0.07624807 0.35469502 0.9854098 -0.3040004 0.48622167 -0.01511042 -0.10168584 0.034879938 -0.49249828 -0.07788168 -0.29814222 -0.05692792 -0.3947846 0.49794775 0.11354615 -0.03947133 0.5594008 0.39659238 0.9704911 -0.2552913 0.12282519 0.07666321 0.20425893 0.3083812 0.88063234 0.1062336 0.6302609 -0.19721621 -0.0881617 -0.08077894
into -0.19942768 0.21122798 0.40348494 0.22084045 -0.20684567 -0.84149003 0.5750311 1.1648045 -0.83454156 -0.42396685 -0.15814142 -0.5169848 -0.05847478 -0.022600515 0.43970364 -0.68849075 0.100859456 -0.1533765 -0.091344096 -1.0014067 0.1706378 0.21295518 0.2722683 0.070502006 -0.32952207 0.42627093 -0.11516649 -0.047353685 -0.31001145 -0.22379027 0.21901897 -0.16613644 -0.009402449 -0.5154138 0.2893949 0.4487168 0.49656287 -0.42696428 -0.17312182 -0.54589546 -0.24309462 -0.48449624 -0.59998095 0.30752364 0.77302325 -0.13509 -0.21936455 0.08508623 0.22582166 0.08695516 0.07595592 -0.09008212 -0.121130005 -0.20836055 -0.01851447 0.21652508 0.0764074 0.070239566 -0.26683125 0.08946473 -0.025264902 0.0028860383 -0.19697207 0.07884705 -0.5686064 0.53269696 0.015183906 0.91267896 -0.5697212 0.6423756 -0.2663211 0.27086514 0.90963376 -0.28607044 0.5056527 -0.2215218 0.12520577 0.030231677 -0.43438563 -0.1333685 -0.3227554 -0.057445053 -0.48265752 0.6569971 0.037957776 -0.29108834 0.47369105 0.6046293 0.9991897 -0.29714218 0.16149667 -0.003164881 0.18311824 0.2523436 0.86855066 0.24020022 0.5874552 -0.4668468 0.13079894 -0.11379757
going 0.02250095 0.456487 -0.32233998 0.11943187 0.28611356 -0.5029646 0.38928023 0.7961936 -0.4825543 -0.15224308 -0.04793705 -0.56413233 0.21307379 -0.024768244 0.28998414 0.1502638 0.10601108 -0.11466921 -0.09305904 -1.3135349 0.054753132 -0.022692995 0.38720834 -0.39517143 -0.38059443 0.26610932 0.07145845 -0.5317269 0.039761074 -0.20003113 0.7231241 -0.033974648 0.46305934 -0.23443311 -0.2004676 0.87339437 0.26916173 -0.2784999 -0.057857953 -0.6621521 0.3686487 -0.020385053 -0.052964795 -0.07021678 0.1927041 -0.23596773 -0.2391039 -0.16863239 0.29887173 0.23102947 -0.09260039 -0.51630056 -0.23452023 0.19388655 -0.30473992 0.10014917 -0.005223875 -0.5284085 -0.54146796 -0.23217674 0.27272218 -0.3993296 0.8114357 0.22437282 -0.40912977 0.79153174 -0.28575408 -0.08516454 -0.6337819 0.6157529 -0.26366618 0.12147695 0.12441117 0.037639976 0.83941525 -0.16632344 0.07775074 -0.089737765 -0.12501387 0.062344808 0.12194928 0.18573214 -0.5777231 0.62404907 -0.28047055 -0.41575056 0.18738985 0.6032804 0.42059997 0.18742651 0.4409995 0.4901059 0.40528128 0.012152711 0.5407449 0.42688376 0.092978984 -0.46106488 0.62480485 0.03874448
where -0.11250492 0.35690445 0.07292035 0.15332113 -0.07055294 -0.66352785 0.4413682 0.89884216 -0.63598573 -0.2502863 -0.11503772 -0.5517167 0.10430072 0.026807366 0.30309898 -0.2741521 0.0438951 -0.17546716 -0.093834355 -1.0347309 0.16370481 0.16926545 0.37897435 -0.13048854 -0.39728105 0.3552599 0.055730343 -0.24959703 -0.13124204 -0.16587497 0.4670156 -0.13092484 0.23923166 -0.42606044 0.074261576 0.7121035 0.36867374 -0.3978342 -0.081064574 -0.58669174 0.07802306 -0.28853372 -0.33611935 0.11028254 0.51746 -0.1669869 -0.20774873 0.019604065 0.31177542 0.03369028 0.012256649 -0.29314053 -0.10403069 -0.0567533 -0.1612349 0.21049461 0.014785815 -0.17286628 -0.47390103 -0.07550365 0.16851133 -0.10457319 0.22473136 0.16341467 -0.4739517 0.6431765 -0.07726007 0.5152771 -0.64172864 0.6427674 -0.25889337 0.21478756 0.54227406 -0.14830361 0.61863464 -0.12410225 0.07677045 -0.0056781936 -0.19836392 -0.10066248 -0.17746283 -0.015395818 -0.5558181 0.721616 -0.06013273 -0.35300952 0.35676384 0.6166949 0.6800496 -0.035834517 0.24110429 0.2046375 0.23599595 0.10589174 0.619332 0.3095644 0.25319004 -0.48727039 0.3774104 0.002490836
don -0.13803217 1.0945011 -0.7603904 0.2645504 0.22300288 -0.3948164 0.40642542 0.62496364 -0.23085459 0.7150949 -0.5191071 -1.052022 0.91518277 0.14941415 -0.23504442 0.49165902 -0.44625705 -0.7558008 0.3146102 -1.657469 0.15425615 0.11434226 1.1943614 -0.53634727 -1.2772439 0.25869104 0.953625 -0.70056635 0.014807218 0.049694512 1.3361526 -0.09559939 0.77474546 -0.17262055 -0.71750534 1.5834382 -0.42335218 -1.2238061 0.18318832 -1.2127296 0.9817975 -0.32042015 -0.28645328 -0.339531 0.07202079 -0.0717007 -0.37182435 -0.22535884 0.33371136 -0.24917999 -0.16057037 -0.56347924 0.09485339 -0.20103301 -0.38294744 0.3783301 -0.08343089 -0.87709725 -1.6842389 -0.50248647 0.6966016 -0.23063047 0.31862035 0.37745798 -0.60596955 0.9413046 -0.3217093 0.61945945 -1.2466339 0.71752155 -0.46212006 0.014272231 -0.20683411 0.27094215 1.3361255 0.107195474 0.13752261 -0.046828933 0.51935816 -0.10041813 -0.4429299 -0.43478182 -1.022733 1.6370975 -0.15172258 -0.923645 0.30102423 0.7651659 0.5788687 0.20634687 0.44247803 0.730157 0.565355 -0.39033166 0.29696417 0.6082121 -0.24952056 -0.9130706 1.3629634 0.41479683
really 0.009193284 0.4650085 -0.28282514 0.031814814 0.29112378 -0.51537997 0.4669189 1.035664 -0.5435289 -0.15473191 -0.2508972 -0.6508961 0.21383901 0.008828892 0.11807754 -0.08332655 0.19315344 -0.26785806 0.15320478 -1.372429 0.17113611 0.001243259 0.4718991 -0.39147756 -0.54974735 0.3272281 -0.057635617 -0.28767177 -0.005718231 -0.056505714 0.62655556 -0.040558726 0.26844087 -0.2794505 -0.31537074 0.9392393 0.08662313 -0.43746686 -0.10852607 -0.67401016 0.3679939 -0.054995954 -0.12865417 -0.1537107 0.19587454 -0.3124873 -0.11093223 -0.1923254 0.32256883 0.20316552 0.08708983 -0.50429004 -0.13937266 0.046520207 -0.28011858 0.14827466 0.080036566 -0.38135982 -0.6356741 -0.31119278 0.04968162 -0.38112667 0.6109022 0.18217069 -0.48509285 0.8075633 -0.056753647 0.14559229 -0.81104225 0.48307395 -0.17619461 0.1962664 0.18415691 0.0792958 0.8374767 -0.10307569 0.022255432 0.055008158 -0.08573005 0.08482383 -0.10143846 0.04221814 -0.628644 0.88641447 -0.04484004 -0.4219873 0.36394322 0.5680747 0.4405489 0.20588082 0.34710816 0.5337202 0.36692902 -0.1633977 0.39719096 0.28838298 0.12966703 -0.2828323 0.6879076 0.19033118
first -0.08802264 0.21597908 0.30002168 0.048448764 -0.17014578 -0.8340491 0.5148207 1.1265329 -0.6798475 -0.44851124 -0.07906169 -0.48972258 -0.1649142 0.094715394 0.35740027 -0.5789626 0.28027263 -0.13034163 0.0058454215 -1.0547328 0.19113012 0.24536227 0.26637483 0.046101123 -0.2741435 0.41302702 -0.24785487 -0.10148973 -0.260492 -0.22141992 0.17766044 -0.101982206 0.010721336 -0.5266029 0.114914246 0.48828334 0.4513462 -0.38264176 -0.20329823 -0.44859996 -0.11749411 -0.39075094 -0.38743103 0.17849445 0.6718171 -0.11350642 -0.26520205 0.06528728 0.24078904 0.17164616 0.14378591 -0.16225289 -0.099200785 -0.060000982 -0.09007344 0.16147834 0.14832379 0.0495268 -0.233113 0.020916468 -0.0819885 -0.11521946 -0.026095366 0.042234488 -0.41923147 0.57801664 0.040950477 0.667841 -0.60681224 0.45378196 -0.22984104 0.38002855 0.8059416 -0.17759693 0.55652577 -0.1025281 -0.011848176 0.09957789 -0.32601127 -0.02223312 -0.1826665 -0.101340845 -0.3902453 0.61533904 0.07477545 -0.18951446 0.43369386 0.5309564 0.82618946 -0.10597681 0.16728117 0.18939465 0.109271824 0.08670206 0.7413475 0.24750122 0.46727657 -0.3012777 0.14593852 0.014286698
then -0.050354604 0.28589147 0.087998874 0.109920666 0.06123505 -0.6850336 0.4992631 1.0219005 -0.6881851 -0.27499548 -0.13657212 -0.56328106 0.08341039 0.0522034 0.2860831 -0.38405368 0.123565 -0.17551112 0.0013654997 -1.0647614 0.205736 0.11922791 0.29278672 -0.06393025 -0.31848273 0.27747795 -0.049294375 -0.19852464 -0.17646559 -0.1757357 0.37995058 -0.043201208 0.13512294 -0.4290019 0.02124527 0.63553214 0.34248465 -0.3183838 -0.101792224 -0.55696994 0.06482854 -0.29301268 -0.31209984 0.114324234 0.48487386 -0.1118373 -0.24252938 -0.015149212 0.29292792 0.11498231 0.12288052 -0.27250883 -0.114794165 -0.05797473 -0.16544864 0.12285239 0.06476907 -0.1767411 -0.42134446 -0.037450224 0.046694763 -0.17728762 0.20678331 0.06414345 -0.4554664 0.58818144 -0.0060321908 0.5212182 -0.6163388 0.48325533 -0.24771725 0.20996381 0.5293106 -0.10362043 0.6071948 -0.11508388 0.0725187 0.03036081 -0.22843035 -0.01865123 -0.15012966 -0.054100484 -0.5156337 0.6479048 -0.036086157 -0.28376693 0.43557847 0.5343244 0.6912063 -0.0016334659 0.2732705 0.29035795 0.21019101 0.08342437 0.6538233 0.27189305 0.33420733 -0.37995693 0.35713324 0.007949528
no -0.013600486 0.28167295 0.20073232 -0.14710465 0.060367104 -0.82944894 0.62752223 1.3369138 -0.5662962 -0.43341818 -0.22560427 -0.68583214 -0.11483714 0.02051873 0.2452291 -0.5672896 0.31977597 -0.16833335 0.17629315 -1.3194091 0.25029942 0.25057516 0.10984047 -0.15370734 -0.27123263 0.49627948 -0.44291127 -0.15593329 -0.2635716 -0.23242529 0.29874426 -0.042322416 -0.06390101 -0.539478 -0.21370287 0.64121586 0.30383888 -0.33949554 -0.17019238 -0.6237861 0.0013613789 -0.14131196 -0.18628237 0.03532698 0.46203372 -0.4210606 -0.09934664 -0.10148836 0.33054766 0.33457714 0.16725083 -0.48205772 -0.20128958 -0.017894832 -0.19754435 0.130279 0.14960797 -0.10708274 -0.39178744 -0.15109938 -0.11679609 -0.1979685 0.3889889 0.017772302 -0.45232987 0.6573248 0.07018131 0.40308726 -0.54410857 0.3122053 -0.033697266 0.37395498 0.5694058 -0.10354235 0.7673466 0.052654352 -0.18971771 0.17424928 -0.35340598 0.02740785 -0.19363385 0.005722107 -0.5237279 0.69130105 0.09043842 -0.13330983 0.6381883 0.50475866 0.63089687 0.03129479 0.33385813 0.5141132 0.23500213 0.019624278 0.67157143 0.25742108 0.36617756 -0.039458983 0.24205114 0.15007968
years -0.15801516 0.085162744 0.6834901 0.07806368 -0.39903295 -1.034207 0.50484085 1.046135 -0.8833681 -0.31936038 -0.13255863 -0.5036164 -0.18846329 0.15439868 0.36537835 -0.80825955 0.23786601 -0.24989536 0.022215333 -0.88362664 0.19196019 0.31082907 0.30519754 0.30831435 -0.18677151 0.4866008 -0.20785908 -0.10607691 -0.4949325 -0.331605 0.08480058 -0.042416792 -0.15507767 -0.5155495 0.3331265 0.13702011 0.50475675 -0.40891376 -0.23618735 -0.39665362 -0.3548411 -0.6534494 -0.65894866 0.28218964 0.96172595 -0.1263812 -0.2629065 0.08563913 0.2416657 0.08990736 0.04671772 0.029900383 -0.17481591 -0.045923594 -0.05825851 0.0055317907 0.08605395 0.016019259 -0.10736196 0.17802772 0.014052354 -0.0073138624 -0.42882127 0.015226938 -0.4910853 0.36338598 0.1831374 0.9350456 -0.401453 0.4714289 -0.2357632 0.3585144 1.0532676 -0.41094115 0.27848005 0.05204372 -0.07683261 0.19045855 -0.28420064 -0.075756624 -0.25516543 -0.30790928 -0.17564091 0.41325197 0.1651907 -0.02213851 0.4473918 0.55132455 1.0607653 -0.2588535 0.11112034 0.084457375 0.12546602 0.29270205 0.84458524 0.06572285 0.57991916 -0.23518327 -0.18162292 -0.13546106
will -0.05805444 0.3666842 0.020030582 0.22758064 0.12079044 -0.6511883 0.52798146 1.0768228 -0.7184606 -0.20606324 -0.20567213 -0.6098872 0.21268228 -0.05652222 0.32630816 -0.4472925 0.012220407 -0.12281994 -0.057215262 -1.0884188 0.17323232 0.04509923 0.20795724 -0.16809516 -0.3599309 0.29113168 0.09405095 -0.09405075 -0.14895669 -0.15940149 0.4436154 -0.05656211 0.20238213 -0.47990704 0.028553301 0.7432625 0.3269709 -0.38602328 -0.035730835 -0.6662274 0.009201235 -0.19884978 -0.3098013 0.11844403 0.4487179 -0.18130985 -0.19102818 -0.059414577 0.30156794 0.09067576 0.10025297 -0.30491573 -0.08131952 -0.20408963 -0.16806386 0.21110445 -0.007853961 -0.14606576 -0.48421556 -0.05383166 0.12185919 -0.1988345 0.21395372 0.030855723 -0.5458633 0.7212493 0.021981701 0.5613946 -0.6729319 0.6188614 -0.35537013 0.10501597 0.5383557 -0.11805525 0.6844502 -0.15530126 0.096289605 0.023454927 -0.30550757 -0.082841665 -0.2545234 0.06811876 -0.66370314 0.77035236 0.014471656 -0.31833264 0.4443317 0.50207365 0.79437894 -0.13237557 0.29933357 0.20061918 0.27104124 0.103573926 0.67615604 0.29425904 0.31289417 -0.5131806 0.49115905 -0.039330482
those -0.17457037 0.30237967 0.16531715 0.2157465 -0.20152122 -0.69648445 0.4854558 0.86619955 -0.6992932 -0.1984946 -0.083402455 -0.5290281 0.12130758 -0.0351156 0.380285 -0.3265806 0.03963206 -0.23838389 -0.09935546 -1.0094993 0.193054 0.23046553 0.44682667 -0.11523465 -0.3946756 0.40863007 -0.018486422 -0.33880553 -0.17300917 -0.2783367 0.4432519 -0.08592415 0.28255025 -0.33291355 0.18550628 0.68803847 0.35973787 -0.45430025 -0.115470275 -0.61287147 -0.042264808 -0.43043807 -0.46615052 0.20545384 0.59708875 -0.11307574 -0.21729815 0.098528154 0.24692003 0.026896313 -0.10214766 -0.2513018 -0.123314455 -0.031830437 -0.09696162 0.18687558 -0.012675404 -0.23726599 -0.48961803 0.0023529956 0.24095231 -0.028058011 0.14109768 0.13205972 -0.57679594 0.55740684 -0.20218489 0.665053 -0.5728035 0.7091639 -0.22366044 0.21398713 0.64421695 -0.23427746 0.5875822 -0.20952287 0.1647427 -0.02795021 -0.24832045 -0.15750073 -0.18278658 -0.023952791 -0.5423187 0.7417423 -0.037521396 -0.37262645 0.35076177 0.6383313 0.74080104 -0.15595451 0.30586272 0.08032972 0.25954494 0.26460022 0.6716359 0.36742756 0.30785552 -0.5342235 0.20457764 -0.113312736
